tree
version=v4
num_class=1
num_tree_per_iteration=1
label_index=0
max_feature_idx=11
objective=regression
feature_names=segment_avg_fee state_avg_fee segment_win_rate segment_std_fee client_avg_fee office_avg_fee rolling_avg_fee_segment TargetTime client_std_fee BusinessSegment_frequency propertytype_avg_fee PropertyState_frequency
feature_infos=[1916.5921112929625:6676.3157894736842] [2662.0864022133323:12030] [0.41010716130142882:0.95206243032329985] [1675.5224086583171:5424.8632820512048] [35.799999999999997:15000] [2752.9411764705883:7250] [1323.3870967741937:15000] [0:2800] [0:10182.337649086285] [0.00017466791263109999:0.81172545697492637] [2466.8624522292994:4862.9598958750494] [8.7333956315555054e-06:0.28453402967607838]
tree_sizes=2786 2847 2807 2819 2818 2833 2844 2846 2806 2817 2836 2848 2835 2824 2814 2828 2825 2832 2856 2838 2846 2842 2828 2822 2812 2849 2836 2828 2817 2815 2833 2829 2827 2816 2826 2830 2812 2810 2824 2798 2827 2819 2817 2850 2863 2826 2823 2840 2815 2831 2801 2808 2815 2816 2882 2813 2804 2807 2829 2835 2825 2830 2833 2841 2833 2814 2809 2822 2831 2844 2827 2842 2814 2834 2818 2820 2851 2832 2845 2852 2812 2845 2814 2834 2812 2846 2849 2839 2863 2814 2792 2844 2839 2862 2797 2843 2839 2787 2845 2846 2855 2855 2820 2849 2840 2841 2840 2852 2879 2863 2826 2841 2820 2796 2838 2837 2858 2850 2839 2845 2871 2837 2866 2824 2854 2879 2867 2848 2871 2839 2800 2859 2806 2802 2811 2852 2831 2828 2846 2811 2838 2832 2830 2801 2832 2806 2850 2837 2830 2795 2843 2830 2804 2770 2860 2834 2836 2826 2832 2788 2881 2860 2850 2815 2859 2866 2871 2871 2810 2839 2857 2863 2829 2828 2840 2846 2835 2842 2818 2811 2817 2815 2810 2803 2815 2848 2822 2815 2774 2816 2787 2823 2808 2827 2794 2785 2828 2806 2799 2826 2844 2806 2791 2786 2817 2833 2873 2830 2841 2823 2787 2841 2807 2798 2755 2801 2799 2783 2762 2740 2829 2788 2765 2796 2731 2792 2793 2775 2776 2774 2757 2768 2824 2826 2714 2762 2785 2736 2767 2732 2832 2793 2808 2742 2785 2775 2708 2797 2783 2838 2809 2770 2777 2801 2781 2830 2781 2744 2769 2712 2792 2789 2775 2789 2802 2703 2733 2766 2725 2706 2798 2749 2808 2782 2781 2706 2703 2746 2750 2672 2729 2748 2707 2743 2713 2734 2703 2774 2694 2730 2708 2746 2764 2751 2745 2752 2760 2798 2754 2770 2758 2766 2756 2736 2723 2742 2762 2766 2801 2764 2713 2761 2730 2792 2722 2702 2706 2745 2702 2750 2676 2663 2670 2699 2676 2696 2697 2707 2702 2702 2703 2691 2762 2666 2750 2751 2679 2717 2674 2695 2759 2663 2705 2755 2730 2720 2709 2688 2731 2712 2661 2737 2684 2738 2717 2650 2649 2721 2664 2744 2725 2734 2713 2720 2711 2731 2699 2699 2758 2678 2732 2695 2729 2731 2686 2709 2720 2684 2698 2709 2735 2715 2708 2703 2698 2720 2686 2680 2668 2717 2668 2691 2672 2658 2674 2644 2675 2642 2735 2667 2666 2651 2674 2672 2672 2706 2676 2647 2717 2689 2674 2656 2639 2632 2713 2678 2692 2672 2654 2673 2720 2654 2652 2719 2697 2713 2695 2699 2694 2665 2687 2717 2734 2733 2705 2643 2709 2712 2715 2709 2680 2691 2706 2689 2713 2696 2714 2696 2639 2686 2698 2647 2717 2704 2645 2680 2684 2666 2724 2707 2709 2709 2700 2693 2705 2679 2671 2689 2660 2677 2693 2708 2705 2672 2681 2692 2675 2691 2714 2690 2678 2729 2706 2731 2684 2722 2683 2711 2706 2630 2702 2730 2665 2675 2678 2707 2657 2651 2699 2705 2680 2734 2690 2693 2724 2697 2677 2741 2659 2753 2682 2699 2659 2643 2656 2689 2661 2705 2708 2681 2675 2678 2728 2664 2664 2709 2649 2725 2681 2631 2680 2676 2673 2701 2675 2666 2672 2715 2645 2675 2646 2683 2618 2693 2678 2628 2644 2647 2647 2644 2654 2699 2666 2672 2677 2698 2617 2648 2668 2614 2636 2635 2672 2657 2670 2682 2684 2665 2696 2627 2691 2691 2675 2661 2679 2712 2671 2709 2717 2659 2678 2701 2687 2664 2711 2638 2718 2671 2648 2646 2658 2666 2687 2657 2661 2615 2681 2729 2720 2704 2645 2651 2732 2737 2672 2675 2664 2641 2681 2667 2699 2651 2696 2649 2723 2636 2621 2642 2688 2652 2659 2635 2653 2641 2728 2704 2688 2710 2685 2672 2703 2668 2661 2632 2687 2669 2715 2722 2682 2693 2675 2632 2624 2674 2634 2677 2709 2672 2661 2674 2699 2698 2692 2643 2689 2638 2653 2679 2648 2632 2669 2657 2668 2668 2695 2681 2674 2690 2698 2696 2611 2634 2645 2606 2650 2730 2746 2720 2711 2701 2689 2669 2662 2686 2658 2648 2698 2682 2699 2679 2699 2642 2625 2665 2662 2665 2666 2647 2718 2668 2665 2719 2659 2666 2654 2634 2657 2632 2710 2666 2637 2671 2661 2658 2654 2654 2648 2634 2679 2643 2654 2678 2689 2640 2648 2710 2677 2704 2705 2678 2640 2652 2660 2650 2650 2690 2654 2684 2666 2671 2687 2684 2694 2700 2723 2689 2692 2656 2655 2670 2687 2679 2646 2639 2653 2658 2707 2702 2679 2655 2648 2698 2666 2645 2673 2711 2687 2699 2667 2654 2661 2640 2658 2673 2669 2655 2714 2658 2642 2671 2649 2641 2616 2611 2614 2666 2645 2666 2652 2662 2695 2687 2712 2659 2710 2676 2691 2684 2677 2661 2654 2672 2653 2704 2648 2685 2667 2652 2671 2668 2650 2650 2650 2632 2642 2678 2667 2679 2648 2678 2638 2655 2668 2665 2705 2649 2685 2672 2641 2681 2700 2733 2710 2715 2658 2675 2664 2655 2664 2717 2640 2650 2661 2713 2718 2693 2720 2702 2675 2706 2716 2701 2695 2719 2681 2692 2701 2699 2713 2691 2665 2657 2672 2675 2639 2741 2660 2662 2686 2685 2612 2634 2629 2653 2649 2650 2653 2667 2655 2674 2679 2670 2671 2662 2684 2648 2668 2673 2704 2652 2638 2648 2645 2631 2651 2663 2645 2637 2637 2621 2632 2641 2619 2639 2627 2666 2718 2714 2667 2697 2678 2667 2671 2685 2657 2644 2696 2638 2679 2636 2708 2676 2707 2691 2710 2661 2635 2684 2657 2663 2682 2664 2706 2696 2669 2672 2659 2677 2686 2667 2703 2700 2708 2694 2693 2686 2699 2743 2675 2667 2666 2646 2689 2658 2686 2682 2657 2683 2711 2680 2672 2671 2677 2657 2657 2664 2688 2736 2673 2640 2663 2655 2671 2749 2664 2635 2686 2668 2709 2679 2683 2620 2650 2655 2638 2642 2677 2657 2683 2639 2652

Tree=0
num_leaves=31
num_cat=0
split_feature=0 6 0 0 0 11 0 0 0 4 0 3 0 5 0 0 0 0 0 0 2 2 0 0 0 0 0 0 2 0
split_gain=3.06526e+10 1.35855e+10 1.16126e+10 7.14446e+09 1.85545e+10 6.68865e+09 2.72215e+09 2.43181e+09 2.72904e+09 2.35381e+09 2.22635e+09 1.95086e+09 4.14846e+09 2.11948e+09 1.64304e+09 1.26808e+09 1.22779e+09 1.39746e+09 1.03226e+09 9.03506e+08 8.93093e+08 8.68428e+08 1.19022e+09 8.45045e+08 1.91532e+09 7.7497e+08 7.72608e+08 7.41338e+08 6.98708e+08 8.48992e+08
threshold=3215.4710324496477 3401.669171559035 3215.4901353503187 2841.1853581511455 3215.4196574281291 0.25906744801446252 3215.4515045618868 3215.4987642021006 3346.9401329833022 4415.8703703703713 3215.4820713547947 3668.7690709547346 3814.302871631412 4818.1707184018451 3215.3793105525915 4856.3835616438364 5224.9700000000012 6425.7067365269468 3815.5488872790502 3815.2721558968428 0.863620199146515 0.863620199146515 3814.0710547667345 4875.4246575342468 5221.580294117648 3814.302871631412 3215.5085550438976 4868.9178082191793 0.78340340877024672 6116.2196321070242
decision_type=2 2 2 2 2 2 2 2 2 2 2 2 2 2 2 2 2 2 2 2 2 2 2 2 2 2 2 2 2 2
left_child=3 2 10 -1 14 9 -6 -4 26 19 -2 12 20 15 -5 -13 27 -18 -10 21 -7 22 -3 -21 -25 -11 -9 -17 -26 -30
right_child=1 5 7 4 6 11 -8 8 18 25 -12 13 -14 -15 -16 16 17 -19 -20 23 -22 -23 -24 24 28 -27 -28 -29 29 -31
leaf_value=3176.5211728967233 3250.5369115796884 3664.3108811987177 3174.599081626051 3798.4423982224625 3423.4062422150346 3691.1372533153476 3311.5089614905419 3129.6178940388509 3284.5199632039385 3514.670297597544 3208.9101697610445 3811.4755803601493 3241.1966048618597 3270.8659248089821 3597.4476363514709 3539.6139786425965 3652.0185266576668 3358.0121826548066 3154.1271623267558 3191.3119090247574 3357.9892231970948 3214.4731516196925 3322.853204446209 3502.5310175782629 3194.3961179786461 3318.8286674801307 3082.5287452744328 3221.8047386763087 3602.9699837011494 3272.9167549282274
leaf_weight=498 5338 32 7980 199 704 80 2385 2323 337 54 8065 42 279 82 210 30 162 54 276 1096 27 121 125 74 390 769 1395 47 22 165
leaf_count=498 5338 32 7980 199 704 80 2385 2323 337 54 8065 42 279 82 210 30 162 54 276 1096 27 121 125 74 390 769 1395 47 22 165
internal_value=3223.78 3206.1 3193.29 3353.7 3378.93 3296.35 3337.02 3158.23 3128.06 3260.42 3225.49 3423.8 3342.75 3498.78 3695.36 3554.53 3517.51 3578.61 3225.81 3231.44 3607.28 3315.14 3392.69 3218.11 3263.23 3331.71 3111.95 3345.88 3232.5 3311.93
internal_weight=33361 29365 25714 3996 3498 3651 3089 12311 4331 2848 13403 803 386 417 409 335 293 216 613 2025 107 278 157 1747 651 823 3718 77 577 187
internal_count=33361 29365 25714 3996 3498 3651 3089 12311 4331 2848 13403 803 386 417 409 335 293 216 613 2025 107 278 157 1747 651 823 3718 77 577 187
is_linear=0
shrinkage=1


Tree=1
num_leaves=31
num_cat=0
split_feature=7 10 8 1 4 10 1 11 1 1 11 1 4 10 4 1 1 1 11 1 1 1 1 1 1 11 10 1 1 3
split_gain=1.3151e+10 5.41738e+09 3.69056e+09 3.22483e+09 2.617e+09 2.46384e+09 2.42179e+09 5.65885e+09 8.24877e+09 1.78679e+09 4.09785e+09 1.52793e+09 1.47431e+09 1.32555e+09 1.1042e+09 1.0568e+09 1.38013e+09 3.47319e+09 1.36217e+09 9.43932e+08 9.43374e+08 8.68422e+08 1.09126e+09 2.02402e+09 8.53496e+08 8.35596e+08 8.17056e+08 7.89055e+08 7.5506e+08 7.50733e+08
threshold=27.500000000000004 3732.0269784172665 4250.028045847811 2662.4808389725954 3162.1340184563765 3732.0269784172665 3865.0876969827191 0.25906744801446252 3864.8971601338289 3865.0113441173767 0.25906744801446252 3864.8376125725158 4938.3928571428578 4147.576168652613 5660.7692307692314 3865.1211541176835 3856.7239536954589 3864.9745105742968 0.25906744801446252 3864.9407464931401 3865.0205525031465 3865.1429472973391 3800.0765550239234 3865.0355161300226 3856.7239536954589 0.25906744801446252 4147.3424381301566 3865.0758028177665 2662.3892399147576 3335.2423283822714
decision_type=2 2 2 2 2 2 2 2 2 2 2 2 2 2 2 2 2 2 2 2 2 2 2 2 2 2 2 2 2 2
left_child=1 3 5 28 21 14 7 13 -9 10 26 -12 15 -3 29 16 -6 -18 -17 24 -10 22 -5 -24 -4 -8 -7 -19 -1 -2
right_child=2 6 19 4 12 9 25 8 20 -11 11 -13 -14 -15 -16 18 17 27 -20 -21 -22 -23 23 -25 -26 -27 -28 -29 -30 -31
leaf_value=299.13035940309067 30.527284050927552 188.13126117501071 260.18939039066709 -40.687527037554254 -12.585858750854864 371.12196238612773 58.212920603179228 495.75775406097659 198.47546764985125 66.417586420700502 547.78770035074785 254.26934953201246 70.892113503430636 15.282843210200287 184.21488708862063 16.743667837893515 359.00559507965596 84.853455584647008 -83.70552634035721 143.10742175892679 60.261879932242849 -87.40078382092662 229.18777692350906 -10.123582626982293 515.86219848033454 -32.919488336466593 84.714596445743268 3.3968145670165693 101.11797744593187 104.47437244370894
leaf_weight=59 1857 117 71 10086 8627 27 322 164 169 369 91 87 595 2102 150 515 79 376 979 63 458 838 94 1447 61 1148 309 1419 261 421
leaf_count=59 1857 117 71 10086 8627 27 322 164 169 369 91 87 595 2102 150 515 79 376 979 63 458 838 94 1447 61 1148 309 1419 261 421
internal_value=-0.281654 -11.0396 91.3247 -19.989 -22.0037 78.8695 39.6495 65.3394 180.157 150.388 210.646 404.55 -5.92464 24.4046 52.8549 -9.73562 -4.1375 34.7533 -49.0807 302.659 97.5413 -38.2438 -34.7001 4.48818 378.642 -12.9545 107.833 20.4634 137.709 44.1975
internal_weight=33361 29855 3506 25375 25055 3311 4480 3010 791 883 514 178 12590 2219 2428 11995 10501 1874 1494 195 627 12465 11627 1541 132 1470 336 1795 320 2278
internal_count=33361 29855 3506 25375 25055 3311 4480 3010 791 883 514 178 12590 2219 2428 11995 10501 1874 1494 195 627 12465 11627 1541 132 1470 336 1795 320 2278
is_linear=0
shrinkage=0.05


Tree=2
num_leaves=31
num_cat=0
split_feature=0 6 0 0 0 10 10 4 0 0 0 0 0 4 0 0 0 2 0 0 1 0 7 1 0 5 7 4 4 2
split_gain=2.61514e+10 1.12891e+10 9.9502e+09 6.00983e+09 1.61739e+10 5.67783e+09 7.04274e+09 2.56871e+09 2.16996e+09 2.40565e+09 2.07579e+09 1.8533e+09 1.81807e+09 1.59017e+09 1.36623e+09 1.44542e+09 1.39984e+09 1.0939e+09 1.20038e+09 8.92561e+08 7.51014e+08 6.08416e+08 5.84499e+08 5.5599e+08 5.27465e+08 5.24366e+08 4.71967e+08 5.51457e+08 5.01905e+08 4.69357e+08
threshold=3215.4721083663285 3401.669171559035 3215.4908024186611 2841.1853581511455 3215.4250370115346 4463.3306962025317 4818.2629515418512 6508.0000000000009 3215.4993290583579 3346.9401329833022 3215.4558351265282 3215.4826200723019 3215.3924905319336 3275.5931330531444 3814.8824137931038 4875.4246575342468 5220.99205882353 0.863620199146515 3813.5748217907862 3815.5488872790502 3864.8376125725158 3215.5096040626618 40.500000000000007 3865.0715669603123 1936.8376104746319 2915.1963894624873 27.500000000000004 3745.7000903614457 3736.5089285714289 0.863620199146515
decision_type=2 2 2 2 2 2 2 2 2 2 2 2 2 2 2 2 2 2 2 2 2 2 2 2 2 2 2 2 2 2
left_child=3 2 11 24 12 7 20 13 -4 21 -6 -2 -5 -3 17 -16 -17 18 -15 29 -7 -10 25 -8 -1 -9 -18 28 -28 -11
right_child=1 5 8 4 10 6 23 22 9 19 -12 -13 -14 14 15 16 26 -19 -20 -21 -22 -23 -24 -25 -26 -27 27 -29 -30 -31
leaf_value=102.1823712701057 23.096781339876127 -37.375923374604334 -46.11965238766291 509.2497487243138 163.2340308922852 510.19249113005867 121.09431922321856 312.96962602846418 -90.799917164514397 114.21393705116512 74.013722942337552 -14.655428007532132 308.64586765302141 499.0526685018865 -7.2366315666116607 295.81611483583578 31.248532980885685 41.837382029028845 160.35127646937244 -65.841384797267239 292.39944073630335 -134.00270110128747 347.54834202080019 -20.076710163187286 -63.190139318516437 117.19490762106562 111.67603684510478 64.888821193280336 329.81665576061158 -3.7818174574646051
leaf_weight=54 5625 724 8122 249 918 146 182 42 2244 169 2250 7702 208 38 994 69 514 98 84 276 55 1281 47 113 444 184 66 251 44 168
leaf_count=54 5625 724 8122 249 918 146 182 42 2244 169 2250 7702 208 38 994 69 514 98 84 276 55 1281 47 113 444 184 66 251 44 168
internal_value=-0.2669 -16.8908 -28.6269 117.618 139.992 65.3567 222.598 40.6304 -61.1353 -90.6058 99.8717 1.27891 418.034 26.7416 48.2535 34.8445 79.1506 166.305 266.171 0.813957 450.772 -106.503 187.188 67.0301 -45.2413 153.7 62.0331 105.844 199.153 55.4074
internal_weight=33361 29238 25587 4123 3625 3651 496 3155 12260 4138 3168 13327 457 2882 2158 1938 944 220 122 613 201 3525 273 295 498 226 875 361 110 337
internal_count=33361 29238 25587 4123 3625 3651 496 3155 12260 4138 3168 13327 457 2882 2158 1938 944 220 122 613 201 3525 273 295 498 226 875 361 110 337
is_linear=0
shrinkage=0.05


Tree=3
num_leaves=31
num_cat=0
split_feature=0 0 0 0 0 0 0 0 1 1 2 0 0 0 1 0 0 0 0 4 1 5 0 0 8 1 0 0 0 1
split_gain=2.36122e+10 9.97603e+09 7.3751e+09 5.85762e+09 1.39352e+10 4.11942e+09 5.69465e+09 4.47602e+09 3.87751e+09 7.6221e+09 2.55268e+09 4.66581e+09 1.95602e+09 1.29613e+09 1.20994e+09 1.06805e+09 1.0291e+09 9.96526e+08 7.27516e+08 7.1825e+08 5.45212e+08 6.68311e+08 5.03728e+08 4.76099e+08 4.59794e+08 4.74993e+08 4.16355e+08 3.62716e+08 3.34097e+08 3.32602e+08
threshold=3215.4706289808923 4336.3406196139304 3215.4873863831986 2841.1853581511455 3215.4196574281291 3346.9401329833022 3815.2721558968428 3215.5009429333795 3856.7239536954589 3864.8971601338289 0.863620199146515 3813.5748217907862 3215.4515045618868 3215.3793105525915 2662.3892399147576 3215.4793761835085 3490.186486486487 3815.8386583598963 3215.4938096057845 3311.4877049180332 3865.0113441173767 2915.2441023715669 3814.5998869892792 1936.8376104746319 4490.9704371641628 3263.2353635350423 3215.5101420210021 3215.4622906266145 3494.2743243243249 3864.8376125725158
decision_type=2 2 2 2 2 2 2 2 2 2 2 2 2 2 2 2 2 2 2 2 2 2 2 2 2 2 2 2 2 2
left_child=3 2 15 23 13 7 10 18 14 29 11 -7 -6 -5 -3 -2 -12 -8 -4 -16 -11 -22 -13 -1 -21 -26 -9 -14 -18 -10
right_child=1 8 5 4 12 6 17 26 9 20 16 22 27 -15 19 -17 28 -19 -20 24 21 -23 -24 -25 25 -27 -28 -29 -30 -31
leaf_value=97.082698036165638 32.432733994425 296.69361580040805 -28.793483182418573 505.69350446148292 174.9658586690345 477.49605357996734 -8.1671053988022191 -91.170418806522548 498.5981181990544 201.73157568557065 251.38655844519559 201.70082469048657 107.431473751091 327.18449770942408 -35.43123151020545 -1.3379213156087379 48.825228902313611 -92.828464495814089 -54.223810365787301 48.661723506322154 257.63396150692233 26.703535681087569 78.661167724771545 -60.031343625263439 286.15298303957508 7.4016507204142847 -128.69934171528317 64.5837706626601 -60.067602023658779 321.42460347432024
leaf_weight=54 3658 47 7473 199 704 111 898 1950 152 74 40 115 750 210 261 6504 114 567 4510 974 35 292 301 444 42 24 1192 1449 184 33
leaf_count=54 3658 47 7473 199 704 111 898 1950 152 74 40 115 750 210 261 6504 114 567 4510 974 35 292 301 444 42 24 1192 1449 184 33
internal_value=-0.252949 -15.3572 -23.0451 116.895 140.935 -42.76 19.1261 -52.2936 94.4198 201.787 120.846 189.623 102.431 414.141 47.7338 10.8187 13.5851 -40.9378 -38.365 38.7178 79.2605 51.4921 112.715 -42.9788 57.328 184.953 -105.412 79.2018 -18.4082 467.185
internal_weight=33361 29551 27617 3810 3312 17455 2330 15125 1934 586 865 527 2903 409 1348 10162 338 1465 11983 1301 401 327 416 498 1040 66 3142 2199 298 185
internal_count=33361 29551 27617 3810 3312 17455 2330 15125 1934 586 865 527 2903 409 1348 10162 338 1465 11983 1301 401 327 416 498 1040 66 3142 2199 298 185
is_linear=0
shrinkage=0.05


Tree=4
num_leaves=31
num_cat=0
split_feature=0 6 0 10 10 0 0 4 0 0 0 0 0 4 0 0 0 0 0 3 0 3 0 4 0 10 0 0 0 5
split_gain=2.13633e+10 9.46262e+09 7.62992e+09 4.6318e+09 5.73596e+09 4.43509e+09 1.39882e+10 2.13334e+09 1.88758e+09 1.72239e+09 1.66602e+09 1.35501e+09 2.03209e+09 9.91028e+08 8.94926e+08 1.04054e+09 9.29544e+08 8.77008e+08 7.38202e+08 7.21054e+08 8.6203e+08 5.73023e+08 9.25465e+08 4.49793e+08 6.52368e+08 4.37102e+08 4.29735e+08 4.24601e+08 4.16318e+08 4.05853e+08
threshold=3215.4731304871752 3401.669171559035 3215.4917976415909 4463.3306962025317 4818.2629515418512 2841.1853581511455 3215.4296096574285 4938.3928571428578 3215.3924905319336 3215.4842662248238 3215.4590628765714 3215.4998401187813 3346.9401329833022 2996.9004485852315 3815.0236771950163 4875.4246575342468 5221.580294117648 3814.0710547667345 3815.6321964647932 2755.4167094891613 3813.5748217907862 3668.7690709547346 6115.0490635451506 7116.0714285714294 4875.4246575342468 4817.9582525697506 1936.8376104746319 3215.5090930022384 5223.2273529411768 4389.8203939745081
decision_type=2 2 2 2 2 2 2 2 2 2 2 2 2 2 2 2 2 2 2 2 2 2 2 2 2 2 2 2 2 2
left_child=5 2 9 7 25 26 8 13 -7 -2 -8 -4 27 -3 19 -16 -17 -9 -14 -15 -21 28 -23 -19 -25 -5 -1 -13 -18 -24
right_child=1 3 11 4 -6 6 10 17 -10 -11 -12 12 18 14 15 16 21 23 -20 20 -22 22 29 24 -26 -27 -28 -29 -30 -31
leaf_value=92.237535253161639 15.309463841079637 -37.860295422832728 -45.814893701262463 441.46938759002597 60.635129385081761 460.31449421040747 131.12995390689321 314.66875758460361 268.00699166414267 -19.195391337061537 58.351668081092683 -83.702278346626173 45.395858580235135 23.207032571786037 -12.758856023312788 230.61441995813664 65.058903354698131 70.075458684143697 -66.600521865527227 438.95759112489952 131.97984359863844 407.88067910433944 34.005432509370536 29.633735515137733 223.47670636166478 247.95483344334312 -57.030452436693238 -120.25190532745142 -68.458112187899502 154.53084511831329
leaf_weight=54 6527 649 6576 165 295 249 1169 51 263 8111 2403 1965 368 87 935 78 100 425 245 31 87 21 256 64 135 36 444 1336 140 96
leaf_count=54 6527 649 6576 165 295 249 1169 51 263 8111 2403 1965 368 87 935 78 100 425 245 31 87 21 256 64 135 36 444 1336 140 96
internal_value=-0.239739 -16.205 -27.1337 59.01 201.03 100.035 117.212 36.6772 361.603 -3.80988 82.1727 -59.68 -82.9732 15.2253 34.0426 21.6266 68.1492 115.479 0.630277 132.464 212.93 47.4424 86.2115 99.1513 161.181 406.951 -40.8295 -98.4981 -12.8221 66.9106
internal_weight=33361 28779 25128 3651 496 4582 4084 3155 512 14638 3572 10490 3914 2480 1831 1626 691 675 613 205 118 613 373 624 199 201 498 3301 240 352
internal_count=33361 28779 25128 3651 496 4582 4084 3155 512 14638 3572 10490 3914 2480 1831 1626 691 675 613 205 118 613 373 624 199 201 498 3301 240 352
is_linear=0
shrinkage=0.05


Tree=5
num_leaves=31
num_cat=0
split_feature=0 6 0 0 0 10 10 1 0 4 0 0 0 0 4 7 4 0 4 2 0 1 1 0 0 1 0 10 0 7
split_gain=2.08741e+10 8.05737e+09 8.07008e+09 5.81439e+09 1.03549e+10 3.99273e+09 4.95316e+09 1.66866e+09 1.62812e+09 1.49287e+09 1.44216e+09 1.89691e+09 1.41228e+09 1.24287e+09 1.05412e+09 7.98615e+08 8.12605e+08 7.81379e+08 7.7408e+08 7.70273e+08 1.38673e+09 6.92676e+08 5.77984e+08 4.62994e+08 4.3286e+08 3.94944e+08 3.91523e+08 3.67821e+08 3.51088e+08 3.48042e+08
threshold=3215.4678046996046 3731.8313101873414 3215.4880050352904 2841.1853581511455 3215.4129329488728 4463.3306962025317 4817.9582525697506 3865.1582946069561 3215.445662334309 6508.0000000000009 3346.9401329833022 3215.4976882854194 3215.4788866414187 3815.3714024920323 3311.4877049180332 27.500000000000004 3745.7000903614457 3215.3793105525915 3736.5089285714289 0.863620199146515 3814.0710547667345 2662.4247579167763 3865.0512471223801 1936.8376104746319 3492.5851351351357 3864.8971601338289 3815.1395856273552 4860.8974209050875 3215.5053272938544 40.500000000000007
decision_type=2 2 2 2 2 2 2 2 2 2 2 2 2 2 2 2 2 2 2 2 2 2 2 2 2 2 2 2 2 2
left_child=3 2 12 23 17 9 -7 10 -6 14 11 -4 -2 19 -3 21 18 -5 -17 20 -12 -16 27 -1 -21 -20 -23 -8 -13 -11
right_child=1 5 7 4 8 6 22 -9 -10 29 13 28 -14 -15 15 16 -18 -19 25 24 -22 26 -24 -25 -26 -27 -28 -29 -30 -31
leaf_value=104.02680338656133 33.660442571959166 -28.342539750277226 -34.009816436873152 456.90913865429593 189.03987646042276 426.65094834966499 174.63409293833485 -102.27207256535058 88.601663703092072 129.40971601852664 378.64107709158981 -65.582716842562135 -2.7880944117162949 -33.355014584053087 210.53741115561971 112.11611034245553 50.951595383977924 311.86019096124892 425.84813452216071 140.17732952142217 79.55924339008476 120.61454828535143 -10.027934879367637 -55.176814167578812 -32.260882578485841 166.27535337166955 6.5508918081014373 7.0101180800152481 -99.597258790039803 281.22057105062368
leaf_weight=51 4025 610 9684 211 519 158 137 1192 1814 193 48 2069 7823 554 47 169 431 168 36 47 200 81 112 430 160 25 1040 43 1199 47
leaf_count=51 4025 610 9684 211 519 158 137 1192 1814 193 48 2069 7823 554 47 169 431 168 36 47 200 81 112 430 160 25 1040 43 1199 47
internal_value=0.365783 -12.5169 -21.3189 121.927 150.341 63.4365 201.231 -45.4897 110.952 40.2841 -40.6408 -45.1262 9.59437 16.9337 28.5723 47.5548 91.4698 392.712 167.342 78.1583 137.575 22.6965 79.1521 -38.2785 6.94051 319.912 14.8028 134.617 -78.065 159.244
internal_weight=33323 30130 27001 3193 2712 3129 450 15153 2333 2679 13961 12952 11848 1009 2439 1829 661 379 230 455 248 1168 292 481 207 61 1121 180 3268 240
internal_count=33323 30130 27001 3193 2712 3129 450 15153 2333 2679 13961 12952 11848 1009 2439 1829 661 379 230 455 248 1168 292 481 207 61 1121 180 3268 240
is_linear=0
shrinkage=0.05


Tree=6
num_leaves=31
num_cat=0
split_feature=7 10 1 8 1 1 1 5 5 5 1 5 1 5 1 1 1 1 10 5 1 5 1 1 1 1 1 5 1 11
split_gain=8.66712e+09 3.53168e+09 2.49191e+09 2.35275e+09 2.32409e+09 3.34403e+09 3.23367e+09 1.44437e+09 1.29305e+09 1.28206e+09 1.50537e+09 1.35451e+09 1.35285e+09 1.15006e+09 9.057e+08 2.30237e+09 3.21835e+09 8.7711e+08 8.73579e+08 1.02339e+09 8.57213e+08 8.07249e+08 7.98386e+08 7.15326e+08 6.63068e+08 8.95838e+08 6.59404e+08 6.22953e+08 5.38399e+08 7.56591e+08
threshold=27.500000000000004 4148.5340054995422 2662.4612106030586 4250.028045847811 3865.0742680868048 3800.0765550239234 3864.9407464931401 3691.4392392136847 3313.9620081411131 2915.3692509855459 3646.176762661371 2915.4505975846319 3864.9745105742968 2915.4099242850893 3865.0846275207959 3856.7239536954589 3864.8971601338289 3263.425129482725 3732.0269784172665 5027.6967263743054 3864.9407464931401 3475.0558059669461 3263.2353635350423 3263.4836753425561 3106.2989182692313 3263.2353635350423 2662.4247579167763 2915.1963894624873 3865.1229957948376 0.25906744801446252
decision_type=2 2 2 2 2 2 2 2 2 2 2 2 2 2 2 2 2 2 2 2 2 2 2 2 2 2 2 2 2 2
left_child=1 2 27 7 5 -3 -7 14 9 10 23 13 -12 -11 15 26 -17 24 22 -20 -5 -19 -9 -4 -10 -26 -2 -1 -23 -30
right_child=3 4 8 20 -6 6 -8 18 17 11 12 -13 -14 -15 -16 16 -18 21 19 -21 -22 28 -24 -25 25 -27 -28 -29 29 -31
leaf_value=324.35334306051095 179.16137190072135 31.479221315447489 6.4979361096864183 317.32787816416385 -4.8261542418930787 337.90479372199599 90.018277102813684 237.7811881298318 0.03843531023745099 -37.116580248318741 283.1084416428364 -20.14023224285264 47.798988950485956 -91.741007015357368 -21.457827518257709 412.36449870538286 84.606272154356631 157.8812937850013 251.97089251812747 65.915668806146101 100.1385792817947 -4.3191805449092362 63.759024118775216 -42.225862190198434 209.14428112056444 46.836309832418067 20.862043162144403 106.07956117484551 7.453298045850274 -71.876032872207119
leaf_weight=38 69 1095 1990 130 1408 208 358 74 622 2917 71 7538 434 1439 440 98 317 73 201 117 70 8320 598 1212 101 535 1373 232 507 738
leaf_count=38 69 1095 1990 130 1408 208 358 74 622 2917 71 7538 434 1439 440 98 317 73 201 117 70 8320 598 1212 101 535 1373 232 507 738
internal_value=0.348009 -8.36956 -14.1945 74.9367 42.4329 82.4914 181.158 64.8011 -15.7347 -24.9654 0.708945 -32.9673 80.9316 -55.1634 43.0385 58.3207 162.085 -2.51801 115.285 183.559 241.4 -7.64331 82.9547 -11.9454 36.7463 72.6405 28.4486 136.908 -8.90823 -39.5728
internal_weight=33323 29836 26767 3487 3069 1661 566 3287 26497 15601 3707 11894 505 4356 2297 1857 415 10896 990 318 200 9638 672 3202 1258 636 1442 270 9565 1245
internal_count=33323 29836 26767 3487 3069 1661 566 3287 26497 15601 3707 11894 505 4356 2297 1857 415 10896 990 318 200 9638 672 3202 1258 636 1442 270 9565 1245
is_linear=0
shrinkage=0.05


Tree=7
num_leaves=31
num_cat=0
split_feature=7 4 8 4 5 1 1 11 1 1 1 1 1 1 1 1 11 1 1 5 1 1 1 1 1 1 1 1 5 11
split_gain=7.82252e+09 3.03073e+09 2.12357e+09 1.6907e+09 1.30361e+09 8.86976e+08 8.25725e+08 1.46738e+09 8.95268e+08 8.84416e+08 8.18649e+08 1.96695e+09 3.00042e+09 7.8345e+08 2.20035e+09 4.87641e+09 1.21733e+09 8.43922e+08 7.75865e+08 7.33512e+08 6.42893e+08 6.39982e+08 5.95214e+08 5.9394e+08 7.91142e+08 1.01563e+09 2.53203e+09 5.84669e+08 5.80202e+08 5.6119e+08
threshold=27.500000000000004 4415.8703703703713 4250.028045847811 3162.1340184563765 3691.4392392136847 2662.4612106030586 3865.0113441173767 0.25906744801446252 3864.8376125725158 3263.2353635350423 3865.0892317136809 3856.7239536954589 3864.8971601338289 3865.1136185886621 3856.7239536954589 3864.9745105742968 0.25906744801446252 3865.1582946069561 3864.8971601338289 3866.9763215859034 3865.0635249700731 2662.5247691329873 2662.4247579167763 3007.6348685510975 3865.1334319653765 3856.7239536954589 3864.9998336351641 2662.5705686619062 2915.2699142731999 0.25906744801446252
decision_type=2 2 2 2 2 2 2 2 2 2 2 2 2 2 2 2 2 2 2 2 2 2 2 2 2 2 2 2 2 2
left_child=1 3 4 21 10 -5 7 9 -9 19 11 22 -13 14 -7 -16 -15 -18 29 -6 -17 -1 -2 27 25 -25 -27 -23 -3 -4
right_child=2 28 18 5 6 13 -8 8 -10 -11 -12 12 -14 16 15 20 17 -19 -20 -21 -22 23 -24 24 -26 26 -28 -29 -30 -31
leaf_value=35.266151374794561 170.21626767987971 135.66137686861074 198.7544127299555 131.56877412818355 318.77628085994866 -6.0400955370884679 61.570481305455388 431.6934931216033 180.28122817130156 43.473451652852198 -21.935776991578344 391.76728531801496 77.21385701626798 27.99289783576117 284.17421540694494 86.009018945603543 -27.258695417426864 -105.70931425745238 100.64727528014808 83.783655918431919 13.432767738290625 -24.81031723768098 19.819017052846661 -22.626096400897296 -56.310966421037939 246.55731868263334 4.1990903947252063 -63.520443298265548 49.115007219332199 410.32622611987421
leaf_weight=444 69 231 63 128 68 9499 471 62 83 241 423 98 334 704 200 369 1152 488 74 65 1761 2187 1373 6664 1244 115 1692 1761 1197 63
leaf_count=444 69 231 63 128 68 9499 471 62 83 241 423 98 334 704 200 369 1152 488 74 65 1761 2187 1373 6664 1244 115 1692 1761 1197 63
internal_value=0.331072 -7.95085 71.1923 -11.5238 61.563 0.591036 109.524 153.023 288.005 100.627 40.888 55.0691 148.645 -0.592777 4.64027 48.1806 -27.0004 -50.6076 229.34 204.08 26.0093 -23.8052 27.0269 -25.725 -19.0791 -13.6108 19.6359 -42.0781 63.1237 304.782
internal_weight=33323 29836 3487 28408 3287 14301 990 519 145 374 2297 1874 432 14173 11829 2330 2344 1640 200 133 2130 14107 1442 13663 9715 8471 1807 3948 1428 126
internal_count=33323 29836 3487 28408 3287 14301 990 519 145 374 2297 1874 432 14173 11829 2330 2344 1640 200 133 2130 14107 1442 13663 9715 8471 1807 3948 1428 126
is_linear=0
shrinkage=0.05


Tree=8
num_leaves=31
num_cat=0
split_feature=0 0 0 0 0 0 0 0 0 2 0 1 1 0 1 0 0 0 0 0 5 1 0 7 1 1 1 0 1 1
split_gain=1.68682e+10 6.28754e+09 5.7935e+09 4.81624e+09 8.31429e+09 2.73307e+09 2.20961e+09 3.86105e+09 3.26685e+09 1.4086e+09 3.47823e+09 1.34094e+09 3.97448e+09 1.28204e+09 8.92066e+08 7.88218e+08 7.19404e+08 6.64244e+08 6.46063e+08 6.25761e+08 5.78687e+08 4.51216e+08 4.47279e+08 4.10548e+08 4.12731e+08 6.59473e+08 3.70509e+08 3.65326e+08 3.62592e+08 3.60655e+08
threshold=3215.4678046996046 4336.3406196139304 3215.4861652177656 2841.1853581511455 3215.4129329488728 4865.7157534246589 3346.9401329833022 3815.3714024920323 3215.5004856687901 0.863620199146515 3813.5748217907862 3800.0765550239234 3864.9407464931401 3215.442924126356 2662.3892399147576 3490.186486486487 3215.4778914184885 3215.4928735582721 3215.3793105525915 3815.9980324543617 2915.2699142731999 3865.0661340127081 3814.7954824688504 27.500000000000004 3263.3021700649056 3106.2989182692313 3263.0448436373176 1936.8376104746319 4624.4035087719303 3864.8376125725158
decision_type=2 2 2 2 2 2 2 2 2 2 2 2 2 2 2 2 2 2 2 2 2 2 2 2 2 2 2 2 2 2
left_child=3 2 16 27 18 -3 8 9 17 10 -8 14 29 -6 -7 -11 -2 -4 -5 -9 28 -22 -12 -16 25 -25 -27 -1 -14 -13
right_child=1 5 6 4 13 11 7 19 -10 15 22 12 20 -15 23 -17 -18 -19 -20 -21 21 -23 -24 24 -26 26 -28 -29 -30 -31
leaf_value=90.193244850472226 32.447833119331108 376.96749110122664 -19.774491677604175 411.00163279307054 175.3537208615675 250.81431638551618 393.80092511118642 -22.612141105106556 -84.87191178357007 216.64026094324447 150.36946849304238 400.18339890208733 60.951677128090253 81.879843173627307 12.545119820009161 -22.263877681743001 3.8902342055130839 -42.58781946677221 279.12162359760748 -101.63736483645702 89.691363621357866 -27.081297679533463 49.8307916478457 60.80295644995082 26.832525012408816 385.03272868599106 121.37172703598486 -51.226209229232268 318.17323472065618 228.66756998697917
leaf_weight=51 3627 72 8157 211 456 47 106 984 3208 39 158 105 26 1877 969 295 5626 5241 168 336 143 196 369 103 195 32 23 430 29 44
leaf_count=51 3627 72 8157 211 456 47 106 984 3208 39 158 105 26 1877 969 295 5626 5241 168 336 143 196 369 103 195 32 23 430 29 44
internal_value=0.314995 -11.2657 -17.33 109.591 135.452 74.7617 -33.2053 12.8704 -39.551 88.7693 132.599 63.3624 129.842 100.157 36.9863 5.68859 15.0845 -28.6988 352.632 -42.7338 46.6224 22.1887 79.9961 29.3658 75.5227 135.56 275.195 -36.216 196.909 349.722
internal_weight=33323 30130 28146 3193 2712 1984 18893 2287 16606 967 633 1912 543 2333 1369 334 9253 13398 379 1320 394 339 527 1322 353 158 55 481 55 149
internal_count=33323 30130 28146 3193 2712 1984 18893 2287 16606 967 633 1912 543 2333 1369 334 9253 13398 379 1320 394 339 527 1322 353 158 55 481 55 149
is_linear=0
shrinkage=0.05


Tree=9
num_leaves=31
num_cat=0
split_feature=0 0 0 0 0 0 0 0 0 1 1 3 0 0 0 1 0 0 0 0 0 5 1 0 7 1 1 1 0 0
split_gain=1.52238e+10 5.67524e+09 5.2415e+09 4.34673e+09 7.52787e+09 2.46695e+09 1.863e+09 3.49006e+09 3.1958e+09 1.21039e+09 3.5879e+09 1.17581e+09 3.24994e+09 9.0936e+08 8.46346e+08 8.05276e+08 7.11542e+08 5.41619e+08 5.36491e+08 4.94506e+08 4.86423e+08 4.70813e+08 5.92335e+08 4.38807e+08 3.70623e+08 3.72614e+08 5.95426e+08 3.34474e+08 3.29753e+08 2.88687e+08
threshold=3215.4678046996046 4336.3406196139304 3215.4857725081774 2841.1853581511455 3215.4196574281291 4865.7157534246589 3346.9401329833022 3815.4003796001166 3215.4976882854194 3800.0765550239234 3864.8971601338289 2755.4167094891613 3813.5748217907862 3215.4482337751765 3215.3793105525915 2662.3892399147576 3490.186486486487 3215.5082860647276 3815.9219675456397 3215.4914910053367 3215.4769499913932 2915.2441023715669 3865.0512471223801 3814.5998869892792 27.500000000000004 3263.3021700649056 3106.2989182692313 3263.0448436373176 1936.8376104746319 5224.9700000000012
decision_type=2 2 2 2 2 2 2 2 2 2 2 2 2 2 2 2 2 2 2 2 2 2 2 2 2 2 2 2 2 2
left_child=3 2 20 28 14 -3 8 11 19 15 -11 16 -13 -6 -5 -7 -8 -10 -9 -4 -2 29 -23 -14 -17 26 -26 -28 -1 -12
right_child=1 5 6 4 13 9 7 18 17 10 21 12 23 -15 -16 24 -18 -19 -20 -21 -22 22 -24 -25 25 -27 27 -29 -30 -31
leaf_value=85.692407452570251 33.753178817256533 358.14526289306309 -15.293457516330974 390.46128817892145 140.51970188779555 238.30022426208367 205.8359493323909 -20.366876104838394 -60.590481126102866 352.33768234077007 69.954132382281415 374.12943645624711 158.18065392270523 71.414108322504418 251.20807092943406 11.917928715367742 -21.151060968591011 -98.168941425218861 -89.837320120953663 -34.603894886184371 8.2460792752440479 120.04221314354768 -14.144438770481669 49.76646054051858 57.765756428715797 25.491586571384982 365.84106802776967 115.32941355519482 -48.665493655210319 315.56178187640063
leaf_weight=51 2903 72 7539 211 679 47 39 876 2789 130 23 106 118 1594 228 969 295 1462 407 5918 5248 125 240 446 103 195 32 23 430 25
leaf_count=51 2903 72 7539 211 679 47 39 876 2789 130 23 106 118 1594 228 969 295 1462 407 5918 5248 125 240 446 103 195 32 23 430 25
internal_value=0.299822 -10.702 -16.4634 104.113 128.681 71.0294 -30.2397 12.2283 -35.7246 60.1994 123.36 82.0472 120.246 92.0629 318.212 35.1401 5.40707 -73.5164 -42.4099 -23.7858 17.3308 51.217 31.8302 72.4729 27.8998 71.755 128.8 261.481 -34.4048 198.265
internal_weight=33323 30130 28146 3193 2712 1984 19995 2287 17708 1912 543 1004 670 2273 439 1369 334 4251 1283 13457 8151 413 365 564 1322 353 158 55 481 48
internal_count=33323 30130 28146 3193 2712 1984 19995 2287 17708 1912 543 1004 670 2273 439 1369 334 4251 1283 13457 8151 413 365 564 1322 353 158 55 481 48
is_linear=0
shrinkage=0.05


Tree=10
num_leaves=31
num_cat=0
split_feature=0 0 0 0 0 0 0 0 0 2 0 0 8 0 0 0 0 11 1 10 5 4 0 10 0 0 2 0 0 11
split_gain=1.3787e+10 5.52679e+09 3.64817e+09 2.65303e+09 8.82495e+09 2.17784e+09 2.02095e+09 2.94599e+09 2.20174e+09 1.29118e+09 2.74112e+09 1.27192e+09 1.10251e+09 1.05343e+09 6.30007e+08 5.93987e+08 5.81934e+08 5.49484e+08 9.29406e+08 6.96959e+08 5.42262e+08 5.07079e+08 4.34107e+08 3.77753e+08 3.36716e+08 6.79483e+08 4.82929e+08 1.01252e+09 4.8264e+08 3.10583e+08
threshold=3215.4731304871752 4336.3406196139304 3215.4885698915477 2841.1853581511455 3215.4296096574285 4865.7157534246589 3346.9401329833022 3815.3134482758628 3215.5030947667415 0.863620199146515 3813.5748217907862 3215.3924905319336 2499.5935705863253 3215.4570455327944 3492.5851351351357 3215.4815280168705 3815.8060591133012 0.061212369981572513 3864.9998336351641 3732.0269784172665 2915.1963894624873 2889.9554973821992 3215.495025391634 3373.3491005812239 4875.4246575342468 5221.580294117648 0.76669697406115045 6115.0490635451506 5223.2273529411768 0.25906744801446252
decision_type=2 2 2 2 2 2 2 2 2 2 2 2 2 2 2 2 2 2 2 2 2 2 2 2 2 2 2 2 2 2
left_child=3 2 15 29 11 -3 8 9 22 10 -8 -5 21 -6 -11 -2 -9 20 19 23 -14 -7 -4 -19 -23 -26 28 -28 -27 -1
right_child=1 5 6 4 13 12 7 16 -10 14 -12 -13 17 -15 -16 -17 -18 18 -20 -21 -22 24 -24 -25 25 26 27 -29 -30 -31
leaf_value=-62.498245619686344 16.622488253358796 337.77976964773325 -24.553182380387728 358.21944834638828 109.84675524554901 -34.288414530899608 364.10774337966723 -8.0117195943894135 -82.643025956163498 129.22691269422174 75.0224529690271 205.52786774150132 300.81494510885659 48.34215584734357 -34.477281948320162 -6.7824384314315145 -73.202671709459565 173.94182519575529 -12.822195075633324 317.23281789561628 34.339886916780401 -3.5874141517899987 -45.602780754540277 -49.881754996873674 173.78281499101996 59.139663299520421 323.97962912411828 54.991528271978702 -66.614339310355163 18.43202858852538
leaf_weight=293 4701 72 7221 267 945 226 100 797 2631 76 454 280 21 2645 258 6403 600 130 60 90 201 250 3707 22 118 152 38 429 153 199
leaf_count=293 4701 72 7221 267 945 226 100 797 2631 76 454 280 21 2645 258 6403 600 130 60 90 201 250 3707 22 118 152 38 429 153 199
internal_value=-0.122326 -12.9501 -18.8491 79.991 93.0446 68.0685 -34.2501 9.24922 -41.5807 80.4532 127.26 280.111 57.7765 64.5347 2.80029 3.12635 -36.0139 119.428 163.322 206.981 59.6711 34.1197 -31.694 141.535 47.6831 62.0837 44.9903 76.9439 -3.94463 -29.7671
internal_weight=33539 28910 26948 4629 4137 1962 15844 2285 13559 888 554 547 1890 3590 334 11104 1397 524 302 242 222 1366 10928 152 1140 890 772 467 305 492
internal_count=33539 28910 26948 4629 4137 1962 15844 2285 13559 888 554 547 1890 3590 334 11104 1397 524 302 242 222 1366 10928 152 1140 890 772 467 305 492
is_linear=0
shrinkage=0.05


Tree=11
num_leaves=31
num_cat=0
split_feature=7 10 8 1 10 10 1 4 10 10 1 11 1 1 1 1 1 4 5 5 1 1 5 1 11 1 7 1 10 11
split_gain=5.05197e+09 2.14723e+09 1.59765e+09 1.59572e+09 1.42181e+09 2.23142e+09 1.65318e+09 1.01827e+09 8.18571e+08 9.52511e+08 6.95392e+08 9.57004e+08 7.76014e+08 2.24602e+09 6.54684e+08 1.46555e+09 7.85373e+08 5.75774e+08 5.59495e+08 5.39378e+08 4.64688e+08 4.54225e+08 4.53338e+08 4.32631e+08 4.48402e+08 4.24311e+08 4.21435e+08 4.0054e+08 3.61235e+08 3.60903e+08
threshold=25.500000000000004 4458.5650712025326 4250.028045847811 2662.4612106030586 4818.7769016152724 4463.3306962025317 3864.8376125725158 2758.752577319588 3732.0269784172665 4146.7535288725949 3865.1272930415303 0.25906744801446252 3856.7239536954589 3865.0113441173767 3865.0355161300226 3856.7239536954589 3864.8376125725158 4938.3928571428578 2915.3833302046182 2915.2941618171585 3864.8971601338289 3865.167886675466 2915.1963894624873 3864.8971601338289 0.18341004165829713 3865.1058375026864 14.500000000000002 3865.0892317136809 4461.8275316455702 0.25906744801446252
decision_type=2 2 2 2 2 2 2 2 2 2 2 2 2 2 2 2 2 2 2 2 2 2 2 2 2 2 2 2 2 2
left_child=1 3 8 22 5 28 -7 18 17 -10 12 19 26 20 15 -11 -17 -2 29 -12 -14 -13 -1 24 -4 -6 -9 -15 -3 -5
right_child=2 4 23 7 25 6 -8 10 9 14 11 21 13 27 -16 16 -18 -19 -20 -21 -22 -23 -24 -25 -26 -27 -28 -29 -30 -31
leaf_value=260.10323274662261 23.689113494283262 63.556662762989212 152.92366587998228 -14.167230157250373 24.700226026701365 336.07251323195123 107.16178988300697 -20.351863468114686 322.8503702292121 45.596362403756714 158.04372653274413 -34.398843440843244 286.39936558633588 36.040738916705571 24.075342680777808 324.19435270675513 131.29217603421048 103.97105661632084 -40.122479068760363 2.0925730784933072 124.87894903051171 -90.807468706737822 81.434372096749485 89.985525894653492 331.93656672536883 -25.554086088692898 -2.461580381369826 -4.4801076874048924 -3.8614073374329516 76.343992003441684
leaf_weight=42 2416 389 75 2144 1083 114 256 5033 40 358 61 952 71 881 390 89 130 246 4403 599 120 571 228 78 66 686 9515 1981 406 116
leaf_count=42 2416 389 75 2144 1083 114 256 5033 40 358 61 952 71 881 390 89 130 246 4403 599 120 571 228 78 66 686 9515 1981 406 116
internal_value=-0.115823 -7.14286 53.4732 -11.6018 33.459 76.3469 177.763 -12.8366 45.6394 84.0363 -7.14288 -33.7599 -3.84148 19.076 74.1254 107.945 209.798 31.1117 -29.7423 16.528 185.039 -55.552 109.313 184.635 236.893 5.21178 -8.65097 7.99411 29.1306 -9.51835
internal_weight=33539 29651 3888 26717 2934 1165 370 26447 3669 1007 19784 2183 17601 3053 967 577 219 2662 6663 660 191 1523 270 219 141 1769 14548 2862 795 2260
internal_count=33539 29651 3888 26717 2934 1165 370 26447 3669 1007 19784 2183 17601 3053 967 577 219 2662 6663 660 191 1523 270 219 141 1769 14548 2862 795 2260
is_linear=0
shrinkage=0.05


Tree=12
num_leaves=31
num_cat=0
split_feature=7 10 8 1 8 4 10 10 10 10 4 1 11 1 1 1 11 1 10 1 1 1 4 5 5 1 1 3 4 11
split_gain=4.56769e+09 2.05894e+09 1.39565e+09 1.37108e+09 1.07204e+09 8.71315e+08 7.23268e+08 8.10245e+08 6.49363e+08 6.45039e+08 5.82905e+08 5.75493e+08 6.49312e+08 5.95315e+08 1.48533e+09 5.75486e+08 1.41072e+09 5.54595e+08 5.24016e+08 4.8843e+08 9.21156e+08 1.70736e+09 4.84029e+08 4.81656e+08 4.51152e+08 4.07427e+08 3.56879e+08 3.50889e+08 4.03067e+08 4.5399e+08
threshold=27.500000000000004 3732.0269784172665 4250.028045847811 2662.4808389725954 3396.4582487324888 2758.752577319588 3732.0269784172665 4146.7535288725949 4147.576168652613 4818.2629515418512 4938.3928571428578 3865.1306694496457 0.25906744801446252 3856.7239536954589 3865.0205525031465 3865.0205525031465 0.25906744801446252 3864.8376125725158 4463.3306962025317 3865.0969053684898 3800.0765550239234 3864.9745105742968 4938.3928571428578 2915.3845034728743 2915.1963894624873 3864.8971601338289 4624.4035087719303 3335.2423283822714 3745.7000903614457 0.10294490100696048
decision_type=2 2 2 2 2 2 2 2 2 2 2 2 2 2 2 2 2 2 2 2 2 2 2 2 2 2 2 2 2 2
left_child=1 3 6 24 8 23 22 -8 -3 18 11 13 -13 -7 -15 16 -9 -18 -6 20 -10 -22 27 -5 -1 -4 -27 -2 29 -29
right_child=2 4 25 5 9 10 7 15 19 -11 -12 12 -14 14 -16 -17 17 -19 -20 -21 21 -23 -24 -25 -26 26 -28 28 -30 -31
leaf_value=244.28490888257872 14.955672441866222 122.06800674653391 230.45709031088811 -11.012592899663924 60.499677237486232 -11.015841407555746 306.78119392882832 46.997877398871957 9.1574055433640584 35.755374385910855 40.86804553434677 8.2120253685449622 -55.981895041154807 155.79894646832463 4.9301356291502776 27.091731701331522 322.52050694828546 141.68414046860156 295.45889548277245 -9.8602490145805426 215.41867100965757 36.134917158695025 99.230125320533517 -39.559855929278029 65.968720196736598 6.9728693309182406 232.30136768298837 34.168967645117071 19.354456648258992 195.63773001131636
leaf_weight=40 1798 149 135 2315 35 13313 39 315 2053 84 594 572 1265 173 2836 371 79 92 74 1279 165 679 238 4085 309 50 27 79 199 97
leaf_count=40 1798 149 135 2315 35 13313 39 315 2053 84 594 572 1265 173 2836 371 79 92 74 1279 165 679 238 4085 309 50 27 79 199 97
internal_value=-0.109603 -6.4272 53.7834 -11.9387 24.6825 -13.3045 45.8074 84.1629 19.5357 139.949 -7.86796 -9.46239 -35.994 -6.47612 13.6091 73.9975 109.791 225.368 220.138 15.8745 27.2362 71.2058 31.5504 -29.2341 86.4702 178.121 86.183 24.1335 68.1223 123.221
internal_weight=33539 30020 3519 25502 4518 25153 3307 896 4325 193 18753 18159 1837 16322 3009 857 486 171 109 4176 2897 844 2411 6400 349 212 77 2173 375 176
internal_count=33539 30020 3519 25502 4518 25153 3307 896 4325 193 18753 18159 1837 16322 3009 857 486 171 109 4176 2897 844 2411 6400 349 212 77 2173 375 176
is_linear=0
shrinkage=0.05


Tree=13
num_leaves=31
num_cat=0
split_feature=0 0 0 0 0 0 0 0 0 0 0 8 9 0 0 0 0 1 0 0 7 0 0 0 0 1 11 1 1 1
split_gain=1.12824e+10 4.29752e+09 3.03263e+09 2.19413e+09 7.25422e+09 1.69518e+09 1.66751e+09 2.45256e+09 1.71928e+09 9.91006e+08 8.54268e+08 8.33946e+08 6.4142e+08 2.69697e+09 5.60224e+08 5.25245e+08 4.50275e+08 5.8097e+08 5.62961e+08 4.73036e+08 4.07855e+08 3.95567e+08 3.55692e+08 3.48104e+08 3.37638e+08 3.28952e+08 2.92372e+08 5.18343e+08 4.56599e+08 3.59721e+08
threshold=3215.4740934326051 4336.3406196139304 3215.4894575228095 2841.1853581511455 3215.4250370115346 4865.7157534246589 3346.9401329833022 3815.5199101709654 3215.5041706834227 3215.4570455327944 3215.3793105525915 2499.5935705863253 0.022501593844702756 3813.5748217907862 3215.4832710018941 3492.5851351351357 6430.9462574850304 3089.1721611721619 5224.9700000000012 6111.2586510590863 21.500000000000004 3814.7954824688504 3816.0414981164886 6244.9237068965531 3215.4955149337238 2662.4247579167763 0.10294490100696048 3864.9998336351641 3856.7239536954589 3263.0448436373176
decision_type=2 2 2 2 2 2 2 2 2 2 2 2 2 2 2 2 2 2 2 2 2 2 2 2 2 2 2 2 2 2
left_child=3 2 14 -1 10 -3 8 12 24 -6 -5 20 15 -14 -2 -8 17 -13 -19 -20 25 -15 -9 -21 -4 -7 -22 28 29 -28
right_child=1 5 6 4 9 11 7 22 -10 -11 -12 16 13 21 -16 -17 -18 18 19 23 26 -23 -24 -25 -26 -27 27 -29 -30 -31
leaf_value=-28.275380830545785 13.585885474377385 297.56446961549722 -23.73616658616271 337.79474376817279 102.03860253586137 145.71435618156934 116.71367137372573 -29.417481548978731 -76.896836674536786 43.823116587014795 205.01847649352874 53.377718113777519 326.5163152765204 124.78035059548392 -8.1345463877444768 -32.761117713555763 -35.432623244887814 42.230001959131357 337.69687022027955 84.593298178710128 26.023222313988885 30.288772439377755 -96.516425349108559 234.30282575953461 -43.08198469344147 0.59989523736513195 231.82424288583957 9.2573783906583866 270.71336714230523 41.814441535475645
leaf_weight=492 5413 72 6768 217 999 41 76 900 2444 2726 276 195 100 138 6574 258 52 69 52 74 264 560 253 82 3383 784 35 101 55 86
leaf_count=492 5413 72 6768 217 999 41 76 900 2444 2726 276 195 100 138 6574 258 52 69 52 74 264 560 253 82 3383 784 35 101 55 86
internal_value=-0.103699 -11.8255 -17.0423 71.6417 83.2967 59.6099 -32.1196 7.17714 -39.2488 59.4381 263.518 50.5297 59.4536 83.8005 1.67384 1.27585 104.149 119.531 166.065 207.105 29.955 48.9857 -44.1479 163.386 -30.1839 7.82844 63.6892 99.5651 151.355 96.922
internal_weight=33539 28829 26867 4710 4218 1962 14880 2285 12595 3725 493 1890 1132 798 11987 334 524 472 277 208 1366 698 1153 156 10151 825 541 277 176 121
internal_count=33539 28829 26867 4710 4218 1962 14880 2285 12595 3725 493 1890 1132 798 11987 334 524 472 277 208 1366 698 1153 156 10151 825 541 277 176 121
is_linear=0
shrinkage=0.05


Tree=14
num_leaves=31
num_cat=0
split_feature=0 0 0 0 0 0 0 0 0 0 8 0 2 0 0 0 0 3 0 2 0 4 0 0 0 0 2 7 4 11
split_gain=1.01957e+10 3.76864e+09 3.12673e+09 2.29168e+09 6.01515e+09 1.53012e+09 1.27543e+09 2.21357e+09 1.86287e+09 7.84115e+08 7.52726e+08 7.26135e+08 5.78907e+08 2.44461e+09 4.84225e+08 4.31037e+08 4.07282e+08 6.01737e+08 6.30622e+08 7.78445e+08 4.38542e+08 3.79684e+08 3.64175e+08 3.21851e+08 3.18106e+08 3.16991e+08 4.38818e+08 2.75919e+08 3.03506e+08 3.97639e+08
threshold=3215.4710324496477 4336.3406196139304 3215.487493974867 2841.1853581511455 3215.4250370115346 4865.7157534246589 3346.9401329833022 3815.5199101709654 3215.5020726458947 3215.3924905319336 2499.5935705863253 3215.454893699432 0.863620199146515 3814.0710547667345 3493.598648648649 3215.4793761835085 6429.5615269461077 4241.6116574974831 6117.7803901895213 0.92284222261338977 6111.2586510590863 2889.9554973821992 3215.4944874332937 3815.9980324543617 3812.1259663865553 5222.6538235294129 0.79860651865847909 30.500000000000004 3745.5494879518074 0.10294490100696048
decision_type=2 2 2 2 2 2 2 2 2 2 2 2 2 2 2 2 2 2 2 2 2 2 2 2 2 2 2 2 2 2
left_child=3 2 15 -1 9 -3 8 12 22 -5 21 -6 13 24 -14 -2 17 18 19 25 -21 -7 -4 -9 -8 26 -12 -23 29 -29
right_child=1 5 6 4 11 10 7 23 -10 -11 16 -13 14 -15 -16 -17 -18 -19 -20 20 -22 27 -24 -25 -26 -27 -28 28 -30 -31
leaf_value=-26.861899035428991 21.220231662767933 282.70688207364452 -19.233874722654928 308.3942360327066 100.75656733178093 -30.734274304772523 355.6156694099796 -25.136667660385783 -69.629586407516243 181.66480207008794 199.34616940609064 46.834803783441885 87.078300205130233 40.457592835940375 -40.972550078546931 -0.48673250009856706 -25.960492979762069 244.16130174009527 9.0696829651610855 343.29605642231166 148.5332220980124 27.622254208468348 -38.23755912814007 -83.476498603303909 200.23487607125094 -87.058951332484796 -20.752289550491298 32.34746464937524 42.957715223565195 244.3642741153115
leaf_weight=492 3472 72 8657 267 873 226 64 821 2855 226 49 2193 110 665 224 6700 58 75 150 50 69 904 3557 332 69 31 42 37 144 55
leaf_count=492 3472 72 8657 267 873 226 64 821 2855 226 49 2193 110 665 224 6700 58 75 150 50 69 904 3557 332 69 31 42 37 144 55
internal_value=-0.0981111 -10.3161 -15.0884 74.279 88.2612 56.6338 -27.99 6.81924 -33.2683 250.348 48.007 62.191 56.4835 79.6135 1.21331 6.92262 98.9488 114.498 89.57 139.649 230.586 28.4599 -24.7685 -41.9411 275.216 50.8328 97.8509 40.1965 88.3303 159.224
internal_weight=33539 29488 27526 4051 3559 1962 17354 2285 15069 493 1890 3066 1132 798 334 10172 524 466 391 241 119 1366 12214 1153 133 122 91 1140 236 92
internal_count=33539 29488 27526 4051 3559 1962 17354 2285 15069 493 1890 3066 1132 798 334 10172 524 466 391 241 119 1366 12214 1153 133 122 91 1140 236 92
is_linear=0
shrinkage=0.05


Tree=15
num_leaves=31
num_cat=0
split_feature=0 0 0 0 0 0 0 0 1 1 2 0 0 0 1 0 0 0 5 1 0 0 0 0 0 0 2 0 0 5
split_gain=8.75017e+09 3.74858e+09 2.44521e+09 2.00505e+09 5.81391e+09 1.48037e+09 2.23884e+09 1.42968e+09 1.33394e+09 3.03123e+09 1.13587e+09 1.74407e+09 9.48325e+08 6.31382e+08 5.51316e+08 4.98377e+08 4.74367e+08 4.62638e+08 3.51578e+08 4.99388e+08 2.8099e+08 2.68998e+08 2.56646e+08 2.47378e+08 5.55605e+08 5.28238e+08 6.48124e+08 1.00858e+09 3.48123e+08 2.2964e+08
threshold=3215.4740934326051 4336.3406196139304 3215.4890809519716 2841.1853581511455 3215.433375365812 3346.9401329833022 3815.2721558968428 3215.5041706834227 3800.0765550239234 3864.8376125725158 0.863620199146515 3813.5748217907862 3215.3924905319336 3215.4618871578587 2662.3892399147576 3815.8060591133012 3493.598648648649 3215.4815280168705 2915.2441023715669 3865.0355161300226 6434.4829341317372 3215.4955149337238 1936.8376104746319 5224.9700000000012 6116.8606577480496 5223.2273529411768 0.79860651865847909 5219.5214705882363 4871.2123287671238 2915.1963894624873
decision_type=2 2 2 2 2 2 2 2 2 2 2 2 2 2 2 2 2 2 2 2 2 2 2 2 2 2 2 2 2 2
left_child=3 2 17 22 12 7 10 21 14 -10 11 -7 -5 -6 29 -8 -12 -2 -11 -20 23 -4 -1 25 -25 26 27 -16 -28 -3
right_child=1 8 5 4 13 6 15 -9 9 18 16 -13 -14 -15 20 -17 -18 -19 19 -21 -22 -23 -24 24 -26 -27 28 -29 -30 -31
leaf_value=71.050521419052714 14.01022866735306 294.7606890565134 -21.495481215209846 291.55338260981017 79.624851807608124 293.20296943385512 -4.6555522445460786 -69.738619580628622 303.46425409052273 175.76466796004846 80.394828878108456 70.324801993576045 163.33592099151562 35.670884742347781 381.3020968291259 -63.234979839442815 -40.855990403622904 -6.1741363633473298 112.24876852216008 -7.9350346826639528 -85.437118108051251 -38.834393541945005 -44.332243872821351 175.2554807284352 32.317540410136523 -53.397494586687074 100.52838129593154 60.838177478698391 -42.427960508571346 80.024585973969138
leaf_weight=54 4658 26 6833 262 1249 112 855 2448 162 49 125 405 322 2363 28 631 227 7269 132 250 57 3326 442 80 450 231 53 195 215 24
leaf_count=54 4658 26 6833 262 1249 112 855 2448 162 49 125 405 322 2363 28 631 227 7269 132 250 57 3326 442 80 450 231 53 195 215 24
internal_value=-0.020112 -10.322 -15.1789 63.3031 74.5406 -28.6409 7.74789 -35.4384 56.5793 119.145 71.4942 118.655 220.898 50.8716 29.2718 -29.5327 2.21242 1.70877 49.8111 33.6129 23.0398 -27.1725 -31.7586 27.9849 53.9221 8.94026 38.2731 101.229 -14.1298 192.053
internal_weight=33533 28841 26889 4692 4196 14962 2355 12607 1952 593 869 517 584 3612 1359 1486 352 11927 431 382 1309 10159 496 1252 530 722 491 223 268 50
internal_count=33533 28841 26889 4692 4196 14962 2355 12607 1952 593 869 517 584 3612 1359 1486 352 11927 431 382 1309 10159 496 1252 530 722 491 223 268 50
is_linear=0
shrinkage=0.05


Tree=16
num_leaves=31
num_cat=0
split_feature=0 0 0 0 0 0 0 0 1 1 0 2 0 0 1 0 0 0 1 1 0 0 0 0 5 2 0 0 0 0
split_gain=7.8971e+09 3.38348e+09 2.21222e+09 1.80957e+09 5.24729e+09 1.25951e+09 2.02602e+09 1.38273e+09 1.20393e+09 2.73583e+09 8.55906e+08 7.24915e+08 1.91071e+09 5.69829e+08 4.97782e+08 4.45271e+08 3.64444e+08 3.62338e+08 3.33575e+08 5.16206e+08 2.75287e+08 2.58961e+08 2.53641e+08 2.31653e+08 2.26529e+08 2.25041e+08 2.72594e+08 2.23246e+08 5.07124e+08 4.76804e+08
threshold=3215.4740934326051 4336.3406196139304 3215.4885698915477 2841.1853581511455 3215.433375365812 3346.9401329833022 3815.4003796001166 3215.5030947667415 3800.0765550239234 3864.8376125725158 3215.3924905319336 0.863620199146515 3814.0710547667345 3215.4618871578587 2662.3892399147576 3490.186486486487 3215.4812160010329 3816.0414981164886 4624.4035087719303 3865.0355161300226 3812.1259663865553 3215.495025391634 6434.4829341317372 1936.8376104746319 2915.1963894624873 0.77731974675852888 2461.0640000000008 5224.9700000000012 6117.4180713489413 5223.2273529411768
decision_type=2 2 2 2 2 2 2 2 2 2 2 2 2 2 2 2 2 2 2 2 2 2 2 2 2 2 2 2 2 2
left_child=3 2 16 23 10 7 11 21 14 -10 -5 12 20 -6 -3 -13 -2 -8 19 -11 -7 -4 27 -1 -20 26 -25 29 -29 -16
right_child=1 8 5 4 13 6 17 -9 9 18 -12 15 -14 -15 22 -17 -18 -19 24 -21 -22 -23 -24 25 -26 -27 -28 28 -30 -31
leaf_value=67.504561599565747 14.576674554872532 182.48768464048464 -18.910855322713662 276.98127645400126 75.643928132894359 323.32562343692643 -20.059715884003232 -64.920547071033511 288.30040202249654 107.07361478973326 155.17166020779166 146.96861274371696 45.846242645616599 33.887415996269176 36.364549814516309 -19.715803635412474 -4.2233971674656949 -84.662482263822781 275.06005392492528 -13.166826289631537 185.96953704110101 -35.20682776547045 -81.17274243142684 75.698205557310118 59.894606112246692 -82.07138542747208 -42.4605999393346 153.8566333206908 27.916192282755265 -50.728774707155381
leaf_weight=54 4107 50 7205 262 1249 68 1058 2614 162 142 322 46 524 2363 491 306 6923 273 25 240 80 3685 57 67 24 196 179 98 432 231
leaf_count=54 4107 50 7205 262 1249 68 1058 2614 162 142 322 46 524 2363 491 306 6923 273 25 240 80 3685 57 67 24 196 179 98 432 231
internal_value=-0.0187578 -9.80563 -14.4199 60.1386 70.8143 -26.3803 7.36121 -32.2646 53.7542 113.193 209.857 60.2313 90.675 48.3282 27.8116 2.10236 2.77684 -33.3157 47.3238 31.5462 249.255 -24.4254 21.89 -30.1704 170.01 -42.1161 -10.2614 26.5882 51.2279 8.49634
internal_weight=33533 28841 26889 4692 4196 15859 2355 13504 1952 593 584 1024 672 3612 1359 352 11030 1331 431 382 148 10890 1309 496 49 442 246 1252 530 722
internal_count=33533 28841 26889 4692 4196 15859 2355 13504 1952 593 584 1024 672 3612 1359 352 11030 1331 431 382 148 10890 1309 496 49 442 246 1252 530 722
is_linear=0
shrinkage=0.05


Tree=17
num_leaves=31
num_cat=0
split_feature=0 0 0 0 0 1 1 0 0 0 2 0 0 1 0 0 0 1 1 0 0 0 7 5 5 1 1 1 6 0
split_gain=7.14015e+09 2.86615e+09 2.71443e+09 2.32107e+09 3.77803e+09 1.08668e+09 2.46917e+09 8.63989e+08 1.84587e+09 1.66544e+09 1.01408e+09 1.34037e+09 7.36552e+08 4.49353e+08 4.37347e+08 4.11792e+08 3.51381e+08 3.01202e+08 4.74097e+08 2.49433e+08 2.37543e+08 2.31362e+08 2.21468e+08 2.07454e+08 2.04527e+08 2.00899e+08 9.62361e+08 9.16667e+08 2.31489e+08 2.06976e+08
threshold=3215.4688806162853 4336.3406196139304 3215.4857725081774 2841.1853581511455 3215.4056705112757 3800.0765550239234 3864.8376125725158 3346.9401329833022 3815.1721848739503 3215.4982531416767 0.863620199146515 3813.5748217907862 3215.442924126356 2662.3892399147576 3815.7807041437272 3494.2743243243249 3215.5096040626618 4624.4035087719303 3865.0635249700731 3215.4917976415909 3215.4769499913932 6434.7261976047912 15.500000000000002 2915.1963894624873 2915.1963894624873 3263.3873992001577 3106.2989182692313 3263.0448436373176 5443.433104177685 6118.3378037904131
decision_type=2 2 2 2 2 2 2 2 2 2 2 2 2 2 2 2 2 2 2 2 2 2 2 2 2 2 2 2 2 2
left_child=3 2 20 22 -5 13 -7 9 10 19 11 -9 -6 23 -10 -12 -11 18 -8 -4 -2 25 -1 -3 -19 26 28 -28 -15 -30
right_child=1 5 7 4 12 6 17 8 14 16 15 -13 -14 21 -16 -17 -18 24 -20 -21 -22 -23 -24 -25 -26 -27 27 -29 29 -31
leaf_value=-60.483791637750642 24.105600603542634 270.98969062425169 -10.953032353018644 250.29980344429714 123.26029270560748 273.89427473761288 88.339508695146804 265.09969936510373 -2.0508032693513054 -42.986931902845946 58.900741125697657 67.897722755785892 53.685425999079087 -13.719464212479288 -56.105796042473543 -49.370309437924888 -74.187341963017829 261.36184626727464 -23.163616122846779 -24.631659498831628 6.3387633235896965 -99.006582477696398 6.4072814463155359 66.953434810400992 56.91230359295097 -5.836979872879013 339.77200199643158 73.376794414871313 96.487932361211961 15.047859179232754
leaf_weight=260 2907 26 7810 320 474 162 182 112 849 2818 167 373 1927 381 669 185 1328 25 200 5814 5332 39 236 24 24 382 45 114 118 230
leaf_count=260 2907 26 7810 320 474 162 182 112 849 2818 167 373 1927 381 669 185 1328 25 200 5814 5332 39 236 24 24 382 45 114 118 230
internal_value=-0.0175194 -7.53343 -11.5666 70.8081 88.9405 51.069 107.539 -21.4634 6.99438 -25.2348 66.604 113.482 67.4253 26.4221 -25.8756 1.99905 -52.9822 44.9626 29.9701 -16.7905 12.6077 20.7958 -28.6617 173.382 161.543 24.4823 37.5242 148.938 13.207 42.6824
internal_weight=33533 30316 28364 3217 2721 1952 593 20125 2355 17770 837 485 2401 1359 1518 352 4146 431 382 13624 8239 1309 496 50 49 1270 888 159 729 348
internal_count=33533 30316 28364 3217 2721 1952 593 20125 2355 17770 837 485 2401 1359 1518 352 4146 431 382 13624 8239 1309 496 50 49 1270 888 159 729 348
is_linear=0
shrinkage=0.05


Tree=18
num_leaves=31
num_cat=0
split_feature=7 4 4 10 8 1 5 10 1 1 11 1 1 11 1 1 11 1 1 1 5 1 10 10 5 10 10 5 5 10
split_gain=2.43473e+09 1.05735e+09 8.0455e+08 7.21641e+08 4.94841e+08 4.65031e+08 4.53772e+08 4.28617e+08 4.29435e+08 5.1329e+08 4.01153e+08 3.62718e+08 3.48987e+08 5.60776e+08 1.34158e+09 3.45243e+08 4.67816e+08 1.05847e+09 3.42685e+08 9.88965e+08 3.36252e+08 3.17612e+08 3.04572e+08 3.75673e+08 2.77908e+08 2.5415e+08 6.22999e+08 2.28093e+08 3.68955e+08 2.2586e+08
threshold=25.500000000000004 4415.8703703703713 5660.7692307692314 3563.414634146342 4546.7261806206143 2662.5154222903507 3691.4392392136847 3373.6200098512463 3089.1721611721619 3865.1272930415303 0.25906744801446252 3105.8091346153851 3865.1089530065387 0.25906744801446252 3864.9407464931401 3865.0969053684898 0.25906744801446252 3864.8971601338289 3856.7239536954589 3865.0113441173767 2915.2699142731999 3865.167886675466 3194.540669554021 3373.0978938035664 2915.1963894624873 4463.3306962025317 4817.9582525697506 2901.5076452599392 2915.052468556411 3563.414634146342
decision_type=2 2 2 2 2 2 2 2 2 2 2 2 2 2 2 2 2 2 2 2 2 2 2 2 2 2 2 2 2 2
left_child=1 3 4 5 6 24 12 8 -7 11 -11 -10 13 -2 -15 16 -5 -18 -13 -20 27 -12 -8 -24 -1 -22 -27 -3 -29 -25
right_child=2 20 -4 15 -6 7 22 -9 9 10 21 18 -14 14 -16 -17 17 -19 19 -21 25 -23 23 29 -26 26 -28 28 -30 -31
leaf_value=212.37506068803688 8.5022648677230865 31.231775341751156 107.53469265720437 8.8490897871549095 225.26167402891352 -20.746845697902916 28.900419262314497 -42.559892181950516 76.54317301724727 6.5890826414075407 -21.804434160940943 -7.0896933269703188 -29.502128024263286 222.55434726333965 28.139301061160008 -10.324048134918757 213.34893462498292 32.776448990891431 128.107678049882 5.041536723968064 16.029718997732918 -66.621371417643473 219.19211494627848 9.3533027595174723 27.421199946805025 241.25570615104454 32.820713591984109 317.90686743269748 97.360293222920689 89.519318084634421
leaf_weight=21 1534 85 368 2325 32 6600 527 1063 146 618 935 10140 356 111 441 1289 91 744 173 2868 970 685 46 117 545 45 175 23 107 353
leaf_count=21 1534 85 368 2325 32 6600 527 1063 146 618 935 10140 356 111 441 1289 91 744 173 2868 970 685 46 117 545 45 175 23 107 353
internal_value=-0.0163547 -4.89344 37.2018 -6.99952 29.8397 -10.4555 28.0389 -11.5467 -10.0592 -5.52718 -27.6837 -1.80626 16.2465 24.0551 67.2669 11.4835 20.3791 52.4788 -2.67467 12.0467 37.4399 -40.7578 55.6444 82.9477 34.3198 27.038 75.5454 94.9734 136.594 69.5693
internal_weight=33533 29648 3885 28243 3517 23794 3485 23228 22165 15565 2238 13327 2442 2086 552 4449 3160 835 13181 3041 1405 1620 1043 516 566 1190 220 215 130 470
internal_count=33533 29648 3885 28243 3517 23794 3485 23228 22165 15565 2238 13327 2442 2086 552 4449 3160 835 13181 3041 1405 1620 1043 516 566 1190 220 215 130 470
is_linear=0
shrinkage=0.05


Tree=19
num_leaves=31
num_cat=0
split_feature=0 0 0 0 0 0 0 0 0 0 0 0 0 0 2 0 0 2 0 2 0 0 0 0 0 0 0 0 7 0
split_gain=6.12961e+09 2.62554e+09 1.55186e+09 1.28094e+09 4.32848e+09 1.04343e+09 1.58681e+09 9.92215e+08 8.76128e+08 6.71689e+08 5.41052e+08 4.8137e+08 1.20998e+09 6.19337e+08 1.17709e+09 1.31757e+09 4.42889e+08 7.20244e+08 5.91788e+08 4.25476e+08 1.69766e+09 3.65341e+08 3.26544e+08 3.13775e+08 2.85746e+08 2.53289e+08 2.22411e+08 2.22344e+08 1.92771e+08 1.81377e+08
threshold=3215.4754114305392 4336.3406196139304 3215.4897265019799 2841.1853581511455 3215.433375365812 3346.9401329833022 3815.5199101709654 3215.5064301084526 4865.7157534246589 3215.3924905319336 3215.4618871578587 5224.9700000000012 6116.2196321070242 5223.0361764705895 0.79860651865847909 5219.5214705882363 6432.4432634730538 0.89061166429587491 6425.7067365269468 0.863620199146515 3814.0710547667345 3494.8824324324328 4872.1369863013706 6119.6477257525094 3215.4842662248238 3816.1139408866998 3215.4955149337238 3812.1259663865553 15.500000000000002 3814.8824137931038
decision_type=2 2 2 2 2 2 2 2 2 2 2 2 2 2 2 2 2 2 2 2 2 2 2 2 2 2 2 2 2 2
left_child=3 2 24 28 9 7 19 26 -3 -5 -6 13 -13 14 15 -10 17 18 -14 20 27 -21 -16 -19 -2 -8 -4 -7 -1 -22
right_child=1 8 5 4 10 6 25 -9 11 -11 -12 12 16 -15 22 -17 -18 23 -20 21 29 -23 -24 -25 -26 -27 -28 -29 -30 -31
leaf_value=-56.935569072108876 7.9074853598447863 220.22344490083924 -18.259382326508593 244.19108476868024 67.153639782264335 286.77021391164197 -22.96435424585637 -62.389805592265056 328.39254354191326 136.28471753589119 27.955525274795594 188.16927465835101 200.13135546901964 -47.158998638679947 44.867033058419565 62.657476833911453 -45.76643464284237 43.900671122057659 49.543712670952189 45.605759156792836 79.821538189632463 -57.201994271563677 -56.766483806627562 -50.837390044217557 -7.7455740269349151 -80.085096225870828 -33.528887702594488 163.34543633812228 5.4716251120684474 18.911386092671389
leaf_weight=260 5885 70 6477 262 1249 68 933 1999 58 322 2983 165 123 283 122 237 128 275 139 200 160 152 224 128 5778 245 3775 80 236 517
leaf_count=260 5885 70 6477 262 1249 68 933 1999 58 322 2983 165 123 283 122 237 128 275 139 200 160 152 224 128 5778 245 3775 80 236 517
internal_value=-0.0152105 -9.2898 -13.4472 49.2571 57.1366 -24.3067 6.1738 -30.166 46.6555 184.728 39.5255 40.1883 65.021 14.4377 41.6356 114.997 39.3769 55.7698 120.289 47.232 66.8665 1.20785 -20.9278 13.805 0.152758 -34.8501 -23.8822 220.209 -27.2467 33.3164
internal_weight=33533 28221 26269 5312 4816 14606 2355 12251 1952 584 4232 1882 958 924 641 295 793 665 262 1177 825 352 346 403 11663 1178 10252 148 496 677
internal_count=33533 28221 26269 5312 4816 14606 2355 12251 1952 584 4232 1882 958 924 641 295 793 665 262 1177 825 352 346 403 11663 1178 10252 148 496 677
is_linear=0
shrinkage=0.05


Tree=20
num_leaves=31
num_cat=0
split_feature=7 4 4 10 8 10 5 4 5 3 5 5 10 10 10 10 10 7 7 5 5 5 5 10 10 5 11 5 10 10
split_gain=1.95743e+09 8.2142e+08 6.36521e+08 6.1595e+08 4.21813e+08 3.95048e+08 3.11078e+08 3.09389e+08 2.82702e+08 4.11685e+08 2.36849e+08 2.16655e+08 2.34161e+08 3.81484e+08 1.88969e+08 3.71581e+08 2.44182e+08 1.88429e+08 1.71349e+08 1.81903e+08 2.4442e+08 2.08683e+08 2.04682e+08 1.59118e+08 2.7422e+08 1.55908e+08 1.50846e+08 1.47829e+08 1.68713e+08 1.44315e+08
threshold=25.500000000000004 4663.097826086957 5660.7692307692314 3563.414634146342 4948.4844553457251 3373.6200098512463 3691.4392392136847 2758.752577319588 3734.2116792289635 3335.2423283822714 2915.381374757525 2915.2699142731999 4463.3306962025317 4817.9582525697506 4458.5650712025326 4818.5603083700453 4463.3306962025317 16.500000000000004 14.500000000000002 2915.3442212627501 2901.5076452599392 2915.1963894624873 2915.4505975846319 3194.540669554021 3373.0978938035664 2915.3938896189229 0.25906744801446252 5029.5960469425581 3732.0269784172665 3732.0269784172665
decision_type=2 2 2 2 2 2 2 2 2 2 2 2 2 2 2 2 2 2 2 2 2 2 2 2 2 2 2 2 2 2
left_child=1 3 4 5 6 7 14 10 9 -8 26 -3 -13 -14 -2 16 -16 -5 -9 20 -20 -22 25 -10 -25 -21 -1 28 -26 -4
right_child=2 11 29 17 -6 -7 8 18 23 -11 -12 12 13 -15 15 -17 -18 -19 19 22 21 -23 -24 24 27 -27 -28 -29 -30 -31
leaf_value=-7.1774212812361826 9.2820268403356412 84.471307504888344 74.285445076596588 -4.1076813553258633 235.30607555595176 -39.140661424831521 59.891230876432047 -11.956645975176304 21.361781700642553 306.62013051310385 -24.853334078489521 15.728982478245724 222.08251703061825 40.56558707855941 32.461645841522945 8.1768954266624672 160.84064918374119 17.987186485974245 -11.365322873640588 -11.57255730968032 130.25971848270461 31.173912012108101 -0.1167618392697603 196.30551813457086 13.920400412660854 -50.785162300622268 51.526579198254069 -9.4659793750958094 88.807059253859265 141.24255512439336
leaf_weight=1905 2010 196 250 1416 24 1061 52 5288 505 25 3947 811 37 132 63 238 90 3029 351 1177 60 460 9305 35 110 323 116 82 238 119
leaf_count=1905 2010 196 250 1416 24 1061 52 5288 505 25 3947 811 37 132 63 238 90 3029 351 1177 60 460 9305 35 110 323 116 82 238 119
internal_value=-0.0981537 -4.45387 33.4835 -6.14731 26.8462 -9.3146 25.3885 -7.93446 48.1302 140.292 -17.7259 36.494 26.8909 80.4138 15.4699 47.2692 108.034 10.9487 -4.48971 -1.10789 20.8717 42.6297 -2.87987 40.8005 61.9023 -20.0192 -3.80558 50.9194 65.1468 95.9111
internal_weight=33455 29614 3841 28438 3472 23993 3448 22932 1047 77 5968 1176 980 169 2401 391 153 4445 16964 11676 871 520 10805 970 465 1500 2021 430 348 369
internal_count=33455 29614 3841 28438 3472 23993 3448 22932 1047 77 5968 1176 980 169 2401 391 153 4445 16964 11676 871 520 10805 970 465 1500 2021 430 348 369
is_linear=0
shrinkage=0.05


Tree=21
num_leaves=31
num_cat=0
split_feature=4 10 10 4 1 1 1 6 10 10 1 11 1 1 11 1 1 1 1 1 1 1 1 5 5 10 10 10 1 8
split_gain=1.66968e+09 1.09593e+09 7.30158e+08 5.81309e+08 4.4353e+08 1.17543e+09 1.39879e+09 3.04917e+08 2.94179e+08 4.66203e+08 2.64111e+08 2.84573e+08 8.33233e+08 2.71062e+08 2.49172e+08 2.65271e+08 2.30798e+08 2.23491e+08 3.9041e+08 9.92817e+08 2.23032e+08 2.17824e+08 2.16977e+08 1.73676e+08 2.69451e+08 1.69147e+08 2.50429e+08 2.64333e+08 1.68648e+08 1.59649e+08
threshold=5660.7692307692314 3732.0269784172665 4147.3424381301566 3363.2605226749042 3865.0840289757211 3856.7239536954589 3864.8971601338289 4536.5531023981739 4463.3306962025317 4817.9582525697506 3865.14570981307 0.25906744801446252 3864.9745105742968 2662.5285078700422 0.25906744801446252 3865.1519254734649 3865.0942195893062 3865.1089530065387 3856.7239536954589 3864.9407464931401 3865.2159568361499 4206.0267857142871 2662.4612106030586 2915.1963894624873 2901.5076452599392 3373.4414560141863 3194.540669554021 3373.0978938035664 3864.8376125725158 6434.4884186101935
decision_type=2 2 2 2 2 2 2 2 2 2 2 2 2 2 2 2 2 2 2 2 2 2 2 2 2 2 2 2 2 2
left_child=1 3 -3 10 5 -4 -7 17 23 -10 11 13 28 -1 -6 -16 -14 18 22 -20 -12 -19 -5 24 -2 26 -9 -28 -13 -25
right_child=8 2 4 7 14 6 -8 25 9 -11 20 12 16 -15 15 -17 -18 21 19 -21 -22 -23 -24 29 -26 -27 27 -29 -30 -31
leaf_value=18.204050421798108 31.293409859560395 124.71387441829368 8.2083545988765358 62.239839817275836 28.802973554407529 180.9207932482546 38.523858794246138 30.266319677820988 212.91483225285936 58.898246853247137 -49.968627347369114 251.14893732101586 25.829713739265401 -14.713449225825181 -6.5123843941709145 -70.431068859471594 -9.044729629594622 -23.864687091432586 192.37894873033304 17.720710888278109 -0.017656770476639102 29.59617234433572 -1.7698792596653783 47.077718446144253 187.8235211666763 -40.86408853486936 218.36692397173712 48.201635210483779 105.08650307767837 -50.474675026701192
leaf_weight=658 56 158 2472 135 411 231 680 517 79 130 775 31 635 12591 1111 190 1875 1341 87 1236 314 222 6605 602 54 65 39 55 55 45
leaf_count=658 56 158 2472 135 411 231 680 517 79 130 775 31 635 12591 1111 190 1875 1341 87 1236 314 222 6605 602 54 65 39 55 55 45
internal_value=-0.0929811 -2.01916 18.891 -6.05215 15.6069 26.1011 74.647 3.31312 64.6829 117.189 -11.7496 -10.1124 5.02511 -13.0785 -5.13051 -15.8519 -0.221233 1.03339 4.38779 29.2198 -35.5672 -16.27 -0.48688 50.1729 108.236 35.7706 43.9286 118.959 157.968 40.286
internal_weight=33455 32489 5253 27236 5095 3383 911 10302 966 209 16934 15845 2596 13249 1712 1301 2510 9626 8063 1323 1089 1563 6740 757 110 676 611 94 86 647
internal_count=33455 32489 5253 27236 5095 3383 911 10302 966 209 16934 15845 2596 13249 1712 1301 2510 9626 8063 1323 1089 1563 6740 757 110 676 611 94 86 647
is_linear=0
shrinkage=0.05


Tree=22
num_leaves=31
num_cat=0
split_feature=0 0 0 0 0 0 0 0 2 0 0 0 0 0 0 2 0 6 0 0 0 2 0 0 0 0 11 0 0 3
split_gain=5.28292e+09 1.63729e+09 2.01281e+09 1.60886e+09 2.44055e+09 6.51211e+08 1.39295e+09 1.10107e+09 6.82005e+08 9.03569e+08 6.35878e+08 4.70167e+08 3.82536e+08 8.62795e+08 4.98809e+08 7.71842e+08 1.17137e+09 3.71962e+08 3.50549e+08 3.30043e+08 2.94517e+08 6.02656e+08 5.66435e+08 2.92116e+08 2.81801e+08 2.70407e+08 2.27524e+08 2.18693e+08 2.07085e+08 1.98971e+08
threshold=3215.4667287829234 4336.3406196139304 3215.4864180581858 2841.1853581511455 3215.4056705112757 3346.9401329833022 3815.1721848739503 3215.5017229729729 0.863620199146515 3814.0710547667345 4865.7157534246589 3215.442924126356 5224.9700000000012 6116.2196321070242 5223.5802941176471 0.79860651865847909 5219.5214705882363 5087.5329411764715 3490.186486486487 3815.8060591133012 6432.4432634730538 0.89061166429587491 6423.9477544910178 6119.6477257525094 4872.1369863013706 3215.4784293768294 0.25906744801446252 6111.2586510590863 3215.4933846186955 4241.6116574974831
decision_type=2 2 2 2 2 2 2 2 2 2 2 2 2 2 2 2 2 2 2 2 2 2 2 2 2 2 2 2 2 2
left_child=3 2 25 26 -5 7 8 28 9 -7 -3 -6 14 17 15 16 -12 -14 -10 -8 21 22 29 -23 -17 -2 -1 -19 -4 -15
right_child=1 10 5 4 11 6 19 -9 18 -11 12 -13 13 20 -16 24 -18 27 -20 -21 -22 23 -24 -25 -26 -27 -28 -29 -30 -31
leaf_value=-48.83537184755987 18.560605290929441 194.15941819857494 -11.622957114148335 208.9729610345054 103.66043605332578 201.03197221289335 -3.2251413379351663 -49.137297488129839 135.12884518716339 51.366170840895599 303.46164353969232 48.186591955878249 -21.435797802936982 94.196081150209423 -52.604711726143208 41.411494315363754 45.732965118411279 252.90840767432539 -16.176744655780404 -50.841668743454377 -41.577690939845837 37.769503763413347 47.492590299907185 -51.732795170812523 -52.357848710821514 1.808756632819619 20.571586132174669 126.63832915941401 -24.795652464201236 245.43450007348957
leaf_weight=288 4135 63 8495 315 489 145 887 3159 44 331 52 1746 24 32 237 122 287 71 290 617 112 272 166 137 233 5771 200 67 4599 69
leaf_count=288 4135 63 8495 315 489 145 887 3159 44 331 52 1746 24 32 237 122 287 71 290 617 112 272 166 137 233 5771 200 67 4599 69
internal_value=-0.0880853 -6.36748 -9.39866 62.7804 78.6974 -19.1089 5.7076 -22.6422 58.5649 96.9903 38.0273 60.3279 32.788 55.1079 10.0091 31.3961 85.3444 160.164 3.79019 -22.7614 33.4924 45.9344 104.349 7.78419 -20.1303 8.80149 -20.3915 191.739 -16.2498 197.658
internal_weight=33455 30417 28473 3038 2550 18567 2314 16253 810 476 1944 2235 1881 950 931 694 339 162 334 1504 788 676 267 409 355 9906 488 138 13094 101
internal_count=33455 30417 28473 3038 2550 18567 2314 16253 810 476 1944 2235 1881 950 931 694 339 162 334 1504 788 676 267 409 355 9906 488 138 13094 101
is_linear=0
shrinkage=0.05


Tree=23
num_leaves=31
num_cat=0
split_feature=0 0 0 0 0 0 0 0 2 0 0 0 0 0 0 2 0 0 0 0 0 2 0 0 0 0 11 1 0 2
split_gain=4.77653e+09 1.54051e+09 1.54776e+09 1.14943e+09 2.56882e+09 6.3923e+08 1.25722e+09 9.31326e+08 6.15522e+08 8.15542e+08 5.73976e+08 3.90068e+08 3.45273e+08 7.78788e+08 4.55494e+08 8.40888e+08 9.44132e+08 3.44685e+08 3.16439e+08 3.02293e+08 2.67689e+08 4.62257e+08 5.88501e+08 2.74549e+08 2.55508e+08 2.15997e+08 2.05349e+08 6.23081e+08 2.04153e+08 1.85708e+08
threshold=3215.4706289808923 4336.3406196139304 3215.487493974867 2841.1853581511455 3215.4250370115346 3346.9401329833022 3815.1721848739503 3215.5041706834227 0.863620199146515 3814.0710547667345 4865.7157534246589 3215.3793105525915 5224.9700000000012 6116.2196321070242 5223.0361764705895 0.79860651865847909 5219.5214705882363 3215.4515045618868 3490.186486486487 3815.6937728194735 6433.304041916168 0.92284222261338977 6423.9477544910178 6120.0100445930884 4873.643835616439 3215.4788866414187 0.25906744801446252 3865.0355161300226 3215.4944874332937 0.78340340877024672
decision_type=2 2 2 2 2 2 2 2 2 2 2 2 2 2 2 2 2 2 2 2 2 2 2 2 2 2 2 2 2 2
left_child=3 2 25 26 11 7 8 28 9 -7 -3 -5 14 -14 15 16 -12 -6 -10 -8 21 22 29 -23 -17 -2 -1 -28 -4 -15
right_child=1 10 5 4 17 6 19 -9 18 -11 12 -13 13 20 -16 24 -18 -19 -20 -21 -22 23 -24 -25 -26 -27 27 -29 -30 -31
leaf_value=-46.394451060323242 15.772213008806464 184.46682892087523 -13.020033267323226 222.50043294992079 76.4246089832791 190.98730070402016 3.9318494716034702 -51.023372490864453 128.38772263645853 48.798637979796055 288.31768503610095 131.14807516130372 152.16703487822187 234.20844812603255 -43.40147414478637 7.0772471741172227 53.552104515022677 35.394945418071416 -15.368186107860353 -41.284259297508115 -53.067869327788458 29.868757118763 38.320074738972252 -67.134495927908958 -87.772400216541044 0.36293200521196889 276.52722104330195 -10.742941725766574 -26.75932313648487 90.732056623889548
leaf_weight=288 3383 63 8647 203 666 145 654 2448 44 331 52 277 162 68 283 257 241 2213 290 850 83 313 195 95 98 6938 21 179 3934 34
leaf_count=288 3383 63 8647 203 666 145 654 2448 44 331 52 277 162 68 283 257 241 2213 290 850 83 313 195 95 98 6938 21 179 3934 34
internal_value=-0.0834188 -6.89356 -9.91695 52.3289 62.746 -19.0405 5.42291 -22.8071 55.6389 92.1434 36.129 169.821 31.1512 52.3561 9.51014 32.6213 95.3012 44.8887 3.60246 -21.6235 31.8199 41.8199 89.2623 7.27129 -19.1239 5.41386 -19.3722 19.5435 -17.3164 186.519
internal_weight=33455 29608 27664 3847 3359 17343 2314 15029 810 476 1944 480 1881 950 931 648 293 2879 334 1504 788 705 297 408 355 10321 488 200 12581 102
internal_count=33455 29608 27664 3847 3359 17343 2314 15029 810 476 1944 480 1881 950 931 648 293 2879 334 1504 788 705 297 408 355 10321 488 200 12581 102
is_linear=0
shrinkage=0.05


Tree=24
num_leaves=31
num_cat=0
split_feature=0 0 0 0 0 0 1 0 0 0 2 0 0 0 0 0 2 0 6 0 2 0 0 0 0 0 2 0 0 2
split_gain=4.32444e+09 1.33482e+09 1.6444e+09 1.31531e+09 1.99675e+09 5.18105e+08 4.83909e+08 5.18033e+08 1.04244e+09 6.31735e+08 5.57674e+08 6.22105e+08 3.87267e+08 3.11625e+08 7.02893e+08 4.11115e+08 7.58999e+08 8.52282e+08 3.3576e+08 2.46249e+08 5.87828e+08 3.75287e+08 2.45309e+08 2.4379e+08 2.43085e+08 2.21723e+08 2.07634e+08 1.97504e+08 1.90317e+08 2.28437e+08
threshold=3215.4667287829234 4336.3406196139304 3215.484761146497 2841.1853581511455 3215.4056705112757 4865.7157534246589 3865.167886675466 3346.9401329833022 3815.1395856273552 3215.4966123687386 0.863620199146515 3812.1259663865553 3215.4378135221214 5224.9700000000012 6116.2196321070242 5223.0361764705895 0.79860651865847909 5219.5214705882363 5087.5329411764715 6431.6723053892219 0.89061166429587491 6420.4522455089818 6119.4526309921966 3490.186486486487 4872.1369863013706 3815.6937728194735 0.78340340877024672 6111.2586510590863 1936.8376104746319 0.77731974675852888
decision_type=2 2 2 2 2 2 2 2 2 2 2 2 2 2 2 2 2 2 2 2 2 2 2 2 2 2 2 2 2 2
left_child=3 2 -2 28 -5 -3 7 9 10 -4 11 -9 -6 15 18 16 17 -7 -15 20 21 26 -22 -12 -18 -10 -16 -20 -1 -30
right_child=1 5 6 4 12 13 -8 8 25 -11 23 -13 -14 14 19 -17 24 -19 27 -21 22 -23 -24 -25 -26 -27 -28 -29 29 -31
leaf_value=68.245968538512088 10.17682773230311 175.25810283292117 -11.451196263168393 189.02966468978101 98.751030372933371 273.92946992899778 -45.257835487934756 238.2739742455291 5.0314484096874326 -33.844662053959119 120.39478781149677 70.594253253785922 44.766995074363038 -27.945236218717582 245.64387126521422 -41.232167261542045 38.989042561489669 50.875609900317521 232.68312193364875 -29.370148991766655 38.055123191796746 57.11736083768011 -41.270486038346206 -9.4037014395566541 -48.100953239046525 -34.631580866875957 87.203998309824044 112.71883598589153 3.3368832575123508 -69.71545802212448
leaf_weight=56 8337 63 12493 315 406 52 1340 67 689 4211 42 316 1829 24 56 283 122 241 71 142 249 148 160 257 233 721 33 67 237 195
leaf_count=56 8337 63 12493 315 406 52 1340 67 689 4211 42 316 1829 24 56 283 122 241 71 142 249 148 160 257 233 721 33 67 237 195
internal_value=-0.0789858 -5.76025 -8.49717 56.8012 71.193 34.3246 -16.2289 -14.1591 9.29607 -17.0967 60.041 99.9818 54.5775 29.5953 49.7406 9.03581 30.9922 90.5419 144.563 30.2307 43.3343 105.973 7.02059 8.863 -18.1689 -15.2512 187.06 174.563 -18.4014 -29.6466
internal_weight=33455 30417 28473 3038 2550 1944 20136 18796 2092 16704 682 383 2235 1881 950 931 648 293 162 788 646 237 409 299 355 1410 89 138 488 432
internal_count=33455 30417 28473 3038 2550 1944 20136 18796 2092 16704 682 383 2235 1881 950 931 648 293 162 788 646 237 409 299 355 1410 89 138 488 432
is_linear=0
shrinkage=0.05


Tree=25
num_leaves=31
num_cat=0
split_feature=7 4 4 10 8 5 10 7 4 5 4 5 5 10 7 10 10 5 9 5 10 7 5 5 5 5 5 5 10 10
split_gain=1.27677e+09 4.5859e+08 4.49553e+08 3.00728e+08 2.48131e+08 2.26226e+08 2.21632e+08 1.82866e+08 2.34255e+08 1.73971e+08 1.63726e+08 1.59338e+08 2.45203e+08 1.45808e+08 1.32643e+08 1.25195e+08 3.7068e+08 1.21637e+08 1.20634e+08 1.7125e+08 1.18829e+08 1.18124e+08 1.49655e+08 2.20374e+08 1.98671e+08 1.93686e+08 1.8338e+08 9.60537e+07 8.51147e+07 1.13751e+08
threshold=25.500000000000004 3896.2215320910977 5660.7692307692314 3563.414634146342 4788.0808147419166 3691.4392392136847 3373.6200098512463 35.500000000000007 3745.5494879518074 2915.2941618171585 2166.9871794871801 2901.5076452599392 2915.052468556411 3563.414634146342 14.500000000000002 4463.3306962025317 4817.9582525697506 5028.9166151945656 0.022501593844702756 4816.3679907798705 3181.5509926033733 14.500000000000002 2915.3473499780998 2915.4505975846319 2901.5076452599392 2915.2441023715669 2915.4021024967155 2758.8756576284909 4147.8007332722282 4458.5650712025326
decision_type=2 2 2 2 2 2 2 2 2 2 2 2 2 2 2 2 2 2 2 2 2 2 2 2 2 2 2 2 2 2
left_child=1 3 4 6 5 -2 10 13 18 11 -1 -3 -13 -7 -5 -11 -17 -15 19 -9 -4 -12 24 26 27 -26 -24 -23 -16 -30
right_child=2 9 20 14 -6 7 -8 8 -10 15 21 12 -14 17 28 16 -18 -19 -20 -21 -22 22 23 -25 25 -27 -28 -29 29 -31
leaf_value=-25.60308399741572 12.140303077410584 10.997083191651718 41.686941936697536 -8.2007386352526019 178.27126576397049 13.894099887045826 -30.147055631453355 241.6567092154032 22.429001889028566 6.7420667026618224 -10.807452037536288 237.53348338959984 60.157824731145837 79.581179095365925 32.213478223272141 166.71645276599892 18.57827861606976 12.916425317566334 72.153694040215186 69.317352787034338 100.18562016629522 25.072050361954563 -9.6228343995313921 -0.65705239312008956 92.995828553465586 18.984080749174641 -38.858039058802532 -24.389223202134076 -7.6238184781926783 15.574299538123634
leaf_weight=1056 2425 143 136 1037 25 528 1028 39 88 1857 6854 22 166 204 464 49 302 103 48 23 241 132 2539 9474 100 757 680 382 739 1854
leaf_count=1056 2425 143 136 1037 25 528 1028 39 88 1857 6854 22 166 204 464 49 302 103 48 23 241 132 2539 9474 100 757 680 382 739 1854
internal_value=0.192682 -3.33047 27.2409 -5.23445 21.6257 20.4881 -7.45671 40.0816 83.2742 16.9881 -6.39507 50.7865 81.0298 29.8308 7.25112 11.9193 39.3001 57.2263 131.886 177.939 79.0993 -5.42527 -2.80224 -4.49738 12.8908 27.6301 -15.7997 -11.6847 12.4928 8.96284
internal_weight=33495 29635 3860 27096 3483 3458 23002 1033 198 2539 21974 331 188 835 4094 2208 351 307 110 62 377 20918 14064 12693 1371 857 3219 514 3057 2593
internal_count=33495 29635 3860 27096 3483 3458 23002 1033 198 2539 21974 331 188 835 4094 2208 351 307 110 62 377 20918 14064 12693 1371 857 3219 514 3057 2593
is_linear=0
shrinkage=0.05


Tree=26
num_leaves=31
num_cat=0
split_feature=7 2 4 7 5 5 5 5 5 8 5 10 10 5 4 5 9 5 10 10 10 10 2 5 10 5 10 10 5 10
split_gain=1.15237e+09 4.27788e+08 4.05735e+08 3.29567e+08 3.27955e+08 3.92663e+08 4.87598e+08 3.68217e+08 2.71949e+08 2.24042e+08 2.04207e+08 1.94167e+08 2.32425e+08 1.74544e+08 3.12191e+08 1.52703e+08 1.47953e+08 1.39915e+08 1.14698e+08 1.1966e+08 2.16342e+08 2.0367e+08 1.35876e+08 1.14933e+08 1.07245e+08 1.06848e+08 1.05298e+08 1.93199e+08 1.04232e+08 1.30687e+08
threshold=25.500000000000004 0.92284222261338977 5660.7692307692314 14.500000000000002 2915.3379638320507 2901.5076452599392 2915.1963894624873 2915.4505975846319 2915.3974094236914 4788.0808147419166 3691.4392392136847 3732.0269784172665 4147.3424381301566 3734.2116792289635 3052.9590643274855 4385.8806488991895 0.022501593844702756 2758.7704370700126 3373.5875007388436 3194.540669554021 3194.4496203519452 3373.3491005812239 0.50705896023411956 3511.7800751879704 3181.5509926033733 2915.2941618171585 3194.540669554021 3373.0978938035664 5029.2872143298346 3732.0269784172665
decision_type=2 2 2 2 2 2 2 2 2 2 2 2 2 2 2 2 2 2 2 2 2 2 2 2 2 2 2 2 2 2
left_child=1 3 9 16 5 17 -7 8 -6 10 -2 18 -13 14 -12 25 -1 -5 19 20 -9 22 -21 -24 -4 -3 -15 -28 29 -29
right_child=2 15 24 4 7 6 -8 11 -10 -11 13 12 -14 26 -16 -17 -18 -19 -20 21 -22 -23 23 -25 -26 -27 27 28 -30 -31
leaf_value=-39.531765262796149 11.53331307713951 170.86998515603861 39.604126156786627 29.220971026653054 -7.9627044648776426 117.80543220797711 24.569171280526692 0.80132396593498234 -37.276005620642486 169.39321529798772 -61.027451184021302 109.04065911584723 11.826825276039372 15.471986371816975 167.26058157519037 -6.0433652810200202 -10.152738590484487 -18.113350286509434 -19.152479382264286 32.714509685825433 -28.04618520037161 6.8120329692284987 227.58144786322293 80.029008995114694 95.17841698744644 58.617918093074913 159.94266453793173 8.9618772191303755 -3.8885054950822999 75.017135406774216
leaf_weight=450 2425 23 136 204 3173 162 1040 8746 1054 25 20 63 2405 475 59 93 8952 664 823 90 702 669 20 39 241 263 36 112 105 226
leaf_count=450 2425 23 136 204 3173 162 1040 8746 1054 25 20 63 2405 475 59 93 8952 664 823 90 702 669 20 39 241 263 36 112 105 226
internal_value=0.183253 -3.16386 25.88 -3.84768 -0.195751 18.6395 37.1439 -2.3882 -15.2727 20.5454 19.4644 1.62919 14.3127 38.08 109.462 49.6092 -11.5593 -6.9866 -1.1938 0.24608 -1.34236 18.5907 71.436 130.347 75.1462 67.7018 32.1581 48.6981 39.6238 53.1381
internal_weight=33495 29635 3860 29256 19854 2070 1202 17784 4227 3483 3458 13557 2468 1033 79 379 9402 868 11089 10266 9448 818 149 59 377 286 954 479 443 338
internal_count=33495 29635 3860 29256 19854 2070 1202 17784 4227 3483 3458 13557 2468 1033 79 379 9402 868 11089 10266 9448 818 149 59 377 286 954 479 443 338
is_linear=0
shrinkage=0.05


Tree=27
num_leaves=31
num_cat=0
split_feature=0 0 0 0 0 0 1 0 0 2 0 0 0 0 0 0 2 0 6 0 2 0 0 0 0 0 0 0 0 0
split_gain=3.73711e+09 1.22941e+09 1.79253e+09 1.08368e+09 1.41075e+09 4.94299e+08 4.31323e+08 4.56086e+08 8.65101e+08 5.12186e+08 5.59943e+08 4.40204e+08 3.01917e+08 2.60173e+08 6.26752e+08 3.29578e+08 5.40988e+08 7.51731e+08 2.70744e+08 2.50601e+08 3.36323e+08 4.22369e+08 2.12608e+08 2.07935e+08 2.03302e+08 2.01353e+08 1.84713e+08 1.7863e+08 1.75049e+08 1.50144e+08
threshold=3215.4654215441565 2841.1853581511455 3215.4056705112757 4336.3406196139304 3215.4864180581858 4865.7157534246589 3865.167886675466 3346.9401329833022 3815.1395856273552 0.863620199146515 3812.1259663865553 3215.4966123687386 3215.4378135221214 5224.9700000000012 6116.2196321070242 5223.5802941176471 0.79860651865847909 5219.5214705882363 5443.433104177685 6433.304041916168 0.89061166429587491 6425.7067365269468 4872.6849315068503 3492.5851351351357 3215.4761699517994 6120.455975473802 3815.6937728194735 3215.5107014976761 6111.2586510590863 3215.3572542606303
decision_type=2 2 2 2 2 2 2 2 2 2 2 2 2 2 2 2 2 2 2 2 2 2 2 2 2 2 2 2 2 2
left_child=1 -1 29 4 24 -5 7 11 9 10 -9 -6 -4 15 18 16 17 -7 -15 20 21 -16 -18 -11 -2 -22 -10 -13 -20 -3
right_child=3 2 12 5 6 13 -8 8 26 23 -12 27 -14 14 19 -17 22 -19 28 -21 25 -23 -24 -25 -26 -27 -28 -29 -30 -31
leaf_value=-19.230788511197673 18.070451806673884 212.27846629103826 91.112127422948461 166.35995941513696 -11.327719404617234 240.66330557380718 -43.928316053575429 219.61642815648406 4.1455074296753125 71.695368871123947 63.635478289798712 -27.305751962802219 42.78048092414074 -2.2476235147457797 148.8143783392934 -41.870415305165039 22.210761772257136 38.100327308486435 214.61183225368188 -48.941214127594058 23.124878527633495 25.677022405806873 -54.481740471019378 -19.666653937713036 2.8211286909431514 -70.736041833902405 -31.800858664973077 -64.921423511898681 102.43930820516255 144.14572314121781
leaf_weight=466 3191 164 402 65 10995 54 1251 70 700 86 322 3822 1648 31 121 247 173 299 73 98 330 164 189 225 6937 69 730 344 67 162
leaf_count=466 3191 164 402 65 10995 54 1251 70 700 86 322 3822 1648 31 121 247 173 299 73 98 330 164 189 225 6937 69 730 344 67 162
internal_value=0.174297 55.0227 69.5861 -4.91115 -7.38167 30.8637 -15.5777 -13.5267 8.12085 53.5317 91.5381 -16.5723 52.2622 26.2562 44.7712 7.91155 25.1124 69.1467 131.455 25.8018 36.5161 77.9903 -17.8343 5.61235 7.62582 6.87962 -14.2057 -30.4133 161.041 178.476
internal_weight=33495 2842 2376 30653 28673 1980 18545 17294 2133 703 392 15161 2050 1915 953 962 715 353 171 782 684 285 362 311 10128 399 1430 4166 140 326
internal_count=33495 2842 2376 30653 28673 1980 18545 17294 2133 703 392 15161 2050 1915 953 962 715 353 171 782 684 285 362 311 10128 399 1430 4166 140 326
is_linear=0
shrinkage=0.05


Tree=28
num_leaves=31
num_cat=0
split_feature=0 0 0 0 0 0 0 0 0 0 0 0 0 3 0 6 3 0 0 0 9 0 0 0 0 0 0 0 0 7
split_gain=3.37282e+09 1.10958e+09 1.6179e+09 9.78128e+08 1.27825e+09 4.4618e+08 4.09018e+08 8.93951e+08 6.8913e+08 2.72885e+08 2.34819e+08 5.65742e+08 2.97468e+08 4.88294e+08 6.7859e+08 2.44384e+08 2.34592e+08 9.56284e+08 2.51278e+08 2.26187e+08 3.02126e+08 3.72677e+08 2.22155e+08 1.96923e+08 1.91434e+08 1.88524e+08 1.86175e+08 1.73777e+08 1.58002e+08 1.36777e+08
threshold=3215.4654215441565 2841.1853581511455 3215.4056705112757 4336.3406196139304 3215.4869291186092 4865.7157534246589 3346.9401329833022 3815.5199101709654 3215.5064301084526 3215.442924126356 5224.9700000000012 6116.2196321070242 5223.5802941176471 3990.9133138745988 5219.5214705882363 5443.433104177685 2755.4167094891613 3814.302871631412 3494.8824324324328 6433.304041916168 0.007157017720059701 6425.7067365269468 3215.4784293768294 4873.643835616439 6119.2296655518403 3812.1259663865553 3816.1139408866998 3215.4939494749528 6111.2586510590863 15.500000000000002
decision_type=2 2 2 2 2 2 2 2 2 2 2 2 2 2 2 2 2 2 2 2 2 2 2 2 2 2 2 2 2 2
left_child=1 29 -3 4 22 -5 8 16 27 -4 12 15 13 14 -7 -12 18 25 -8 20 21 -13 -2 -15 -22 -18 -9 -6 -17 -1
right_child=3 2 9 5 6 10 7 26 -10 -11 11 19 -14 23 -16 28 17 -19 -20 -21 24 -23 -24 -25 -26 -27 -28 -29 -30 -31
leaf_value=-44.435350001852129 15.0936929314582 169.55737372629119 82.462726088541402 158.05473935175604 -9.6878327328924208 228.6523813526203 38.108556315667933 -16.771243526619202 -46.47647948169115 39.503240920961318 -2.1356031019204682 139.51953996027711 -39.777741771128348 6.003462500720703 36.195947797017048 203.8959200962135 211.88872273480848 20.163935602601502 -47.156441803027711 -46.496647556938768 37.726862395402776 24.393953512500946 0.60119167284687058 -76.187823041091448 -32.069489601527223 108.70978347292038 -66.080135799536663 -21.350752953986301 97.3249756223221 9.7643924409842189
leaf_weight=241 4339 326 484 65 7941 54 195 945 1913 1566 31 123 247 261 299 73 72 644 155 98 219 164 6770 101 178 116 240 5343 67 225
leaf_count=241 4339 326 484 65 7941 54 195 945 1913 1566 31 123 247 261 299 73 72 644 155 98 219 164 6770 101 178 116 240 5343 67 225
internal_value=0.165794 52.2724 66.1079 -4.66544 -7.01255 29.3224 -15.4084 3.92491 -18.4197 49.6494 24.9449 42.5347 7.51703 23.8585 65.6933 124.891 34.69 49.1359 0.345645 24.5122 34.6913 73.7649 6.26182 -16.9431 6.43257 148.317 -26.7626 -14.3789 153 -18.2695
internal_weight=33495 2842 2376 30653 28673 1980 17564 2367 15197 2050 1915 953 962 715 353 171 1182 832 350 782 684 287 11109 362 397 188 1185 13284 140 466
internal_count=33495 2842 2376 30653 28673 1980 17564 2367 15197 2050 1915 953 962 715 353 171 1182 832 350 782 684 287 11109 362 397 188 1185 13284 140 466
is_linear=0
shrinkage=0.05


Tree=29
num_leaves=31
num_cat=0
split_feature=0 0 0 0 0 0 1 0 0 3 0 0 0 0 0 0 3 0 6 0 9 0 9 0 0 0 0 0 0 0
split_gain=3.04401e+09 1.00142e+09 1.46021e+09 8.82854e+08 1.15929e+09 4.08358e+08 3.47395e+08 3.40214e+08 7.1515e+08 4.67508e+08 4.17596e+08 4.14485e+08 2.48815e+08 2.32188e+08 5.10667e+08 2.50814e+08 5.91985e+08 5.4301e+08 2.20589e+08 2.07194e+08 3.86338e+08 2.25325e+08 2.04138e+08 1.8237e+08 1.79331e+08 1.64394e+08 1.62303e+08 1.57327e+08 1.42616e+08 1.35625e+08
threshold=3215.4654215441565 2841.1853581511455 3215.4056705112757 4336.3406196139304 3215.4857725081774 4868.9178082191793 3865.167886675466 3346.9401329833022 3815.0236771950163 2755.4167094891613 3215.4955149337238 3812.1259663865553 3215.4378135221214 5224.9700000000012 6116.2196321070242 5223.0361764705895 3990.9133138745988 5219.5214705882363 5443.433104177685 6431.6723053892219 0.007157017720059701 6420.4522455089818 0.0055937399020112508 3490.186486486487 6120.455975473802 3815.8386583598963 3215.5107014976761 4874.6369863013706 6111.2586510590863 3215.3572542606303
decision_type=2 2 2 2 2 2 2 2 2 2 2 2 2 2 2 2 2 2 2 2 2 2 2 2 2 2 2 2 2 2
left_child=1 -1 29 4 -2 -5 7 10 9 23 -6 -11 -4 15 18 16 17 -7 -15 20 21 22 -16 -9 -22 -10 -12 -18 -20 -3
right_child=3 2 12 5 6 13 -8 8 25 11 26 -13 -14 14 19 -17 27 -19 28 -21 24 -23 -24 -25 -26 -27 -28 -29 -30 -31
leaf_value=-17.356353735816349 8.7889292959706022 193.198309538177 82.435543247954342 134.35745964005989 -8.819599730400558 217.24089490851722 -38.008829479858811 102.00572094770055 -1.2084366648666194 198.07194754563795 -23.71902716644879 62.498219808443366 38.55967345491181 -2.0291671115102492 51.472306638029664 -32.701747713987587 -8.2501726615555864 42.503963117465311 193.71506942143685 -28.671645519224413 21.256705216590795 47.559794800490842 206.41510894828835 -9.9045436162392217 -68.407594671121487 -37.683898423697876 -59.353146661183615 -104.18239604774824 92.465978885656327 128.47024469487394
leaf_weight=466 8529 164 402 86 11859 54 1319 42 1020 70 4489 289 1648 31 34 296 291 250 73 154 330 140 57 269 67 443 344 50 67 162
leaf_count=466 8529 164 402 86 11859 54 1319 42 1020 70 4489 289 1648 31 34 296 291 250 73 154 330 140 57 269 67 443 344 50 67 162
internal_value=0.15768 49.6593 62.8031 -4.43202 -6.66189 27.8582 -13.2038 -11.4656 7.33756 50.1152 -13.8684 88.981 47.1672 23.0156 40.4102 5.39668 22.883 73.604 118.655 23.2873 36.0314 87.4282 148.644 5.23665 6.11101 -12.2551 -26.2565 -22.3429 145.361 161.082
internal_weight=33495 2842 2376 30653 28673 1980 20144 18825 2133 670 16692 359 2050 1894 953 941 645 304 171 782 628 231 91 311 397 1463 4833 341 140 326
internal_count=33495 2842 2376 30653 28673 1980 20144 18825 2133 670 16692 359 2050 1894 953 941 645 304 171 782 628 231 91 311 397 1463 4833 341 140 326
is_linear=0
shrinkage=0.05


Tree=30
num_leaves=31
num_cat=0
split_feature=4 7 1 1 1 1 1 1 1 3 4 10 10 5 5 10 5 5 10 10 5 5 1 1 10 7 3 8 10 9
split_gain=7.05542e+08 4.43242e+08 2.32447e+08 3.01337e+08 9.17081e+08 2.71777e+08 2.38704e+08 1.79082e+08 1.73052e+08 1.52072e+08 1.73196e+08 1.43209e+08 2.21889e+08 1.40676e+08 1.49839e+08 1.30994e+08 1.22376e+08 1.04103e+08 1.01821e+08 2.33943e+08 1.10433e+08 1.32672e+08 9.9949e+07 2.06779e+08 9.48939e+07 9.44083e+07 9.32481e+07 8.94362e+07 8.73273e+07 8.03977e+07
threshold=5660.7692307692314 21.500000000000004 3865.1306694496457 3856.7239536954589 3864.8971601338289 3865.2159568361499 3865.0512471223801 2662.506075447714 3865.175176647534 3335.2423283822714 3745.7698547129698 4463.3306962025317 4817.3121439060205 2915.4505975846319 2915.3974094236914 3563.414634146342 2758.6378996357757 2915.1963894624873 3373.2905841788988 3194.540669554021 2915.1963894624873 2901.5076452599392 3800.0765550239234 3864.8376125725158 4147.3424381301566 18.500000000000004 3990.9133138745988 5759.4979038189431 3732.0269784172665 0.0064277791848248011
decision_type=2 2 2 2 2 2 2 2 2 2 2 2 2 2 2 2 2 2 2 2 2 2 2 2 2 2 2 2 2 2
left_child=1 2 3 7 -5 8 -6 17 -4 15 22 18 -13 14 16 -3 -9 -1 19 20 21 -2 26 -24 28 29 -11 -22 -17 -15
right_child=11 9 5 4 6 -7 -8 13 -10 10 -12 12 -14 25 -16 24 -18 -19 -20 -21 27 -23 23 -25 -26 -27 -28 -29 -30 -31
leaf_value=125.03268612287778 -1.4872692448986355 3.1847912608729043 -15.207469336288055 124.38394973162477 39.564533198490373 5.8530966778001634 0.96213450674716039 47.345540270479688 -45.260739261453274 69.291359921685029 6.7535019172292783 152.15193692065895 43.045619984368557 -39.269434017773079 -26.957061491853906 13.061109332737699 -9.0163556052381981 16.963574331458332 -5.1291466732261854 113.96157235115541 25.604610340434206 133.90638289421858 170.54155256195929 45.52564259116685 17.226108409881139 2.0755622734745329 -4.2032479392291622 -48.582224774413525 93.64360629417429 -5.6987173299283258
leaf_weight=23 29 3071 1156 167 447 872 3840 98 818 95 270 68 148 183 1291 57 5279 634 153 92 410 48 53 88 1331 5715 79 45 82 6874
leaf_count=23 29 3071 1156 167 447 872 3840 98 818 95 270 68 148 183 1291 57 5279 634 153 92 410 48 53 88 1331 5715 79 45 82 6874
internal_value=-0.074723 -1.34239 -3.86723 -2.29913 9.46736 -17.3939 4.98799 -4.90692 -27.6628 12.152 36.144 41.4401 77.4484 -5.77464 -11.6612 9.06045 -7.98825 20.7653 31.4214 40.3827 27.6396 82.9781 61.3256 92.605 21.3343 -2.70134 35.9398 18.2584 60.6322 -6.56981
internal_weight=33516 32523 27397 24551 4454 2846 4287 20097 1974 5126 585 993 216 19440 6668 4541 5377 657 777 624 532 77 315 141 1470 12772 174 455 139 7057
internal_count=33516 32523 27397 24551 4454 2846 4287 20097 1974 5126 585 993 216 19440 6668 4541 5377 657 777 624 532 77 315 141 1470 12772 174 455 139 7057
is_linear=0
shrinkage=0.05


Tree=31
num_leaves=31
num_cat=0
split_feature=0 0 0 0 0 0 0 0 0 0 0 2 0 0 0 0 2 0 0 0 6 0 2 0 0 0 4 0 0 5
split_gain=2.67992e+09 7.96348e+08 7.54362e+08 5.39819e+08 1.73425e+09 3.66442e+08 6.74928e+08 4.57351e+08 3.36274e+08 2.51975e+08 2.47879e+08 1.93094e+08 7.72686e+08 1.8851e+08 5.55583e+08 2.3682e+08 5.90572e+08 5.20241e+08 1.88339e+08 1.67728e+08 1.64944e+08 1.64496e+08 2.39072e+08 2.6088e+08 1.97918e+08 1.46187e+08 1.31071e+08 1.25989e+08 1.25719e+08 1.18598e+08
threshold=3215.4740934326051 4336.3406196139304 3215.4897265019799 2841.1853581511455 3215.4250370115346 3346.9401329833022 3815.5488872790502 3215.5076943105528 4868.9178082191793 3215.4602732828375 3215.3793105525915 0.863620199146515 3814.302871631412 5224.9700000000012 6115.0490635451506 5222.6538235294129 0.79860651865847909 5219.5214705882363 3494.8824324324328 4874.6369863013706 5443.433104177685 6432.4432634730538 0.78879310344827591 6425.7067365269468 6119.2296655518403 3816.1139408866998 2696.5789473684213 3812.1259663865553 3215.4812160010329 3079.2553191489365
decision_type=2 2 2 2 2 2 2 2 2 2 2 2 2 2 2 2 2 2 2 2 2 2 2 2 2 2 2 2 2 2
left_child=3 2 28 26 10 7 11 -4 -3 -6 -5 12 27 15 20 16 17 -10 -13 -18 -15 22 23 -16 -24 -8 -1 -7 -2 -28
right_child=1 8 5 4 9 6 25 -9 13 -11 -12 18 -14 14 21 -17 19 -19 -20 -21 -22 -23 24 -25 -26 -27 29 -29 -30 -31
leaf_value=-55.919128713600941 8.3466090530513917 122.24983701156815 -15.269111059648038 169.35384170766326 47.027118081483422 189.93641744009608 -16.026176756563263 -43.393738943647975 213.33207594383634 19.543892019488467 97.778547505499091 30.958137809919716 16.918897748179543 4.838365113890017 125.3898892978597 -29.48698970841663 -7.412288375367158 42.406072388617659 -42.951520342679991 -109.47731511142349 151.11662167181598 -32.48816749609346 37.252437892250875 23.014019398209371 -31.076736205258364 -60.423263441467945 -36.114283504234926 102.22260077010021 -2.4016615107808255 24.668477767798656
leaf_weight=139 4072 85 10628 215 1282 64 907 1673 56 2387 278 188 679 23 112 329 277 216 159 47 119 125 241 140 189 233 129 115 8197 212
leaf_count=139 4072 85 10628 215 1282 64 907 1673 56 2387 278 188 679 23 112 329 277 216 159 47 119 125 241 140 189 233 129 115 8197 212
internal_value=-0.0708302 -5.73983 -7.98006 35.1906 40.981 -15.6414 2.47239 -19.0945 25.0379 29.1479 129.021 28.562 41.2893 20.6223 36.2774 4.55883 23.3544 77.6622 -2.91085 -22.2472 127.444 20.222 29.8863 68.5461 7.21913 -25.1048 -15.0146 133.673 1.16566 1.67055
internal_weight=33516 28874 26915 4642 4162 14646 2345 12301 1959 3669 493 1205 858 1874 949 925 596 272 347 324 142 807 682 252 430 1140 480 179 12269 341
internal_count=33516 28874 26915 4642 4162 14646 2345 12301 1959 3669 493 1205 858 1874 949 925 596 272 347 324 142 807 682 252 430 1140 480 179 12269 341
is_linear=0
shrinkage=0.05


Tree=32
num_leaves=31
num_cat=0
split_feature=0 0 0 0 0 0 0 0 0 0 0 0 0 2 0 0 0 0 3 0 0 6 2 0 0 0 0 4 0 5
split_gain=2.41958e+09 7.05161e+08 7.28282e+08 5.28986e+08 1.49325e+09 3.3073e+08 6.12076e+08 4.15036e+08 3.03526e+08 2.90226e+08 1.7014e+08 5.0146e+08 2.13744e+08 5.33064e+08 4.69621e+08 1.56904e+08 1.52743e+08 1.50159e+08 3.43148e+08 2.21915e+08 1.49772e+08 1.48873e+08 1.48371e+08 7.39731e+08 1.69987e+08 1.34174e+08 1.18618e+08 1.18299e+08 1.13734e+08 1.07042e+08
threshold=3215.4724311413324 4336.3406196139304 3215.4897265019799 2841.1853581511455 3215.433375365812 3346.9401329833022 3815.6068414952192 3215.5090930022384 4868.9178082191793 3215.3793105525915 5224.9700000000012 6115.0490635451506 5222.6538235294129 0.79860651865847909 5219.5214705882363 3215.4602732828375 4875.4246575342468 6430.9462574850304 4241.6116574974831 6420.4522455089818 6118.8952173913049 5443.433104177685 0.863620199146515 3814.302871631412 3494.8824324324328 3215.4812160010329 3816.1827615184015 2696.5789473684213 3812.1259663865553 3079.2553191489365
decision_type=2 2 2 2 2 2 2 2 2 2 2 2 2 2 2 2 2 2 2 2 2 2 2 2 2 2 2 2 2 2
left_child=3 2 25 27 9 7 22 -4 -3 -5 12 21 13 14 -10 -6 -15 18 20 -20 -13 -12 23 28 -24 -2 -8 -1 -7 -29
right_child=1 8 5 4 15 6 26 -9 10 -11 11 17 -14 16 -16 -17 -18 -19 19 -21 -22 -23 24 -25 -26 -27 -28 29 -30 -31
leaf_value=-53.125182596202549 8.4939625050633349 116.14452851919675 -14.925640561794237 160.8900874394586 42.336372034952348 180.454412622794 -18.520147852410883 -44.384341391439847 202.68448685698755 87.936250150589274 4.5974947578463201 38.184519505436093 -28.013088230777385 -11.847107134509345 40.286749596653138 19.376959211466808 -148.02641159679015 -19.647213781688919 171.68225825665945 50.023371435312818 -19.320013858572466 143.56713397252673 29.411053872444349 14.247545074001616 -40.805294198828022 -2.2815798952001027 -63.329785108271778 -34.309967610708604 97.115911359024722 23.435635860412543
leaf_weight=139 4461 85 10959 215 1186 64 866 1342 56 374 23 221 329 302 216 1998 22 190 58 106 232 119 188 775 159 8197 178 129 115 212
leaf_count=139 4461 85 10959 215 1186 64 866 1342 56 374 23 221 329 302 216 1998 22 190 58 106 232 119 188 775 159 8197 178 129 115 212
internal_value=-0.0671478 -5.18875 -7.26779 35.1716 41.4611 -14.8593 2.34924 -18.1398 23.7873 114.589 19.5922 34.465 4.33148 22.1878 73.7838 27.9301 -21.1367 19.2116 31.1791 93.1275 8.7363 121.077 25.2314 35.414 -2.76548 1.51603 -26.1654 -14.2646 126.997 1.58686
internal_weight=33516 29263 27304 4253 3773 14646 2345 12301 1959 589 1874 949 925 596 272 3184 324 807 617 164 453 142 1301 954 347 12658 1044 480 179 341
internal_count=33516 29263 27304 4253 3773 14646 2345 12301 1959 589 1874 949 925 596 272 3184 324 807 617 164 453 142 1301 954 347 12658 1044 480 179 341
is_linear=0
shrinkage=0.05


Tree=33
num_leaves=31
num_cat=0
split_feature=0 0 0 0 0 0 0 0 0 0 0 0 0 2 0 0 0 2 0 0 0 2 0 0 6 0 2 0 1 1
split_gain=2.18858e+09 6.73386e+08 5.37918e+08 5.00706e+08 1.06271e+09 6.74547e+08 3.11118e+08 5.52432e+08 3.66358e+08 2.73966e+08 1.53569e+08 4.52604e+08 1.92913e+08 4.81164e+08 4.23927e+08 1.41646e+08 1.39232e+08 1.672e+08 2.55891e+08 1.67161e+08 1.35927e+08 5.39883e+08 2.41827e+08 1.55635e+08 1.34368e+08 1.11021e+08 1.63614e+08 2.18269e+08 1.16472e+08 1.14127e+08
