tree
version=v4
num_class=1
num_tree_per_iteration=1
label_index=0
max_feature_idx=83
objective=regression
feature_names=TargetTime BusinessSegmentDetail DistanceInKM DistanceInMiles RooftopLongitude RooftopLatitude OfficeId JobCount IECount LeaseCount SaleCount PopulationEstimate AverageHouseValue IncomePerHousehold MedianAge DeliveryTotal NumberofBusinesses NumberofEmployees ZipPopulation TargetTime_Original Year Quarter Month DayOfWeek DayOfMonth WeekOfYear Month_sin Month_cos DayOfWeek_sin DayOfWeek_cos rolling_avg_fee_office rolling_avg_fee_proptype rolling_avg_fee_state rolling_avg_fee_segment rolling_bid_count_office rolling_win_rate_office rolling_std_fee_office prev_fee_same_client prev_won_same_client days_since_last_bid_client same_proptype_as_last_client total_bids_to_client total_wins_with_client win_rate_with_client avg_historical_fee_client office_avg_fee office_std_fee office_win_rate propertytype_avg_fee propertytype_std_fee propertytype_win_rate state_avg_fee state_std_fee state_win_rate segment_avg_fee segment_std_fee segment_win_rate client_avg_fee client_std_fee client_win_rate building_size_numeric targettime_x_size distance_x_volume client_relationship_strength market_competitiveness Bid_Property_Type_frequency PropertyState_frequency OfficeLocation_frequency BusinessSegment_frequency BidCompanyType_frequency MarketOrientation_frequency Bid_Property_Type_encoded Bid_SubProperty_Type_encoded PropertyState_encoded PropertyCity_encoded OfficeLocation_encoded BusinessSegment_encoded BidCompanyName_encoded BidCompanyType_encoded days_since_start quarterly_avg_fee is_peak_season is_weekday targettime_ratio_to_proptype
feature_infos=[0:6000] none [0:15642.1766363114] [0:7683.4491192258301] [-158.07691:175.788208] [-46.490386999999998:61.591374999999999] [1:186] [0:73] [0:1050] [0:6489] [0:54] [0:94239] [0:962000] [0:160148] [0:61] [0:57416] [0:4377] [0:179047] [0:90316] [0:6000] [2018:2023] [1:4] [1:12] [0:6] [1:31] [1:53] [-1:1] [-1:1] [-0.97492791218182362:0.97492791218182362] [-0.90096886790241903:1] [0:15000] [0:8375] [0:15000] [0:15000] [0:1379] [0:1] [0:8117.5858480215657] [0:15000] [0:1] [0:999999] [0:1] [0:7317] [0:2270] [0:1] [0:15000] [0:15000] [0:8273.149339882606] [0:1] [2466.8624522292994:4862.9598958750494] [1499.6015996040919:3548.7804427140186] [0.31198686371100159:0.62951167728237789] [2662.0864022133323:15000] [0:5533.308232874796] [0:1] [1916.5921112929625:6655.3157894736842] [1675.5224086583171:5424.8632820512048] [0.3413949649195212:0.95206243032329985] [0:15000] [0:10606.601717798212] [0:1] [0:5] [0:5600] [0:8384508.6119867051] [0:2270] [0:946] [0.0053273713352488001:0.22383693003676761] [2.6200186894666515e-05:0.28453402967607838] [8.7333956315555054e-06:0.27914552457140862] [0.00017466791263109999:0.81172545697492637] [2.6200186894666515e-05:0.57347842414609229] [1.7466791263111011e-05:0.44808432966821832] [0:12] [0:70] [0:72] [1:5853] [0:55] [0:11] [0:6906] [0:38] [0:1961] [3090.5943314763235:3803.1150550592151] [0:1] [0:1] [0:222.71463329857491]
tree_sizes=1483 1493 1489 1491 1487 1492 1501 1492 1489 1493 1499 1505 1492 1493 1504 1490 1498 1502 1500 1497 1499 1488 1495 1494 1491 1489 1481 1489 1487 1493 1481 1491 1501 1482 1483 1476 1488 1473 1488 1479 1478 1483 1488 1480 1476 1481 1475 1479 1475 1486 1496 1466 1459 1494 1480 1481 1472 1480 1467 1476 1472 1476 1476 1486 1482 1486 1486 1469 1470 1454 1482 1485 1496 1480 1485 1488 1494 1474 1492 1500 1476 1482 1483 1480 1493 1494 1474 1476 1489 1475 1468 1473 1482 1480 1481 1493 1496 1457 1495 1484 1483 1495 1484 1497 1456 1492 1472 1496 1501 1298 1475 1484 1466 1484 1486 1483 1468 1296 1472 1488 1473 1476 1469 1501 1503 1477 1487 1374 1488 1466 1291 1460 1463 1455 1449 1461 1472 1485 1459 1485 1457 1460 1475 1497 1454 1463 1508 1476 1466 1457 1486 1455 1394 1486 1479 1448 1477 1458 1439 1483 1498 1484 1493 1448 1507 1465 1470 1483 1477 1485 1491 1463 1456 1329 1506 1461 1473 1468 1442 1474 1293 1468 1474 1463 1460 1463 1481 1450 1471 1484 1478 1388 1456 1511 1497 1476 1433 1471 1496 1467 1488 1464 1458 1494 1478 1479 1480 1465 1466 1476 1479 1485 1507 1474 1461 1488 1478 1481 1501 1487 1502 1501 1507 1462 1482 1475 1495 1111 1498 1112 1479 1392 1480 1310 1118 1484 1466 1466 1481 1473 1290 1487 1308 1473 1514 1473 1512 1468 1479 1470 1461 1479 1477 1499 1464 1376 1034 1035 1465 1200 1496 1475 1489 1489 1485 1463 1466 1370 1209 1491 1466 1034 1462 1037 1035 1470 1472 1483 1483 1475 1455 1485 1464 1467 1454 1451 1461 1474 1468 1463 1303 1035 1414 1441 1507 1472 1457 1477 1477 1510

Tree=0
num_leaves=15
num_cat=0
split_feature=54 54 54 54 54 56 54 33 55 54 54 54 54 54
split_gain=6.73652e+10 1.47251e+10 2.15017e+10 1.72019e+10 1.18824e+10 1.15137e+10 2.7884e+10 6.95625e+09 5.18921e+09 8.60818e+09 3.88061e+09 2.95433e+09 2.29054e+09 2.05061e+09
threshold=3215.462425116199 3215.4810653726977 3346.9401329833022 3712.1216698307885 3215.4972579187474 0.50705896023411956 3215.4105175159239 4872.1112004662009 2212.5966591679207 3711.6955451919116 3712.2908815517962 3215.4429295059394 3215.4891777844728 3215.4730497934243
decision_type=2 2 2 2 2 2 2 2 2 2 2 2 2 2
left_child=5 13 4 8 12 6 -1 10 9 -4 -5 -8 -3 -2
right_child=1 2 3 7 -6 -7 11 -9 -10 -11 -12 -13 -14 -15
leaf_value=3916.1472197769544 3476.7742086886487 3398.8191976050257 3943.9175152323505 3452.4346375065252 3307.4574962427091 3349.3211693725812 3648.9036479634692 3559.1068170359304 3414.9898513727776 3589.4923295568888 3385.5567957773133 3541.6996869527798 3364.5019210591445 3434.6503118060268
leaf_weight=706 4680 10650 212 3422 7053 394 886 850 266 864 5905 2434 8958 7551
leaf_count=706 4680 10650 212 3422 7053 394 886 850 266 864 5905 2434 8958 7551
internal_value=3419.47 3403.05 3387.76 3444.83 3363.09 3606.52 3631.75 3422.61 3612.74 3661.43 3410.1 3570.61 3383.13 3450.79
internal_weight=54831 50411 38180 11519 26661 4420 4026 10177 1342 1076 9327 3320 19608 12231
internal_count=54831 50411 38180 11519 26661 4420 4026 10177 1342 1076 9327 3320 19608 12231
is_linear=0
shrinkage=1


Tree=1
num_leaves=15
num_cat=0
split_feature=54 54 54 54 56 54 54 68 56 54 54 54 54 54
split_gain=6.08226e+10 1.33061e+10 1.98994e+10 1.55715e+10 1.03986e+10 2.53204e+10 1.03826e+10 6.39885e+09 4.40428e+09 8.21248e+09 3.85619e+09 3.67149e+09 3.08324e+09 2.12991e+09
threshold=3215.462425116199 3215.4815280168705 3346.9401329833022 3712.1423054065217 0.50705896023411956 3215.4002909278711 3215.4987211654334 0.022501593844702756 0.863620199146515 3711.7945959554277 3712.3107742468019 3215.4376790325364 5221.49205882353 3215.4898609915649
decision_type=2 2 2 2 2 2 2 2 2 2 2 2 2 2
left_child=4 -2 6 8 5 -1 13 12 9 -4 -9 -7 -5 -3
right_child=1 2 3 7 -6 11 -8 10 -10 -11 -12 -13 -14 -15
leaf_value=504.71006231792899 28.449865348369912 -21.023361980826721 453.33862177530932 223.79578928912304 -66.589732464572847 239.2220800611708 -110.36770729522223 22.431650774906416 -4.1646310081341174 143.56165356417316 -43.261550175794902 119.45438124365819 52.604286882974478 -53.92599671623887
leaf_weight=585 12833 10275 283 402 394 859 6335 4267 266 867 4678 2582 756 9449
leaf_count=585 12833 10275 283 402 394 859 6335 4267 266 867 4678 2582 756 9449
internal_value=0.0997093 -15.5002 -30.5111 24.2077 177.836 201.81 -54.6988 2.4091 179.183 221.426 -11.9291 149.657 112.74 -36.7954
internal_weight=54831 50411 37578 11519 4420 4026 26059 10103 1416 1150 8945 3441 1158 19724
internal_count=54831 50411 37578 11519 4420 4026 26059 10103 1416 1150 8945 3441 1158 19724
is_linear=0
shrinkage=0.05


Tree=2
num_leaves=15
num_cat=0
split_feature=54 54 56 54 54 54 54 54 33 55 54 54 54 54
split_gain=5.51178e+10 1.01438e+10 1.93222e+10 9.70725e+09 1.80472e+10 1.41293e+10 9.34918e+09 8.71266e+09 5.76753e+09 4.87073e+09 6.3618e+09 3.7078e+09 2.15042e+09 1.32937e+09
threshold=3215.4655183766577 3215.4376790325364 0.50705896023411956 3215.4820740445862 3346.9401329833022 3712.1051613702029 3215.4994097521089 3215.4002909278711 4872.1112004662009 2212.5966591679207 3711.6955451919116 3712.2793669005373 3215.4901837665693 5221.2714705882363
decision_type=2 2 2 2 2 2 2 2 2 2 2 2 2 2
left_child=1 2 7 -2 6 9 12 -1 11 10 -6 -7 -5 -10
right_child=3 -3 -4 4 5 8 -8 -9 13 -11 -12 -13 -14 -15
leaf_value=479.68842442399364 22.756019305286692 102.01317072259693 -63.30196606628877 -20.985313115911481 476.78035376764115 41.246388922858038 -109.19604297408284 227.33020668029786 210.26353331004518 -3.9602404541634986 165.65508211028592 -27.359455706367942 -53.576457703260182 79.737676282665319
leaf_weight=585 11907 3616 394 10736 212 2787 5626 859 311 266 724 6680 9589 539
leaf_count=585 11907 3616 394 10736 212 2787 5626 859 311 266 724 6680 9589 539
internal_value=0.101509 150.863 246.431 -16.5646 -29.0611 23.0158 -52.1767 330.869 4.077 184.88 238.283 -7.15137 -36.3707 128.445
internal_weight=54831 5454 1838 49377 37470 11519 25951 1444 10317 1202 936 9467 20325 850
internal_count=54831 5454 1838 49377 37470 11519 25951 1444 10317 1202 936 9467 20325 850
is_linear=0
shrinkage=0.05


Tree=3
num_leaves=15
num_cat=0
split_feature=37 58 51 30 32 51 51 51 51 32 51 51 51 51
split_gain=1.12232e+10 9.35211e+09 4.28298e+09 4.15291e+09 3.52035e+09 4.34944e+09 3.40806e+09 3.33123e+09 9.21863e+09 3.13598e+09 5.22508e+09 2.26808e+09 1.94867e+09 1.78014e+09
threshold=2905.0000000000005 2822.6378638496594 2662.43597412794 5172.9280566534917 3157.2150375939855 2662.5285078700422 3865.1119457319137 3854.6568627450984 3864.9438159550637 3365.2659863945587 3865.0879271923636 3865.0052051935299 3574.7642209398191 3865.06045550815
decision_type=2 2 2 2 2 2 2 2 2 2 2 2 2 2
left_child=4 2 -2 9 5 -1 7 -6 -9 -4 -11 12 -5 -10
right_child=1 -3 3 11 6 -7 -8 8 13 10 -12 -13 -14 -15
leaf_value=34.449200445202457 171.42810631606159 149.00520242061802 -14.87089313966554 47.716768468298568 -13.892661274365725 -57.764920338732125 -47.797279314420535 383.58212927993463 103.55398144259553 39.961513610554931 -13.605720978396461 40.849715329810266 296.88060622311411 8.4427744568892251
leaf_weight=1463 420 1331 9552 118 5187 9988 3582 191 624 12266 7234 369 243 2263
leaf_count=1463 420 1331 9552 118 5187 9988 3582 191 624 12266 7234 369 243 2263
internal_value=0.103396 19.5465 13.8175 11.5664 -26.2106 -45.9736 -7.09697 10.5605 51.7244 8.59532 20.091 128.944 217.202 29.1438
internal_weight=54831 31533 30202 29782 23298 11451 11847 8265 3078 29052 19500 730 361 2887
internal_count=54831 31533 30202 29782 23298 11451 11847 8265 3078 29052 19500 730 361 2887
is_linear=0
shrinkage=0.05


Tree=4
num_leaves=15
num_cat=0
split_feature=54 54 54 54 54 56 54 55 55 54 54 54 54 54
split_gain=4.7968e+10 1.12636e+10 1.36124e+10 1.2256e+10 1.00237e+10 8.86066e+09 1.90347e+10 5.23587e+09 3.4986e+09 6.55237e+09 3.15264e+09 2.61249e+09 2.55089e+09 1.82298e+09
threshold=3215.4602732828375 3215.4796182647619 3346.9401329833022 3712.1423054065217 3215.4955992317959 0.50705896023411956 3215.4002909278711 3335.2423283822714 2212.5966591679207 3711.6955451919116 3712.3212158481228 5221.49205882353 3215.4368720950256 3215.4869291186092
decision_type=2 2 2 2 2 2 2 2 2 2 2 2 2 2
left_child=5 -2 4 8 13 6 -1 10 9 -4 -5 -9 -8 -3
right_child=1 2 3 7 -6 -7 12 11 -10 -11 -12 -13 -14 -15
leaf_value=449.15790005958689 34.513945066082677 -9.3402250880379718 444.6736314624136 18.550890836330485 -89.412497697229924 -60.27424867577421 232.5913905347295 203.89104239489583 -4.6952307460492824 138.1646940552923 -40.785536292799833 46.334979009189681 116.69143736204515 -38.843426210193876
leaf_weight=585 9941 10184 212 4476 8307 394 590 402 266 938 4469 756 2531 10780
leaf_count=585 9941 10184 212 4476 8307 394 590 402 266 938 4469 756 2531 10780
internal_value=0.10337 -13.1979 -24.8286 21.2086 -42.9461 164.501 188.447 1.8695 158.699 196.35 -11.1003 101.672 138.938 -24.5169
internal_weight=54831 50731 40790 11519 29271 4100 3706 10103 1416 1150 8945 1158 3121 20964
internal_count=54831 50731 40790 11519 29271 4100 3706 10103 1416 1150 8945 1158 3121 20964
is_linear=0
shrinkage=0.05


Tree=5
num_leaves=15
num_cat=0
split_feature=54 54 56 54 54 54 54 55 55 54 54 54 54 54
split_gain=4.4375e+10 9.48575e+09 1.46969e+10 7.84857e+09 1.5656e+10 1.14528e+10 7.27037e+09 4.48697e+09 4.05732e+09 4.52223e+09 3.82721e+09 3.39888e+09 3.17892e+09 2.48458e+09
threshold=3215.4671591495958 3215.4376790325364 0.50705896023411956 3346.9401329833022 3215.4901837665693 3712.0938118035497 3215.3838831984854 3335.2423283822714 2212.5966591679207 3711.6955451919116 3215.5020291250648 3712.2702459760635 3215.4784293768294 5221.2714705882363
decision_type=2 2 2 2 2 2 2 2 2 2 2 2 2 2
left_child=1 2 6 4 12 8 -1 11 9 -5 -6 -7 -2 -9
right_child=3 -3 -4 5 10 7 -8 13 -10 -11 -12 -13 -14 -15
leaf_value=448.79625087020423 26.806990590587048 86.494692382666457 -56.239807598233853 420.56094074774228 -48.652806452904876 39.27414390135727 212.05048325482537 209.38160291161648 -0.87699614503726753 155.61392764959891 -102.69921779636584 -27.445378353860082 -13.24583907206679 48.772503681446487
leaf_weight=500 7494 4174 374 213 10629 2703 964 339 266 666 4744 6464 14592 818
leaf_count=500 7494 4174 374 213 10629 2703 964 339 266 666 4744 6464 14592 818
internal_value=0.212729 128.347 222.9 -15.5432 -26.6233 20.6414 294.159 3.96723 170.314 221.832 -65.3591 -7.76161 0.347465 96.5295
internal_weight=54940 6012 1838 48928 37459 11469 1464 10324 1145 879 15373 9167 22086 1157
internal_count=54940 6012 1838 48928 37459 11469 1464 10324 1145 879 15373 9167 22086 1157
is_linear=0
shrinkage=0.05


Tree=6
num_leaves=15
num_cat=0
split_feature=57 57 51 51 51 51 32 51 51 51 51 66 19 51
split_gain=1.14398e+10 7.46173e+09 4.11342e+09 1.13998e+10 1.72733e+10 3.68321e+09 3.10886e+09 4.19517e+09 2.26497e+09 2.30569e+09 7.20437e+09 2.06831e+09 1.67734e+09 1.65155e+09
threshold=3360.8602240253654 6502.0000000000009 3865.087144479573 3854.6568627450984 3864.9438159550637 2662.43597412794 3046.2827973696194 2662.535985344151 3865.1134113999819 3854.6568627450984 3864.9438159550637 0.0094451673755272022 24.500000000000004 3865.0343650818013
decision_type=2 2 2 2 2 2 2 2 2 2 2 2 2 2
left_child=6 2 3 5 -5 -2 7 -1 9 -8 -11 -4 -7 -6
right_child=1 -3 11 4 13 12 8 -9 -10 10 -12 -13 -14 -15
leaf_value=19.96349811957192 154.29906610585579 182.97234068084126 51.904033252697381 343.72829143382887 122.5153720471986 -6.3588158742427936 -10.852429383369085 -52.907003394101167 -40.807728644750831 333.33660977681484 19.570665923744205 -22.66588259663358 32.562375927131363 41.707842723910538
leaf_weight=2431 429 722 1092 643 840 8601 9121 10474 3764 187 3902 6104 4076 2554
leaf_count=2431 429 722 1092 643 840 8601 9121 10474 3764 187 3902 6104 4076 2554
internal_value=0.208456 25.1183 20.399 33.7136 107.123 11.0692 -20.6854 -39.1775 -6.61877 3.13462 34.3096 -11.3216 6.16329 61.8582
internal_weight=54940 25061 24339 17143 4037 13106 29879 12905 16974 13210 4089 7196 12677 3394
internal_count=54940 25061 24339 17143 4037 13106 29879 12905 16974 13210 4089 7196 12677 3394
is_linear=0
shrinkage=0.05


Tree=7
num_leaves=15
num_cat=0
split_feature=57 57 0 32 30 61 30 58 55 57 48 48 57 0
split_gain=1.03628e+10 6.8895e+09 3.80909e+09 2.56032e+09 1.8053e+09 1.4868e+09 1.44773e+09 1.36593e+09 1.11464e+09 1.0282e+09 1.0063e+09 1.69341e+09 9.03934e+08 7.85513e+08
threshold=3283.2319736084205 6502.0000000000009 27.500000000000004 3157.2150375939855 5495.1339871794871 43.500000000000007 5172.9280566534917 3177.484896256507 3335.2423283822714 4375.7352941176478 3168.2088106962542 3061.949308521625 3745.5483805811482 23.500000000000004
decision_type=2 2 2 2 2 2 2 2 2 2 2 2 2 2
left_child=3 2 6 5 8 10 9 13 -4 -2 11 -1 -6 -5
right_child=1 -3 4 7 12 -7 -8 -9 -10 -11 -12 -13 -14 -15
leaf_value=-32.517653773694128 -0.1379271083643073 173.88664351716494 38.52457495126724 -14.643003688149774 257.10213744704788 -5.0220820732380025 82.951076546022975 212.93623910823339 133.79066900185177 43.960072585794883 -27.782688657359024 -84.848797923676656 76.308999787944643 12.09771024379517
leaf_weight=3177 16901 722 7104 9548 143 3001 584 66 317 1429 4932 3025 141 3850
leaf_count=3177 16901 722 7104 9548 143 3001 584 66 317 1429 4932 3025 141 3850
internal_value=0.203353 22.0188 17.8677 -21.4082 47.4896 -36.2676 5.79128 -5.80065 42.6814 3.31097 -44.6832 -58.0898 170.216 -6.95723
internal_weight=54940 27341 26619 27599 7705 14135 18914 13464 7421 18330 11134 6202 284 13398
internal_count=54940 27341 26619 27599 7705 14135 18914 13464 7421 18330 11134 6202 284 13398
is_linear=0
shrinkage=0.05


Tree=8
num_leaves=15
num_cat=0
split_feature=54 54 54 54 54 56 54 33 54 56 54 5 54 54
split_gain=3.72673e+10 8.46744e+09 9.76061e+09 9.48337e+09 7.77017e+09 6.49829e+09 1.48511e+10 3.99459e+09 2.16397e+09 2.02003e+09 5.90722e+09 1.9167e+09 1.40868e+09 1.40137e+09
threshold=3215.4602732828375 3215.4788866414187 3346.9401329833022 3712.1722269913339 3215.4952405749705 0.50705896023411956 3215.4105175159239 4266.088235294118 3712.340076764342 0.863620199146515 3711.7945959554277 27.759426000000001 3215.4479002410058 3215.5057630401107
decision_type=2 2 2 2 2 2 2 2 2 2 2 2 2 2
left_child=5 -2 4 9 -3 6 -1 8 -5 10 -4 -9 -8 -6
right_child=1 2 3 7 13 -7 12 11 -10 -11 -12 -13 -14 -15
leaf_value=369.2936546899482 31.042922505513907 -19.633641095413289 349.10456643992461 6.6473181169914533 -59.502595896168998 -53.300575777471536 161.94724502070349 159.7567802700554 -45.012612312289747 -3.5719407463425643 97.579335680484007 32.058200516766711 90.193279266357422 -100.22574437716044
leaf_weight=713 9494 20883 285 5080 5516 374 1078 480 3367 266 1237 754 1951 3462
leaf_count=713 9494 20883 285 5080 5516 374 1078 480 3367 266 1237 754 1951 3462
internal_value=0.197129 -11.5274 -21.3089 17.8926 -36.3659 144.809 164.654 -1.669 -13.9589 123.517 145.667 82.1747 115.955 -75.2529
internal_weight=54940 50824 41330 11469 29861 4116 3742 9681 8447 1788 1522 1234 3029 8978
internal_count=54940 50824 41330 11469 29861 4116 3742 9681 8447 1788 1522 1234 3029 8978
is_linear=0
shrinkage=0.05


Tree=9
num_leaves=15
num_cat=0
split_feature=54 54 56 54 54 54 54 55 55 54 54 54 54 54
split_gain=3.39036e+10 7.27784e+09 1.27704e+10 5.68759e+09 1.15965e+10 8.62567e+09 4.16468e+09 3.26687e+09 3.12952e+09 3.43677e+09 2.71829e+09 2.68832e+09 2.33805e+09 2.11402e+09
threshold=3215.4676433121022 3215.4368720950256 0.50705896023411956 3346.9401329833022 3215.4913403770015 3712.0938118035497 3215.3838831984854 3335.2423283822714 2212.5966591679207 3711.6955451919116 3712.2981865456049 3215.4826200723019 3215.5030678688245 5220.99205882353
decision_type=2 2 2 2 2 2 2 2 2 2 2 2 2 2
left_child=1 2 6 4 11 8 -1 10 9 -5 -7 -2 -6 -9
right_child=3 -3 -4 5 12 7 -8 13 -10 -11 -12 -13 -14 -15
leaf_value=393.67722254989172 14.53613266371857 78.793784349001442 -50.670705387019865 365.37719614571392 -45.817778047653476 24.748898756397235 201.40945430179295 191.23761701972509 -3.3966394876641979 134.43714354468173 -30.452789412096884 -18.925776469605196 -90.337989867971572 39.768722111085111
leaf_weight=500 11790 4602 374 213 8864 3817 690 314 266 666 5350 12217 4434 843
leaf_count=500 11790 4602 374 213 8864 3817 690 314 266 666 5350 12217 4434 843
internal_value=0.191898 110.612 203.685 -13.7773 -23.2438 17.011 283.504 2.54086 146.904 192.149 -7.46665 -2.49279 -60.6907 81.5223
internal_weight=54940 6166 1564 48774 37305 11469 1190 10324 1145 879 9167 24007 13298 1157
internal_count=54940 6166 1564 48774 37305 11469 1190 10324 1145 879 9167 24007 13298 1157
is_linear=0
shrinkage=0.05


Tree=10
num_leaves=15
num_cat=0
split_feature=57 19 57 51 30 51 51 66 57 51 51 51 51 51
split_gain=8.46502e+09 5.52443e+09 3.13876e+09 2.03766e+09 1.5447e+09 1.47013e+09 3.18105e+09 1.53791e+09 1.36035e+09 1.23989e+09 4.0757e+09 6.1945e+09 1.10577e+09 1.08184e+09
threshold=4982.7380952380963 22.500000000000004 2756.3466494845366 2662.4808389725954 5495.1339871794871 3865.116734092514 3854.6568627450984 0.25906744801446252 7548.4913793103451 3865.0832616102402 3854.6568627450984 3864.9438159550637 2662.5434628182607 2662.43597412794
decision_type=2 2 2 2 2 2 2 2 2 2 2 2 2 2
left_child=1 2 12 -4 9 6 -5 -7 -2 10 13 -12 -1 -3
right_child=8 4 3 5 -6 7 -8 -9 -10 -11 11 -13 -14 -15
leaf_value=5.5290191578672419 77.121850307282443 135.09235832828216 83.268895140262245 -13.498048929048904 121.04591217206094 22.066866326073708 28.702848345394472 -47.46186193545617 172.0297975524237 -5.4172671288212824 285.75279252385519 52.984191326342142 -43.614140430158955 9.1374592737835378
leaf_weight=1310 1326 169 633 16057 377 1010 6180 3693 534 3810 327 2085 9007 8529
leaf_count=1310 1326 169 633 16057 377 1010 6180 3693 534 3810 327 2085 9007 8529
internal_value=0.0543193 -3.61676 -13.8554 -5.04999 21.74 -7.14026 -1.76595 -32.5225 104.758 19.191 27.6287 85.0671 -37.3745 11.661
internal_weight=55047 53187 37890 27573 15297 26940 22237 4703 1860 14920 11110 2412 10317 8698
internal_count=55047 53187 37890 27573 15297 26940 22237 4703 1860 14920 11110 2412 10317 8698
is_linear=0
shrinkage=0.05


Tree=11
num_leaves=15
num_cat=0
split_feature=57 19 57 45 51 30 51 51 66 57 31 51 51 51
split_gain=7.6442e+09 4.98862e+09 2.83302e+09 1.984e+09 1.84039e+09 1.39615e+09 1.33769e+09 3.16004e+09 1.30578e+09 1.22951e+09 1.13957e+09 1.43184e+09 1.65298e+09 9.35319e+08
threshold=4982.7380952380963 22.500000000000004 2756.3466494845366 2915.3833302046182 2662.4808389725954 5495.1339871794871 3865.1134113999819 3854.6568627450984 0.25906744801446252 7548.4913793103451 3763.8102672704094 3865.0653359526077 3854.6568627450984 3864.9745105742968
decision_type=2 2 2 2 2 2 2 2 2 2 2 2 2 2
left_child=1 2 3 -1 -4 10 7 -6 -8 -2 -3 12 -12 -7
right_child=9 5 4 -5 6 13 8 -9 -10 -11 11 -13 -14 -15
leaf_value=-6.7907642317769472 73.280243957718909 10.735562647298723 79.138078504221568 -52.246556469915063 -12.823356630099383 193.83482266159433 20.968958231087388 30.242220916074785 -42.439145531189894 163.5080996256315 39.335792866264818 4.4167423303222897 136.62155463403511 36.187597623573346
leaf_weight=3802 1326 11529 633 6515 16057 185 1010 5792 4081 534 1372 1379 640 192
leaf_count=3802 1326 11529 633 6515 16057 185 1010 5792 4081 534 1372 1379 640 192
internal_value=0.0556135 -3.43295 -13.1624 -35.5067 -4.79683 20.6628 -6.78334 -1.40269 -29.8514 99.5534 18.2394 43.6983 70.5436 115.073
internal_weight=55047 53187 37890 10317 27573 15297 26940 21849 5091 1860 14920 3391 2012 377
internal_count=55047 53187 37890 10317 27573 15297 26940 21849 5091 1860 14920 3391 2012 377
is_linear=0
shrinkage=0.05


Tree=12
num_leaves=15
num_cat=0
split_feature=54 54 54 54 54 56 54 55 33 54 54 54 54 52
split_gain=2.89056e+10 7.50474e+09 7.03285e+09 7.52351e+09 6.07743e+09 5.91253e+09 9.99495e+09 3.33792e+09 2.68665e+09 2.483e+09 2.16226e+09 1.16405e+09 1.1194e+09 1.1054e+09
threshold=3215.4570455327944 3215.4778914184885 3346.9401329833022 3712.0391275278585 3215.4955992317959 0.50705896023411956 3215.4002909278711 2212.5966591679207 4872.1112004662009 3712.2534073462652 3711.6955451919116 3215.4848041831642 3215.5096040626618 1707.0096914766405
decision_type=2 2 2 2 2 2 2 2 2 2 2 2 2 2
left_child=5 -2 4 7 11 6 -1 10 9 -5 -4 -3 -6 -10
right_child=1 2 3 8 12 -7 -8 -9 13 -11 -12 -13 -14 -15
leaf_value=345.39658837411918 30.668423257803386 -1.1409298893808082 338.5430369198595 40.234723204905151 -59.184781021259496 -45.986981025235409 118.50603075102684 -8.1675149936907694 23.289650473757366 -18.659260740809177 144.78626587688294 -25.359512878369848 -109.82267579907735 138.09088963431282
leaf_weight=607 9596 7520 214 2353 7121 372 2404 242 376 7421 468 14581 1296 476
leaf_count=607 9596 7520 214 2353 7121 372 2404 242 376 7421 468 14581 1296 476
internal_value=0.0558946 -9.22118 -18.3228 14.9038 -30.8983 141.537 164.743 151.354 2.97292 -4.46773 207.606 -17.1211 -67.0423 87.8592
internal_weight=55047 51664 42068 11550 30518 3383 3011 924 10626 9774 682 22101 8417 852
internal_count=55047 51664 42068 11550 30518 3383 3011 924 10626 9774 682 22101 8417 852
is_linear=0
shrinkage=0.05


Tree=13
num_leaves=15
num_cat=0
split_feature=54 54 54 54 54 56 54 55 54 54 55 54 54 54
split_gain=2.62059e+10 5.51037e+09 6.64962e+09 6.80233e+09 5.24502e+09 4.36347e+09 1.10173e+10 2.86726e+09 2.29676e+09 2.20243e+09 1.48072e+09 4.14509e+09 1.42698e+09 1.2468e+09
threshold=3215.4618871578587 3215.4796182647619 3346.9401329833022 3712.1680998761872 3215.4999477104498 0.50705896023411956 3215.4164296780859 2755.4167094891613 3712.3672744531582 3814.2297044334982 2212.5966591679207 3711.8874560462245 3215.488080349458 3215.3569852814603
decision_type=2 2 2 2 2 2 2 2 2 2 2 2 2 2
left_child=5 -2 4 10 12 6 13 8 -5 -9 11 -4 -3 -1
right_child=1 2 3 7 -6 -7 -8 9 -10 -11 -12 -13 -14 -15
leaf_value=367.61053841404186 23.730778130303641 -7.9646288621135204 270.90394940583604 2.8234812665745137 -74.780486664845284 -43.71812733473449 91.242367902426338 367.63992418561662 -55.854145068801543 47.992728863073268 -7.7674059551254464 76.156557839438122 -32.370964513097086 235.7276254422996
leaf_weight=373 9812 11662 363 5936 5463 372 3058 51 2314 1556 242 1088 12316 441
leaf_count=373 9812 11662 363 5936 5463 372 3058 51 2314 1556 242 1088 12316 441
internal_value=0.0572379 -9.9184 -17.9749 14.1728 -30.587 119.342 135.044 -1.74876 -13.6585 59.2461 106.604 125.64 -20.5048 298.036
internal_weight=55047 50803 40991 11550 29441 4244 3872 9857 8250 1607 1693 1451 23978 814
internal_count=55047 50803 40991 11550 29441 4244 3872 9857 8250 1607 1693 1451 23978 814
is_linear=0
shrinkage=0.05


Tree=14
num_leaves=15
num_cat=0
split_feature=57 57 19 51 51 51 51 51 51 51 73 57 66 58
split_gain=5.78334e+09 3.75416e+09 2.55579e+09 1.46574e+09 3.10668e+09 4.91212e+09 1.40281e+09 1.12479e+09 1.05342e+09 2.78147e+09 1.02215e+09 9.7832e+08 8.94973e+08 7.70346e+08
threshold=4982.7380952380963 2800.794673174873 23.500000000000004 3865.0754191350261 3854.6568627450984 3864.905447681022 2662.4705574456952 2662.5247691329873 3865.1089530065387 3854.6568627450984 24.500000000000004 10112.500000000002 0.25906744801446252 4548.6797832524562
decision_type=2 2 2 2 2 2 2 2 2 2 2 2 2 2
left_child=1 7 6 4 -4 -6 -3 -1 9 -8 -9 -2 -10 -13
right_child=11 2 3 -5 5 -7 8 10 12 -11 -12 13 -14 -15
leaf_value=24.501387685549094 74.516259968795424 77.686853452346782 17.810249893253371 -2.3101200175635217 278.42426561178621 56.829508702003935 -10.519588260063298 -38.992332072498201 17.92013677831703 31.803250218089929 -6.0308069453790356 278.01615870653001 -33.523039298886054 57.652499447406186
leaf_weight=1009 1686 512 6594 3860 286 1814 16071 8963 1025 5113 3191 108 4749 66
leaf_count=1009 1686 512 6594 3860 286 1814 16071 8963 1025 5113 3191 108 4749 66
internal_value=0.0601045 -2.97427 4.64427 23.3295 34.708 87.5984 -3.89773 -26.1325 -5.46135 -0.299383 -30.3444 86.6041 -24.3832 198.377
internal_weight=55047 53187 40024 12554 8694 2100 27470 13163 26958 21184 12154 1860 5774 174
internal_count=55047 53187 40024 12554 8694 2100 27470 13163 26958 21184 12154 1860 5774 174
is_linear=0
shrinkage=0.05


Tree=15
num_leaves=15
num_cat=0
split_feature=54 54 54 54 54 56 54 54 54 54 55 54 54 54
split_gain=2.25593e+10 6.0305e+09 4.97902e+09 5.96373e+09 5.24234e+09 4.91798e+09 7.54266e+09 2.50751e+09 3.11641e+09 1.27769e+09 3.13961e+09 1.25582e+09 1.22093e+09 8.27077e+08
threshold=3215.455792089861 3215.4761699517994 3346.9401329833022 3712.1835765579867 3215.4934922103635 0.50705896023411956 3215.4002909278711 4874.1232876712338 5220.3155882352949 3712.0071423854729 2212.5966591679207 3215.5064032105356 3712.3523755674787 3215.4269198657262
decision_type=2 2 2 2 2 2 2 2 2 2 2 2 2 2
left_child=5 -2 4 9 -3 6 -1 12 -9 10 -4 -6 -5 -8
right_child=1 2 3 7 11 -7 13 8 -10 -11 -12 -13 -14 -15
leaf_value=308.8541168315644 31.03942517363733 -11.477702030320394 206.05827590431068 1.8482169483320192 -43.730314600660314 -42.13445581113038 172.2939629706521 282.38124579352302 34.42990298435241 57.233786051626318 -3.4371322284067483 -82.242018207316875 -37.40328583613519 93.648220514971271
leaf_weight=589 8284 21408 562 5488 7545 375 416 143 896 1096 261 2956 3095 1869
leaf_count=589 8284 21408 562 5488 7545 375 416 143 896 1096 261 2956 3095 1869
internal_value=-0.0133839 -8.04455 -15.4989 12.6409 -25.677 127.683 149.876 -3.42614 69.7452 93.0016 140.001 -54.6052 -12.3192 108.311
internal_weight=54983 51734 43450 11541 31909 3249 2874 9622 1039 1919 823 10501 8583 2285
internal_count=54983 51734 43450 11541 31909 3249 2874 9622 1039 1919 823 10501 8583 2285
is_linear=0
shrinkage=0.05


Tree=16
num_leaves=15
num_cat=0
split_feature=54 54 56 54 54 54 54 55 54 54 54 54 54 54
split_gain=2.05355e+10 4.69522e+09 6.65865e+09 3.97747e+09 3.17857e+09 6.77568e+09 5.39102e+09 2.4056e+09 1.93044e+09 2.82375e+09 1.98589e+09 1.75107e+09 1.69483e+09 1.3427e+09
threshold=3215.4693325012918 3215.4429295059394 0.50705896023411956 3215.3838831984854 3346.9401329833022 3215.4924162936827 3712.0391275278585 2212.5966591679207 4874.1232876712338 5220.3155882352949 3712.2671506397032 3711.3385497317381 3215.4831661000176 3215.5041437855057
decision_type=2 2 2 2 2 2 2 2 2 2 2 2 2 2
left_child=1 2 3 -1 5 12 7 11 10 -10 -8 -6 -2 -7
right_child=4 -3 -4 -5 6 13 8 -9 9 -11 -12 -13 -14 -15
leaf_value=311.42175670455259 9.7987283826606717 55.776712290397057 -40.055453099702532 139.87755898240437 329.48590694090137 -36.977389438666265 29.544421906920991 -3.2685063021523613 268.73918028135557 32.717960929433993 -20.179593002178724 131.84111821742655 -16.052072284442623 -72.436409608729633
leaf_weight=493 12406 4220 375 1110 142 7807 2863 261 143 896 6692 544 12958 4073
leaf_count=493 12406 4220 375 1110 142 7807 2863 261 143 896 6692 544 12958 4073
internal_value=-0.00831564 85.6823 149.183 193.44 -10.9027 -18.0068 12.0205 125.993 1.77783 66.3338 -5.27292 174.841 -3.40852 -49.1597
internal_weight=54983 6198 1978 1603 48785 37244 11541 947 10594 1039 9555 686 25364 11880
internal_count=54983 6198 1978 1603 48785 37244 11541 947 10594 1039 9555 686 25364 11880
is_linear=0
shrinkage=0.05


Tree=17
num_leaves=15
num_cat=0
split_feature=54 54 56 54 54 54 54 55 54 54 54 54 54 55
split_gain=1.85618e+10 5.20426e+09 5.65677e+09 4.00565e+09 3.25544e+09 5.44013e+09 4.94086e+09 2.12042e+09 1.8718e+09 1.38368e+09 1.33991e+09 1.09925e+09 1.0401e+09 2.85322e+09
threshold=3215.4703868996389 3215.4479002410058 0.50705896023411956 3215.3838831984854 3346.9401329833022 3215.4934922103635 3712.1835765579867 2755.4167094891613 3712.3858052001656 3814.7520168067235 3215.4837121277333 3215.5090553451541 3711.9565852249284 2212.5966591679207
decision_type=2 2 2 2 2 2 2 2 2 2 2 2 2 2
left_child=1 2 3 -1 5 10 12 8 -8 -9 -2 -7 13 -6
right_child=4 -3 -4 -5 6 11 7 9 -10 -11 -12 -13 -14 -15
leaf_value=296.00700747325243 5.0430737292807262 46.338663765416506 -38.079032733565889 127.91631424079608 201.27853648590028 -42.891052264574995 -2.1643434741923673 254.89473806527945 -64.315766474730864 38.634373232662021 -17.956070670307085 -90.172926995802641 54.749945565406314 -3.1081525336530875
leaf_weight=493 12567 5457 375 1292 488 9077 6539 73 1482 1528 12757 1424 1170 261
leaf_count=493 12567 5457 375 1292 488 9077 6539 73 1482 1528 12757 1424 1170 261
internal_value=-0.0028059 72.4155 138.036 175.039 -11.6549 -19.0943 11.4362 -3.18817 -13.6807 49.2581 -6.54402 -49.3427 84.5815 130.508
internal_weight=54983 7617 2160 1785 47366 35825 11541 9622 8021 1601 25324 10501 1919 749
internal_count=54983 7617 2160 1785 47366 35825 11541 9622 8021 1601 25324 10501 1919 749
is_linear=0
shrinkage=0.05


Tree=18
num_leaves=15
num_cat=0
split_feature=54 54 68 54 54 54 54 33 54 54 54 55 54 54
split_gain=1.68784e+10 4.66853e+09 3.82839e+09 5.30521e+09 3.70085e+09 4.46612e+09 3.93061e+09 1.99087e+09 1.08512e+09 1.05567e+09 9.73471e+08 2.33775e+09 7.31978e+08 6.18573e+08
threshold=3215.454893699432 3215.4761699517994 0.45876963922342651 3215.4002909278711 3346.9401329833022 3712.2018596780858 3215.4977151833364 5539.4515810276689 5220.3155882352949 3215.4869291186092 3712.0071423854729 2212.5966591679207 3712.3107742468019 3215.5107014976761
decision_type=2 2 2 2 2 2 2 2 2 2 2 2 2 2
left_child=2 -2 -1 -4 6 10 9 12 -9 -3 11 -6 -7 -8
right_child=1 4 3 -5 5 7 13 8 -10 -11 -12 -13 -14 -15
leaf_value=-36.200133434526229 27.262719340397894 -3.166749616939958 266.17013677218148 96.74022277980599 177.81837826683409 7.737801892732354 -49.975627838339435 213.30708847343922 49.087041533017214 -23.527755035957014 49.217312701640175 -2.9556658888221685 -21.255480751480423 -91.537944002712479
leaf_weight=375 8430 12762 589 2139 562 3717 5363 123 494 12701 1142 261 5242 1083
leaf_count=375 8430 12762 589 2139 562 3717 5363 123 494 12701 1142 261 5242 1083
internal_value=0.000809047 -6.77875 113.179 133.742 -13.3857 10.8748 -22.1607 -3.22815 83.2765 -13.3255 79.4361 120.817 -9.22882 -57.0241
internal_weight=54983 51880 3103 2728 43450 11541 31909 9576 617 25463 1965 823 8959 6446
internal_count=54983 51880 3103 2728 43450 11541 31909 9576 617 25463 1965 823 8959 6446
is_linear=0
shrinkage=0.05


Tree=19
num_leaves=15
num_cat=0
split_feature=54 54 56 54 54 54 54 55 54 54 54 55 54 54
split_gain=1.53428e+10 2.88702e+09 6.18472e+09 2.60455e+09 4.17433e+09 4.03382e+09 2.83442e+09 1.65615e+09 1.63641e+09 1.51666e+09 1.38758e+09 1.29085e+09 2.09888e+09 6.13066e+08
threshold=3215.4651149079023 3215.4320573678779 0.50705896023411956 3215.4810653726977 3346.9401329833022 3712.1051613702029 3215.5009429333795 3335.2423283822714 3215.3838831984854 5221.74205882353 3712.3065645893525 2212.5966591679207 3711.6955451919116 3215.4891777844728
decision_type=2 2 2 2 2 2 2 2 2 2 2 2 2 2
left_child=1 2 8 -2 6 11 13 10 -1 -9 -7 12 -6 -5
right_child=3 -3 -4 4 5 7 -8 9 -10 -11 -12 -13 -14 -15
leaf_value=268.18036589718253 12.314785151658187 58.101481044021526 -34.413942385849204 -9.093688614938447 260.26999345002349 14.041085587349054 -58.714420263877905 128.04909925207627 143.54352093112084 10.40408197303924 -24.956556611029264 -2.8106607798346901 82.393352078387622 -25.974804123682834
leaf_weight=493 11532 3691 375 10662 211 4231 5209 447 615 698 4938 261 755 10865
leaf_count=493 11532 3691 375 10662 211 4231 5209 447 615 698 4938 261 755 10865
internal_value=0.00376346 81.911 140.775 -8.51186 -14.7873 10.3413 -25.6343 0.126979 199.956 56.6891 -6.96337 95.852 122.387 -17.6179
internal_weight=54983 5174 1483 49809 38277 11541 26736 10314 1108 1145 9169 1227 966 21527
internal_count=54983 5174 1483 49809 38277 11541 26736 10314 1108 1145 9169 1227 966 21527
is_linear=0
shrinkage=0.05


Tree=20
num_leaves=15
num_cat=0
split_feature=54 54 56 54 54 54 54 56 54 54 54 4 54 54
split_gain=1.38899e+10 3.97437e+09 4.25711e+09 2.96223e+09 2.51207e+09 3.91933e+09 3.51457e+09 1.83588e+09 1.99193e+09 1.49078e+09 9.33752e+08 8.58936e+08 8.37263e+08 7.52311e+08
threshold=3215.4708818213121 3215.4479002410058 0.50705896023411956 3215.3838831984854 3346.9401329833022 3215.4934922103635 3712.2018596780858 0.66682352941176481 3814.2297044334982 3712.403345439538 3215.4843469185748 -80.887213999999986 3215.5090553451541 3711.9565852249284
decision_type=2 2 2 2 2 2 2 2 2 2 2 2 2 2
left_child=1 2 3 -1 5 10 13 9 -9 -8 -2 -10 -7 -6
right_child=4 -3 -4 -5 6 12 7 8 11 -11 -12 -13 -14 -15
leaf_value=254.80657552889079 3.7505460297208346 39.793679351941201 -32.685910741446534 110.74366802831042 111.23491516173601 -36.874925866264945 -3.5525823678142636 339.44396602085658 7.1939471434158495 -67.281636149858457 -15.547023231017025 83.394503441730336 -78.587447938543065 46.582560023916777
leaf_weight=500 12423 5665 377 1278 746 9018 6966 51 991 1052 12645 586 1390 1157
leaf_count=500 12423 5665 377 1278 746 9018 6966 51 991 1052 12645 586 1390 1157
internal_value=0.15936 61.841 119.572 151.857 -10.1034 -16.6965 10.1476 -2.11595 46.2098 -11.9509 -5.98484 35.6837 -42.4808 72.1523
internal_weight=54845 7820 2155 1778 47025 35476 11549 9646 1628 8018 25068 1577 10408 1903
internal_count=54845 7820 2155 1778 47025 35476 11549 9646 1628 8018 25068 1577 10408 1903
is_linear=0
shrinkage=0.05


Tree=21
num_leaves=15
num_cat=0
split_feature=54 54 54 54 54 56 54 55 54 54 54 55 54 54
split_gain=1.25987e+10 2.77299e+09 2.93156e+09 3.217e+09 2.76887e+09 2.27168e+09 5.23478e+09 1.81529e+09 1.81649e+09 1.21709e+09 8.61145e+08 2.23645e+09 7.3518e+08 6.60231e+08
threshold=3215.4590628765714 3215.4773534601486 3346.9401329833022 3712.2123631861336 3215.4987911000176 0.50705896023411956 3215.4164296780859 2755.4167094891613 3814.2297044334982 3712.403345439538 3711.9565852249284 2212.5966591679207 3215.488080349458 3215.3569852814603
decision_type=2 2 2 2 2 2 2 2 2 2 2 2 2 2
left_child=5 -2 4 10 12 6 13 9 -9 -5 11 -4 -3 -1
right_child=1 2 3 7 -6 -7 -8 8 -10 -11 -12 -13 -14 -15
leaf_value=261.01662584635415 19.419936548284131 -4.5328195532940532 169.2422212949279 -6.0640113402163767 -51.05735177265251 -31.073006648730235 65.590950827771096 323.98714120047435 33.913814390986907 -63.933467605865104 40.824300883275207 -11.272686354378344 -21.715343244530349 164.25521984635114
leaf_weight=370 8529 13157 482 6481 5781 377 2842 51 1577 1052 1642 264 11817 423
leaf_count=370 8529 13157 482 6481 5781 377 2842 51 1577 1052 1642 264 11817 423
internal_value=0.154867 -6.58082 -11.8246 9.6514 -19.8894 85.3996 97.5056 -3.83086 43.9652 -14.1827 61.273 105.71 -12.6658 210.755
internal_weight=54845 50833 42304 11549 30755 4012 3635 9161 1628 7533 2388 746 24974 793
internal_count=54845 50833 42304 11549 30755 4012 3635 9161 1628 7533 2388 746 24974 793
is_linear=0
shrinkage=0.05


Tree=22
num_leaves=15
num_cat=0
split_feature=57 57 51 51 51 51 57 51 51 51 51 66 58 58
split_gain=2.7266e+09 1.54466e+09 1.05435e+09 2.39995e+09 5.75142e+09 8.03054e+08 7.88436e+08 7.67866e+08 7.38432e+08 6.84632e+08 6.96371e+08 5.5846e+08 5.31531e+08 5.06333e+08
threshold=4444.3684210526326 3202.7768284347235 3865.0939211252703 3854.6568627450984 3864.905447681022 3865.0201688204061 10112.500000000002 2662.406064231503 2662.4939245522869 2959.2922276029062 2662.5658952405879 0.0094451673755272022 4219.2021316424971 3177.484896256507
decision_type=2 2 2 2 2 2 2 2 2 2 2 2 2 2
left_child=1 8 3 7 -5 -6 -2 -3 -1 10 -10 -4 -8 -11
right_child=6 2 11 4 5 -7 12 -9 9 13 -12 -13 -14 -15
leaf_value=40.956400296746239 41.002484236294428 105.21024533389659 23.520351527916322 215.50036513663864 72.292092230848752 15.457995603727724 222.40980686732701 0.72508819020760473 -9.8297041845515505 -6.0431625988189559 -35.27197470338664 -15.400246857535969 46.988442970173708 126.00166057429902
leaf_weight=651 2629 173 1068 433 748 3588 100 14495 5530 13496 5241 6546 79 68
leaf_count=651 2629 173 1068 433 748 3588 100 14495 5530 13496 5241 6546 79 68
internal_value=0.151174 -2.44051 5.8382 12.0156 42.8082 25.3344 48.0985 1.99287 -11.4028 -12.8116 -22.2202 -9.92905 148.371 -5.33498
internal_weight=54845 52037 27051 19437 4769 4336 2808 14668 24986 24335 10771 7614 179 13564
internal_count=54845 52037 27051 19437 4769 4336 2808 14668 24986 24335 10771 7614 179 13564
is_linear=0
shrinkage=0.05


Tree=23
num_leaves=15
num_cat=0
split_feature=54 54 56 54 54 54 54 55 54 54 57 54 54 55
split_gain=1.09537e+10 3.14391e+09 3.0175e+09 2.7248e+09 1.92555e+09 3.06774e+09 2.76047e+09 1.54509e+09 1.61671e+09 1.09584e+09 8.24195e+08 8.22063e+08 7.18531e+08 1.91887e+09
threshold=3215.4708818213121 3215.4483037097611 0.50705896023411956 3215.3838831984854 3346.9401329833022 3215.4924162936827 3712.2123631861336 2755.4167094891613 3814.2297044334982 3712.3946784977311 3134.3150923831076 3215.5096040626618 3711.9565852249284 2212.5966591679207
decision_type=2 2 2 2 2 2 2 2 2 2 2 2 2 2
left_child=1 2 3 -1 5 -2 12 9 -9 -8 -10 -7 13 -6
right_child=4 -3 -4 -5 6 11 7 8 10 -11 -12 -13 -14 -15
leaf_value=225.41532099657721 -4.3416245099380681 32.912867746630326 -29.528515759875013 92.067642130367176 156.02526057123896 -30.914427866569628 -4.9104109378425891 304.5342252458845 -53.027662806357107 -56.745150169573336 46.319710275445686 -73.381170316270669 37.900565355969114 -11.169830511405124
leaf_weight=500 23654 5285 377 1658 482 10545 6322 51 243 1211 1334 1277 1642 264
leaf_count=500 23654 5285 377 1658 482 10545 6322 51 243 1211 1334 1277 1642 264
internal_value=0.147461 54.923 100.655 123.414 -8.96628 -14.7386 8.76376 -3.72519 40.3706 -13.2755 30.8919 -35.5307 56.5825 97.1763
internal_weight=54845 7820 2535 2158 47025 35476 11549 9161 1628 7533 1577 11822 2388 746
internal_count=54845 7820 2535 2158 47025 35476 11549 9161 1628 7533 1577 11822 2388 746
is_linear=0
shrinkage=0.05


Tree=24
num_leaves=15
num_cat=0
split_feature=54 54 56 54 54 54 54 55 54 54 54 45 54 55
split_gain=9.91576e+09 2.29869e+09 3.26611e+09 1.82568e+09 1.51517e+09 3.22084e+09 2.49243e+09 1.39705e+09 1.47442e+09 1.0129e+09 9.7365e+08 7.55211e+08 6.5272e+08 1.58318e+09
threshold=3215.4693325012918 3215.4429295059394 0.50705896023411956 3215.3838831984854 3346.9401329833022 3215.4910713978311 3712.2123631861336 2755.4167094891613 3814.2297044334982 3712.4179966983079 3215.5041437855057 3691.4902986979837 3712.0071423854729 2212.5966591679207
decision_type=2 2 2 2 2 2 2 2 2 2 2 2 2 2
left_child=1 2 3 -1 5 -2 12 9 -9 -8 -7 -10 13 -6
right_child=4 -3 -4 -5 6 10 7 8 11 -11 -12 -13 -14 -15
leaf_value=214.25614744885144 -0.1078296741825048 38.725456015160063 -28.071415285914355 98.329060001321409 137.88405851460189 -22.467839460440274 -6.444428409352267 290.66704134259902 6.1752473492783206 -67.112639237446203 -51.168340708187316 80.920911411460565 34.772592651587175 -10.621719108461004
leaf_weight=500 21854 4264 377 1098 551 11182 6772 51 1092 761 4021 485 1573 264
leaf_count=500 21854 4264 377 1098 551 11182 6772 51 1092 761 4021 485 1573 264
internal_value=0.142965 59.4574 104.007 135.157 -7.47589 -12.4038 8.33463 -3.53249 38.3976 -12.6137 -30.0731 29.3462 53.7724 90.0074
internal_weight=54845 6239 1975 1598 48606 37057 11549 9161 1628 7533 15203 1577 2388 815
internal_count=54845 6239 1975 1598 48606 37057 11549 9161 1628 7533 15203 1577 2388 815
is_linear=0
shrinkage=0.05


Tree=25
num_leaves=15
num_cat=0
split_feature=54 54 54 54 33 54 46 54 54 54 54 45 6 0
split_gain=8.92135e+09 2.622e+09 2.38204e+09 2.1145e+09 1.72321e+09 1.58058e+09 1.37537e+09 9.01316e+08 1.63432e+09 1.36918e+09 7.37115e+08 8.2662e+08 9.79923e+08 5.17318e+08
threshold=3215.471973876743 3215.4483037097611 2466.0390000000002 3215.4164296780859 3759.6199980709116 3215.4848041831642 2359.6522139741146 3346.9401329833022 3712.2300066033845 3215.5009429333795 3712.2300066033845 2915.300419247857 99.000000000000014 39.500000000000007
decision_type=2 2 2 2 2 2 2 2 2 2 2 2 2 2
left_child=1 2 -1 -4 5 -2 10 9 -9 -7 -6 12 -12 -8
right_child=4 -3 3 -5 6 7 13 8 -10 -11 11 -13 -14 -15
leaf_value=-27.866899550782094 3.0731167441945932 29.495620056439289 176.39031498163223 73.024942805176678 44.29614003917014 -16.060097702821366 54.952658988052193 46.955195760103614 -15.527303490644066 -45.138522440321132 -22.334286664579519 -11.218875470210747 121.06385261479753 150.56419727634739
leaf_weight=358 12408 5498 784 1364 1052 17749 658 1372 4356 5244 209 3471 268 180
leaf_count=358 12408 5498 784 1364 1052 17749 658 1372 4356 5244 209 3471 268 180
internal_value=0.0864316 48.8628 91.2096 111.074 -8.23023 -11.8387 17.1801 -18.2803 -0.533231 -22.7004 7.21176 -2.71336 58.6528 76.2613
internal_weight=54971 8004 2506 2148 46967 41129 5838 28721 5728 22993 5000 3948 477 838
internal_count=54971 8004 2506 2148 46967 41129 5838 28721 5728 22993 5000 3948 477 838
is_linear=0
shrinkage=0.05


Tree=26
num_leaves=15
num_cat=0
split_feature=54 54 54 54 54 54 54 55 54 33 54 54 54 54
split_gain=8.07004e+09 2.34854e+09 1.80434e+09 2.49457e+09 1.78446e+09 2.22218e+09 2.00051e+09 1.3331e+09 1.36049e+09 1.22939e+09 1.01482e+09 8.44976e+08 5.18054e+08 5.04091e+08
threshold=3215.454893699432 3215.4755761533829 2466.0390000000002 3215.4164296780859 3346.9401329833022 3712.0391275278585 3215.4955992317959 2212.5966591679207 3711.3385497317381 5539.4515810276689 5219.6832352941192 3712.2793669005373 3215.5107014976761 3493.2608108108111
decision_type=2 2 2 2 2 2 2 2 2 2 2 2 2 2
left_child=2 -2 -1 -4 6 7 -3 8 -6 11 -11 -7 -8 -9
right_child=1 4 3 -5 5 9 12 13 -10 10 -12 -13 -14 -15
leaf_value=-26.492746543818598 21.79876508930424 -7.5989219259924825 167.62669036439769 61.811272368140912 245.99574664572012 19.361323552252852 -31.050804131112603 92.117955499962932 78.196323250455109 199.62810321807862 38.01274735129882 -12.374368119552472 -68.278648618735318 -58.1099851450995
leaf_weight=358 7252 24695 784 1934 156 2995 7332 74 521 115 530 6967 1072 186
leaf_count=358 7252 24695 784 1934 156 2995 7332 74 521 115 530 6967 1072 186
internal_value=0.0846646 -4.58262 78.7058 92.5853 -8.87009 8.05418 -14.7731 81.6509 118.382 1.51737 68.1422 -2.82832 -35.8373 -14.4205
internal_weight=54971 51895 3076 2718 44643 11544 33099 937 677 10607 645 9962 8404 260
internal_count=54971 51895 3076 2718 44643 11544 33099 937 677 10607 645 9962 8404 260
is_linear=0
shrinkage=0.05


Tree=27
num_leaves=15
num_cat=0
split_feature=54 54 54 54 33 54 57 54 76 54 54 54 58 54
split_gain=7.31994e+09 2.08778e+09 1.9079e+09 1.82466e+09 1.41573e+09 1.40797e+09 1.20675e+09 8.76331e+08 8.39396e+08 2.30503e+09 9.44102e+08 8.25611e+08 6.2402e+08 4.66111e+08
threshold=3215.4708818213121 3215.4509128077125 2466.0390000000002 3215.3569852814603 3759.6199980709116 3215.4861652177656 8633.0196850393713 3712.0391275278585 6.5000000000000009 3711.8874560462245 3215.5009429333795 3712.361042509287 4286.7684423553846 3215.4242300740239
decision_type=2 2 2 2 2 2 2 2 2 2 2 2 2 2
left_child=1 2 -1 -4 5 -2 7 -6 10 -10 -7 -11 -9 -5
right_child=4 -3 3 13 6 8 -8 12 9 11 -12 -13 -14 -15
leaf_value=-25.186354977368651 1.9096687300295199 26.665966925623572 202.28739824083118 118.85938413799934 81.745553933925947 -15.608571715007095 175.40652576643845 4.9146488632093686 167.63283289129083 7.7676392961726934 -39.598654866957716 -34.419523369377572 151.14244285789695 62.841547482003172
leaf_weight=358 14621 5168 355 525 418 15781 111 5240 193 3510 5543 1726 69 1353
leaf_count=358 14621 5168 355 525 418 15781 111 5240 193 3510 5543 1726 69 1353
internal_value=0.0837089 45.0745 81.67 98.8196 -7.31424 -10.5668 15.7262 12.4809 -17.3846 0.168266 -21.8524 -6.1585 6.95561 78.7756
internal_weight=54971 7759 2591 2233 47212 41374 5838 5727 26753 5429 21324 5236 5309 1878
internal_count=54971 7759 2591 2233 47212 41374 5838 5727 26753 5429 21324 5236 5309 1878
is_linear=0
shrinkage=0.05


Tree=28
num_leaves=15
num_cat=0
split_feature=54 54 54 54 54 33 54 54 54 55 54 54 54 54
split_gain=6.61624e+09 1.44942e+09 1.91832e+09 1.86589e+09 1.25992e+09 1.12301e+09 1.08009e+09 2.86281e+09 9.05003e+08 7.16492e+08 1.66369e+09 5.61262e+08 4.97459e+08 4.50081e+08
threshold=3215.462425116199 3215.4809819891548 3346.9401329833022 3712.1423054065217 3215.5009429333795 5539.4515810276689 2466.0390000000002 3215.4242300740239 5219.6832352941192 2212.5966591679207 3711.3385497317381 3712.3022723896001 3215.3569852814603 3493.2608108108111
decision_type=2 2 2 2 2 2 2 2 2 2 2 2 2 2
left_child=6 -2 4 9 -3 11 -1 12 -7 10 -4 -5 -8 -11
right_child=1 2 3 5 -6 8 7 -9 -10 13 -12 -13 -14 -15
leaf_value=-23.944383175116926 10.187181983518864 -11.711824000515143 227.51582273874226 10.795067242949683 -38.988786798019035 187.58393328348797 192.31350663926867 43.941839267959139 34.982564129428333 87.200586328627196 53.612591903351351 -14.154306497021061 112.97248061845887 -54.750125705009978
leaf_weight=358 11956 21841 156 3671 5249 115 355 3143 530 74 988 5824 525 186
leaf_count=358 11956 21841 156 3671 5249 115 355 3143 530 74 988 5824 525 186
internal_value=0.0835555 -5.02326 -9.73113 7.3342 -17.0033 -0.157348 58.9935 66.3947 63.4246 61.2485 78.2138 -4.50764 145.885 -13.4648
internal_weight=54971 50590 38634 11544 27090 10140 4381 4023 645 1404 1144 9495 880 260
internal_count=54971 50590 38634 11544 27090 10140 4381 4023 645 1404 1144 9495 880 260
is_linear=0
shrinkage=0.05


Tree=29
num_leaves=15
num_cat=0
split_feature=57 48 51 73 51 51 51 48 51 45 46 6 51 51
split_gain=1.44689e+09 9.10198e+08 7.98269e+08 8.78721e+08 1.67427e+09 7.27114e+08 8.56977e+08 5.52584e+08 5.47434e+08 5.22782e+08 5.37774e+08 4.52048e+08 3.78233e+08 3.61627e+08
threshold=4982.7380952380963 3373.8342251994882 3865.0742680868048 63.500000000000007 3864.905447681022 2662.4939245522869 3009.0111286815586 3373.5855304896072 3865.1042720771052 2915.1815280645774 2359.6522139741146 99.000000000000014 2662.5546790294243 3864.9745105742968
decision_type=2 2 2 2 2 2 2 2 2 2 2 2 2 2
left_child=1 5 3 -3 -5 -1 12 8 -8 11 -11 -2 -7 -12
right_child=9 2 -4 4 -6 6 7 -9 -10 10 13 -13 -14 -15
leaf_value=34.999530954174396 26.169153025945032 11.962181284346663 -4.2640914075416729 156.7495614500273 30.768278462873454 -3.7928290150558972 5.1838027027338009 -32.159830883534653 -10.754467166079307 11.738613923359843 94.773887746166778 192.98131340545359 -21.072633931527598 17.096822098051682
leaf_weight=1145 70 3160 3503 331 1244 4746 20884 1304 7255 1025 451 98 9528 227
leaf_count=1145 70 3160 3503 331 1244 4746 20884 1304 7255 1025 451 98 9528 227
internal_value=0.0830964 -1.44141 13.8299 27.2064 57.6568 -4.24691 -5.27871 -0.403769 1.07329 43.2382 34.7041 126.243 -15.3306 69.0829
internal_weight=54971 53100 8238 4735 1575 44862 43717 29443 28139 1871 1703 168 14274 678
internal_count=54971 53100 8238 4735 1575 44862 43717 29443 28139 1871 1703 168 14274 678
is_linear=0
shrinkage=0.05


Tree=30
num_leaves=15
num_cat=0
split_feature=54 54 54 54 33 54 46 51 51 51 54 54 54 51
split_gain=5.84432e+09 1.72173e+09 1.58195e+09 1.48608e+09 1.00708e+09 1.06081e+09 8.87978e+08 8.12423e+08 8.5149e+08 1.03335e+09 6.85832e+08 1.0755e+09 7.63702e+08 5.64958e+08
threshold=3215.471973876743 3215.4509128077125 2466.0390000000002 3215.3569852814603 3759.6199980709116 3215.4869291186092 2359.6522139741146 3864.9745105742968 3854.6568627450984 3263.2054677768315 3346.9401329833022 3712.2437498968225 3215.5064032105356 3864.8360011050067
decision_type=2 2 2 2 2 2 2 2 2 2 2 2 2 2
left_child=1 2 -1 -4 5 -2 -6 8 9 -8 12 -12 -7 -10
right_child=4 -3 3 -5 6 10 7 -9 13 -11 11 -13 -14 -15
leaf_value=-23.320061843671567 0.49082962660439161 23.32199422221937 181.13331272072989 70.305339117338676 4.8053853640393713 -16.262734970269126 181.14555395283833 -2.6637975924355644 279.16417643229164 -4.8916862838001176 36.503938969594387 -13.240063804349271 -43.96625323430257 85.81597654377974
leaf_weight=366 16119 5451 360 1875 5042 16312 104 310 85 236 1440 4376 2934 76
leaf_count=366 16119 5451 360 1875 5042 16312 104 310 85 236 1440 4376 2934 76
internal_value=-0.0178065 39.3299 72.769 88.5214 -6.75742 -9.51581 12.6418 61.0328 100.083 53.8137 -15.9506 -0.902985 -20.4964 193.23
internal_weight=55086 8052 2601 2235 47034 41181 5853 811 501 340 25062 5816 19246 161
internal_count=55086 8052 2601 2235 47034 41181 5853 811 501 340 25062 5816 19246 161
is_linear=0
shrinkage=0.05


Tree=31
num_leaves=15
num_cat=0
split_feature=54 54 54 54 54 54 54 55 54 54 0 54 54 55
split_gain=5.28061e+09 1.62954e+09 1.67546e+09 1.08274e+09 9.33951e+08 1.47293e+09 1.4581e+09 9.04681e+08 1.2714e+09 9.46232e+08 7.23691e+08 4.8797e+08 3.669e+08 3.57664e+08
threshold=3215.4726463246689 3215.4452104493034 2466.0390000000002 3215.3569852814603 3346.9401329833022 3215.4934922103635 3712.2085604622375 2755.4167094891613 3814.2297044334982 3712.4446165910035 24.500000000000004 3215.5116739111727 3215.4837121277333 2212.5966591679207
decision_type=2 2 2 2 2 2 2 2 2 2 2 2 2 2
left_child=1 2 -1 -4 5 12 13 9 -9 -8 -10 -7 -2 -6
right_child=4 -3 3 -5 6 11 7 8 10 -11 -12 -13 -14 -15
leaf_value=-22.169773190233585 2.4485867669617076 23.772740091661014 172.2007114190925 74.450532955934861 47.594061917414862 -22.857368399916496 -5.8855598059762579 264.83315462384905 -6.6935931134354227 -78.192360818361408 61.984183003679142 -60.045826547475968 -9.7905461059698364 -13.316293366778982
leaf_weight=366 11715 6314 360 1361 2100 9537 7177 51 910 478 657 970 12820 270
leaf_count=366 11715 6314 360 1361 2100 9537 7177 51 910 478 657 970 12820 270
internal_value=-0.013474 36.4677 74.7264 95.3377 -6.5815 -10.6576 5.68557 -3.26552 30.6467 -10.4487 22.2065 -26.3175 -3.94727 40.6414
internal_weight=55086 8401 2087 1721 46685 35042 11643 9273 1618 7655 1567 10507 24535 2370
internal_count=55086 8401 2087 1721 46685 35042 11643 9273 1618 7655 1567 10507 24535 2370
is_linear=0
shrinkage=0.05


Tree=32
num_leaves=15
num_cat=0
split_feature=54 54 54 54 54 54 54 54 54 54 54 55 54 54
split_gain=4.80717e+09 1.32986e+09 1.03414e+09 1.69578e+09 1.02226e+09 1.31952e+09 1.13402e+09 8.58328e+08 1.75477e+09 4.53557e+08 4.0862e+08 1.38022e+09 3.18072e+08 2.97229e+08
threshold=3215.4570455327944 3215.4767617059738 2466.0390000000002 3215.4164296780859 3346.9401329833022 3712.2258794882378 3215.4977151833364 4874.1232876712338 5219.6832352941192 3712.3575344614123 3711.8874560462245 2212.5966591679207 3215.5116739111727 3215.488080349458
decision_type=2 2 2 2 2 2 2 2 2 2 2 2 2 2
left_child=2 -2 -1 -4 6 10 13 9 -9 -7 11 -6 -8 -3
right_child=1 4 3 -5 5 7 12 8 -10 -11 -12 -13 -14 -15
leaf_value=-21.076223931736706 14.599884706519413 -2.3047908850690138 130.24716666304184 44.871487356035658 137.39464039369065 0.096622304222791222 -25.953176251257755 215.37093505859377 15.150470324874556 -24.441746359602121 25.577889895870026 -12.662584316990593 -57.058931994315905 -13.178787491247526
leaf_weight=366 8271 14060 792 2191 347 4943 5431 119 940 3037 1987 270 970 11362
leaf_count=366 8271 14060 792 2191 347 4943 5431 119 940 3037 1987 270 970 11362
internal_value=-0.0108565 -3.77109 57.9981 67.7192 -7.26813 5.4071 -11.9057 -3.63222 38.5559 -9.25153 36.7313 72.1551 -30.7078 -7.16641
internal_weight=55086 51737 3349 2983 43466 11643 31823 9039 1059 7980 2604 617 6401 25422
internal_count=55086 51737 3349 2983 43466 11643 31823 9039 1059 7980 2604 617 6401 25422
is_linear=0
shrinkage=0.05


Tree=33
num_leaves=15
num_cat=0
split_feature=54 54 54 33 54 54 54 54 54 54 57 54 0 32
split_gain=4.35694e+09 9.38646e+08 1.81303e+09 7.71342e+08 8.68257e+08 1.04345e+09 1.39402e+09 8.29783e+08 6.9795e+08 5.14154e+08 4.40859e+08 3.79885e+08 2.24825e+08 2.21375e+08
threshold=3215.4655183766577 3215.4320573678779 2466.0390000000002 6253.3855606758843 3215.4837121277333 3346.9401329833022 3712.2300066033845 5218.49205882353 3215.5041437855057 3215.3569852814603 5713.5135135135142 3712.0071423854729 20.500000000000004 3249.9570092828521
decision_type=2 2 2 2 2 2 2 2 2 2 2 2 2 2
left_child=1 2 12 4 -2 8 11 -5 -6 -4 -8 -7 -1 -9
right_child=3 -3 9 7 5 6 10 13 -10 -11 -12 -13 -14 -15
leaf_value=-40.703362396738378 4.9358028177727675 29.660601199206663 157.28547380003212 237.88480998072134 -11.646968216552407 62.697873828414004 -8.9023014512021383 -4.9569917204492384 -34.507125026039255 83.473852866323384 59.295670958620605 21.798115018533824 51.892286681567924 70.975048427775434
leaf_weight=286 14662 3973 360 53 19291 816 8284 186 4036 755 239 1873 80 192
leaf_count=286 14662 3973 360 53 19291 816 8284 186 4036 755 239 1873 80 192
internal_value=-0.00837719 42.3898 76.3228 -4.67127 -5.2575 -9.58471 2.9499 61.5427 -15.6088 107.901 -6.95624 34.3029 -20.0366 34.0341
internal_weight=55086 5454 1481 49632 49201 34539 11212 431 23327 1115 8523 2689 366 378
internal_count=55086 5454 1481 49632 49201 34539 11212 431 23327 1115 8523 2689 366 378
is_linear=0
shrinkage=0.05


Tree=34
num_leaves=15
num_cat=0
split_feature=54 54 54 54 55 54 54 45 45 45 56 54 54 54
split_gain=3.97331e+09 1.30373e+09 1.07208e+09 1.0368e+09 7.52722e+08 1.1826e+09 8.37508e+08 6.87585e+08 9.27909e+08 7.46731e+08 6.8295e+08 2.21475e+09 1.05051e+09 6.10383e+08
threshold=3215.4730497934243 3215.4509128077125 2466.0390000000002 3215.3838831984854 2755.4167094891613 3814.2297044334982 3712.4446165910035 3691.4902986979837 3734.1900556036085 2915.300419247857 0.3757923342619402 3711.7945959554277 3215.4955992317959 3712.2584424267443
decision_type=2 2 2 2 2 2 2 2 2 2 2 2 2 2
left_child=1 2 -1 -4 6 -6 10 9 -9 -7 11 -2 -12 -13
right_child=4 -3 3 -5 5 7 -8 8 -10 -11 12 13 -14 -15
leaf_value=-19.027210695081646 144.31149409030928 18.18025685685809 137.18223999579425 54.741677917445614 253.31787447248186 54.216965060918895 -72.680331882137196 228.12799434909573 38.264076474530519 -32.781811567197451 -4.6779374107153577 20.156593465728776 -24.798705812579733 -7.6944398785125792
leaf_weight=366 274 6485 489 1746 51 371 478 72 412 712 25985 2896 8642 6107
leaf_count=366 274 6485 489 1746 51 371 478 72 412 712 25985 2896 8642 6107
internal_value=-0.00487488 30.2004 60.0774 73.0451 -5.97371 27.4734 -7.19603 19.3405 68.5526 -2.86648 -6.47487 5.57086 -9.70242 1.27061
internal_weight=55086 9086 2601 2235 46000 1618 44382 1567 484 1083 43904 9277 34627 9003
internal_count=55086 9086 2601 2235 46000 1618 44382 1567 484 1083 43904 9277 34627 9003
is_linear=0
shrinkage=0.05


Tree=35
num_leaves=15
num_cat=0
split_feature=54 54 54 54 54 54 55 54 54 55 54 56 54 54
split_gain=3.56224e+09 1.15875e+09 9.86231e+08 9.10217e+08 7.60088e+08 1.59939e+09 4.91211e+08 1.01315e+09 6.23562e+08 9.03316e+08 4.04695e+08 9.61355e+08 1.98814e+09 9.59627e+08
threshold=3215.4730497934243 3215.4509128077125 2466.0390000000002 3215.3838831984854 4874.1232876712338 5219.6832352941192 3668.7690709547346 5222.918529411766 6428.3669161676653 4241.6116574974831 3712.3773446141154 0.3757923342619402 3711.7945959554277 3215.4928735582721
decision_type=2 2 2 2 2 2 2 2 2 2 2 2 2 2
left_child=1 2 -1 -4 10 -6 7 -7 9 -8 11 12 -2 -13
right_child=4 -3 3 -5 5 6 8 -9 -10 -11 -12 13 -14 -15
leaf_value=-19.351011084600756 138.42638845641039 17.311856838488008 129.60354135482291 52.157398659152136 204.89222116777975 44.114998353010904 44.126849192542004 -81.082714925825812 -76.791970721367861 267.13670506631178 -27.621319342073054 -3.198671924757114 5.1135907881057499 -20.729071713273463
leaf_weight=362 285 6456 487 1732 119 365 180 282 57 57 2186 22712 7867 11892
leaf_count=362 285 6456 487 1732 119 365 180 282 57 57 2186 22712 7867 11892
internal_value=-0.033823 28.6566 56.9453 69.4076 -5.6725 36.0784 13.7597 -10.6563 66.772 102.174 -6.66114 -5.5864 9.85633 -9.2253
internal_weight=55039 9037 2581 2219 46002 1060 941 647 294 237 44942 42756 8152 34604
internal_count=55039 9037 2581 2219 46002 1060 941 647 294 237 44942 42756 8152 34604
is_linear=0
shrinkage=0.05


Tree=36
num_leaves=15
num_cat=0
split_feature=54 54 54 54 54 54 54 54 54 55 54 54 55 54
split_gain=3.2197e+09 7.65685e+08 1.36853e+09 6.50682e+08 1.44919e+09 6.66768e+08 6.88034e+08 1.30107e+09 5.85589e+08 4.45855e+08 9.15916e+08 5.66961e+08 8.23147e+08 3.94449e+08
threshold=3215.4676433121022 3215.4320573678779 2466.0390000000002 4874.1232876712338 5219.6832352941192 3215.4848041831642 3346.9401329833022 3712.2300066033845 3215.5082073614221 3668.7690709547346 5222.918529411766 6428.3669161676653 4241.6116574974831 3712.361042509287
decision_type=2 2 2 2 2 2 2 2 2 2 2 2 2 2
left_child=1 2 -1 5 -5 -2 8 -8 -7 10 -6 12 -11 -9
right_child=3 -3 -4 4 9 6 7 13 -10 11 -12 -13 -14 -15
leaf_value=-18.396642397275087 3.8866796399656338 24.246446156430661 93.366897496599933 195.06070084110385 41.939055828129923 -11.53004016980347 31.829345624181926 -0.020217838225542645 -41.319530031001769 41.980137542002915 -77.099208371232194 -73.262017082398941 254.85703459247466 -23.092307488609663
leaf_weight=362 14320 4605 1102 119 365 21222 2653 4988 1785 180 282 57 57 2942
leaf_count=362 14320 4605 1102 119 365 21222 2653 4988 1785 180 282 57 57 2942
internal_value=-0.0290692 34.3072 65.7627 -4.28754 34.369 -5.14631 -8.99724 1.55345 -13.8497 13.1239 -10.1377 63.6295 97.3872 -8.58906
internal_weight=55039 6069 1464 48970 1060 47910 33590 10583 23007 941 647 294 237 7930
internal_count=55039 6069 1464 48970 1060 47910 33590 10583 23007 941 647 294 237 7930
is_linear=0
shrinkage=0.05


Tree=37
num_leaves=15
num_cat=0
split_feature=54 54 54 54 54 54 55 54 54 55 54 76 54 54
split_gain=2.93633e+09 9.65958e+08 8.1173e+08 7.89062e+08 6.27081e+08 1.31463e+09 4.59397e+08 7.27863e+08 5.155e+08 7.5009e+08 3.33186e+08 7.9357e+08 1.77484e+09 8.21872e+08
threshold=3215.4740934326051 3215.4509128077125 2466.0390000000002 3215.3569852814603 4874.1232876712338 5220.3155882352949 3668.7690709547346 5222.918529411766 6428.3669161676653 4241.6116574974831 3712.3827098638053 9.5000000000000018 3711.6955451919116 3215.4977151833364
decision_type=2 2 2 2 2 2 2 2 2 2 2 2 2 2
left_child=1 2 -1 -4 10 -6 7 -7 9 -8 11 13 -13 -2
right_child=4 -3 3 -5 5 6 8 -9 -10 -11 -12 12 -14 -15
leaf_value=-17.489342333250541 -4.6463560673608253 15.62723841913971 130.2385716243401 49.620532283644678 167.35267527918663 34.924230074530861 39.937859724405655 -73.311407918464852 -69.894327625151604 243.14183149030134 -25.330283463842008 148.31208371686506 4.9801068534562489 -24.146000799091158
leaf_weight=362 27794 6562 362 1857 150 334 180 282 57 57 2136 217 7985 6704
leaf_count=362 27794 6562 362 1857 150 334 180 282 57 57 2136 217 7985 6704
internal_value=-0.0256058 25.8414 51.7295 63.0356 -5.18085 32.7406 9.75824 -14.8161 60.6349 92.8246 -6.08094 -5.11516 8.86031 -8.43868
internal_weight=55039 9143 2581 2219 45896 1060 910 616 294 237 44836 42700 8202 34498
internal_count=55039 9143 2581 2219 45896 1060 910 616 294 237 44836 42700 8202 34498
is_linear=0
shrinkage=0.05


Tree=38
num_leaves=15
num_cat=0
split_feature=57 51 48 51 73 51 48 37 0 45 83 51 49 66
split_gain=6.07924e+08 4.89365e+08 4.07536e+08 3.75519e+08 4.40847e+08 1.08023e+09 2.96865e+08 2.97204e+08 2.13236e+08 2.25132e+08 2.0099e+08 1.58319e+08 1.50377e+08 1.30096e+08
threshold=6502.0000000000009 2662.3686768609568 3373.8342251994882 3865.0742680868048 63.500000000000007 3864.8360011050067 3373.5855304896072 2205.0000000000005 39.500000000000007 2915.1815280645774 1.6765820462631906 3864.8360011050067 2572.0326220820903 0.0094451673755272022
decision_type=2 2 2 2 2 2 2 2 2 2 2 2 2 2
left_child=1 -1 6 4 -4 -6 7 12 9 -2 -9 -10 -3 -5
right_child=8 2 3 13 5 -7 -8 10 11 -11 -12 -13 -14 -15
leaf_value=76.284039010353453 118.43564585785369 -8.4884705184880325 7.1680921710190511 26.211194232220492 124.63268088787498 20.14621845189086 -22.741437737457456 -0.54873973804867038 141.94001860618593 20.857481859083776 18.932618538561293 27.221929591785781 -43.837571878640219 -6.3597977261339462
leaf_weight=201 62 9586 3208 334 296 1405 1787 32602 83 538 1375 50 306 3206
leaf_count=201 62 9586 3208 334 296 1405 1787 32602 83 538 1375 50 306 3206
internal_value=-0.0215118 -0.634012 -0.92679 9.15738 18.1018 38.6406 -2.79375 -1.97868 45.0535 31.8364 0.242305 101.364 -9.60358 -3.25401
internal_weight=55039 54306 54105 8449 4909 1701 45656 43869 733 600 33977 133 9892 3540
internal_count=55039 54306 54105 8449 4909 1701 45656 43869 733 600 33977 133 9892 3540
is_linear=0
shrinkage=0.05


Tree=39
num_leaves=15
num_cat=0
split_feature=57 51 30 76 51 33 58 3 51 62 51 56 57 56
split_gain=5.51276e+08 4.4943e+08 3.75181e+08 4.64799e+08 3.13031e+08 2.44327e+08 2.41061e+08 2.2319e+08 4.54419e+08 2.65056e+08 2.52995e+08 3.37017e+08 1.98473e+08 1.91705e+08
threshold=6502.0000000000009 2662.406064231503 3468.7245989304815 1.5000000000000002 3864.9745105742968 4103.1647176867655 3423.908216778716 43.813806506930611 3865.0972737039206 2552499.0652618404 2662.5390884959065 0.66682352941176481 8633.0196850393713 0.50705896023411956
decision_type=2 2 2 2 2 2 2 2 2 2 2 2 2 2
left_child=1 -1 7 4 -4 -2 -5 10 9 -9 -3 -12 -7 -8
right_child=5 2 3 6 -6 12 13 8 -10 -11 11 -13 -14 -15
leaf_value=50.674908270925847 24.905179796693503 4.442673452873267 114.09252215471025 2.7856258488562635 -24.534157463599897 44.119929981629056 27.897310068738108 4.9170885768421364 -9.258584807209969 30.989747200780819 -9.297488553041406 -53.747594003633928 146.82349124550819 131.2666541049355
leaf_weight=419 535 3429 151 20834 53 115 232 6015 6287 1159 15241 434 83 52
leaf_count=419 535 3429 151 20834 53 115 232 6015 6287 1159 15241 434 83 52
internal_value=-0.0181646 -0.60143 -1.0048 4.15058 78.3503 42.9054 3.41542 -4.38042 0.550863 9.14796 -7.85434 -10.545 89.7296 48.7686
internal_weight=55039 54306 53887 21322 204 733 21118 32565 13461 7174 19104 15675 198 284
internal_count=55039 54306 53887 21322 204 733 21118 32565 13461 7174 19104 15675 198 284
is_linear=0
shrinkage=0.05


Tree=40
num_leaves=15
num_cat=0
split_feature=54 54 54 54 68 54 54 57 54 0 54 0 57 54
split_gain=2.51305e+09 7.22586e+08 6.07341e+08 1.22631e+09 5.86225e+08 9.83807e+08 5.62313e+08 4.20114e+08 4.38224e+08 2.38689e+08 2.00207e+08 1.96202e+08 1.60759e+08 1.93259e+08
threshold=3215.4570455327944 3215.4788866414187 3496.3351351351362 3711.8874560462245 0.45876963922342651 3215.4242300740239 3215.4999477104498 5430.0904977375567 3712.2940181593071 39.500000000000007 3215.3569852814603 14.500000000000002 3134.3150923831076 3711.3385497317381
decision_type=2 2 2 2 2 2 2 2 2 2 2 2 2 2
left_child=4 -2 6 12 11 10 -3 8 -5 -9 -6 -1 -4 -14
right_child=1 2 3 7 5 -7 -8 9 -10 -11 -12 -13 13 -15
leaf_value=-43.259791009600576 9.2477933885787067 -6.0218904911982847 4.9045633073286581 11.662307107731161 122.0362700604378 30.63209895895632 -23.585781749906474 30.502821893634565 -9.2986747737348523 125.66488736867905 72.06048324549981 30.987043562616623 143.40640664402443 66.073043006338722
leaf_weight=241 10248 24388 50 4116 371 2081 5601 410 6309 75 513 135 153 200
leaf_count=241 10248 24388 50 4116 371 2081 5601 410 6309 75 513 135 153 200
internal_value=0.0919265 -2.63334 -5.58209 4.28824 42.0826 49.5327 -9.30567 1.10496 -1.02121 46.3512 93.6032 -16.5445 89.3957 101.127
internal_weight=54891 51550 41302 11313 3341 2965 29989 10910 10425 485 884 376 403 353
internal_count=54891 51550 41302 11313 3341 2965 29989 10910 10425 485 884 376 403 353
is_linear=0
shrinkage=0.05


Tree=41
num_leaves=15
num_cat=0
split_feature=54 54 54 54 54 55 54 54 76 54 56 54 54 54
split_gain=2.27871e+09 5.67311e+08 6.69137e+08 7.70059e+08 5.02257e+08 4.66246e+08 1.08696e+09 6.87555e+08 4.57724e+08 7.73602e+08 4.49491e+08 1.05604e+09 3.76244e+08 1.8105e+08
threshold=3215.4602732828375 3215.4826200723019 3346.9401329833022 3712.1051613702029 3215.5096040626618 2755.4167094891613 3814.2297044334982 3712.4518390425096 9.5000000000000018 3711.3385497317381 0.50705896023411956 3215.4242300740239 3493.2608108108111 3215.3569852814603
decision_type=2 2 2 2 2 2 2 2 2 2 2 2 2 2
left_child=10 -2 4 8 -3 7 -7 -5 12 -10 11 13 -4 -1
right_child=1 2 3 5 -6 6 -8 -9 9 -11 -12 -13 -14 -15
leaf_value=116.015597777671 5.847324224508669 -8.9347006217977327 74.951633501634078 -2.0022661070818697 -41.224241828316771 234.77087707519533 16.073610188576239 -69.118293365478522 162.98053555875211 38.165126131176216 -15.725340280320076 26.308461699716926 -52.305113108515741 68.492237230019228
leaf_weight=371 13842 24191 77 8299 1263 54 1575 395 143 808 376 2789 195 513
leaf_count=371 13842 24191 77 8299 1263 54 1575 395 143 808 376 2789 195 513
internal_value=0.0899046 -2.7864 -6.0167 3.96574 -10.5447 -0.486648 24.0196 -5.08959 41.3963 57.6879 36.1657 41.4919 -15.5767 88.9776
internal_weight=54891 50842 37000 11546 25454 10323 1629 8694 1223 951 4049 3673 272 884
internal_count=54891 50842 37000 11546 25454 10323 1629 8694 1223 951 4049 3673 272 884
is_linear=0
shrinkage=0.05


Tree=42
num_leaves=15
num_cat=0
split_feature=54 54 56 55 54 54 57 0 51 56 54 54 54 45
split_gain=2.07677e+09 6.92616e+08 8.99691e+08 4.98713e+08 9.90385e+08 5.91886e+08 4.95231e+08 4.01582e+08 4.27588e+08 3.32325e+08 1.43975e+09 6.14854e+08 3.83138e+08 3.18867e+08
threshold=3215.4740934326051 3215.4368720950256 0.50705896023411956 2755.4167094891613 3814.2297044334982 3712.4683475030956 3134.3150923831076 38.500000000000007 3864.9438159550637 0.3757923342619402 3711.8874560462245 3215.4913403770015 3712.3272001650853 2915.2855578499471
decision_type=2 2 2 2 2 2 2 2 2 2 2 2 2 2
left_child=1 2 -1 5 -5 9 -6 13 -9 10 -2 -11 -12 -8
right_child=3 -3 -4 4 6 -7 7 8 -10 11 12 -13 -14 -15
leaf_value=73.697791712048954 100.37594144480016 15.576606599098959 -14.94939166679783 224.02712521310582 -49.544265482511868 -73.789257383498907 61.977299486357595 155.91750407767506 -6.1706246418111466 -1.6951438752953365 7.4986500709936097 -15.382827071107108 -13.900771309515717 1.4710649553618649
leaf_weight=1174 364 7624 376 54 244 308 285 108 63 20968 5663 13475 3310 875
leaf_count=1174 364 7624 376 54 244 308 285 108 63 20968 5663 13475 3310 875
internal_value=0.0879341 21.7919 52.2146 -4.26929 22.857 -5.27406 15.2725 27.2959 97.7206 -4.78366 3.58168 -7.05159 -0.398581 16.5392
internal_weight=54891 9174 1550 45717 1629 44088 1575 1331 171 43780 9337 34443 8973 1160
internal_count=54891 9174 1550 45717 1629 44088 1575 1331 171 43780 9337 34443 8973 1160
is_linear=0
shrinkage=0.05


Tree=43
num_leaves=15
num_cat=0
split_feature=54 54 56 54 54 54 56 54 54 54 54 54 54 46
split_gain=1.89368e+09 5.73882e+08 4.71629e+08 6.77851e+08 4.65596e+08 1.1892e+09 3.19905e+08 6.47684e+08 4.07799e+08 2.54556e+08 8.0717e+08 5.1468e+08 2.31687e+08 2.18602e+08
threshold=3215.454893699432 3215.4778914184885 0.50705896023411956 3215.4105175159239 4874.1232876712338 5219.6832352941192 0.76669697406115045 5222.6244117647066 6428.3669161676653 3346.9401329833022 3712.2437498968225 3215.5064032105356 3712.3523755674787 2359.6522139741146
decision_type=2 2 2 2 2 2 2 2 2 2 2 2 2 2
left_child=2 -2 3 -1 9 13 7 -7 -8 11 -11 -3 -12 -6
right_child=1 4 -4 -5 5 6 8 -9 -10 10 12 -13 -14 -15
leaf_value=87.456554584543539 8.6356329692331038 -5.7893306866306107 -14.211731529486148 30.42593048495004 93.855548004605538 35.428892411201936 79.178092911584045 -64.072791706432 -66.204210179360189 24.931145745832275 -0.0061836707562929992 -27.875776507177353 -17.595880028153854 238.26393423227165
leaf_weight=704 9909 27436 376 2006 62 344 240 303 56 2653 4738 2914 3090 60
leaf_count=704 9909 27436 376 2006 62 344 240 303 56 2653 4738 2914 3090 60
internal_value=0.0856556 -2.18252 38.1037 45.3751 -4.74189 27.8188 8.42847 -11.3029 51.0297 -5.59449 1.1232 -7.91417 -6.95632 171.462
internal_weight=54891 51805 3086 2710 41896 1065 943 647 296 40831 10481 30350 7828 122
internal_count=54891 51805 3086 2710 41896 1065 943 647 296 40831 10481 30350 7828 122
is_linear=0
shrinkage=0.05


Tree=44
num_leaves=15
num_cat=0
split_feature=54 54 68 55 54 54 5 51 74 51 76 54 54 54
split_gain=1.7184e+09 5.04052e+08 8.24977e+08 4.12434e+08 9.28967e+08 5.35641e+08 4.27654e+08 1.20303e+09 5.3931e+08 3.73061e+08 2.85074e+08 1.264e+09 6.06485e+08 4.04018e+08
threshold=3215.4703868996389 3215.4269198657262 0.45876963922342651 2755.4167094891613 3814.7520168067235 3712.4345051588944 27.894448500000003 3865.0343650818013 5127.5000000000009 2662.4565371817403 9.5000000000000018 3711.3385497317381 3215.4891777844728 3712.2437498968225
decision_type=2 2 2 2 2 2 2 2 2 2 2 2 2 2
left_child=1 2 -1 5 -5 10 7 8 -6 -8 12 -12 -2 -13
right_child=3 -3 -4 4 6 -7 9 -9 -10 -11 11 13 -14 -15
leaf_value=-13.510469996225178 0.13863677927526316 16.0554526710294 73.170603994976133 179.25865051963115 38.688411078384625 -54.7605810945185 62.303717474937436 -60.314698269880935 157.69295965010122 -21.05212190671952 149.05312739191831 20.117338734853234 -12.896930742173362 -4.3752695924280838
leaf_weight=376 19684 6243 998 83 204 516 155 176 181 830 143 2238 16316 6748
leaf_count=376 19684 6243 998 83 204 516 155 176 181 830 143 2238 16316 6748
internal_value=0.0832054 22.1145 49.4869 -3.46854 21.2147 -4.35168 12.1792 46.8194 95.9411 -7.68654 -3.76931 4.12052 -5.77034 1.73248
internal_weight=54891 7617 1374 47274 1629 45645 1546 561 385 985 45129 9129 36000 8986
internal_count=54891 7617 1374 47274 1629 45645 1546 561 385 985 45129 9129 36000 8986
is_linear=0
shrinkage=0.05


Tree=45
num_leaves=15
num_cat=0
split_feature=0 55 39 45 6 45 67 55 45 55 31 55 48 45
split_gain=3.14281e+08 5.0129e+08 2.77564e+08 2.25895e+08 4.89006e+08 8.84405e+08 3.2935e+08 3.11809e+08 2.30352e+08 2.02181e+08 1.56306e+08 2.22558e+08 3.11863e+08 1.50949e+08
threshold=38.500000000000007 2387.3862705491356 41.500000000000007 2915.3379638320507 99.000000000000014 2915.1815280645774 0.17491681440660944 2212.5966591679207 2915.4157906263695 2212.5966591679207 4523.9417989417998 2755.4167094891613 4818.6300587371525 2758.8351881829226
decision_type=2 2 2 2 2 2 2 2 2 2 2 2 2 2
left_child=3 -2 -3 4 13 9 10 8 -8 -6 -5 -12 -13 -1
right_child=1 2 -4 6 5 -7 7 -9 -10 -11 11 12 -14 -15
leaf_value=15.219287187672728 10.705269814343479 32.016179802406718 149.54396941775369 -0.30484451292884962 78.444462199543807 12.414512396243701 -3.8741679675935945 -62.202923695843928 -19.404783947528941 185.20887616475423 9.5026606914300853 160.78134779849296 -5.7952837105455073 -12.407931984150599
leaf_weight=610 2105 103 100 29516 253 3508 10187 261 3115 55 2352 54 53 2525
leaf_count=610 2105 103 100 29516 253 3508 10187 261 3115 55 2352 54 53 2525
internal_value=0.0119278 18.0495 92.1159 -0.782843 7.6095 19.6189 -2.06457 -8.5919 -7.517 100.164 0.705071 12.8035 81.694 -7.01655
internal_weight=54797 2308 203 52489 6951 3816 45538 13563 13302 308 31975 2459 107 3135
internal_count=54797 2308 203 52489 6951 3816 45538 13563 13302 308 31975 2459 107 3135
is_linear=0
shrinkage=0.05


Tree=46
num_leaves=15
num_cat=0
split_feature=54 54 0 54 54 54 46 56 54 54 54 56 54 54
split_gain=1.5898e+09 5.03242e+08 4.38749e+08 3.5475e+08 1.11825e+09 3.34653e+08 2.44995e+08 2.3967e+08 5.8526e+08 4.00439e+08 2.18597e+08 4.29682e+08 1.03302e+09 4.51945e+08
threshold=3215.4532798244104 3215.4757073076266 12.500000000000002 4874.1232876712338 5219.6832352941192 3215.4164296780859 2359.6522139741146 0.76669697406115045 5222.3450000000003 6428.3669161676653 3712.3858052001656 0.3757923342619402 3711.8874560462245 3215.4999477104498
decision_type=2 2 2 2 2 2 2 2 2 2 2 2 2 2
left_child=2 -2 -1 10 6 -4 -5 8 -6 -9 11 12 -3 -13
right_child=1 3 5 4 7 -7 -8 9 -10 -11 -12 13 -14 -15
leaf_value=-27.979158227945092 9.6798917697583988 90.777000259322463 67.274911485333192 81.967770894368499 39.378692326790251 28.988188846955968 228.65065047320201 72.278337229515657 -53.787513705755124 -72.15431289829192 -20.768146824779848 -3.7791296589813643 2.6120928923249878 -19.284203592600338
leaf_weight=228 7943 342 945 64 307 1467 63 230 362 56 2012 27281 7823 5674
leaf_count=228 7943 342 945 64 307 1467 63 230 362 56 2012 27281 7823 5674
internal_value=0.0138402 -1.90376 37.8309 -3.98562 24.2267 44.0968 160.638 5.34363 -11.0588 43.2431 -4.69608 -3.90723 6.3583 -6.45123
internal_weight=54797 52157 2640 44214 1082 2412 127 955 669 286 43132 41120 8165 32955
internal_count=54797 52157 2640 44214 1082 2412 127 955 669 286 43132 41120 8165 32955
is_linear=0
shrinkage=0.05


Tree=47
num_leaves=15
num_cat=0
split_feature=54 54 54 54 0 54 55 54 54 57 54 51 55 54
split_gain=1.43515e+09 4.64182e+08 4.06288e+08 5.60472e+08 3.96436e+08 3.91576e+08 3.24355e+08 4.27866e+08 3.57345e+08 3.16706e+08 3.02785e+08 2.8941e+08 1.46577e+08 1.30682e+08
threshold=3215.4532798244104 3215.4831661000176 3346.9401329833022 3712.0391275278585 12.500000000000002 3215.5107014976761 2212.5966591679207 3711.3385497317381 3493.2608108108111 10112.500000000002 3215.4242300740239 2662.3686768609568 1784.3057640748427 3215.3569852814603
decision_type=2 2 2 2 2 2 2 2 2 2 2 2 2 2
left_child=4 -2 5 6 -1 -3 7 -4 -8 11 12 -5 -6 -14
right_child=1 2 3 9 10 -7 8 -9 -10 -11 -12 -13 13 -15
leaf_value=-26.610220847723312 5.3485473047126479 -7.1666442900062179 139.14540070268444 98.805190277099612 7.4709908356873882 -37.79372500814361 75.089045195633105 38.194280685368078 -47.2937484351311 108.77314012989854 26.455502870891621 -1.7836120534744069 88.826020229184962 49.968224866498161
leaf_weight=228 15796 23755 128 67 110 1087 84 533 176 61 1382 10470 439 481
leaf_count=228 15796 23755 128 67 110 1087 84 533 176 61 1382 10470 439 481
internal_value=0.0150823 -1.80687 -4.91565 2.84517 35.9458 -8.51413 40.1489 58.6413 -7.08299 -0.414018 41.9019 -1.09743 62.399 68.8903
internal_weight=54797 52157 36361 11519 2640 24842 921 661 260 10598 2412 10537 1030 920
internal_count=54797 52157 36361 11519 2640 24842 921 661 260 10598 2412 10537 1030 920
is_linear=0
shrinkage=0.05


Tree=48
num_leaves=15
num_cat=0
split_feature=54 33 54 54 54 54 54 54 0 51 57 31 54 54
split_gain=1.30874e+09 3.05013e+08 6.19015e+08 3.10576e+08 3.03437e+08 5.73877e+08 3.37924e+08 2.75889e+08 5.83861e+08 1.60336e+08 1.53649e+08 1.3094e+08 1.10778e+08 9.66505e+07
threshold=3215.4651149079023 6253.3855606758843 5218.49205882353 3215.4848041831642 3346.9401329833022 3712.1835765579867 3215.5116739111727 3215.4269198657262 14.500000000000002 2662.4565371817403 2344.4444444444448 3597.3542666000153 5222.1097058823534 3215.3569852814603
decision_type=2 2 2 2 2 2 2 2 2 2 2 2 2 2
left_child=7 3 -3 -2 6 10 -5 8 -1 -7 -6 12 -4 -10
right_child=1 2 11 4 5 9 -8 -9 13 -11 -12 -13 -14 -15
leaf_value=-22.907864693082129 3.0747533271089016 182.82391841113568 34.223640996615096 -7.4942114762254057 -39.937251531510128 62.573877525329593 -37.083562878146033 16.99529216324412 75.525352338615463 -4.4964017382547334 29.566661773898108 65.057599109850443 -28.300049022649759 44.858699016347778
leaf_weight=266 15274 59 115 21837 79 85 1005 3797 506 9136 1787 90 168 593
leaf_count=266 15274 59 115 21837 79 85 1005 3797 506 9136 1787 90 168 593
internal_value=0.0166895 -2.47608 39.113 -2.84517 -5.51024 1.27646 -8.80392 23.965 43.2197 -3.84454 26.5251 14.263 -2.73896 59.2565
internal_weight=54797 49635 432 49203 33929 11087 22842 5162 1365 9221 1866 373 283 1099
internal_count=54797 49635 432 49203 33929 11087 22842 5162 1365 9221 1866 373 283 1099
is_linear=0
shrinkage=0.05


Tree=49
num_leaves=15
num_cat=0
split_feature=54 54 54 54 54 83 55 54 54 57 54 51 55 54
split_gain=1.18567e+09 3.5107e+08 3.60425e+08 4.7677e+08 3.12058e+08 2.97232e+08 2.85547e+08 3.8847e+08 3.18762e+08 2.77112e+08 2.62927e+08 2.46822e+08 2.06985e+08 1.05866e+08
threshold=3215.454893699432 3215.4837121277333 3346.9401329833022 3712.0391275278585 3215.5096040626618 0.33008010353743106 2212.5966591679207 3711.3385497317381 3493.2608108108111 10112.500000000002 3215.4242300740239 2662.3686768609568 1784.3057640748427 3215.4740934326051
decision_type=2 2 2 2 2 2 2 2 2 2 2 2 2 2
left_child=5 13 4 6 -3 -1 7 -4 -8 11 12 -5 -7 -2
right_child=1 2 3 9 -6 10 8 -9 -10 -11 -12 -13 -14 -15
leaf_value=-35.074582453808155 9.4482053106213968 -6.8066861815884678 131.02692641638276 91.197323735555017 -31.808149612057964 -1.5641670955551996 70.3064245983456 34.876477806962555 -45.283817074246173 101.71106772567288 22.163903414758359 -1.6961032495019617 61.983303097727948 1.194443243206075
leaf_weight=161 6017 21931 128 67 1319 148 84 533 176 61 1811 10470 938 10953
leaf_count=161 6017 21931 128 67 1319 148 84 533 176 61 1811 10470 938 10953
internal_value=0.0175638 -1.77171 -4.64892 2.58278 -8.23159 30.2442 36.9884 54.3399 -7.31641 -0.423186 33.9285 -1.06244 53.3554 4.12289
internal_weight=54797 51739 34769 11519 23250 3058 921 661 260 10598 2897 10537 1086 16970
internal_count=54797 51739 34769 11519 23250 3058 921 661 260 10598 2897 10537 1086 16970
is_linear=0
shrinkage=0.05


Tree=50
num_leaves=15
num_cat=0
split_feature=54 54 54 54 51 57 51 66 54 51 51 54 0 66
split_gain=1.05586e+09 2.8047e+08 3.7054e+08 2.94613e+08 2.31204e+08 1.99548e+08 1.79703e+08 2.63777e+08 3.88677e+08 2.16694e+08 2.14695e+09 2.40779e+08 1.16104e+08 6.42582e+07
threshold=3215.4703868996389 3215.4452104493034 2466.0390000000002 3215.3569852814603 2662.406064231503 10112.500000000002 3865.1362712176556 0.25906744801446252 3712.5228254230301 3854.6568627450984 3864.8360011050067 3215.4869291186092 16.500000000000004 0.18341004165829713
decision_type=2 2 2 2 2 2 2 2 2 2 2 2 2 2
left_child=1 2 12 -4 -2 6 9 -8 -9 11 -11 -6 -1 -5
right_child=4 -3 3 13 5 -7 7 8 -10 10 -12 -13 -14 -15
leaf_value=-30.934462823501004 61.377371676649368 11.404789728378043 82.265634467012148 43.870793410452499 1.7716177886785851 71.408781094551088 1.918471688201101 -19.40579883219354 -111.27231227687149 153.76684976800831 0.52694518482332497 -7.5746502021397148 29.481508978061058 21.552045553962767
leaf_weight=255 135 5520 367 597 10400 85 1641 2159 117 228 12023 20409 110 738
leaf_count=255 135 5520 367 597 10400 85 1641 2159 117 228 12023 20409 110 738
internal_value=-0.000626358 17.3058 32.9991 42.7807 -2.78421 -2.97477 -3.11695 -13.3635 -24.362 -2.18341 3.44044 -4.41991 -12.5739 31.6594
internal_weight=54784 7587 2067 1702 47197 47062 46977 3917 2276 43060 12251 30809 365 1335
internal_count=54784 7587 2067 1702 47197 47062 46977 3917 2276 43060 12251 30809 365 1335
is_linear=0
shrinkage=0.05


Tree=51
num_leaves=15
num_cat=0
split_feature=54 54 54 54 54 54 32 51 55 54 54 55 54 54
split_gain=9.57403e+08 2.98116e+08 2.87646e+08 3.19683e+08 2.16001e+08 9.10419e+08 2.31034e+08 3.88962e+08 3.92978e+08 2.62444e+08 2.02053e+08 4.60024e+08 5.16293e+08 4.48936e+08
threshold=3215.4740934326051 3215.4509128077125 2466.0390000000002 3215.3569852814603 4874.1232876712338 5218.49205882353 3249.9570092828521 3865.0052051935299 3668.7690709547346 5222.918529411766 3815.6647957113887 2755.4167094891613 3814.7520168067235 3712.4759628559646
decision_type=2 2 2 2 2 2 2 2 2 2 2 2 2 2
left_child=1 2 -1 -4 10 -6 9 8 -8 -7 11 13 -13 -2
right_child=4 -3 3 -5 5 6 7 -9 -10 -11 -12 12 -14 -15
leaf_value=-11.94613701275877 -3.2083857799215716 9.0598470466846202 78.207638812321491 27.263701372864247 167.95454984624337 25.465665195129887 15.331956212959794 -34.238377091552643 130.0386906916701 -48.306473891204377 -44.518075790341271 164.37524412245978 15.960774760645599 -66.611647049981926
leaf_weight=365 43764 6530 367 1870 89 197 185 153 122 296 293 79 198 276
leaf_count=365 43764 6530 367 1870 89 197 185 153 122 296 293 79 198 276
internal_value=0.000812898 14.775 29.0727 35.7774 -2.95583 19.4939 4.82478 30.1469 62.27 -18.8673 -3.48234 -3.20604 60.4532 -3.61326
internal_weight=54784 9132 2602 2237 45652 1042 953 460 307 493 44610 44317 277 44040
internal_count=54784 9132 2602 2237 45652 1042 953 460 307 493 44610 44317 277 44040
is_linear=0
shrinkage=0.05


Tree=52
num_leaves=15
num_cat=0
split_feature=54 54 54 51 68 54 54 76 54 54 68 52 54 0
split_gain=8.65758e+08 2.02333e+08 4.24824e+08 1.96623e+08 1.8444e+08 5.17109e+08 2.04327e+08 6.26199e+08 9.34359e+08 2.93849e+08 1.4997e+08 1.52018e+08 1.20425e+08 1.0585e+08
threshold=3215.4693325012918 3215.4269198657262 2466.0390000000002 2662.3686768609568 0.0061133769420888004 6424.9395209580844 5222.918529411766 1.5000000000000002 5218.49205882353 3815.6647957113887 0.011349047623206352 1538.7905395581736 3215.3569852814603 14.500000000000002
decision_type=2 2 2 2 2 2 2 2 2 2 2 2 2 2
left_child=1 2 13 -2 5 -5 7 8 -6 -9 11 -8 -4 -1
right_child=3 -3 12 4 6 -7 10 9 -10 -11 -12 -13 -14 -15
leaf_value=-31.500829935677444 79.75304362153355 12.780107585408579 74.349815614761852 125.25918203470658 222.81578759087458 -46.247462196114625 -43.822618410235549 -2.4710720296836799 24.110900231971907 -51.233939843852426 -56.980907517137204 69.840471401549223 37.65829058589928 23.647774662487748
leaf_weight=232 68 4862 367 93 67 76 56 47224 341 306 285 52 622 133
leaf_count=232 68 4862 367 93 67 76 56 47224 341 306 285 52 622 133
internal_value=0.00271118 17.5645 34.6342 -2.24652 -2.3697 49.0178 -2.55444 -2.25799 59.0445 -2.79037 -38.233 11.5706 51.5796 -11.3569
internal_weight=54784 6216 1354 48568 48500 169 48331 47938 408 47530 393 108 989 365
internal_count=54784 6216 1354 48568 48500 169 48331 47938 408 47530 393 108 989 365
is_linear=0
shrinkage=0.05


Tree=53
num_leaves=15
num_cat=0
split_feature=54 54 0 33 58 54 54 46 54 31 54 68 54 54
split_gain=7.96918e+08 2.44397e+08 2.45169e+08 1.78504e+08 2.68292e+08 2.01945e+08 1.94168e+08 1.38384e+08 1.96777e+08 1.73377e+08 1.33073e+08 1.32068e+08 1.31397e+08 2.85794e+08
threshold=3215.4740934326051 3215.4509128077125 9.5000000000000018 3759.6199980709116 4418.5853457034673 3215.4886236873822 3712.1423054065217 2359.6522139741146 5223.2273529411768 4568.5337935297766 3215.4242300740239 0.0048601346689606008 3346.9401329833022 3712.3442864217918
decision_type=2 2 2 2 2 2 2 2 2 2 2 2 2 2
left_child=1 2 -1 5 6 -2 -5 8 -8 -9 11 -4 -7 -14
right_child=3 -3 10 4 -6 12 7 9 -10 -11 -12 -13 13 -15
leaf_value=-31.301107964488125 0.23214206024652731 8.3089483332346656 -0.88338595835367839 30.052872797346186 83.977289878096542 -9.1684349859593457 0.5585666184964494 12.129209323889681 -40.512120808993181 88.795613027173431 19.875517434157789 50.336934868688303 8.2155208673173643 -14.66366575259612
leaf_weight=168 17077 6530 145 632 102 17031 4094 535 309 81 1350 939 3599 2192
leaf_count=168 17077 6530 145 632 102 17031 4094 535 309 81 1350 939 3599 2192
internal_value=0.00457447 13.4837 26.4294 -2.6929 5.53751 -3.88019 4.04864 0.747453 -2.36638 22.8445 30.4702 43.5127 -6.95671 -0.449808
internal_weight=54784 9132 2602 45652 5753 39899 5651 5019 4403 616 2434 1084 22822 5791
internal_count=54784 9132 2602 45652 5753 39899 5651 5019 4403 616 2434 1084 22822 5791
is_linear=0
shrinkage=0.05


Tree=54
num_leaves=15
num_cat=0
split_feature=54 54 83 55 54 54 5 51 51 51 76 54 54 54
split_gain=7.19256e+08 2.20653e+08 2.21713e+08 1.84241e+08 7.10379e+08 4.05392e+08 2.68024e+08 8.18477e+08 2.61663e+08 2.06669e+08 1.60169e+08 7.84072e+08 3.33217e+08 2.4594e+08
threshold=3215.4740934326051 3215.4509128077125 0.33008010353743106 2755.4167094891613 3814.7520168067235 3712.4600932728031 27.598926000000002 3865.0343650818013 3263.2054677768315 2662.4705574456952 9.5000000000000018 3711.7945959554277 3215.5030678688245 3712.2940181593071
decision_type=2 2 2 2 2 2 2 2 2 2 2 2 2 2
left_child=1 2 -1 5 -5 10 7 8 -6 -8 12 -12 -2 -13
right_child=3 -3 -4 4 6 -7 9 -9 -10 -11 11 13 -14 -15
leaf_value=-30.832822785977118 -2.3464891310115834 7.8938187698736746 28.881509886917286 155.60394781657629 162.00910372005569 -55.787473875103572 37.79623148656821 -52.132554004305888 54.225584074536215 -20.790661005715254 84.16221202946042 9.1485777144279776 -16.691988064954344 -7.384828969998444
leaf_weight=162 29709 6530 2440 79 67 358 181 184 313 788 284 4292 4682 4715
leaf_count=162 29709 6530 2440 79 67 358 181 184 313 788 284 4292 4682 4715
internal_value=0.0052864 12.8108 25.1116 -2.55738 14.0194 -3.16567 6.24086 33.4892 75.0874 -9.70908 -2.72807 3.09573 -4.30164 0.494318
internal_weight=54784 9132 2602 45652 1612 44040 1533 564 380 969 43682 9291 34391 9007
internal_count=54784 9132 2602 45652 1612 44040 1533 564 380 969 43682 9291 34391 9007
is_linear=0
shrinkage=0.05


Tree=55
num_leaves=15
num_cat=0
split_feature=54 68 54 54 54 54 54 50 51 54 54 45 54 57
split_gain=6.52345e+08 2.28711e+08 4.67569e+08 2.04902e+08 2.02602e+08 3.91185e+08 2.50253e+08 1.87717e+08 1.67286e+08 1.5005e+08 3.50083e+08 1.52675e+08 1.10105e+08 8.91188e+07
threshold=3215.462425116199 0.0061133769420888004 6424.9395209580844 3215.4848041831642 3346.9401329833022 3712.2502294676028 3215.5116739111727 0.43162236480293315 2662.3686768609568 2466.0390000000002 3215.3569852814603 3764.6020992366416 3711.9565852249284 4982.7380952380963
decision_type=2 2 2 2 2 2 2 2 2 2 2 2 2 2
left_child=9 2 7 -3 6 12 13 -2 -7 11 -11 -1 -6 -5
right_child=1 3 -4 4 5 8 -8 -9 -10 10 -12 -13 -14 -15
leaf_value=-25.186198898034593 47.252489967346193 2.8472864065006998 -36.50271173236014 -5.338368076710525 33.211827201858505 73.219396013453391 -31.611412516113155 182.15186657083447 -4.9704700945240372 67.87891271523624 16.591040212327542 59.351982328295712 11.169244108925128 -41.27811335421157
leaf_weight=321 55 15991 82 21648 738 64 963 53 8158 362 3659 59 2430 169
leaf_count=321 55 15991 82 21648 738 64 963 53 8158 362 3659 59 2430 169
internal_value=0.000669109 -1.61356 52.4319 -1.82348 -4.00943 1.43501 -6.73138 118.586 -4.31768 18.4497 21.287 -11.4595 16.3485 -5.62617
internal_weight=54752 50351 190 50161 34170 11390 22780 108 8222 4401 4021 380 3168 21817
internal_count=54752 50351 190 50161 34170 11390 22780 108 8222 4401 4021 380 3168 21817
is_linear=0
shrinkage=0.05


Tree=56
num_leaves=15
num_cat=0
split_feature=54 68 54 54 54 53 54 54 56 54 76 53 57 46
split_gain=5.93016e+08 2.14943e+08 4.2549e+08 1.98919e+08 2.54347e+08 1.71283e+08 1.70295e+08 1.5965e+08 2.28544e+08 2.85277e+08 5.36628e+08 1.31354e+08 5.54923e+07 3.63614e+07
threshold=3215.4740934326051 0.0061133769420888004 6424.9395209580844 3215.4429295059394 2466.0390000000002 0.34414225941422594 3215.3569852814603 6119.3411482720185 0.89061166429587491 5223.2273529411768 1.5000000000000002 0.28013319223005378 6502.0000000000009 1908.6607812657105
decision_type=2 2 2 2 2 2 2 2 2 2 2 2 2 2
left_child=3 2 5 4 11 -2 -6 8 9 10 -3 -1 -5 -13
right_child=1 7 -4 12 6 -7 -8 -9 -10 -11 -12 13 -14 -15
leaf_value=47.829857611965821 172.77962494219764 48.609941093364618 -34.782469030358328 8.2949653022120682 64.531206206859622 43.954458669888773 25.413649503158133 -87.689499262029472 87.191976152003662 -55.117781933736239 -2.8721978776242074 3.9593050770816349 -28.361750292096822 -35.037412205720557
leaf_weight=72 54 507 82 7075 362 54 1215 50 66 252 44555 79 100 229
leaf_count=72 54 507 82 7075 362 54 1215 50 66 252 44555 79 100 229
internal_value=0.00222854 -2.3262 50.0576 11.6291 25.7415 113.164 34.5688 -2.55077 -2.44731 -2.58748 -2.28763 -10.8643 7.76464 -25.1307
internal_weight=54752 45620 190 9132 1957 108 1577 45430 45380 45314 45062 380 7175 308
internal_count=54752 45620 190 9132 1957 108 1577 45430 45380 45314 45062 380 7175 308
is_linear=0
shrinkage=0.05


Tree=57
num_leaves=15
num_cat=0
split_feature=54 54 54 54 54 3 51 54 54 51 57 54 5 57
split_gain=5.38575e+08 1.96387e+08 2.18136e+08 3.19411e+08 2.27512e+08 2.1621e+08 4.42914e+08 1.63859e+08 2.28164e+08 1.38782e+08 1.30099e+08 1.82569e+08 1.22766e+08 7.55937e+07
threshold=3215.454893699432 3215.4843469185748 3346.9401329833022 3712.2123631861336 3215.508458964538 7137.615140546096 3864.9745105742968 2466.0390000000002 3215.3569852814603 2662.3686768609568 2344.4444444444448 3711.8874560462245 25.070070000000005 4982.7380952380963
decision_type=2 2 2 2 2 2 2 2 2 2 2 2 2 2
left_child=7 -2 4 10 13 9 -7 12 -9 -5 -4 -12 -1 -3
right_child=1 2 3 5 -6 6 -8 8 -10 -11 11 -13 -14 -15
leaf_value=46.890570556490047 3.1815567111658547 -4.6061141385900148 -36.24682639076596 67.727910767603618 -24.949040995338894 162.27893192606459 -29.377319011697548 61.34860397879369 18.830146170168209 -3.4586346837663164 46.574131966961758 13.125118259403132 -23.991578394288471 -38.488822753170894
leaf_weight=71 17067 21364 100 64 1505 54 59 362 2333 8985 526 1792 309 161
leaf_count=71 17067 21364 100 64 1505 54 59 362 2333 8985 526 1792 309 161
internal_value=0.00329871 -1.20718 -3.37152 2.22574 -6.18584 -2.04269 65.2039 20.3151 24.6445 -2.91801 18.3701 20.7994 -10.3102 -4.86844
internal_weight=54752 51677 34610 11580 23030 9162 113 3075 2695 9049 2418 2318 380 21525
internal_count=54752 51677 34610 11580 23030 9162 113 3075 2695 9049 2418 2318 380 21525
is_linear=0
shrinkage=0.05


Tree=58
num_leaves=15
num_cat=0
split_feature=54 68 54 54 54 50 54 56 54 76 45 54 66 57
split_gain=4.92955e+08 1.84668e+08 3.80182e+08 1.6616e+08 2.79348e+08 1.5525e+08 1.45207e+08 2.06774e+08 2.5716e+08 4.77951e+08 1.22708e+08 7.21186e+07 6.13768e+07 5.7994e+07
threshold=3215.4740934326051 0.0061133769420888004 6424.9395209580844 3215.4269198657262 2466.0390000000002 0.43162236480293315 6119.3411482720185 0.89061166429587491 5223.2273529411768 1.5000000000000002 3764.6020992366416 3215.3569852814603 0.18341004165829713 5943.6507936507942
decision_type=2 2 2 2 2 2 2 2 2 2 2 2 2 2
left_child=3 2 5 4 10 -2 7 8 9 -3 -1 -6 13 -5
right_child=1 6 -4 12 11 -7 -8 -9 -10 -11 -12 -13 -14 -15
leaf_value=-22.09118628355623 41.420743211110434 45.95756305662217 -33.721133268290558 13.442694473682039 58.322964785209471 163.85393628087536 -83.522839658910584 83.034832276089105 -52.235857072229059 -2.628454984967489 53.691607334464791 29.881327518960902 3.3264999622436164 -18.349072465181351
leaf_weight=321 55 507 82 3711 362 53 50 66 252 44555 59 633 3901 145
leaf_count=321 55 507 82 3711 362 53 50 66 252 44555 59 633 3901 145
internal_value=0.00431554 -2.1186 46.4361 10.605 26.5968 106.098 -2.32677 -2.22811 -2.36144 -2.07676 -9.77978 40.4691 7.75496 12.2249
internal_weight=54752 45620 190 9132 1375 108 45430 45380 45314 45062 380 995 7757 3856
internal_count=54752 45620 190 9132 1375 108 45430 45380 45314 45062 380 995 7757 3856
is_linear=0
shrinkage=0.05


Tree=59
num_leaves=15
num_cat=0
split_feature=55 51 31 55 51 71 55 50 51 51 51 66 51 73
split_gain=1.34088e+08 2.76926e+08 1.07841e+08 2.81576e+08 2.5012e+08 2.96147e+08 1.21664e+08 8.79734e+07 8.06702e+07 6.65792e+07 5.33893e+07 1.17759e+08 1.04828e+08 4.96731e+07
threshold=4241.6116574974831 3864.905447681022 4072.757608448785 2755.4167094891613 3865.0343650818013 11.500000000000002 3990.9133138745988 0.57677987547271881 2662.3686768609568 3865.1301322938093 3865.0052051935299 0.25906744801446252 3864.7450682955282 9.5000000000000018
decision_type=2 2 2 2 2 2 2 2 2 2 2 2 2 2
left_child=2 -2 6 10 5 -5 7 8 -1 -10 11 -4 -13 -9
right_child=1 -3 3 4 -6 -7 -8 13 9 -11 -12 12 -14 -15
leaf_value=30.903008367275369 123.82405730027421 -20.772034843649184 4.3793779602844927 32.205663895606996 -19.599743452464068 169.50874937905206 -55.504048740162574 -38.741709985155047 -0.066528121883434585 -6.4519951744914152 -0.48789886212023226 67.12768789971625 15.986311833024695 -10.026670256092242
leaf_weight=198 60 65 2688 93 68 67 97 193 42147 4515 3417 138 351 655
leaf_count=198 60 65 2688 93 68 67 97 193 42147 4515 3417 138 351 655
internal_value=0.00538035 50.7252 -0.115306 5.76314 59.7854 93.0972 -0.954709 -0.837989 -0.548256 -0.685014 3.8513 8.5118 30.9527 -16.7511
internal_weight=54752 125 54627 6822 228 160 47805 47708 46860 46662 6594 3177 489 848
internal_count=54752 125 54627 6822 228 160 47805 47708 46860 46662 6594 3177 489 848
is_linear=0
shrinkage=0.05


Tree=60
num_leaves=15
num_cat=0
split_feature=54 76 54 54 56 54 54 54 54 54 54 83 51 0
split_gain=4.185e+08 1.80045e+08 1.2533e+09 1.6923e+08 2.67296e+08 6.25827e+08 2.54673e+08 1.52774e+08 2.78752e+08 5.81072e+08 1.37225e+08 1.5221e+08 1.35501e+08 1.85057e+08
threshold=3215.4755761533829 1.5000000000000002 5218.49205882353 3712.3692967395796 0.3757923342619402 3711.3385497317381 3215.5064032105356 5222.1097058823534 6327.8978448275875 6428.3669161676653 3215.4532798244104 0.33008010353743106 3865.167886675466 39.500000000000007
decision_type=2 2 2 2 2 2 2 2 2 2 2 2 2 2
left_child=10 2 -2 4 5 -3 -6 -4 -9 -10 11 -1 13 -5
right_child=1 3 7 12 6 -7 -8 8 9 -11 -12 -13 -14 -15
leaf_value=-27.554293831859724 201.65366892260175 108.83441498425543 30.280260336399081 -13.830703146220129 -2.2675046670108148 4.6601058978548746 -17.159471865079535 -36.054681589303101 161.63391574924276 -65.372696514129643 5.6901456706481364 22.026589945929413 -52.323532546764092 59.218724216885043
leaf_weight=161 81 142 267 2449 30004 7538 3170 384 54 50 7723 2458 214 85
leaf_count=161 81 142 267 2449 30004 7538 3170 384 54 50 7723 2458 214 85
internal_value=-0.00549868 -2.114 20.8015 -2.55571 -1.7469 6.65583 -3.69291 0.19949 -16.3983 54.5014 9.05102 18.9319 -14.5549 -11.2685
internal_weight=54780 44438 836 43602 40854 7680 33174 755 488 104 10342 2619 2748 2534
internal_count=54780 44438 836 43602 40854 7680 33174 755 488 104 10342 2619 2748 2534
is_linear=0
shrinkage=0.05


Tree=61
num_leaves=15
num_cat=0
split_feature=54 76 54 2 54 54 56 54 54 31 51 54 54 0
split_gain=3.77545e+08 1.63758e+08 1.13769e+09 1.82278e+08 2.34938e+08 1.5276e+08 2.41423e+08 5.66922e+08 2.36227e+08 1.42401e+08 3.73146e+08 1.30429e+08 1.27022e+08 2.11791e+08
threshold=3215.4755761533829 1.5000000000000002 5218.49205882353 11201.238577786302 5222.3450000000003 3712.3692967395796 0.3757923342619402 3711.3385497317381 3215.4966123687386 4568.5337935297766 3864.9438159550637 3712.1722269913339 3215.4368720950256 14.500000000000002
decision_type=2 2 2 2 2 2 2 2 2 2 2 2 2 2
left_child=12 2 -2 4 -4 6 7 -3 -8 -7 -11 -9 13 -1
right_child=1 5 3 -5 -6 9 8 11 -10 10 -12 -13 -14 -15
leaf_value=-16.558691734279673 192.15718905426738 103.57778660780718 24.955292347745292 80.311982995546785 -33.114243764388256 -16.635418890015547 -1.2373279578435001 18.352821198891512 -11.346799725891319 118.94945628983635 -33.252510885397598 1.3217893769778402 6.28818261870029 30.875610845817569
leaf_weight=287 81 142 310 60 385 2592 25726 1370 7448 65 91 6168 8819 1236
leaf_count=287 81 142 310 60 385 2592 25726 1370 7448 65 91 6168 8819 1236
internal_value=-0.00349181 -2.00616 19.8483 0.219264 -7.21913 -2.42742 -1.65898 6.32674 -3.50841 -13.8278 31.888 4.42726 8.59847 21.9118
internal_weight=54780 44438 836 755 695 43602 40854 7680 33174 2748 156 7538 10342 1523
internal_count=54780 44438 836 755 695 43602 40854 7680 33174 2748 156 7538 10342 1523
is_linear=0
shrinkage=0.05


Tree=62
num_leaves=15
num_cat=0
split_feature=54 76 54 2 54 54 56 54 54 54 51 31 51 54
split_gain=3.42404e+08 1.39791e+08 1.03279e+09 1.65742e+08 2.12348e+08 1.5483e+08 2.00259e+08 5.06407e+08 2.71297e+08 1.34378e+08 1.25002e+08 1.87661e+08 2.411e+08 1.13161e+08
threshold=3215.4651149079023 1.5000000000000002 5218.49205882353 11201.238577786302 5222.3450000000003 3712.361042509287 0.3757923342619402 3711.3385497317381 3215.4934922103635 3495.3216216216219 3865.1518487369162 4568.5337935297766 3864.9438159550637 3712.0391275278585
decision_type=2 2 2 2 2 2 2 2 2 2 2 2 2 2
left_child=-1 2 -2 4 -4 6 7 -3 -8 -10 11 -7 -13 -9
right_child=1 5 3 -5 -6 10 8 13 9 -11 -12 12 -14 -15
leaf_value=12.240249436117765 183.10792679897577 98.57505011526095 23.727333482257905 76.605275930257946 -31.479758694531064 -11.942463828281063 0.27596236523774298 26.913158914135465 -8.5366657845258889 -64.122363544810909 -40.819849580942197 113.42680270876204 -11.598369801446294 3.0223253237848478
leaf_weight=5168 81 142 310 60 385 2651 27708 531 10535 105 339 65 84 6616
leaf_count=5168 81 142 310 60 385 2651 27708 531 10535 105 339 65 84 6616
internal_value=-0.001196 -1.27748 18.9345 0.232036 -6.86107 -1.62581 -0.886346 6.70788 -2.33051 -9.11509 -12.3581 -8.84548 44.8531 4.81495
internal_weight=54780 49612 836 755 695 48776 45637 7289 38348 10640 3139 2800 149 7147
internal_count=54780 49612 836 755 695 48776 45637 7289 38348 10640 3139 2800 149 7147
is_linear=0
shrinkage=0.05


Tree=63
num_leaves=15
num_cat=0
split_feature=76 45 51 45 70 50 48 48 51 66 55 53 55 56
split_gain=1.11458e+08 2.01248e+08 1.94334e+08 1.46181e+08 1.3823e+08 7.91868e+07 1.51508e+08 8.17217e+07 7.26625e+07 2.02152e+08 2.09216e+08 7.47639e+07 5.36001e+08 1.0524e+08
threshold=1.5000000000000002 3613.5984042553196 3864.905447681022 2915.251141981103 0.37271949206571015 0.57677987547271881 3054.8885789293463 2472.9797558386422 3865.1301322938093 0.25906744801446252 2212.5966591679207 0.28013319223005378 2212.5966591679207 0.77731974675852888
decision_type=2 2 2 2 2 2 2 2 2 2 2 2 2 2
left_child=1 3 4 -1 -3 6 -2 -7 11 -10 -11 12 -8 -13
right_child=5 2 -4 -5 -6 7 8 -9 9 10 -12 13 -14 -15
leaf_value=40.285000923858291 65.510019618814653 128.85359398735895 -5.6883140379967898 -14.23672505262928 35.730077266693115 13.533922487418067 2.4220653485209147 -24.052883520662135 5.7922157289933356 -12.027884513419842 -98.367142704625934 -0.44949422305387804 90.229798863421792 -22.062176852534165
leaf_weight=169 83 85 87 414 81 183 13926 638 2201 2970 67 33137 171 568
leaf_count=169 83 85 87 414 81 183 13926 638 2201 2970 67 33137 171 568
internal_value=0.000541241 18.0626 54.8306 1.77577 85.7887 -0.281021 -0.0421465 -15.6433 -0.150896 -5.73865 -14.0913 0.461924 3.51883 -0.816939
internal_weight=54780 836 253 583 166 53944 53123 821 53040 5238 3037 47802 14097 33705
internal_count=54780 836 253 583 166 53944 53123 821 53040 5238 3037 47802 14097 33705
is_linear=0
shrinkage=0.05


Tree=64
num_leaves=15
num_cat=0
split_feature=54 76 54 3 54 54 76 54 54 54 57 51 51 54
split_gain=3.09746e+08 1.22381e+08 9.10398e+08 1.43916e+08 1.8557e+08 1.24494e+08 1.60969e+08 4.69947e+08 2.00356e+08 1.30391e+08 1.28449e+08 1.05742e+08 1.22071e+08 1.01342e+08
