tree
version=v4
num_class=1
num_tree_per_iteration=1
label_index=0
max_feature_idx=14
objective=regression
feature_names=state_fee_percentile segment_fee_percentile segment_cv state_cv state_std_fee segment_avg_fee state_avg_fee segment_avg_fee_log segment_property_interaction segment_state_interaction state_avg_fee_log segment_std_fee client_avg_fee segment_win_rate segment_avg_fee_sqrt
feature_infos=[0.00097596055064721598:1] [0.0029302315217149097:1] [0.58131889213426546:1.2982338188459588] [0:1.159731940251886] [0:5533.308232874796] [1916.5921112929625:6676.3157894736842] [2662.0864022133323:12030] [7.5588255692678255:8.8064713578531162] [4773531.9391929386:32466653.262673102] [5154178.1774319857:57511176.419117644] [7.8872410307300731:9.3952419310335245] [1675.5224086583171:5424.8632820512048] [35.799999999999997:15000] [0.41010716130142882:0.95206243032329985] [43.778900297894218:81.708725295856155]
tree_sizes=2843 2868 2860 2859 2855 2871 2871 2876 2849 2871 2853 2851 2867 2859 2861 2861 2865 2848 2862 2852 2869 2868 2842 2860 2849 2852 2853 2842 2845 2857 2844 2854 2864 2855 2846 2855 2865 2857 2846 2849 2853 2834 2837 2860 2855 2848 2853 2847 2848 2837 2844 2850 2844 2844 2849 2848 2848 2848 2861 2839 2838 2840 2845 2832 2847 2827 2813 2813 2841 2860 2841 2854 2837 2854 2825 2847 2844 2847 2838 2832 2852 2821 2831 2790 2805 2849 2826 2805 2823 2812 2779 2812 2777 2782 2804 2801 2763 2792 2761 2774 2751 2797 2787 2757 2768 2739 2743 2781 2741 2759 2783 2724 2736 2752 2755 2738 2718 2778 2750 2719 2739 2724 2729 2722 2695 2724 2718 2738 2687 2675 2712 2729 2726 2733 2703 2722 2729 2715 2723 2717 2728 2742 2727 2736 2718 2723 2714 2716 2715 2705 2693 2678 2711 2726 2674 2702 2713 2688 2695 2718 2708 2694 2688 2688 2725 2722 2713 2691 2703 2712 2713 2723 2696 2686 2693 2683 2717 2696 2691 2712 2698 2692 2721 2743 2713 2711 2716 2699 2697 2702 2684 2703 2724 2730 2721 2716 2694 2715 2735 2726 2678 2707 2715 2729 2744 2706 2709 2718 2696 2704 2737 2729 2734 2713 2708 2693 2702 2692 2704 2699 2703 2694 2709 2731 2709 2706 2724 2721 2717 2693 2707 2697 2738 2694 2731 2712 2663 2691 2686 2720 2718 2679 2711 2736 2706 2723 2738 2753 2718 2710 2699 2710 2726 2733 2701 2682 2686 2686 2686 2766 2696 2715 2723 2737 2701 2713 2711 2706 2734 2709 2743 2723 2699 2703 2748 2692 2718 2717 2686 2689 2714 2719 2697 2702 2694 2733 2726 2713 2727 2732 2705 2718 2733 2721 2711 2711 2725 2714 2709 2738 2715 2677 2721 2743 2707 2706 2719 2669 2700 2714 2733 2698 2725 2706 2713 2710 2742 2707 2704 2702 2727 2710 2732 2704 2774 2741 2714 2743 2710 2703 2698 2683 2706 2736 2732 2701 2699 2719 2705 2680 2716 2720 2711 2695 2721 2711 2711 2686 2678 2693 2713 2701 2776 2801 2698 2740 2751 2738 2715 2778 2716 2752 2700 2711 2682 2692 2696 2697 2714 2686 2778 2705 2727 2781 2787 2695 2705 2709 2702 2687 2728 2716 2725 2704 2718 2677 2698 2696 2675 2752 2690 2722 2687 2698 2703 2750 2700 2709 2783 2755 2746 2710 2725 2709 2747 2747 2751 2703 2689 2718 2688 2745 2688 2716 2730 2704 2686 2659 2725 2760 2714 2700 2709 2722 2713 2757 2733 2747 2729 2738 2688 2723 2729 2715 2725 2729 2714 2736 2721 2766 2707 2679 2737 2710 2741 2724 2735 2739 2713 2702 2711 2723 2729 2716 2687 2728 2774 2721 2743 2724 2755 2752 2773 2725 2750 2717 2711 2702 2728 2718 2724 2726 2716 2694 2724 2731 2715 2731 2723 2724 2733 2730 2706 2726 2695 2716 2689 2712 2716 2729 2745 2726 2769 2728 2731 2733 2704 2752 2731 2704 2703 2729 2742 2686 2683 2746 2744 2728 2751 2716 2724 2715 2707 2727 2701 2750 2751 2718 2742 2714 2721 2715 2722 2736 2711 2745 2734 2745 2704 2693 2711 2750 2751 2740 2707 2734 2798 2715 2744 2729 2719 2726 2767 2732 2710 2758 2762 2784 2726 2747 2697 2743 2721 2731 2697 2707 2753 2708 2732 2735 2767 2734 2745 2716 2734 2742 2728 2764 2704 2699 2724 2699 2728 2714 2730 2758 2758 2716 2770 2696 2756 2724 2729 2762 2709 2707 2726 2754 2731 2760 2698 2672 2729 2687 2706 2746 2747 2738 2762 2728 2710 2723 2728 2718 2773 2719 2745 2744 2727 2688 2716 2711 2705 2702 2706 2780 2732 2768 2764 2742 2712 2717 2747 2749 2756 2748 2743 2756 2708 2735 2752 2709 2725 2735 2710 2730 2691 2746 2732 2710 2700 2754 2727 2753 2736 2724 2738 2734 2729 2717 2728 2705 2735 2722 2747 2701 2714 2722 2731 2755 2712 2737 2698 2711 2765 2722 2738 2722 2772 2727 2708 2720 2714 2710 2830 2684 2708 2712 2704 2756 2728 2759 2765 2722 2742 2717 2724 2756 2730 2760 2741 2748 2784 2795 2741 2720 2731 2749 2732 2753 2737 2774 2730 2752 2740 2791 2797 2734 2717 2738 2752 2736 2704 2700 2692 2718 2734 2744 2726 2707 2713 2743 2721 2720 2718 2717 2730 2728 2773 2705 2732 2734 2744 2739 2729 2744 2719 2741 2732 2744 2764 2746 2822 2769 2716 2687 2707 2703 2706 2713 2756 2695 2742 2727 2734 2737 2731 2722 2712 2706 2745 2730 2715 2711 2740 2743 2732 2714 2708 2713 2757 2727 2748 2755 2756 2785 2735 2724 2745 2708 2721 2755 2728 2774 2773 2735 2724 2723 2722 2719 2779 2747 2745 2751 2800 2741 2726 2758 2724 2709 2713 2722 2772 2744 2725 2726 2743 2693 2709 2735 2766 2728 2712 2718 2710 2755 2754 2742 2726 2723 2720 2718 2727 2727 2724 2767 2744 2743 2738 2723 2737 2732 2741 2731 2777 2757 2735 2770 2729 2759 2746 2706 2756 2752 2695 2760 2719 2727 2752 2695 2712 2726 2697 2754 2720 2738 2714 2721 2714 2694 2703 2734 2718 2717 2710 2734 2743 2750 2777 2780 2688 2696 2740 2756 2736 2770 2768 2754 2721 2778 2821 2706 2745 2762 2762 2756 2714 2730 2710 2706 2713 2770 2708 2748 2736 2705 2720 2710 2733 2702 2713 2829 2828 2756 2765 2708 2731 2724 2702 2773 2719 2721 2735 2707 2720 2735 2730 2738 2739 2741 2736 2687 2729 2725 2726 2752 2728 2719 2717 2713 2720 2711 2757 2741 2758 2758 2731 2736 2770 2746 2735 2709 2720 2818 2735 2713 2736 2727 2764 2735 2733 2745 2754 2734 2816 2731 2734 2715 2739 2719 2713 2748 2765 2710 2762 2730 2711 2722 2693 2739 2740 2752 2761 2759 2733 2748 2750 2743 2754 2779 2713 2688 2722 2719 2696 2778 2782 2816 2793 2786 2752 2711 2714 2753 2730 2763 2732 2732 2734 2720

Tree=0
num_leaves=31
num_cat=0
split_feature=0 0 1 1 3 1 4 6 1 0 0 2 1 0 1 2 5 6 2 5 5 1 5 0 5 1 1 2 5 4
split_gain=7.42056e+10 2.10499e+10 1.97608e+10 6.66047e+09 6.39676e+09 4.12751e+09 2.7431e+09 1.43729e+09 1.41439e+09 1.1916e+09 1.06676e+09 1.06018e+09 1.04102e+09 6.90289e+08 6.71918e+08 6.59031e+08 4.88398e+08 4.84208e+08 3.54277e+08 2.61847e+08 2.23688e+08 2.20748e+08 2.19887e+08 1.83194e+08 1.73111e+08 1.63926e+08 1.50272e+08 1.43227e+08 1.29049e+08 1.27601e+08
threshold=0.10113308380384817 0.016885964974369203 0.48573330799113595 0.88506929504513787 0.69953648055111473 0.14505570750543001 1663.0858693714681 3800.0765550239234 0.022950863673839812 0.0047430958344691198 0.040769188550564307 0.58855899787746491 0.72153816846771968 0.048340530014393368 0.95509406543937525 0.58856217051340542 6118.3378037904131 4339.1673640167373 0.5885761194923923 5220.99205882353 6119.4526309921966 0.22792368932549747 3215.4869291186092 0.0096919870310328872 3215.4778914184885 0.59825439680560266 0.8019958013217513 0.58856199332526793 3215.4378135221214 2599.1145832785091
decision_type=2 2 2 2 2 2 2 2 2 2 2 2 2 2 2 2 2 2 2 2 2 2 2 2 2 2 2 2 2 2
left_child=1 6 5 12 7 8 9 10 -2 -1 28 -7 16 -6 -5 -10 22 -9 -8 21 26 -13 -4 -11 -23 -24 -14 -12 -3 -20
right_child=2 4 3 14 13 11 18 17 15 23 27 19 20 -15 -16 -17 -18 -19 29 -21 -22 24 25 -25 -26 -27 -28 -29 -30 -31
leaf_value=3755.2902913542603 3612.1161384380289 3460.2493053241105 3125.148018891317 3124.0865662620549 3680.0221242012626 3218.3425536605209 3582.1214395794814 3423.8864249366629 3288.1697703901732 3563.9857615471046 3291.966608215434 3259.6170108036949 3171.9233592456235 3532.838607452627 3081.4140620427215 3351.5127565505472 3273.0647199867362 3598.652876433865 3741.0124845406785 3325.1723833786737 3225.7760724736931 3180.8143553095174 3201.1695289932622 3462.8976612126071 3241.5165046218085 3186.2167448545765 3155.8047335325991 3326.3422653675166 3387.5864026830182 3812.675397362113
leaf_weight=67 38 71 122 2356 131 5213 21 338 1572 83 489 2394 3074 207 1518 556 189 45 89 114 152 123 3276 101 2562 4163 2735 801 465 296
leaf_count=67 38 71 122 2356 131 5213 21 338 1572 83 489 2394 3074 207 1518 556 189 45 89 114 152 123 3276 101 2562 4163 2735 801 465 296
internal_value=3223.78 3452.56 3199.47 3165.25 3387.45 3247.34 3704.88 3356.45 3310.14 3574.68 3337.96 3234.27 3181.61 3590 3107.36 3304.73 3193.69 3444.51 3785.26 3250.26 3165.9 3248.58 3191.71 3508.66 3238.73 3192.8 3164.33 3313.32 3397.25 3796.25
internal_weight=33361 3204 30157 17585 2547 12572 657 2209 2166 251 1826 10406 13711 338 3874 2128 7750 383 406 5193 5961 5079 7561 184 2685 7439 5809 1290 536 385
internal_count=33361 3204 30157 17585 2547 12572 657 2209 2166 251 1826 10406 13711 338 3874 2128 7750 383 406 5193 5961 5079 7561 184 2685 7439 5809 1290 536 385
is_linear=0
shrinkage=1


Tree=1
num_leaves=31
num_cat=0
split_feature=0 0 1 1 3 1 4 6 1 0 1 2 0 0 2 1 7 6 2 7 1 7 1 7 0 7 1 0 4 0
split_gain=6.69745e+10 1.89995e+10 1.78343e+10 6.01651e+09 5.77353e+09 3.72566e+09 2.47554e+09 1.2974e+09 1.29171e+09 1.07564e+09 1.00379e+09 9.24167e+08 9.23596e+08 6.23074e+08 5.98705e+08 5.44048e+08 4.83667e+08 4.61999e+08 3.19505e+08 2.32933e+08 2.198e+08 2.05658e+08 1.99725e+08 1.73647e+08 1.65363e+08 1.50286e+08 1.29061e+08 1.26078e+08 1.15088e+08 1.64073e+08
threshold=0.10113308380384817 0.016885964974369203 0.48573330799113595 0.89228782787158656 0.69953648055111473 0.16094342121026781 1663.0858693714681 3646.176762661371 0.022950863673839812 0.0047430958344691198 0.7358278473018337 0.58855890042502534 0.040769188550564307 0.048340530014393368 0.58856217051340542 0.95960068632038686 8.7192091676155972 4339.1673640167373 0.5885761194923923 8.5606342281458616 0.22792368932549747 8.0760450271458026 0.63164793292141386 8.7193913320424965 0.0096919870310328872 8.0760422173371449 0.064851925965330459 0.040769188550564307 2599.1145832785091 0.0096919870310328872
decision_type=2 2 2 2 2 2 2 2 2 2 2 2 2 2 2 2 2 2 2 2 2 2 2 2 2 2 2 2 2 2
left_child=1 6 5 10 7 8 9 12 -2 -1 16 -7 -3 27 -10 -5 21 -9 -8 20 -13 -4 -23 -12 -11 -22 -14 -6 29 -20
right_child=2 4 3 15 13 11 18 17 14 24 23 19 26 -15 -16 -17 -18 -19 28 -21 25 22 -24 -25 -26 -27 -28 -29 -30 -31
leaf_value=504.69110505833191 368.68698685613521 162.93695691195666 -95.023222080680384 -97.879461050691191 487.7084474281146 -7.1926866668324054 340.22594138773695 186.29961555740567 59.854792689824365 322.93266190254593 -59.444866934002334 33.33528861179488 116.17335838706845 293.32987703611633 119.04412702969356 -137.63814531521879 45.38342517776897 355.88748917336477 528.1982807694917 93.942273629186019 -41.102382048816821 -22.900267389232596 -38.467407179111831 -2.4080387210080785 226.89032717741566 15.223809195657189 75.957994909628198 386.44915821273958 559.17728280141841 361.19314948694029
leaf_weight=67 38 523 128 2313 60 4654 21 379 1664 83 5153 2284 249 207 575 1372 206 45 69 113 123 3877 4399 137 101 3121 1013 71 296 20
leaf_count=67 38 523 128 2313 60 4654 21 379 1664 83 5153 2284 249 207 575 1372 206 45 69 113 123 3877 4399 137 101 3121 1013 71 296 20
internal_value=-0.281638 217.061 -23.3737 -55.8849 155.211 22.1013 456.778 125.753 79.9761 333.091 -40.8258 9.30014 107.066 347.638 75.0599 -112.686 -30.2932 204.378 533.144 22.9071 21.4534 -32.1487 -31.1751 -57.9678 270.366 13.0869 83.9013 433.164 543.575 491.117
internal_weight=33361 3204 30157 17585 2547 12572 657 2209 2277 251 13900 10295 1785 338 2239 3685 8610 424 406 5641 5528 8404 8276 5290 184 3244 1262 131 385 89
internal_count=33361 3204 30157 17585 2547 12572 657 2209 2277 251 13900 10295 1785 338 2239 3685 8610 424 406 5641 5528 8404 8276 5290 184 3244 1262 131 385 89
is_linear=0
shrinkage=0.05


Tree=2
num_leaves=31
num_cat=0
split_feature=0 0 1 3 1 1 4 2 1 1 0 1 6 0 1 2 1 5 2 2 2 5 2 5 0 5 2 0 3 5
split_gain=6.04485e+10 1.71492e+10 1.61077e+10 5.21136e+09 4.97696e+09 3.74226e+09 2.2342e+09 1.17891e+09 1.17555e+09 1.05302e+09 9.70964e+08 7.25517e+08 6.70157e+08 5.68358e+08 4.91011e+08 4.86695e+08 4.03921e+08 3.66525e+08 2.98324e+08 2.88161e+08 2.66933e+08 2.37817e+08 2.36394e+08 1.79535e+08 1.58093e+08 1.56999e+08 1.52201e+08 1.49267e+08 1.3212e+08 1.27875e+08
threshold=0.10113308380384817 0.016885964974369203 0.53674210374247122 0.69953648055111473 0.89228782787158656 0.16094342121026781 1663.0858693714681 0.58856353880319034 0.023317432588795824 0.36581699142475027 0.0047430958344691198 0.7533301341126063 4322.1148060817968 0.051606823442486432 0.95960068632038686 0.58856199332526793 0.12378304275925577 6118.5328985507249 0.58857109896505355 0.5885761194923923 0.58855950778065591 5222.3450000000003 0.58856578320598374 4865.7157534246589 0.040769188550564307 6119.4526309921966 1.2828638534762036 0.0096919870310328872 0.5766502806603232 3215.4740934326051
decision_type=2 2 2 2 2 2 2 2 2 2 2 2 2 2 2 2 2 2 2 2 2 2 2 2 2 2 2 2 2 2
left_child=1 6 5 7 11 8 10 -3 18 20 -1 17 16 24 -6 -10 22 -4 -2 -8 -7 26 -9 29 -5 -13 -11 -12 -18 -22
right_child=2 3 4 13 14 9 19 12 15 21 27 25 -14 -15 -16 -17 28 -19 -20 -21 23 -23 -24 -25 -26 -27 -28 -29 -30 -31
leaf_value=479.49414542776651 211.47633694651623 75.195232991327345 -33.206137907052039 463.36362052828622 -92.985699138886275 9.7021115618843758 323.29528311055981 137.58510053750865 54.204864284187671 -10.472680168716835 306.80546023005047 -57.741126458055852 325.45420334243045 267.74964497710823 -130.7567377025259 104.24301388890211 97.103841865749672 38.967646999242639 453.56170301392177 516.41546110689592 -23.996106098566571 56.642714751804533 193.66344863173492 106.17960285825025 359.12419134694852 -2.6500638358490889 -100.74308252678809 215.55702445221706 169.08091138898138 30.923175257889159
leaf_weight=67 33 895 7592 60 2313 2926 21 379 1505 5447 83 4690 52 176 1372 718 432 180 21 385 110 132 376 77 102 133 47 101 75 2861
leaf_count=67 33 895 7592 60 2313 2926 21 379 1505 5447 83 4690 52 176 1372 718 432 180 21 385 110 132 376 77 102 133 47 101 75 2861
internal_value=-0.266785 206.216 -22.2049 147.454 -55.9424 17.3747 433.961 119.467 75.9785 5.87063 316.457 -40.9882 149.614 330.273 -107.052 70.3705 142.344 -31.5341 306.285 506.509 20.4898 -9.65291 165.535 30.845 397.993 -56.222 -11.2467 256.862 107.783 28.8891
internal_weight=33361 3204 30157 2547 16280 13877 657 2209 2277 11600 251 12595 1314 338 3685 2223 1262 7772 54 406 5974 5626 755 3048 162 4823 5494 184 507 2971
internal_count=33361 3204 30157 2547 16280 13877 657 2209 2277 11600 251 12595 1314 338 3685 2223 1262 7772 54 406 5974 5626 755 3048 162 4823 5494 184 507 2971
is_linear=0
shrinkage=0.05


Tree=3
num_leaves=31
num_cat=0
split_feature=0 0 0 3 5 0 4 10 0 5 0 0 5 5 0 4 9 5 10 5 4 0 5 9 10 5 0 5 10 9
split_gain=5.45578e+10 1.54783e+10 1.35194e+10 4.70391e+09 3.84154e+09 2.94734e+09 2.01615e+09 1.06879e+09 1.04485e+09 9.58533e+08 8.76474e+08 8.04617e+08 6.94867e+08 5.25327e+08 5.13091e+08 4.91388e+08 3.75568e+08 3.72033e+08 3.57568e+08 3.12436e+08 2.42644e+08 2.67e+08 2.26484e+08 2.05096e+08 1.58392e+08 1.42912e+08 1.42741e+08 1.39657e+08 1.32103e+08 1.26772e+08
threshold=0.10113308380384817 0.016885964974369203 0.64759593157651418 0.69953648055111473 3215.4784293768294 0.86746493769170374 1663.0858693714681 8.2430396095166341 0.27016376034100137 3215.4678046996046 0.0047430958344691198 0.040769188550564307 3215.5061880271992 3215.4857725081774 0.051606823442486432 1868.9892836416564 17379634.116327565 3215.4944874332937 8.3756681894158032 3215.3572542606303 2599.1145832785091 0.0096919870310328872 3215.4558351265282 17048999.286955204 8.2917957667260467 3215.4731304871752 0.040769188550564307 3215.4129329488728 8.2600229819596453 12459628.208502436
decision_type=2 2 2 2 2 2 2 2 2 2 2 2 2 2 2 2 2 2 2 2 2 2 2 2 2 2 2 2 2 2
left_child=1 6 4 7 9 17 10 11 15 16 -1 -3 29 -10 26 -6 19 23 -9 -2 21 -8 -21 -4 -15 -11 -5 -12 -14 -7
right_child=2 3 5 14 8 12 20 18 13 25 27 -13 28 24 -16 -17 -18 -19 -20 22 -22 -23 -24 -25 -26 -27 -28 -29 -30 -31
leaf_value=455.55516821325455 11.772375159736418 149.04980482184337 -33.94236990370193 440.23400094893935 15.584862010304509 -71.875868572081075 476.04319953532024 171.71281050484902 5.1023690867240949 48.722546022968018 347.38594740463742 76.153264054748661 -100.65928042678287 -20.37606380450406 254.36977089877024 84.173760661377031 279.97140899293453 -54.872874485621914 321.89595018881658 138.47068006299952 504.93550407848784 311.76387351932669 79.859630119550332 118.75081111165733 76.874713787160417 27.520876903196083 341.18556282424561 225.27224677878269 -123.89246726944685 0.25770172747870446
leaf_weight=67 130 536 4690 60 1745 1835 69 338 2891 1156 28 1290 1688 7756 176 307 25 3431 45 222 297 40 643 22 42 2546 102 156 965 63
leaf_count=67 130 536 4690 60 1745 1835 69 338 2891 1156 28 1290 1688 7756 176 307 25 3431 45 222 297 40 643 22 42 2546 102 156 965 63
internal_value=-0.252766 195.911 -21.0946 140.086 7.44805 -60.3601 412.277 113.496 -6.82861 45.969 300.654 97.5581 -92.5874 -13.1022 313.776 25.8501 88.8844 -42.3479 189.438 84.0555 481.193 416.098 94.9163 -33.227 -19.8513 34.1425 378.119 244.033 -109.114 -69.4817
internal_weight=33361 3204 30157 2547 17463 12694 657 2209 12741 4722 251 1826 4551 10689 338 2052 1020 8143 383 995 406 109 865 4712 7798 3702 162 184 2653 1898
internal_count=33361 3204 30157 2547 17463 12694 657 2209 12741 4722 251 1826 4551 10689 338 2052 1020 8143 383 995 406 109 865 4712 7798 3702 162 184 2653 1898
is_linear=0
shrinkage=0.05


Tree=4
num_leaves=31
num_cat=0
split_feature=0 1 0 1 4 1 4 2 1 1 0 0 1 2 0 7 7 7 2 7 1 1 2 1 7 0 1 4 1 7
split_gain=4.93384e+10 1.53767e+10 1.10738e+10 4.82816e+09 4.15774e+09 3.5903e+09 1.81948e+09 1.17551e+09 9.40465e+08 7.98121e+08 7.91163e+08 6.55591e+08 5.25019e+08 4.91341e+08 4.63026e+08 4.23854e+08 3.31488e+08 2.40108e+08 2.38074e+08 2.36468e+08 1.57232e+08 1.56099e+08 1.49766e+08 1.47725e+08 1.32816e+08 1.31039e+08 1.25184e+08 9.739e+07 9.2296e+07 9.1393e+07
threshold=0.078961348773573595 0.46846012014015942 0.016885964974369203 0.87826975758171821 2337.877066647743 0.10824510785459852 1663.0858693714681 0.58855938965628518 0.016221368054116555 0.65974690547124026 0.0047430958344691198 0.051606823442486432 0.94563600720510921 0.5885637652114698 0.036572657895811558 8.5603525740705209 8.7192091676155972 8.7193549018117302 0.5885791712273869 8.0760394158831517 0.8019958013217513 0.16094342121026781 0.58857415064795304 0.33939835140530056 8.076044868258025 0.0096919870310328872 0.34423715839361241 1557.3489600171799 0.027329021570477754 8.0760464454271741
decision_type=2 2 2 2 2 2 2 2 2 2 2 2 2 2 2 2 2 2 2 2 2 2 2 2 2 2 2 2 2 2
left_child=2 5 6 9 14 8 10 26 -2 16 -1 22 -5 -10 27 19 24 20 -8 -9 29 -21 -6 -17 -3 -12 -7 -4 -15 -11
right_child=1 3 4 12 11 7 18 15 13 17 25 -13 -14 28 -16 23 -18 -19 -20 21 -22 -23 -24 -25 -26 -27 -28 -29 -30 -31
leaf_value=432.81137287805052 375.50788173859524 -80.343738884028326 130.6216518776863 -77.673623216238767 261.00530873094084 8.6916404071030673 314.18060863128335 -24.78427505424326 74.96310414299866 -90.561786624457341 278.61716229270081 233.5539907676162 -113.65381710191294 175.82139772524712 87.449544596432318 166.86865972717547 51.12930390490807 8.3169685907166588 467.65410085222578 46.832484095800652 -55.13632322020208 27.429571322555706 380.43946212475703 72.999558659489111 -20.828140188437384 193.17501549121775 -6.0609702896182336 177.40561260762991 125.2700770270895 -38.873282234589084
leaf_weight=67 31 95 290 2272 33 2856 28 180 854 87 83 241 1833 127 885 70 160 218 378 1518 2504 3271 151 105 6623 101 2896 183 321 4900
leaf_count=67 31 95 290 2272 33 2856 28 180 854 87 83 241 1833 127 885 70 160 218 378 1518 2504 3271 151 105 6623 101 2896 183 321 4900
internal_value=-0.239444 -17.3206 216.214 -45.84 151.54 26.2713 391.68 16.7949 103.725 -32.3591 285.642 288.011 -93.7422 97.2253 108.812 34.161 -19.9767 -43.4063 457.15 31.466 -44.9117 33.5807 359.173 110.621 -21.6709 231.847 1.26406 148.756 139.637 -39.7768
internal_weight=33361 30921 2440 18692 1783 12229 657 10896 1333 14587 251 425 4105 1302 1358 5144 6878 7709 406 4969 7491 4789 184 175 6718 184 5752 473 448 4987
internal_count=33361 30921 2440 18692 1783 12229 657 10896 1333 14587 251 425 4105 1302 1358 5144 6878 7709 406 4969 7491 4789 184 175 6718 184 5752 473 448 4987
is_linear=0
shrinkage=0.05


Tree=5
num_leaves=31
num_cat=0
split_feature=0 1 0 4 1 1 4 1 0 2 0 1 0 2 1 5 2 9 5 1 1 2 1 5 5 1 1 2 2 1
split_gain=4.57604e+10 1.28297e+10 1.13431e+10 4.11589e+09 3.99519e+09 3.1418e+09 1.69093e+09 1.16674e+09 8.95805e+08 8.88005e+08 6.78445e+08 6.34746e+08 5.89069e+08 4.64887e+08 4.21269e+08 3.02971e+08 2.80839e+08 2.32431e+08 1.72523e+08 1.71197e+08 1.67527e+08 1.61588e+08 1.55873e+08 1.39415e+08 1.37318e+08 1.23266e+08 1.12604e+08 1.10492e+08 1.05739e+08 9.34837e+07
threshold=0.088601184621688769 0.48573330799113595 0.016885964974369203 2337.877066647743 0.88506929504513787 0.12308802791121129 1607.0482537608809 0.016221368054116555 0.051606823442486432 0.5885591898293342 0.0047430958344691198 0.72153816846771968 0.036572657895811558 0.58856313520626069 0.95139136054731377 6118.3378037904131 0.5885791712273869 19981562.183389481 3215.4706289808923 0.064851925965330459 0.016221368054116555 0.58857415064795304 0.38369961192624213 6119.4526309921966 3215.4869291186092 0.013275174365487891 0.59825439680560266 0.58856217051340542 0.58856514335255805 0.82097463080994404
decision_type=2 2 2 2 2 2 2 2 2 2 2 2 2 2 2 2 2 2 2 2 2 2 2 2 2 2 2 2 2 2
left_child=2 5 6 12 11 7 10 -2 21 22 -1 15 28 -9 -6 24 -8 18 -11 -18 -10 -5 -7 29 -3 -12 -26 -14 -4 -13
right_child=1 4 3 8 14 9 16 13 20 17 25 23 27 -15 -16 -17 19 -19 -20 -21 -22 -23 -24 -25 26 -27 -28 -29 -30 -31
leaf_value=400.39298080030767 378.26445755050986 -77.612181907360139 112.99855589740046 245.73637234669809 -76.41162269782906 5.5940326396299671 298.98528184465221 61.350557692995267 269.57752268969233 -26.40228988837157 314.97834377085184 -41.712759433575229 57.959200189651725 120.36701545463241 -109.83829251652283 38.57539911940345 451.32346577743112 96.310477835924132 27.074763701402617 301.4864949737115 189.05091753179613 363.77877684423282 -10.041787039546049 1.3311499038977961 -17.230015950667987 200.56721807476288 -29.63899206167638 89.173664987487314 160.78085416102402 -54.995553295003027
leaf_weight=70 33 122 192 37 2256 3533 38 1158 84 156 28 3743 470 469 1621 192 362 118 4476 21 291 152 2904 157 3280 160 4132 718 297 2053
leaf_count=70 33 122 192 37 2256 3533 38 1158 84 156 28 3743 470 469 1621 192 362 118 4476 21 291 152 2904 157 3280 160 4132 718 297 2053
internal_value=0.355676 -17.8029 189.417 135.161 -45.5877 20.1663 368.438 84.3532 251.997 10.6412 267.452 -32.8889 95.8543 78.369 -90.39 -23.434 430.247 27.0399 25.2732 443.189 207.156 340.812 -1.45999 -45.1592 -25.0148 217.766 -24.148 76.8304 142.047 -46.4185
internal_weight=33323 30403 2920 2241 17556 12847 679 1660 564 11187 258 13679 1677 1627 3877 7726 421 4750 4632 383 375 189 6437 5953 7534 188 7412 1188 489 5796
internal_count=33323 30403 2920 2241 17556 12847 679 1660 564 11187 258 13679 1677 1627 3877 7726 421 4750 4632 383 375 189 6437 5953 7534 188 7412 1188 489 5796
is_linear=0
shrinkage=0.05


Tree=6
num_leaves=31
num_cat=0
split_feature=0 1 0 1 4 1 4 1 2 0 1 0 0 1 1 0 2 8 5 5 1 2 1 0 1 1 1 1 5 5
split_gain=4.13154e+10 1.18273e+10 9.88232e+09 3.88701e+09 3.70656e+09 2.7578e+09 1.52596e+09 9.76727e+08 8.554e+08 7.21266e+08 6.49704e+08 6.12402e+08 5.00463e+08 4.52727e+08 3.45052e+08 2.61924e+08 2.53345e+08 2.24974e+08 1.97717e+08 1.68656e+08 1.54357e+08 1.45776e+08 1.36604e+08 1.14977e+08 1.14947e+08 1.1342e+08 1.06036e+08 1.04911e+08 9.88323e+07 9.84508e+07
threshold=0.083503821165504866 0.46846012014015942 0.016885964974369203 0.87826975758171821 2337.877066647743 0.10824510785459852 1607.0482537608809 0.011297546627448361 0.58855938965628518 0.051606823442486432 0.66611984042012695 0.0047430958344691198 0.036572657895811558 0.93166685477984712 0.041436510696430041 0.27016376034100137 0.5885791712273869 15828201.929752301 6119.2296655518403 3215.4688806162853 0.064851925965330459 0.58857415064795304 0.013275174365487891 0.0096919870310328872 0.77545835465925406 0.16094342121026781 0.9703138751710948 0.34423715839361241 3215.4864180581858 3215.4378135221214
decision_type=2 2 2 2 2 2 2 2 2 2 2 2 2 2 2 2 2 2 2 2 2 2 2 2 2 2 2 2 2 2
left_child=2 5 6 10 12 7 11 -2 27 21 15 -1 29 -5 -9 -3 -8 19 24 -10 -18 -6 -11 -13 -12 -21 -15 -7 -17 -4
right_child=1 3 4 13 9 8 16 14 17 22 18 23 -14 26 -16 28 20 -19 -20 25 -22 -23 -24 -25 -26 -27 -28 -29 -30 -31
leaf_value=380.40188444521226 415.05276417918014 40.438827976307621 186.18142910847627 -65.733578305920886 233.48266960205734 7.9797958661352899 284.0752524708825 137.55835438361871 -22.763569877294415 298.95647452086479 -35.291659003889173 249.6543391813662 74.187227236143599 -90.065089378929102 72.898855372769489 -69.31360185224932 428.76348947410719 72.946992204855448 6.9174286565389913 40.908983780457852 286.48361561852039 345.60179318961622 191.44493497060517 170.62641712752895 -47.992992629667228 23.53442623972181 -112.0029891713217 -5.5488918978540216 -19.265408371985799 125.03214210597692
leaf_weight=70 23 184 79 1832 37 2852 38 263 164 33 3975 86 1106 1340 960 100 362 283 222 1355 21 152 309 102 3231 3064 941 2880 6849 410
leaf_count=70 23 184 79 1832 37 2852 38 263 164 33 3975 86 1106 1340 960 100 362 283 222 1355 21 152 309 102 3231 3064 941 2880 6849 410
internal_value=0.338453 -16.5406 183.974 -41.3299 130.925 22.5438 350.031 92.9055 14.2706 245.339 -29.2056 254.097 92.8225 -84.251 86.8137 -18.4274 408.747 29.6877 -39.5554 27.0149 421.039 323.788 201.903 206.891 -40.9872 28.8628 -99.1198 1.18243 -19.9866 134.947
internal_weight=33323 30518 2805 18674 2126 11844 679 1246 10598 531 14561 258 1595 4113 1223 7133 421 4866 7428 4583 383 189 342 188 7206 4419 2281 5732 6949 489
internal_count=33323 30518 2805 18674 2126 11844 679 1246 10598 531 14561 258 1595 4113 1223 7133 421 4866 7428 4583 383 189 342 188 7206 4419 2281 5732 6949 489
is_linear=0
shrinkage=0.05


Tree=7
num_leaves=31
num_cat=0
split_feature=0 1 0 1 6 1 3 1 1 1 0 3 0 1 5 1 0 6 5 1 1 0 5 1 1 1 3 1 5 1
split_gain=3.72894e+10 1.06743e+10 8.91964e+09 3.51005e+09 3.30043e+09 2.48908e+09 1.35251e+09 8.81999e+08 7.04516e+08 6.96101e+08 6.86008e+08 6.82609e+08 4.26479e+08 3.12328e+08 2.97479e+08 2.95337e+08 2.85153e+08 2.37507e+08 2.2072e+08 2.06708e+08 1.27876e+08 1.2656e+08 1.23142e+08 1.12279e+08 1.11625e+08 1.08188e+08 1.02449e+08 1.02355e+08 1.0063e+08 9.76476e+07
threshold=0.083503821165504866 0.46846012014015942 0.016885964974369203 0.89906338338924419 3689.4154094827591 0.10824510785459852 0.57670006704312715 0.011297546627448361 0.27262892496960162 0.72153816846771968 0.0047430958344691198 0.69954939414710116 0.036572657895811558 0.042917184013138272 5221.580294117648 0.96174767402449068 0.27016376034100137 3089.1721611721619 3490.186486486487 0.011297546627448361 0.59371976101873936 0.065864723180246096 6119.4526309921966 0.062334965572565022 0.16136710395780055 0.0091917908951133116 0.69955772575232344 0.38369961192624213 3215.433375365812 0.82097463080994404
decision_type=2 2 2 2 2 2 2 2 2 2 2 2 2 2 2 2 2 2 2 2 2 2 2 2 2 2 2 2 2 2
left_child=2 5 6 9 12 7 10 -2 18 16 -1 19 28 -9 27 -5 -3 -12 24 -6 -18 -21 29 -14 -7 -19 -13 -10 -4 -11
right_child=1 3 4 15 11 8 -8 13 14 22 17 26 23 -15 -16 -17 20 25 -20 21 -22 -23 -24 -25 -26 -27 -28 -29 -30 -31
leaf_value=383.00852215989198 394.38996571462394 34.893333518193138 201.37864801764772 -73.071661873115204 343.81875697544638 35.032445597091325 407.56883133685312 124.12956198011624 5.7750262241269859 -37.622737699019844 167.55314331619309 278.98124187487622 96.043655858420308 67.131996990511468 77.70277011436977 -103.06530636070795 -15.179388092605084 367.81807347638573 73.886907186175463 220.82294786476388 -27.368702588522368 162.50421177523049 1.1418261988389717 60.779022954856821 18.617370974338964 247.08133463452634 367.19373654138235 -7.8885321799132555 120.19474582659086 -50.648285502351499
leaf_weight=93 23 233 42 2306 23 1878 319 329 3918 3743 108 63 317 894 129 1276 4391 22 255 173 4220 206 165 788 2310 137 75 2108 439 2340
leaf_count=93 23 233 42 2306 23 1878 319 329 3918 3743 108 63 317 894 129 1276 4391 22 255 173 4220 206 165 788 2310 137 75 2108 439 2340
internal_value=0.322072 -15.7135 174.781 -39.2635 124.383 21.4169 332.542 88.2627 13.5571 -28.7023 265.966 231.14 88.0215 82.4738 2.60414 -83.7587 -19.6763 225.07 28.7302 198.107 -21.1533 189.176 -41.4781 70.9034 25.9789 264.008 327.154 0.995223 127.324 -42.6341
internal_weight=33323 30518 2805 18674 2126 11844 679 1246 10598 15092 360 540 1586 1223 6155 3582 8844 267 4443 402 8611 379 6248 1105 4188 159 138 6026 481 6083
internal_count=33323 30518 2805 18674 2126 11844 679 1246 10598 15092 360 540 1586 1223 6155 3582 8844 267 4443 402 8611 379 6248 1105 4188 159 138 6026 481 6083
is_linear=0
shrinkage=0.05


Tree=8
num_leaves=31
num_cat=0
split_feature=0 1 0 10 1 1 3 1 1 0 3 0 2 0 5 2 0 5 10 1 1 2 1 2 2 2 5 1 1 3
split_gain=3.36559e+10 9.64007e+09 8.05056e+09 2.97913e+09 2.73534e+09 2.66026e+09 1.22046e+09 9.08986e+08 7.45319e+08 6.19171e+08 6.16199e+08 4.86797e+08 3.961e+08 3.84935e+08 2.52587e+08 2.41052e+08 2.38574e+08 2.3783e+08 2.14404e+08 1.95191e+08 1.86731e+08 1.23125e+08 1.19757e+08 1.18563e+08 1.14712e+08 1.06507e+08 1.05664e+08 1.01338e+08 9.94826e+07 9.24653e+07
threshold=0.083503821165504866 0.53674210374247122 0.016885964974369203 8.2134943077807918 0.90571779405687269 0.12378304275925577 0.57670006704312715 0.022950863673839812 0.3276598104934102 0.0047430958344691198 0.69954939414710116 0.77352765106213173 0.58856297770517407 0.036572657895811558 5222.0508823529426 0.5885761194923923 0.3520011947431303 3490.186486486487 8.035982083490337 0.96288744791318504 0.011297546627448361 0.58857208337541855 0.19010406592011761 0.58856807192379679 1.2828638534762036 0.58858173077126064 5219.5214705882363 0.062334965572565022 0.63164793292141386 0.69955772575232344
decision_type=2 2 2 2 2 2 2 2 2 2 2 2 2 2 2 2 2 2 2 2 2 2 2 2 2 2 2 2 2 2
left_child=2 5 6 13 11 7 9 15 17 25 20 16 -9 -4 24 -2 -3 22 -11 -6 -5 -20 -7 -22 -10 -1 -19 -15 -18 -12
right_child=1 4 3 10 19 8 -8 12 14 18 29 -13 -14 27 -16 -17 28 26 21 -21 23 -23 -24 -25 -26 -27 -28 -29 -30 -31
leaf_value=262.25848035767177 189.34591994699556 24.29707574256242 120.96110751037659 326.70224165482955 -72.840137825447869 26.427980515111575 387.19675322042212 48.811064987815456 -6.2246934761382873 159.18323571472453 265.05428248192356 -44.219781756516618 98.726641782805117 91.242987458978831 50.662761416887648 412.92867352689677 -17.271260571559235 46.80562136303557 180.0179845027543 -98.199853163883759 133.97809276452557 278.59520103193813 11.008649667489939 196.96669676491928 -83.735391761954261 393.11294981471053 124.99046220643457 57.740457295820868 -29.164280184421969 348.85851130783959
leaf_weight=21 31 248 481 23 1935 2005 319 1314 6285 108 63 4601 570 317 197 20 2551 364 45 1251 104 114 3386 275 48 72 49 788 5663 75
leaf_count=21 31 248 481 23 1935 2005 319 1314 6285 108 63 4601 570 317 197 20 2551 364 45 1251 104 114 3386 275 48 72 49 788 5663 75
internal_value=0.30656 -14.9278 166.048 118.168 -41.2616 15.0603 315.927 69.565 6.50888 252.684 219.596 -31.1299 63.9174 83.622 -5.07877 277.662 -24.0121 19.5459 213.831 -82.8005 188.211 250.827 16.7437 179.722 -6.81349 363.879 56.1098 67.359 -25.471 310.82
internal_weight=33323 30518 2805 2126 16249 14269 679 1935 12334 360 540 13063 1884 1586 6530 51 8462 5804 267 3186 402 159 5391 379 6333 93 413 1105 8214 138
internal_count=33323 30518 2805 2126 16249 14269 679 1935 12334 360 540 13063 1884 1586 6530 51 8462 5804 267 3186 402 159 5391 379 6333 93 413 1105 8214 138
is_linear=0
shrinkage=0.05


Tree=9
num_leaves=31
num_cat=0
split_feature=0 1 0 1 4 1 4 1 2 1 1 0 0 0 9 0 2 2 0 5 4 2 1 2 2 5 0 1 1 1
split_gain=3.03865e+10 9.30499e+09 6.57721e+09 3.23983e+09 2.56118e+09 2.05759e+09 1.15221e+09 7.14061e+08 7.03449e+08 5.64023e+08 4.72538e+08 4.43174e+08 4.10748e+08 3.12279e+08 2.81464e+08 2.1954e+08 1.98555e+08 1.61778e+08 1.52552e+08 1.48475e+08 1.18236e+08 1.15922e+08 1.14128e+08 1.13073e+08 1.04074e+08 1.03764e+08 1.00323e+08 9.13928e+07 8.98858e+07 8.35057e+07
threshold=0.078961348773573595 0.41261286022148647 0.016885964974369203 0.86494927883176742 2337.877066647743 0.071879639829610195 1607.0482537608809 0.011297546627448361 0.58855998913795216 0.63164793292141386 0.93166685477984712 0.0047430958344691198 0.051606823442486432 0.029839473732263148 19981562.183389481 0.24061418115960795 0.5885761194923923 0.58856514335255805 0.41639271282788853 3215.4622906266145 1607.0482537608809 0.79174819042289679 0.064851925965330459 0.58857415064795304 1.2828232817273773 3215.4908024186611 0.0096919870310328872 0.77545835465925406 0.28353690381376412 0.12378304275925577
decision_type=2 2 2 2 2 2 2 2 2 2 2 2 2 2 2 2 2 2 2 2 2 2 2 2 2 2 2 2 2 2
left_child=2 5 6 9 13 7 11 -2 28 15 -5 -1 23 20 19 -3 -8 -9 -11 -10 -4 29 -18 -6 -17 -20 -13 -27 -7 -21
right_child=1 3 4 10 12 8 16 17 14 18 -12 26 -14 -15 -16 24 22 -19 25 21 -22 -23 -24 -25 -26 27 -28 -29 -30 -31
leaf_value=324.23233818456902 362.27660496737303 37.128127875110842 105.71540383894747 -53.881702835223997 199.08141000752823 14.17834111442895 223.5096844125859 81.016591507842023 -12.767674674034701 16.773180141369551 -85.334733079709025 216.53307926829271 181.16653527703335 71.105509054461194 111.52220472959954 -12.39517957721058 367.03124557244297 133.57022634252348 -79.128122664221053 43.591791047180465 167.99178779323012 78.458807789648702 244.79275723859598 297.76317190838677 -81.395085972060741 -27.199940983797639 142.80201181977785 -38.475461908887894 1.7756346126703382 27.29036415358614
leaf_weight=70 26 226 242 2508 37 3120 29 516 164 168 2281 86 256 1045 120 6736 371 205 112 1326 112 153 21 152 55 5802 102 2605 2747 1930
leaf_count=70 26 226 242 2508 37 3120 29 516 164 168 2281 86 256 1045 120 6736 371 205 112 1326 112 153 21 152 55 5802 102 2605 2747 1930
internal_value=0.291815 -13.3738 167.111 -32.8639 118.112 25.3776 300.143 105.292 19.1323 -21.8851 -68.8642 216.785 222.585 84.8674 36.2273 -11.3416 351.163 95.9755 -30.4014 33.6954 125.461 35.931 360.547 278.56 -12.9552 -31.3319 176.627 -30.6942 8.37137 33.9302
internal_weight=33323 30800 2523 20493 1844 10307 679 747 9560 15704 4789 258 445 1399 3693 7017 421 721 8687 3573 354 3409 392 189 6791 8519 188 8407 5867 3256
internal_count=33323 30800 2523 20493 1844 10307 679 747 9560 15704 4789 258 445 1399 3693 7017 421 721 8687 3573 354 3409 392 189 6791 8519 188 8407 5867 3256
is_linear=0
shrinkage=0.05


Tree=10
num_leaves=31
num_cat=0
split_feature=1 1 2 1 7 1 1 1 2 7 2 7 7 1 1 3 1 1 7 1 2 7 1 1 2 7 3 3 7 7
split_gain=2.72485e+10 9.14378e+09 8.26785e+09 2.65502e+09 2.38851e+09 1.26223e+09 1.05286e+09 5.93328e+08 5.80435e+08 3.77467e+08 2.7878e+08 2.55307e+08 2.47964e+08 2.17508e+08 1.6833e+08 1.51231e+08 1.40047e+08 1.39027e+08 1.151e+08 1.13315e+08 1.05689e+08 1.01191e+08 9.68089e+07 9.35183e+07 6.42774e+07 5.87807e+07 5.61142e+07 8.77773e+07 5.30359e+07 5.2784e+07
threshold=0.05815034689936343 0.46846012014015942 0.58857208337541855 0.90571779405687269 8.4882552095027588 0.18942530217515177 0.21178174247311418 0.72153816846771968 0.5885661277430011 8.1153294942435128 0.5885761194923923 8.7192091676155972 7.9435868005072932 0.3276598104934102 0.96288744791318504 0.69955772575232344 0.29790639133273195 0.095193528979209852 8.0760257848159061 0.095193528979209852 1.2826610186807736 8.7193913320424965 0.83948425328760912 0.58192243909773389 1.2829314799015794 8.0760340136541959 0.69956772394055899 0.69953259268013601 8.0760468752596939 8.1579969202131668
decision_type=2 2 2 2 2 2 2 2 2 2 2 2 2 2 2 2 2 2 2 2 2 2 2 2 2 2 2 2 2 2
left_child=2 4 8 7 5 9 15 11 25 17 -4 20 -12 29 -5 -6 -8 -2 -10 -11 23 22 28 -3 -15 -1 27 -14 -9 -7
right_child=1 3 10 14 6 13 16 21 18 19 12 -13 26 24 -16 -17 -18 -19 -20 -21 -22 -23 -24 -25 -26 -27 -28 -29 -30 -31
leaf_value=100.18285569122946 51.45288659820541 -12.141156170107976 237.59083366956943 -65.670210130666234 189.24331163131029 11.3948200226894 106.15058947823087 -76.1391743310338 188.16013986351021 148.13876467119363 187.58079703660198 34.213732697713432 337.45831818317254 -2.8391804292258076 -89.00809261027274 315.1086249409197 52.82522225858051 29.111174017702702 134.89702251961583 76.599456147686638 -78.031220008443071 1.5411853458364408 -45.76986969318267 -22.574177000450405 -81.563116384922779 74.978058317148168 355.70338155561916 259.43096117801218 -32.269645726352913 33.388936438181418
leaf_weight=391 984 4067 88 1915 171 3944 194 70 162 75 28 239 190 3960 1298 28 338 2384 277 213 73 171 2269 4553 26 573 311 47 4207 293
leaf_count=391 984 4067 88 1915 171 3944 194 70 162 75 28 239 190 3960 1298 28 338 2384 277 213 73 171 2269 4553 26 573 311 47 4207 293
internal_value=-0.115607 -11.6656 175.736 -33.7016 21.2958 15.8971 109.011 -25.2013 106.929 40.3401 321.084 -16.7581 333.797 5.02929 -75.1008 207.102 72.2872 35.6399 154.591 95.2745 -18.1599 -36.4282 -37.4201 -17.652 -3.35472 85.2105 341.232 322.101 -32.9894 12.9165
internal_weight=33539 31472 2067 18862 12610 11879 731 15649 1403 3656 664 8932 576 8223 3213 199 532 3368 439 288 8693 6717 6546 8620 3986 964 548 237 4277 4237
internal_count=33539 31472 2067 18862 12610 11879 731 15649 1403 3656 664 8932 576 8223 3213 199 532 3368 439 288 8693 6717 6546 8620 3986 964 548 237 4277 4237
is_linear=0
shrinkage=0.05


Tree=11
num_leaves=31
num_cat=0
split_feature=1 1 2 1 7 1 1 7 1 1 7 7 0 4 1 1 2 7 1 7 1 11 1 1 1 2 1 7 7 2
split_gain=2.4593e+10 8.26871e+09 7.46236e+09 2.7082e+09 2.20472e+09 8.86655e+08 7.54681e+08 5.27369e+08 4.81019e+08 4.00367e+08 3.26911e+08 2.58563e+08 2.5195e+08 2.01383e+08 1.75824e+08 1.43148e+08 1.29061e+08 1.253e+08 1.11189e+08 9.04667e+07 8.49608e+07 8.4594e+07 7.69969e+07 7.44874e+07 7.26224e+07 6.8724e+07 6.57811e+07 6.47816e+07 5.36536e+07 4.91637e+07
threshold=0.05815034689936343 0.41261286022148647 0.58857208337541855 0.86494927883176742 8.4882552095027588 0.14505570750543001 0.21178174247311418 8.0760283772417853 0.63164793292141386 0.93166685477984712 8.1153294942435128 8.7191180729566806 0.040769188550564307 3487.5671711202763 0.27262892496960162 0.14224693220350457 0.5885791712273869 8.7193002539770301 0.039186953939371459 8.0760446675576354 0.7533301341126063 3749.8689192693428 0.29543069598353844 0.97850592679364501 0.089346739674301692 1.2829314799015794 0.095193528979209852 8.1579969202131668 8.7195552516593136 0.69877362156438794
decision_type=2 2 2 2 2 2 2 2 2 2 2 2 2 2 2 2 2 2 2 2 2 2 2 2 2 2 2 2 2 2
left_child=2 4 7 8 5 10 15 -1 11 28 24 19 16 -14 27 21 -4 20 -9 -3 -10 -6 -8 -11 -2 -16 -12 -7 -5 -17
right_child=1 3 12 9 6 14 22 18 17 23 26 -13 13 -15 25 29 -18 -19 -20 -21 -22 -23 -24 -25 -26 -27 -28 -29 -30 -31
leaf_value=164.52867921554923 50.467403298759535 -56.552701933788889 256.17509312867782 -49.725152143858054 181.89633813395452 16.970242150310607 101.21224754569046 103.01559342745155 -24.035276848966035 -71.007189449938764 140.74168668663137 43.58541517601553 213.24303565717869 374.01161663641074 4.0631337621753998 192.68479731298285 330.1326213348791 9.5159545089239952 71.632544988507547 -10.858952366072947 -34.080178348024155 289.90440487366345 57.670811421474369 -90.036182579204478 32.301841661293111 -67.20232658498098 82.485409271931331 44.289555938342659 -2.6224713213393844 127.97012428510837
leaf_weight=269 837 110 70 2448 30 2979 191 542 4891 1535 75 219 108 24 4262 63 462 224 592 6731 3698 49 218 777 1609 34 139 234 62 57
leaf_count=269 837 110 70 2448 30 2979 191 542 4891 1535 75 219 108 24 4262 63 462 224 592 6731 3698 49 218 777 1609 34 139 234 62 57
internal_value=-0.109466 -11.0823 166.954 -29.5767 24.4325 18.902 116.913 101.584 -19.6073 -62.393 43.7076 -9.88224 305.041 242.735 10.1144 196.76 320.451 -27.3977 86.64 -11.5945 -28.3605 249.171 78.0241 -77.4059 38.5198 3.49756 102.959 18.9612 -48.5618 162.078
internal_weight=33539 31472 2067 20695 10777 10169 608 1403 15873 4822 2660 7060 664 132 7509 199 532 8813 1134 6841 8589 79 409 2312 2446 4296 214 3213 2510 120
internal_count=33539 31472 2067 20695 10777 10169 608 1403 15873 4822 2660 7060 664 132 7509 199 532 8813 1134 6841 8589 79 409 2312 2446 4296 214 3213 2510 120
is_linear=0
shrinkage=0.05


Tree=12
num_leaves=31
num_cat=0
split_feature=1 1 2 1 0 2 4 1 2 0 3 3 5 1 5 5 1 0 1 1 5 5 1 5 0 0 1 1 13 5
split_gain=2.21961e+10 7.4657e+09 6.73531e+09 2.17198e+09 1.96299e+09 7.93216e+08 6.98653e+08 4.81713e+08 4.79611e+08 3.08577e+08 2.29967e+08 2.15427e+08 2.08798e+08 1.87513e+08 1.82868e+08 1.54579e+08 1.37177e+08 1.19562e+08 1.13018e+08 1.03516e+08 1.00555e+08 9.63145e+07 9.49971e+07 9.03986e+07 8.40101e+07 8.30437e+07 7.61371e+07 6.47431e+07 6.2002e+07 4.95328e+07
threshold=0.05815034689936343 0.46846012014015942 0.58857208337541855 0.90571779405687269 0.074005201273871321 0.58855982770106519 2599.1145832785091 0.72153816846771968 0.5885661277430011 0.026836262077109627 0.69956772394055899 0.69951731931966021 6118.3378037904131 0.0074537067985827937 3496.6391891891894 3215.4590628765714 0.96288744791318504 0.043510910442131533 0.023317432588795824 0.3214508545580142 6111.2586510590863 3215.4250370115346 0.12378304275925577 3215.4864180581858 0.13254889094176422 0.7951420890937021 0.57649267234154944 0.049147209926533451 0.92284222261338977 3215.4928735582721
decision_type=2 2 2 2 2 2 2 2 2 2 2 2 2 2 2 2 2 2 2 2 2 2 2 2 2 2 2 2 2 2
left_child=2 4 8 7 6 19 9 12 -1 -2 13 15 23 -4 18 -7 -5 -8 -15 -6 22 -10 -17 -3 -13 28 -25 -16 -9 -27
right_child=1 3 10 16 5 11 17 25 21 -11 -12 24 -14 14 27 20 -18 -19 -20 -21 -22 -23 -24 26 -26 29 -28 -29 -30 -31
leaf_value=76.764168522706868 134.95801292948019 -59.311201241427867 328.16411042501545 -59.370531606582077 9.3469238713904925 -18.257977397924687 292.8827656185112 -28.248098987691453 170.5365752627863 57.891616090526433 320.57222845686601 97.553920107766757 30.95236017361988 222.41886397228197 311.49158396439725 38.362539079793542 -80.438437590324668 175.35928339458428 103.07728166382343 -2.9263172352954108 114.55852576310541 121.81804461332918 21.890431435287866 -10.735847625931136 49.062187246456119 -73.882670309490408 -20.185905472372205 228.46814796034766 10.298444225388916 -37.099146740110221
leaf_weight=964 163 121 81 1915 3256 191 30 3025 162 640 319 116 239 122 83 1274 1298 81 24 3637 33 277 2799 3974 390 94 4598 35 108 3490
leaf_count=964 163 121 81 1915 3256 191 30 3025 162 640 319 116 239 122 83 1274 1298 81 24 3637 33 277 2799 3974 390 94 4598 35 108 3490
internal_value=-0.103622 -10.528 158.61 -30.4396 19.2557 13.7405 89.8211 -22.7512 96.5064 73.5501 289.797 29.3392 -15.1436 261.257 240.612 25.7043 -67.8839 207.357 202.885 2.87116 27.7497 139.831 27.0436 -16.4113 60.196 -32.8672 -15.805 287.08 -26.919 -38.0659
internal_weight=33539 31472 2067 18862 12610 11696 914 15649 1403 803 664 4803 8932 345 264 4297 3213 111 146 6893 4106 439 4073 8693 506 6717 8572 118 3133 3584
internal_count=33539 31472 2067 18862 12610 11696 914 15649 1403 803 664 4803 8932 345 264 4297 3213 111 146 6893 4106 439 4073 8693 506 6717 8572 118 3133 3584
is_linear=0
shrinkage=0.05


Tree=13
num_leaves=31
num_cat=0
split_feature=0 0 0 4 0 2 4 0 5 0 0 5 5 2 9 2 0 6 2 0 2 3 2 4 0 2 2 9 6 2
split_gain=1.99504e+10 5.50752e+09 4.95295e+09 1.79032e+09 1.64006e+09 1.14807e+09 8.4194e+08 7.12129e+08 4.11142e+08 3.40159e+08 3.34125e+08 2.88633e+08 2.76866e+08 1.98884e+08 1.86229e+08 1.85596e+08 1.55692e+08 1.31199e+08 1.04364e+08 9.19657e+07 8.51651e+07 8.46275e+07 8.02793e+07 7.78154e+07 1.3688e+08 6.96512e+07 7.11967e+07 6.75481e+07 6.3546e+07 6.15903e+07
threshold=0.10113308380384817 0.016885964974369203 0.51654735806004215 2337.877066647743 0.86746493769170374 0.58855970465471086 1543.2621273679003 0.06230706527501214 3215.4654215441565 0.0047430958344691198 0.048340530014393368 3215.4912327853335 3215.5053272938544 0.58857415064795304 17379634.116327565 0.58855842005387593 0.040769188550564307 5316.7818181818193 0.58855628398674564 0.021540207794481219 0.58855320098999664 0.69951475346051539 0.87027961013713684 2599.1145832785091 0.0096919870310328872 0.68041132412704786 0.58856479881669321 8561687.9704042207 4909.8644067796622 0.58856711213673696
decision_type=2 2 2 2 2 2 2 2 2 2 2 2 2 2 2 2 2 2 2 2 2 2 2 2 2 2 2 2 2 2
left_child=1 6 5 10 11 15 9 16 14 -1 19 17 22 -8 25 -2 -5 27 -13 -3 -14 -10 28 24 -15 26 -7 -4 -6 -9
right_child=2 3 4 7 12 8 13 29 21 -11 -12 18 20 23 -16 -17 -18 -19 -20 -21 -22 -23 -24 -25 -26 -27 -28 -29 -30 -31
leaf_value=263.82477479006519 -10.500697020395723 125.21944647614964 -47.153303827090909 276.24380647957565 -39.758460218734925 56.728790861441453 167.38841704899585 91.483930787604294 19.593974036217702 118.76717152370321 41.959719984818605 -36.310259064359286 -79.166897282343712 288.03967058332296 201.04304690670656 5.0101246541525501 191.66398272818506 87.723757865421717 -23.434915843969222 77.363296052632663 -60.19411303445245 39.717095078549534 -78.675648949183341 304.75640228382235 172.17667726696047 15.285142396783456 109.00315502495512 -11.153635115888482 43.758058536413948 129.69627256079863
leaf_weight=56 3546 121 134 76 1742 610 36 199 4046 146 1148 2203 886 100 23 4228 199 33 5516 598 1790 600 135 303 35 89 73 4617 23 228
leaf_count=56 3546 121 134 76 1742 610 36 199 4046 146 1148 2203 886 100 23 4228 199 33 5516 598 1790 600 135 303 35 89 73 4617 23 228
internal_value=-0.0980644 117.726 -12.7194 84.3057 -30.5031 10.2644 244.702 152.372 27.88 159.092 58.7055 -21.1293 -56.1143 281.144 61.1047 -2.06496 215.131 -11.4791 -27.11 85.4333 -66.4786 22.1935 -41.5144 290.454 258.151 56.9101 62.3311 -12.17 -38.6677 111.913
internal_weight=33539 3245 30294 2569 17079 13215 676 702 5441 202 1867 12503 4576 474 795 7774 275 4784 7719 719 2676 4646 1900 438 135 772 683 4751 1765 427
internal_count=33539 3245 30294 2569 17079 13215 676 702 5441 202 1867 12503 4576 474 795 7774 275 4784 7719 719 2676 4646 1900 438 135 772 683 4751 1765 427
is_linear=0
shrinkage=0.05


Tree=14
num_leaves=31
num_cat=0
split_feature=1 2 1 1 7 1 1 0 1 1 1 4 2 2 0 1 1 1 7 7 1 11 7 7 1 1 2 7 1 7
split_gain=1.81718e+10 5.85957e+09 5.78042e+09 1.79399e+09 1.61896e+09 7.07698e+08 6.89237e+08 3.28433e+08 3.24366e+08 2.72585e+08 2.4311e+08 2.27761e+08 1.96922e+08 1.78201e+08 1.48861e+08 1.19638e+08 1.07529e+08 9.79497e+07 9.22128e+07 7.84456e+07 7.49609e+07 7.07474e+07 6.91932e+07 5.94244e+07 6.38223e+07 5.66902e+07 5.61242e+07 5.34347e+07 4.84827e+07 4.52468e+07
threshold=0.071879639829610195 0.58857109896505355 0.46846012014015942 0.86859742412024854 8.4882552095027588 0.22792368932549747 0.21178174247311418 0.043510910442131533 0.030020946141676139 0.65974690547124026 0.93166685477984712 3487.5671711202763 0.58856137808949571 0.5885761194923923 0.27016376034100137 0.05815034689936343 0.14224693220350457 0.34423715839361241 7.9435868005072932 8.7193549018117302 0.33939835140530056 3749.8689192693428 8.0760464454271741 8.1153294942435128 0.13413661444912578 0.97850592679364501 0.58856807192379679 8.076044868258025 0.77545835465925406 8.7195552516593136
decision_type=2 2 2 2 2 2 2 2 2 2 2 2 2 2 2 2 2 2 2 2 2 2 2 2 2 2 2 2 2 2
left_child=1 8 4 9 5 12 16 13 26 14 29 18 -2 -3 -4 -15 21 -8 -9 22 -7 -6 -11 -14 -25 -12 -1 -16 -24 -5
right_child=2 7 3 10 6 20 17 11 -10 19 25 -13 23 15 27 -17 -18 -19 -20 -21 -22 -23 28 24 -26 -27 -28 -29 -30 -31
leaf_value=100.66802086801748 20.665439907771912 185.23170400253514 29.467421661423938 -44.418492692280651 147.5922274768115 6.9825214503055566 80.73905008124666 69.279348246256504 63.421942041605433 -66.751075362796229 -61.074465077080703 322.41582031249999 36.53150431304131 279.02218403150636 -50.193701406869877 158.73475938339578 140.07388612110353 37.806180179123622 178.76304852309798 5.1935128956158811 -3.5632571364545158 252.14945468630663 -22.434012911938918 88.80724195968547 45.366749973838495 -77.674564380127862 137.0352126933121 -12.637778949507021 -30.75271057953292 -1.0565170269657449
leaf_weight=319 3657 64 211 2033 25 3214 268 23 1072 105 1535 26 840 515 96 22 120 264 123 201 3542 49 4232 130 243 777 161 6619 2991 62
leaf_count=319 3657 64 211 2033 25 3214 268 23 1072 105 1535 26 840 515 96 22 120 264 123 201 3542 49 4232 130 243 777 161 6619 2991 62
internal_value=-0.0927973 134.756 -10.1375 -27.5495 16.4513 11.9274 88.8841 247.221 78.7283 -19.035 -55.4762 186.061 26.457 264.691 -11.8759 274.125 169.541 59.4451 161.575 -25.6204 1.45366 217.073 -26.4657 43.9144 60.5266 -66.6564 112.892 -13.1754 -25.8791 -43.1353
internal_weight=33539 2325 31214 18862 12352 11626 726 773 1552 14455 4407 172 4870 601 6926 537 194 532 146 7529 6756 74 7328 1213 373 2312 480 6715 7223 2095
internal_count=33539 2325 31214 18862 12352 11626 726 773 1552 14455 4407 172 4870 601 6926 537 194 532 146 7529 6756 74 7328 1213 373 2312 480 6715 7223 2095
is_linear=0
shrinkage=0.05


Tree=15
num_leaves=31
num_cat=0
split_feature=0 0 0 4 0 2 4 5 0 0 5 5 5 4 0 0 4 6 0 6 0 2 2 2 6 5 2 4 2 0
split_gain=1.66063e+10 4.7493e+09 3.51058e+09 1.50294e+09 1.3612e+09 1.2672e+09 6.44398e+08 5.25688e+08 2.6663e+08 2.48598e+08 2.27693e+08 2.22118e+08 1.78213e+08 1.67453e+08 1.97064e+08 1.63526e+08 1.55431e+08 1.18682e+08 1.1086e+08 1.14573e+08 1.0916e+08 1.02463e+08 9.4372e+07 8.90798e+07 8.86452e+07 8.34983e+07 7.66628e+07 7.51905e+07 7.39767e+07 7.2385e+07
threshold=0.078961348773573595 0.51654735806004215 0.016885964974369203 2337.877066647743 0.86746493769170374 0.58855990152889748 1543.2621273679003 3215.4618871578587 0.056173712509237327 0.0047430958344691198 3215.4901353503187 3215.5046656050959 3215.4842662248238 2337.877066647743 0.0047430958344691198 0.029839473732263148 3431.9149028336728 6772.1343283582091 0.24061418115960795 3561.6117258331292 0.11640200002932595 0.68041132412704786 0.58855628398674564 0.58857415064795304 3473.0730745906617 3215.445662334309 0.58855350220089908 1607.0482537608809 0.87027961013713684 0.036572657895811558
decision_type=2 2 2 2 2 2 2 2 2 2 2 2 2 2 2 2 2 2 2 2 2 2 2 2 2 2 2 2 2 2
left_child=2 5 6 15 10 12 9 16 23 -1 17 28 -2 14 -8 27 21 -3 19 -9 -21 25 -12 -5 -20 -7 -13 -4 -6 -25
right_child=1 4 3 8 11 7 13 18 -10 -11 22 26 -14 -15 -16 -17 -18 -19 24 20 -22 -23 -24 29 -26 -27 -28 -29 -30 -31
leaf_value=233.65173498043455 5.40869134535345 -9.5358758926289617 76.302220588063278 151.79612427773372 -33.668644993406694 104.16147129369197 285.59633541439683 21.912508798432373 127.06370066166599 110.04264282077281 -32.640723250891391 -69.454325687474082 -9.4084040044062842 275.42981105588899 175.63929467132596 51.894101550282294 206.61389488106343 106.67616428703205 -5.1636644365807669 79.589824344533199 35.497267521594679 13.31189186128325 -20.577357876272771 287.98001747240028 20.545821353332208 61.891664553227344 -52.799181295932954 127.23073967339099 -72.768201875432041 206.40950942870742
leaf_weight=57 4788 3740 242 60 1581 156 63 2015 212 143 2160 1145 3522 299 118 1029 20 22 461 161 1096 83 6505 35 1229 469 1750 104 131 137
leaf_count=57 4788 3740 242 60 1581 156 63 2015 212 143 2160 1145 3522 299 118 1029 20 22 461 161 1096 83 6505 35 1229 469 1750 104 131 137
internal_value=-0.0141941 -9.99905 123.979 87.7366 -27.7316 11.5764 220.9 29.7553 167.71 145.37 -19.1253 -50.9452 -0.871227 252.333 214.048 61.9022 69.4302 -8.85345 23.9331 29.3042 41.1506 65.5264 -23.5848 204.782 13.5329 72.4572 -59.3886 91.6426 -36.6646 223.166
internal_weight=33533 31034 2499 1819 17034 14000 680 5690 444 200 12427 4607 8310 480 181 1375 728 3762 4962 3272 1257 708 8665 232 1690 625 2895 346 1712 172
internal_count=33533 31034 2499 1819 17034 14000 680 5690 444 200 12427 4607 8310 480 181 1375 728 3762 4962 3272 1257 708 8665 232 1690 625 2895 346 1712 172
is_linear=0
shrinkage=0.05


Tree=16
num_leaves=31
num_cat=0
split_feature=1 1 1 5 5 1 1 1 1 1 11 5 1 5 5 1 3 1 1 1 5 1 1 11 13 5 1 1 5 1
split_gain=1.48791e+10 4.83622e+09 2.49177e+09 2.49241e+09 1.44901e+09 1.39481e+09 6.78666e+08 6.23603e+08 3.53682e+08 2.62139e+08 2.62079e+08 2.11186e+08 1.89532e+08 1.62805e+08 1.49126e+08 1.03032e+08 1.02115e+08 9.23948e+07 8.2377e+07 7.91226e+07 7.35795e+07 5.61359e+07 5.56476e+07 5.12473e+07 4.82889e+07 4.503e+07 4.3962e+07 4.36061e+07 4.09374e+07 4.08452e+07
threshold=0.071879639829610195 0.48573330799113595 0.016221368054116555 3812.1259663865553 4856.3835616438364 0.90571779405687269 0.22792368932549747 0.21178174247311418 0.0074537067985827937 0.74651388398129503 2387.3862705491356 4336.3406196139304 0.034184858041882253 3346.9401329833022 6118.3378037904131 0.13000979767815313 0.69955772575232344 0.96618438667864603 0.34423715839361241 0.33939835140530056 2461.0640000000008 0.13413661444912578 0.042917184013138272 3668.7690709547346 0.92284222261338977 6120.5674581939811 0.59825439680560266 0.85020902639116225 2461.0640000000008 0.16094342121026781
decision_type=2 2 2 2 2 2 2 2 2 2 2 2 2 2 2 2 2 2 2 2 2 2 2 2 2 2 2 2 2 2
left_child=2 4 8 12 6 9 13 16 -1 14 -10 22 -4 15 20 -2 23 25 -9 -8 -3 -15 -5 -6 27 -7 -22 -11 -21 -25
right_child=1 5 3 11 7 17 19 18 10 24 -12 -13 -14 21 -16 -17 -18 -19 -20 28 26 -23 -24 29 -26 -27 -28 -29 -30 -31
leaf_value=267.24302543989052 30.740823192068259 -61.219853935286011 96.280856978527609 233.17840404942024 102.52561440091586 -51.121410551427864 6.2949449100585575 72.56007200152925 159.94935587532953 -25.486784562300439 268.284115418581 262.4867226798807 57.211755550226826 80.109147841176508 24.489499825776139 15.279754924369449 238.19443304423731 -67.846111766500968 33.617734471896874 -70.296972709094291 -10.296998568220857 40.860979422664236 139.0519521375121 193.55746183414419 7.3154983288043498 -6.0664602890949944 -17.698839870103217 -34.923300367766011 -3.5652360887200665 132.96090193155496
leaf_weight=212 1773 86 440 22 62 2088 3266 266 253 3920 72 190 1057 140 243 2748 31 1084 278 23 3329 262 58 50 96 57 5050 1782 4529 66
leaf_count=212 1773 86 440 22 62 2088 3266 266 253 3920 72 190 1057 140 243 2748 31 1084 278 23 3329 262 58 50 96 57 5050 1782 4529 66
internal_value=-0.0131178 -9.05986 122.604 93.9294 13.4975 -26.223 9.51398 80.8896 216.922 -19.6071 184.025 233.732 68.7007 24.0559 -14.1223 21.3437 154.283 -55.9428 52.6692 0.356703 -15.231 54.546 165.196 139.544 -27.8444 -49.9245 -14.7582 -28.4365 -3.90395 159.224
internal_weight=33533 31229 2304 1767 13494 17735 12741 753 537 14506 325 270 1497 4923 8708 4521 209 3229 544 7818 8465 402 80 178 5798 2145 8379 5702 4552 116
internal_count=33533 31229 2304 1767 13494 17735 12741 753 537 14506 325 270 1497 4923 8708 4521 209 3229 544 7818 8465 402 80 178 5798 2145 8379 5702 4552 116
is_linear=0
shrinkage=0.05


Tree=17
num_leaves=31
num_cat=0
split_feature=0 0 0 6 0 5 4 0 0 5 3 0 5 5 6 4 0 5 6 6 5 9 3 5 0 9 0 5 5 0
split_gain=1.35367e+10 3.87429e+09 2.84648e+09 1.23575e+09 1.11209e+09 9.39404e+08 5.28032e+08 3.317e+08 2.38552e+08 2.178e+08 2.03669e+08 2.02757e+08 1.89959e+08 1.86642e+08 1.47271e+08 1.35672e+08 1.66079e+08 1.32055e+08 1.31286e+08 1.26736e+08 1.06471e+08 9.94858e+07 7.98943e+07 7.2059e+07 6.47609e+07 5.09064e+07 4.3e+07 4.2354e+07 4.21836e+07 3.78866e+07
threshold=0.078961348773573595 0.51654735806004215 0.016885964974369203 3689.4154094827591 0.86459880014998136 3215.4710324496477 1543.2621273679003 0.27016376034100137 0.043510910442131533 3215.4570455327944 0.69951581978928801 0.0047430958344691198 3215.5046656050959 3215.4912327853335 3398.6574828077491 2337.877066647743 0.0096919870310328872 3215.445662334309 5316.7818181818193 4132.6131996204285 3215.3572542606303 18841860.331351068 0.69954106274033212 2463.0390000000002 0.051606823442486432 8561687.9704042207 0.7951420890937021 3215.487493974867 3215.4296096574285 0.0096919870310328872
decision_type=2 2 2 2 2 2 2 2 2 2 2 2 2 2 2 2 2 2 2 2 2 2 2 2 2 2 2 2 2 2
left_child=2 5 6 17 13 9 11 10 -5 18 19 -1 23 21 -9 16 -8 -4 20 -7 -2 25 -10 -6 -19 -3 -15 -27 -22 -13
right_child=1 4 3 8 12 7 15 14 22 -11 -12 29 -14 26 -16 -17 -18 24 -20 -21 28 -23 -24 -25 -26 27 -28 -29 -30 -31
leaf_value=210.5665539529403 11.359937440273136 -41.142676789225519 101.35711393296346 211.7503453853995 -66.166502584194362 12.600578917545548 232.63454738902783 -6.6907445388282589 106.02254278666709 31.76099632704403 61.492392696198195 126.78570499391313 -53.396990295272751 -19.5470694787018 7.891002113163343 248.45364998805007 134.62266908324696 61.229610262088528 182.71750518672198 113.91873645843799 142.32818858069831 94.218669855026974 156.07620159151713 -30.018386646582133 38.221901508147958 -2.7675324339437459 -27.895193228770314 -12.672493592672462 69.646692676306415 74.930844467994305
leaf_weight=57 83 126 143 121 150 4116 108 4780 173 1589 232 66 2933 5330 2715 299 73 662 24 31 21 23 150 1704 570 1732 2172 2864 409 77
leaf_count=57 83 126 143 121 150 4116 108 4780 173 1589 232 66 2933 5330 2715 299 73 662 24 31 21 23 150 1704 570 1732 2172 2864 409 77
internal_value=-0.0121465 -9.02706 111.936 79.3014 -25.043 10.4597 199.209 4.97915 151.818 41.0679 15.9121 130.84 -45.4774 -17.0554 -1.4086 227.663 193.201 55.8757 68.5964 13.3607 63.2228 -9.29392 129.308 -32.9464 50.5888 -9.8001 -21.9644 -8.93996 73.2285 98.9358
internal_weight=33533 31034 2499 1819 17034 14000 680 11874 444 2126 4379 200 4787 12247 7495 480 181 1375 537 4147 513 4745 323 1854 1232 4722 7502 4596 430 143
internal_count=33533 31034 2499 1819 17034 14000 680 11874 444 2126 4379 200 4787 12247 7495 480 181 1375 537 4147 513 4745 323 1854 1232 4722 7502 4596 430 143
is_linear=0
shrinkage=0.05


Tree=18
num_leaves=31
num_cat=0
split_feature=0 1 0 1 4 1 4 1 1 2 2 0 1 0 8 0 4 0 2 5 5 4 5 5 5 0 5 1 2 10
split_gain=1.22176e+10 3.8247e+09 2.5692e+09 1.36523e+09 1.12095e+09 8.49628e+08 4.76508e+08 3.48854e+08 2.3945e+08 2.39015e+08 2.06486e+08 1.83027e+08 1.67208e+08 1.37065e+08 1.27073e+08 1.25112e+08 1.22415e+08 1.52465e+08 1.21249e+08 1.00281e+08 7.98185e+07 6.07021e+07 5.65754e+07 5.37213e+07 5.09103e+07 4.97919e+07 4.76222e+07 4.33194e+07 4.30058e+07 3.98651e+07
threshold=0.078961348773573595 0.41261286022148647 0.016885964974369203 0.86859742412024854 2337.877066647743 0.08774036175902325 1543.2621273679003 0.0091917908951133116 0.65974690547124026 0.58855982770106519 0.58857109896505355 0.0047430958344691198 0.93864470200259775 0.043510910442131533 15828201.929752301 0.029839473732263148 2337.877066647743 0.0047430958344691198 0.58856420818469946 6117.7803901895213 3215.4654215441565 1607.0482537608809 6119.2296655518403 3215.4914910053367 3215.4857725081774 0.014092782310785987 3346.9401329833022 0.56227081344245389 0.58858173077126064 8.4393186709895236
decision_type=2 2 2 2 2 2 2 2 2 2 2 2 2 2 2 2 2 2 2 2 2 2 2 2 2 2 2 2 2 2
left_child=2 5 6 8 15 7 11 -2 19 -7 -6 28 -5 -12 20 21 17 -8 -9 24 -11 -4 23 -10 -3 -19 -20 -26 -1 -16
right_child=1 3 4 12 10 9 16 18 22 14 13 -13 -14 -15 29 -17 -18 25 26 -21 -22 -23 -24 -25 27 -27 -28 -29 -30 -31
leaf_value=144.06264687102305 260.09069963066497 -41.375539030668506 65.260402285210716 -36.496671724490781 90.713567671377533 4.3299165925018546 246.47260970464791 42.625293292508644 -56.117436216888294 -16.743950464299044 211.28587907034091 93.996028328475063 -56.012223065663193 141.90765164822761 49.107631281644096 44.273269323292112 236.03512267760308 167.50892860588471 74.500829512376797 29.0991330073089 19.652886923960587 111.01193110074824 5.0216278254549902 -21.076317176380851 -5.8488181004234301 89.617041623724347 154.08157843594529 -13.126309825031925 234.74204539763619 122.67201242019881
leaf_weight=22 21 123 242 2310 128 5337 63 688 111 157 110 143 2093 206 228 1029 299 91 316 172 3673 104 205 7220 4748 27 20 3592 35 20
leaf_count=22 21 123 242 2310 128 5337 63 688 111 157 110 143 2093 206 228 1029 299 91 316 172 3673 104 205 7220 4748 27 20 3592 35 20
internal_value=-0.0112155 -8.57563 106.343 -21.0913 75.3382 16.0417 189.256 58.8127 -14.3704 11.2939 144.405 124.308 -45.7746 166.118 20.4075 53.0271 216.287 183.551 54.6599 -8.68631 18.1605 79.0404 -20.8832 -21.6076 -9.45459 149.777 79.2822 -8.98332 200.057 55.0873
internal_weight=33533 31034 2499 20574 1819 10460 680 1045 16171 9415 444 200 4403 316 4078 1375 480 181 1024 8635 3830 346 7536 7331 8463 118 336 8340 57 248
internal_count=33533 31034 2499 20574 1819 10460 680 1045 16171 9415 444 200 4403 316 4078 1375 480 181 1024 8635 3830 346 7536 7331 8463 118 336 8340 57 248
is_linear=0
shrinkage=0.05


Tree=19
num_leaves=31
num_cat=0
split_feature=0 1 0 1 6 1 4 1 2 1 0 1 0 8 4 0 1 2 7 7 7 0 3 2 1 7 7 1 2 3
split_gain=1.10271e+10 3.45187e+09 2.31901e+09 1.23328e+09 1.01446e+09 7.66873e+08 4.30008e+08 3.15036e+08 2.15717e+08 1.98663e+08 1.95558e+08 1.86067e+08 1.6528e+08 1.14706e+08 1.10435e+08 1.38107e+08 1.10184e+08 1.09447e+08 8.62697e+07 7.20385e+07 6.50432e+07 5.67135e+07 5.26479e+07 4.78635e+07 4.69484e+07 4.35331e+07 4.30215e+07 4.22329e+07 3.8813e+07 3.75e+07
threshold=0.078961348773573595 0.41261286022148647 0.016885964974369203 0.85020902639116225 3689.4154094827591 0.08774036175902325 1543.2621273679003 0.0091917908951133116 0.58855982770106519 0.92979502436000616 0.051606823442486432 0.63164793292141386 0.0047430958344691198 15828201.929752301 2337.877066647743 0.0096919870310328872 0.034184858041882253 0.58856420818469946 8.5608932802309372 8.0760383404572398 8.7193002539770301 0.048340530014393368 0.69954106274033212 1.2828232817273773 0.97850592679364501 8.076046231347096 8.1153294942435128 0.017554923829924966 0.58858173077126064 0.69956772394055899
decision_type=2 2 2 2 2 2 2 2 2 2 2 2 2 2 2 2 2 2 2 2 2 2 2 2 2 2 2 2 2 2
left_child=2 5 6 11 16 7 12 -2 -7 -5 29 18 28 19 15 -8 27 -9 23 -10 25 -18 -12 -3 -11 -13 -19 -4 -1 -6
right_child=1 3 4 9 10 8 14 17 13 24 22 20 -14 -15 -16 -17 21 26 -20 -21 -22 -23 -24 -25 -26 -27 -28 -29 -30 -31
leaf_value=136.89210732576535 247.14779498204234 -7.6942772242877737 149.4563273111979 -31.724419568667727 167.35117999756289 4.1134247677787021 210.3448982514021 40.494338894347749 -15.907285988433282 -46.836955062995827 90.932123566147425 -50.352501979795825 89.299510885967734 52.336413559804093 224.23731062164359 120.97525039443241 56.708344145586892 70.776966817150466 21.031602784775728 18.670269326487862 10.244524980273937 35.210285353738563 138.70166047784031 -51.796175434892689 -61.553360191443318 -18.263546378659246 146.41582881490982 78.896544107797297 223.03839194795006 239.14744149881514
leaf_weight=22 21 6649 26 2555 171 5337 108 688 157 1687 161 107 143 248 299 73 589 316 264 3673 199 642 91 62 801 8250 20 118 35 21
leaf_count=22 21 6649 26 2555 171 5337 108 688 157 1687 161 107 143 248 299 73 589 316 264 3673 199 642 91 62 801 8250 20 118 35 21
internal_value=-0.0102981 -8.14677 101.029 -20.0368 71.5731 15.24 179.803 55.8746 10.7293 -41.5197 137.277 -13.061 118.105 19.3873 205.48 174.388 50.3483 51.9283 -6.99949 17.2525 -18.0023 45.5003 108.23 -8.10248 -51.5771 -18.675 75.3215 91.7314 190.087 175.324
internal_weight=33533 31034 2499 20574 1819 10460 680 1045 9415 5043 444 15531 200 4078 480 181 1375 1024 6975 3830 8556 1231 252 6711 2488 8357 336 144 57 192
internal_count=33533 31034 2499 20574 1819 10460 680 1045 9415 5043 444 15531 200 4078 480 181 1375 1024 6975 3830 8556 1231 252 6711 2488 8357 336 144 57 192
is_linear=0
shrinkage=0.05


Tree=20
num_leaves=31
num_cat=0
split_feature=1 1 1 5 1 8 1 1 1 13 1 11 5 1 1 5 1 1 5 5 3 1 5 5 1 5 13 1 1 1
split_gain=9.81902e+09 3.34629e+09 1.47973e+09 1.56038e+09 1.00595e+09 9.42335e+08 4.26487e+08 2.78025e+08 2.44587e+08 1.84494e+08 1.83832e+08 1.5456e+08 1.30907e+08 1.03813e+08 1.00189e+08 9.93573e+07 8.54425e+07 8.2855e+07 7.85416e+07 4.78586e+07 4.68159e+07 4.57543e+07 4.52079e+07 4.45197e+07 4.35671e+07 3.81212e+07 3.41882e+07 3.17859e+07 3.07782e+07 2.83517e+07
threshold=0.05815034689936343 0.46846012014015942 0.016221368054116555 3812.1259663865553 0.88967733163922269 15828201.929752301 0.22792368932549747 0.2249363546638522 0.0074537067985827937 0.60500000000000009 0.69904368789777227 3668.7690709547346 3346.9401329833022 0.95960068632038686 0.030020946141676139 6118.3378037904131 0.13000979767815313 0.13000979767815313 4336.3406196139304 2457.9790000000007 0.69952370628017702 0.13000979767815313 2461.0640000000008 6120.5674581939811 0.3276598104934102 3215.4924162936827 0.92284222261338977 0.56227081344245389 0.097377275664594351 0.81993500911948936
decision_type=2 2 2 2 2 2 2 2 2 2 2 2 2 2 2 2 2 2 2 2 2 2 2 2 2 2 2 2 2 2
left_child=2 5 8 14 10 6 12 11 -1 -10 15 28 17 23 -4 22 -13 -2 -5 -8 -9 -14 -3 -6 -21 -12 29 -24 -7 -27
right_child=1 4 3 18 13 7 19 20 9 -11 25 16 21 -15 -16 -17 -18 -19 -20 24 -22 -23 27 -25 -26 26 -28 -29 -30 -31
leaf_value=218.803357655105 25.981913793101217 -49.186086991433299 79.620046265123534 148.21979183401507 -38.000212707172899 105.90572903708035 -46.549458251484531 34.509573088490434 129.13573375510501 217.5326161108747 -53.934269907527131 212.89169526382398 74.573799293183782 -54.018753580583443 49.807551146131033 23.932675335887211 119.65866703134846 12.508212053505932 217.99758117782176 6.3390886517158478 79.730703526140161 36.665370852964848 -6.1607776431886343 7.0913915841549686 -1.8405200582667085 -17.917774226166824 8.4189855113345509 -12.607477417832307 58.768106108686098 -24.675268657874298
leaf_weight=208 1977 75 411 54 2377 47 52 393 257 77 86 32 122 1410 900 214 109 2699 172 2785 67 230 3042 56 3918 3524 101 5149 134 2777
leaf_count=208 1977 75 411 54 2377 47 52 393 257 77 86 32 122 1410 900 214 109 2699 172 2785 67 230 3042 56 3918 3524 101 5149 134 2777
internal_value=-0.0844889 -7.05734 105.144 80.0857 -20.4026 12.9218 9.39399 66.0698 176.177 149.574 -14.5437 101.7 20.4196 -43.2214 59.1592 -9.69667 140.954 18.2053 201.398 1.18702 41.112 49.8215 -10.5676 -36.9621 1.55803 -20.8786 -20.4337 -10.2134 71.06 -20.8963
internal_weight=33455 31376 2079 1537 18811 12565 11783 782 542 334 14968 322 5028 3843 1311 8480 141 4676 226 6755 460 352 8266 2433 6703 6488 6402 8191 181 6301
internal_count=33455 31376 2079 1537 18811 12565 11783 782 542 334 14968 322 5028 3843 1311 8480 141 4676 226 6755 460 352 8266 2433 6703 6488 6402 8191 181 6301
is_linear=0
shrinkage=0.05


Tree=21
num_leaves=31
num_cat=0
split_feature=1 1 0 1 8 1 1 9 1 11 1 1 11 1 7 7 7 1 1 1 7 1 7 1 7 7 1 7 1 1
split_gain=8.86207e+09 3.0201e+09 1.67954e+09 9.1039e+08 8.50579e+08 6.09503e+08 3.8518e+08 2.90696e+08 2.50974e+08 2.28679e+08 1.98613e+08 1.84938e+08 1.3952e+08 1.23577e+08 1.14145e+08 9.12038e+07 8.96733e+07 8.30682e+07 7.71603e+07 6.32268e+07 4.34247e+07 4.19731e+07 4.16551e+07 3.92751e+07 3.85325e+07 3.82443e+07 2.8681e+07 2.85e+07 2.77886e+07 2.76195e+07
threshold=0.05815034689936343 0.46846012014015942 0.016885964974369203 0.90571779405687269 15828201.929752301 0.013275174365487891 0.18942530217515177 11724254.219183365 0.2249363546638522 2089.1893654784458 0.69904368789777227 0.0091917908951133116 3668.7690709547346 0.023317432588795824 8.1153294942435128 8.0760115681674254 8.7192091676155972 0.30936257766574776 0.13000979767815313 0.97850592679364501 8.7186715890130362 0.10914056039380017 8.076044868258025 0.82097463080994404 8.719573463291562 7.8087553013262356 0.56227081344245389 8.1579969202131668 0.097377275664594351 0.039186953939371459
decision_type=2 2 2 2 2 2 2 2 2 2 2 2 2 2 2 2 2 2 2 2 2 2 2 2 2 2 2 2 2 2
left_child=2 4 7 10 6 15 14 11 12 13 16 -1 28 -7 21 -4 22 27 -14 24 -10 -2 -3 -12 -5 -19 -24 -8 -6 -15
right_child=1 3 5 19 8 9 17 -9 20 -11 23 -13 18 29 -16 -17 -18 25 -20 -21 -22 -23 26 -25 -26 -27 -28 -29 -30 -31
leaf_value=192.28179620552351 26.054848375120759 -38.790254642999912 222.48418967728605 -40.591609677468654 100.62168424893844 86.117149564024885 7.3834032853672156 199.57648301667345 23.477582191203147 155.41533144153834 -17.526780082245022 90.306988656081984 202.28027206848714 59.201469239633838 56.178130610871051 139.74813477509701 22.736600541220767 -57.65869065598396 113.68121733975782 -55.870113109723505 54.219963631451975 14.812561402271568 -5.7379264829831023 -25.125235549976367 -0.66169410005283824 -1.1135061215703581 -11.880819651388622 24.29699159960284 55.831891357285329 42.240213692248638
leaf_weight=67 1613 124 50 2374 47 287 3350 368 227 62 4284 133 32 397 237 103 214 30 109 789 233 1712 3022 2822 62 4572 5120 269 134 612
leaf_count=67 1613 124 50 2374 47 287 3350 368 227 62 4284 133 32 397 237 103 214 30 109 789 233 1712 3022 2822 62 4572 5120 269 134 612
internal_value=-0.0800308 -6.70439 99.8895 -19.3825 12.276 72.3276 8.92434 173.184 62.7703 61.6594 -14.3788 124.548 96.6227 57.1626 22.6578 166.914 -9.21187 2.97367 133.918 -43.5635 39.0577 20.267 -10.0393 -20.5447 -39.5754 -1.48336 -9.60091 8.64123 67.5116 48.919
internal_weight=33455 31376 2079 18811 12565 1511 11783 568 782 1358 15586 200 322 1296 3562 153 8480 8221 141 3225 460 3325 8266 7106 2436 4602 8142 3619 181 1009
internal_count=33455 31376 2079 18811 12565 1511 11783 568 782 1358 15586 200 322 1296 3562 153 8480 8221 141 3225 460 3325 8266 7106 2436 4602 8142 3619 181 1009
is_linear=0
shrinkage=0.05


Tree=22
num_leaves=31
num_cat=0
split_feature=1 2 1 7 1 1 1 3 2 1 1 7 2 7 1 1 11 1 2 1 7 7 1 1 7 7 7 1 7 2
split_gain=8.00923e+09 2.63737e+09 2.5926e+09 7.67871e+08 7.03676e+08 4.41336e+08 3.5221e+08 1.53307e+08 1.39125e+08 1.15289e+08 1.06313e+08 1.32134e+08 1.00496e+08 7.23737e+07 7.07925e+07 5.76727e+07 5.57688e+07 6.10589e+07 5.331e+07 5.20148e+07 4.14849e+07 3.92782e+07 3.68235e+07 3.55237e+07 3.16122e+07 3.03762e+07 2.84541e+07 2.79333e+07 2.63064e+07 2.61465e+07
threshold=0.071879639829610195 0.58857109896505355 0.53674210374247122 8.4882552095027588 0.90571779405687269 0.24328389428502176 0.20246691425759994 0.69956772394055899 0.5885661277430011 0.77545835465925406 0.0074537067985827937 8.3677814252645693 0.58856113199554805 8.7192410488169738 0.34423715839361241 0.96618438667864603 3668.7690709547346 0.13000979767815313 0.79215737685729937 0.38553156405285566 8.0760453616463064 8.1153294942435128 0.01959244156249304 0.039186953939371459 8.719573463291562 8.7198192877465477 8.0760340136541959 0.13413661444912578 8.0760441992565735 1.2830938113891273
decision_type=2 2 2 2 2 2 2 2 2 2 2 2 2 2 2 2 2 2 2 2 2 2 2 2 2 2 2 2 2 2
left_child=1 8 3 5 9 12 16 10 26 13 -3 18 -2 20 25 24 -5 -18 22 29 -4 -14 -12 -20 -6 -8 -1 -23 -21 -7
right_child=2 7 4 6 15 19 14 -9 -10 -11 11 -13 21 -15 -16 -17 17 -19 23 28 -22 27 -24 -25 -26 -27 -28 -29 -30 -31
leaf_value=54.71169885232058 11.886444110289808 202.34085978913734 -40.891335475694113 77.776295009316812 -37.637207649984795 2.8621372662632822 48.037460002202081 192.60945749457568 78.684804256941931 -22.066231912205932 126.31278011251734 204.47533304274776 22.557034603360318 17.584835208606389 23.801357510138157 -50.891676690821548 191.80931970319176 112.82268969958803 194.54190833050271 -33.137696491337856 -12.33221197895886 58.173910001218111 85.591458406808471 114.01741484905261 1.4586084067709253 87.835935681931517 38.192685677874827 30.377643316623864 -4.7282135512072845 -37.700152625942472
leaf_weight=391 3420 73 129 63 2104 4299 227 311 374 4275 179 60 1471 201 390 1068 35 84 39 83 8538 141 82 22 53 61 788 253 4201 40
leaf_count=391 3420 73 129 63 2104 4299 227 311 374 4275 179 60 1471 201 390 1068 35 84 39 83 8538 141 82 22 53 61 788 253 4201 40
internal_value=-0.0757848 89.5651 -6.75248 8.437 -20.4571 5.60169 54.2839 165.484 52.1109 -15.3215 146.904 136.26 16.9786 -12.0698 37.695 -41.3855 116.027 136.196 123.49 -1.37127 -12.7578 26.3153 113.557 165.735 -36.6766 56.4946 43.6752 40.3373 -5.27939 2.48734
internal_weight=33455 2319 31136 14768 16368 13908 860 766 1553 13143 455 382 5285 8868 678 3225 182 119 322 8623 8667 1865 261 61 2157 288 1179 394 4284 4339
internal_count=33455 2319 31136 14768 16368 13908 860 766 1553 13143 455 382 5285 8868 678 3225 182 119 322 8623 8667 1865 261 61 2157 288 1179 394 4284 4339
is_linear=0
shrinkage=0.05


Tree=23
num_leaves=31
num_cat=0
split_feature=1 1 0 7 1 1 1 1 4 11 7 1 7 7 1 0 1 11 1 1 1 1 7 4 0 13 13 7 7 7
split_gain=7.22876e+09 2.34052e+09 1.51797e+09 7.03273e+08 6.91875e+08 5.41552e+08 3.37421e+08 2.80913e+08 2.0267e+08 1.99561e+08 1.39837e+08 1.34853e+08 7.90565e+07 7.88402e+07 6.30022e+07 5.76523e+07 5.32166e+07 5.03434e+07 5.51361e+07 4.99429e+07 4.88293e+07 4.32962e+07 3.76678e+07 3.70077e+07 7.95209e+07 3.48019e+07 3.26982e+07 2.74234e+07 2.7382e+07 2.72627e+07
threshold=0.071879639829610195 0.49036684304319073 0.016885964974369203 8.4882552095027588 0.90571779405687269 0.017554923829924966 0.22792368932549747 0.20246691425759994 1543.2621273679003 2089.1893654784458 8.0760115681674254 0.74651388398129503 8.1153294942435128 8.7192091676155972 0.039186953939371459 0.0096919870310328872 0.98270388899232952 3668.7690709547346 0.13000979767815313 0.34423715839361241 0.13000979767815313 0.33939835140530056 7.8095571523987592 2599.1145832785091 0.0047430958344691198 0.92284222261338977 0.92284222261338977 8.7198192877465477 7.8087553013262356 7.8095571523987592
decision_type=2 2 2 2 2 2 2 2 2 2 2 2 2 2 2 2 2 2 2 2 2 2 2 2 2 2 2 2 2 2
left_child=2 3 8 6 11 10 12 17 15 14 -4 13 20 22 -7 -1 25 -5 -19 27 -2 -8 -3 24 -10 -6 29 -9 -23 -13
right_child=1 4 5 7 16 9 21 19 23 -11 -12 26 -14 -15 -16 -17 -18 18 -20 -21 -22 28 -24 -25 -26 -27 -28 -29 -30 -31
leaf_value=124.2852261417208 21.408339586005539 -43.857871858685257 201.13343584691475 73.893641336141783 -36.926291265190372 57.921098002907343 4.4996703828203586 45.636644919062441 194.15389162515098 123.61333525299888 109.18859651128435 -66.814008765511957 38.348803625541073 18.555489391554655 36.210926439814543 54.758059444560253 -52.825265448058559 182.24617457376246 107.18826307008725 24.187792726926627 10.724957409016683 -55.123614623537108 -10.225268115481526 182.61085835348408 118.93434661240929 13.234242314830466 8.7193440811736505 83.451326990205601 -2.7562790191859996 -19.857563023390824
leaf_weight=99 1772 84 51 63 2595 568 3251 227 62 86 222 31 393 239 814 43 595 35 84 287 2699 25 8345 291 83 35 100 61 4562 5653
leaf_count=99 1772 84 51 63 2595 568 3251 227 62 86 222 31 393 239 814 43 595 35 84 287 2699 25 8345 291 83 35 100 61 4562 5653
internal_value=-0.0717357 -6.41478 85.0896 9.29576 -18.3765 61.7748 6.50532 56.1106 155.294 49.7428 126.432 -13.7035 16.8501 -9.75793 45.1373 103.285 -39.3164 110.237 129.399 38.9624 14.9595 0.0855877 -10.561 172.205 151.209 -36.2583 -19.6162 53.6722 -3.04289 -20.1148
internal_weight=33455 31136 2319 13459 17677 1741 12702 757 578 1468 273 14452 4864 8668 1382 142 3225 182 119 575 4471 7838 8429 436 145 2630 5784 288 4587 5684
internal_count=33455 31136 2319 13459 17677 1741 12702 757 578 1468 273 14452 4864 8668 1382 142 3225 182 119 575 4471 7838 8429 436 145 2630 5784 288 4587 5684
is_linear=0
shrinkage=0.05


Tree=24
num_leaves=31
num_cat=0
split_feature=1 1 2 1 5 1 1 5 5 1 1 5 5 1 5 4 11 5 0 2 1 1 1 1 1 2 5 1 5 5
split_gain=6.52752e+09 2.2281e+09 2.06568e+09 7.61074e+08 6.4544e+08 2.46486e+08 2.04565e+08 1.79435e+08 1.27906e+08 1.16106e+08 1.15181e+08 9.61589e+07 6.8418e+07 5.1126e+07 4.84538e+07 4.14896e+07 4.13762e+07 4.07887e+07 3.82655e+07 3.1362e+07 3.04502e+07 3.04218e+07 2.93606e+07 2.56514e+07 2.48171e+07 2.23805e+07 1.92742e+07 1.91336e+07 1.8598e+07 1.77914e+07
threshold=0.05815034689936343 0.41261286022148647 0.58857415064795304 0.86057011328346356 4856.3835616438364 0.14505570750543001 0.17161312348992011 3215.433375365812 6117.7803901895213 0.59371976101873936 0.93166685477984712 3346.9401329833022 2841.1853581511455 0.27262892496960162 5224.9700000000012 3487.5671711202763 3668.7690709547346 3215.4897265019799 0.036572657895811558 1.2829314799015794 0.039186953939371459 0.11962474468894457 0.98486975510840746 0.23625424112457091 0.69020683010139472 0.79185056015209632 6121.124871794872 0.3214508545580142 3215.4857725081774 3490.186486486487
decision_type=2 2 2 2 2 2 2 2 2 2 2 2 2 2 2 2 2 2 2 2 2 2 2 2 2 2 2 2 2 2
left_child=2 4 7 8 5 11 16 -1 9 28 -5 -2 -4 29 27 18 -6 -11 -14 -15 -9 -18 26 -16 -19 -13 -12 -8 -3 -7
right_child=1 3 12 10 6 13 14 20 -10 17 22 25 15 19 23 -17 21 24 -20 -21 -22 -23 -24 -25 -26 -27 -28 -29 -30 -31
leaf_value=87.171542794222333 19.901144982968418 -28.535374324856186 86.822305733231758 -25.331120706312689 83.162969349808066 8.7713423187285606 43.525584015156888 52.830780149486934 17.271858756994408 -42.031538860166826 -38.663340441403449 42.414381977135761 169.3141378458987 1.8777307870927462 89.697076407182763 235.68806487892476 192.84493622260069 -10.826669396268954 134.51316528942488 -46.264698787029189 36.524799611908044 121.83955840801823 -52.016819357368277 53.060186524364035 -16.155156003286063 75.480812095902522 -4.7811899283991606 15.186296302780859 -5.1325324518351563 22.867542044361088
leaf_weight=308 2420 86 29 2589 52 2977 150 542 418 131 1812 147 471 4256 69 21 21 3745 98 34 610 58 459 158 5250 79 43 99 6081 242
leaf_count=308 2420 86 29 2589 52 2977 150 542 418 131 1812 147 471 4256 69 21 21 3745 98 34 610 58 459 158 5250 79 43 99 6081 242
internal_value=-0.0679176 -5.75318 85.7295 -15.3804 12.6873 9.69326 62.7669 53.2709 -10.0133 -10.7592 -32.5781 22.8156 162.267 5.06899 47.5216 165.959 118.083 -14.3406 163.345 1.49511 44.2005 140.934 -40.6849 64.2311 -13.9368 54.0013 -37.8782 32.2688 -5.45935 9.83175
internal_weight=33455 31376 2079 20614 10762 10155 607 1460 15711 15293 4903 2646 619 7509 476 590 131 9126 569 4290 1152 79 2314 227 8995 226 1855 249 6167 3219
internal_count=33455 31376 2079 20614 10762 10155 607 1460 15711 15293 4903 2646 619 7509 476 590 131 9126 569 4290 1152 79 2314 227 8995 226 1855 249 6167 3219
is_linear=0
shrinkage=0.05


Tree=25
num_leaves=31
num_cat=0
split_feature=1 1 2 1 5 1 1 5 1 1 5 5 1 5 1 4 0 5 5 1 5 2 5 5 5 9 1 2 5 1
split_gain=6.08044e+09 2.02266e+09 1.92728e+09 6.69383e+08 6.06995e+08 2.19496e+08 1.99551e+08 1.70433e+08 1.1211e+08 1.09259e+08 9.33612e+07 7.03879e+07 6.08904e+07 5.89887e+07 4.81221e+07 4.3886e+07 3.64566e+07 3.54338e+07 3.10712e+07 2.90923e+07 2.73613e+07 2.62242e+07 2.55561e+07 2.47963e+07 2.18845e+07 2.08881e+07 2.03672e+07 2.00256e+07 1.9611e+07 1.87982e+07
threshold=0.05815034689936343 0.41261286022148647 0.58857415064795304 0.85020902639116225 4856.3835616438364 0.14505570750543001 0.14224693220350457 3215.433375365812 0.63164793292141386 0.94298288277790288 3346.9401329833022 5222.3450000000003 0.23625424112457091 2841.1853581511455 0.28353690381376412 3487.5671711202763 0.036572657895811558 6118.8952173913049 5224.9700000000012 0.039186953939371459 6115.0490635451506 1.2829314799015794 3215.4908024186611 3215.4857725081774 3490.186486486487 17379634.116327565 0.98486975510840746 0.79185056015209632 6120.0100445930884 0.092071334687769749
decision_type=2 2 2 2 2 2 2 2 2 2 2 2 2 2 2 2 2 2 2 2 2 2 2 2 2 2 2 2 2 2
left_child=2 4 7 8 5 10 25 -1 11 28 29 23 18 -4 24 16 -15 22 -8 -9 -14 -16 -10 -3 -7 -6 -11 -12 -5 -2
right_child=1 3 13 9 6 14 12 19 17 26 27 -13 20 15 21 -17 -18 -19 -20 -21 -22 -23 -24 -25 -26 -27 -28 -29 -30 -31
leaf_value=83.485338654210935 24.472115553585809 -30.192344128287733 74.419315852514771 -25.265781693717905 96.125023828485354 7.2309081507247059 52.461110083480072 50.537340341610658 -38.75110518609263 -36.99968171646821 41.702164726077022 17.888615905741087 23.327403993570307 160.88566298162809 0.57042038863649613 223.70076646538843 126.49332146963837 7.6365122634795277 92.64561244040955 34.429447310297995 51.524744086292039 -44.176545904338184 -13.454837563901467 -5.4825442373692868 20.489768461161216 150.63894734183586 -49.315417725393132 73.347021700925495 -0.90966068361956998 15.408514500690424
leaf_weight=315 907 103 22 2995 27 4060 102 523 101 1478 148 327 184 496 3034 25 94 198 92 607 162 33 8235 6686 337 55 436 76 85 1552
leaf_count=315 907 103 22 2995 27 4060 102 523 101 1478 148 327 184 496 3034 25 94 198 92 607 162 33 8235 6686 337 55 436 76 85 1552
internal_value=0.161137 -5.32342 82.9078 -14.487 12.2431 9.30372 60.1847 50.9615 -9.40091 -30.4252 21.5691 -4.76642 49.1311 155.357 4.8946 158.24 155.429 -13.2652 71.5556 41.8885 36.5407 0.0875302 -13.7618 -5.85787 8.24755 132.828 -39.8076 52.4668 -24.5937 18.7525
internal_weight=33495 31413 2082 20644 10769 10147 622 1445 15650 4994 2683 7116 540 637 7464 615 590 8534 194 1130 346 3067 8336 6789 4397 82 1914 224 3080 2459
internal_count=33495 31413 2082 20644 10769 10147 622 1445 15650 4994 2683 7116 540 637 7464 615 590 8534 194 1130 346 3067 8336 6789 4397 82 1914 224 3080 2459
is_linear=0
shrinkage=0.05


Tree=26
num_leaves=31
num_cat=0
split_feature=1 2 1 5 1 1 1 2 2 5 1 2 1 9 1 1 4 2 1 5 13 13 1 5 0 1 2 5 1 1
split_gain=5.48841e+09 1.81704e+09 1.73317e+09 5.26546e+08 4.61462e+08 2.98967e+08 2.57157e+08 1.04066e+08 9.73989e+07 9.22721e+07 8.7243e+07 7.15542e+07 6.03286e+07 5.11526e+07 4.99399e+07 4.81991e+07 4.08804e+07 3.47341e+07 3.28865e+07 3.1403e+07 2.80583e+07 2.79857e+07 2.77078e+07 2.72865e+07 2.63762e+07 2.63359e+07 2.04782e+07 2.03306e+07 2.01498e+07 1.85966e+07
threshold=0.071879639829610195 0.58857109896505355 0.53674210374247122 4856.3835616438364 0.91273823370476992 0.27262892496960162 0.21178174247311418 0.5885761194923923 0.5885661277430011 2841.1853581511455 0.81993500911948936 0.58856078844874171 0.05815034689936343 17379634.116327565 0.34423715839361241 0.13413661444912578 3487.5671711202763 1.2828638534762036 0.97850592679364501 3215.4880050352904 0.92284222261338977 0.76669697406115045 0.38369961192624213 3346.9401329833022 0.051606823442486432 0.13413661444912578 1.2821204381987015 6122.0724749163883 0.049147209926533451 0.69020683010139472
decision_type=2 2 2 2 2 2 2 2 2 2 2 2 2 2 2 2 2 2 2 2 2 2 2 2 2 2 2 2 2 2
left_child=1 8 3 5 10 11 15 -3 28 -9 13 -2 16 19 27 21 24 22 20 -4 -6 -5 -7 -13 -11 -25 -12 -8 -1 -21
right_child=2 7 4 6 18 17 14 9 -10 12 26 23 -14 -15 -16 -17 -18 -19 -20 29 -22 -23 -24 25 -26 -27 -28 -29 -30 -31
leaf_value=41.163714788868369 9.0282590580076931 99.257561774779575 -34.52065140864368 89.255130276391526 -32.082102094113331 1.9707585094904385 39.046524262635039 57.73466882738461 64.891984899022845 152.73281312033666 -18.925181142401367 17.71825882590964 85.192150635461189 9.2925971611772198 18.591829138888709 76.481984280843548 217.66019444129279 -37.788463274930848 -43.483933016407491 -8.7571192437493117 16.564285649651307 154.75898297906213 -3.8453333083743035 49.810537910183186 98.31906806660885 23.525737197472765 -68.342262535637587 71.943375248202855 27.798795893697445 -13.386046150244582
leaf_weight=659 3483 155 138 28 2143 3851 219 29 371 521 3668 1743 35 326 401 130 24 65 763 5769 30 41 4373 137 24 314 21 60 495 3479
leaf_count=659 3483 155 138 28 2143 3851 219 29 371 521 3668 1743 35 326 401 130 24 65 763 5769 30 41 4373 137 24 314 21 60 495 3479
internal_value=0.153257 74.465 -5.35922 7.0069 -16.596 4.64432 44.5399 136.111 42.6042 145.118 -12.6624 13.4839 149.304 -10.1759 29.9016 94.5202 153.232 -1.40986 -34.5489 -10.8522 -31.4098 128.345 -1.12188 20.5566 150.355 31.5195 -19.2083 46.1444 35.4338 -10.4986
internal_weight=33495 2313 31182 14845 16337 13966 879 788 1525 633 13401 5677 604 9712 680 199 569 8289 2936 9386 2173 69 8224 2194 545 451 3689 279 1154 9248
internal_count=33495 2313 31182 14845 16337 13966 879 788 1525 633 13401 5677 604 9712 680 199 569 8289 2936 9386 2173 69 8224 2194 545 451 3689 279 1154 9248
is_linear=0
shrinkage=0.05


Tree=27
num_leaves=31
num_cat=0
split_feature=1 1 2 1 5 1 1 2 1 5 1 9 5 5 1 2 6 1 9 1 5 1 11 2 13 2 5 1 5 5
split_gain=4.95425e+09 1.6485e+09 1.57328e+09 5.49052e+08 4.9617e+08 1.80892e+08 1.65294e+08 1.41228e+08 1.07456e+08 7.61751e+07 7.04453e+07 6.57551e+07 4.72568e+07 4.47382e+07 3.94738e+07 2.83541e+07 3.54364e+07 2.77719e+07 2.77509e+07 2.63527e+07 2.51317e+07 2.4664e+07 7.46893e+07 2.53633e+07 2.42178e+07 2.15551e+07 2.05661e+07 2.03466e+07 1.92694e+07 1.80298e+07
threshold=0.05815034689936343 0.41261286022148647 0.58857415064795304 0.86859742412024854 4856.3835616438364 0.14505570750543001 0.17161312348992011 0.58856807192379679 0.66611984042012695 3346.9401329833022 0.94563600720510921 17042269.521710854 2841.1853581511455 5224.9700000000012 0.28353690381376412 0.5885791712273869 4698.0472061657047 0.039186953939371459 17379634.116327565 0.13000979767815313 3215.4917976415909 0.023317432588795824 3668.7690709547346 0.79215737685729937 0.92284222261338977 1.2829314799015794 6120.455975473802 0.23625424112457091 3215.4857725081774 3490.186486486487
decision_type=2 2 2 2 2 2 2 2 2 2 2 2 2 2 2 2 2 2 2 2 2 2 2 2 2 2 2 2 2 2
left_child=2 4 7 8 5 9 18 17 11 -2 26 28 -4 -8 29 -14 21 -1 -6 -20 -10 -17 23 -23 -22 -16 -5 -15 -3 -7
right_child=1 3 12 10 6 14 13 -9 20 -11 -12 -13 15 27 25 16 -18 -19 19 -21 24 22 -24 -25 -26 -27 -28 -29 -30 -31
leaf_value=46.405778356189963 16.986751137428989 -26.650057652858802 67.841515291654147 -24.243906105694251 71.292611308637063 6.5075958769038582 26.388972547539353 78.36115547998709 -38.317524214676922 47.440281905515128 -36.471109766600605 15.072550916183779 117.54804272130676 79.060707794060704 0.47767829430456521 154.74712727569835 208.78341524198456 30.9872318003288 150.06186024197319 94.837542911071154 -13.453124320153684 69.455878281940286 153.34534590512538 128.98672858693755 10.079692425285774 -40.090677230235677 4.9008955290544058 46.877853287185587 -5.8759281888792874 18.542218471471649
leaf_weight=565 2459 113 22 2500 45 4060 255 273 100 224 1789 381 96 71 3034 276 23 607 40 49 6973 48 143 29 111 33 62 162 8615 337
leaf_count=565 2459 113 22 2500 45 4060 255 273 100 224 1789 381 96 71 3034 276 23 607 40 49 6973 48 143 29 111 33 62 162 8615 337
internal_value=0.145767 -4.80489 74.8374 -13.0776 11.0538 8.39628 54.3984 45.9738 -8.86372 19.5309 -28.8567 -5.25756 140.296 40.8768 4.39362 142.876 147.537 38.4236 103.574 119.798 -13.436 144.656 131.931 92.0149 -13.0842 0.0398804 -23.5384 56.7144 -6.14519 7.43037
internal_weight=33495 31413 2082 20644 10769 10147 622 1445 16293 2683 4351 9109 637 488 7464 615 519 1172 134 89 7184 496 220 77 7084 3067 2562 233 8728 4397
internal_count=33495 31413 2082 20644 10769 10147 622 1445 16293 2683 4351 9109 637 488 7464 615 519 1172 134 89 7184 496 220 77 7084 3067 2562 233 8728 4397
is_linear=0
shrinkage=0.05


Tree=28
num_leaves=31
num_cat=0
split_feature=1 2 1 5 1 1 1 2 2 5 1 2 1 5 1 1 1 4 1 5 5 11 2 0 2 5 2 5 1 9
split_gain=4.47848e+09 1.48412e+09 1.41888e+09 4.29713e+08 3.77764e+08 2.42786e+08 2.09817e+08 8.43386e+07 7.96177e+07 7.54151e+07 7.16624e+07 5.38475e+07 4.68862e+07 4.26686e+07 4.16451e+07 3.96034e+07 3.40934e+07 3.39819e+07 2.84693e+07 2.55588e+07 2.46149e+07 2.30942e+07 2.2029e+07 2.15588e+07 1.79655e+07 1.74411e+07 2.57061e+07 1.73422e+07 1.62728e+07 1.6151e+07
threshold=0.071879639829610195 0.58857109896505355 0.53674210374247122 4856.3835616438364 0.91273823370476992 0.22792368932549747 0.21178174247311418 0.5885761194923923 0.5885661277430011 2841.1853581511455 0.81993500911948936 0.58856137808949571 0.05815034689936343 6118.5328985507249 0.34423715839361241 0.13413661444912578 0.33939835140530056 3487.5671711202763 0.98270388899232952 3215.4880050352904 6120.5674581939811 3749.8689192693428 1.2828638534762036 0.036572657895811558 1.2821204381987015 3215.4622906266145 0.79178742150182513 6122.0724749163883 0.049147209926533451 17379634.116327565
decision_type=2 2 2 2 2 2 2 2 2 2 2 2 2 2 2 2 2 2 2 2 2 2 2 2 2 2 2 2 2 2
left_child=1 8 3 5 10 11 15 -3 28 -9 13 -2 17 19 27 21 -7 23 20 -4 -6 -5 -18 -11 -12 -13 -27 -8 -1 -17
right_child=2 7 4 6 18 16 14 9 -10 12 24 25 -14 -15 -16 29 22 -19 -20 -21 -22 -23 -24 -25 -26 26 -28 -29 -30 -31
leaf_value=37.137974046600952 10.085272748645004 89.801244569209075 -31.101042068116826 80.555517295755962 -29.713981771759912 3.5092075332221948 35.310063526087404 52.089091609679542 58.622494675007445 139.4765858691498 -17.116362398284519 -1.6396330693841148 78.331304531695153 10.705462087392352 16.70441299770069 40.397941809149664 -2.6318608958055583 197.06420462833896 -41.409080147031091 -9.4303428200171169 1.4821428589007823 140.05394673219851 -35.929863454243858 108.69859127948608 -63.401395477728819 21.096491272985052 45.785724222263042 65.690904923881746 25.127316259601049 79.969032684066732
leaf_weight=659 3667 155 138 28 2312 3188 219 29 371 478 3668 73 35 262 401 36 5804 24 559 9312 65 41 50 67 21 1067 117 60 495 94
leaf_count=659 3667 155 138 28 2312 3188 219 29 371 478 3668 73 35 262 401 36 5804 24 559 9312 65 41 50 67 21 1067 117 60 495 94
internal_value=0.138697 67.266 -4.84084 6.34805 -15.0079 4.21374 40.2547 122.979 38.4716 131.088 -11.4489 13.1471 134.872 -9.19528 27.0322 85.4008 -0.651172 138.335 -31.2513 -9.74713 -28.8609 116.061 -2.91687 135.714 -17.3816 22.0776 23.5399 41.8648 31.9887 69.0504
internal_weight=33495 2313 31182 14845 16337 13966 879 788 1525 633 13401 4924 604 9712 680 199 9042 569 2936 9450 2377 69 5854 545 3689 1257 1184 279 1154 130
internal_count=33495 2313 31182 14845 16337 13966 879 788 1525 633 13401 4924 604 9712 680 199 9042 569 2936 9450 2377 69 5854 545 3689 1257 1184 279 1154 130
is_linear=0
shrinkage=0.05


Tree=29
num_leaves=31
num_cat=0
split_feature=1 1 0 0 1 1 9 9 1 5 1 1 5 9 1 1 5 5 1 13 5 0 1 1 1 5 5 1 13 1
split_gain=4.04202e+09 1.2823e+09 8.62699e+08 3.94068e+08 3.24474e+08 3.23931e+08 2.59693e+08 1.1714e+08 1.12282e+08 1.07831e+08 9.52346e+07 8.37276e+07 7.11574e+07 5.78973e+07 5.76305e+07 5.2878e+07 3.48052e+07 2.8207e+07 2.56949e+07 2.43203e+07 2.15267e+07 2.15168e+07 2.12429e+07 1.90931e+07 1.85347e+07 1.73408e+07 1.68058e+07 1.47947e+07 1.46265e+07 1.30561e+07
threshold=0.071879639829610195 0.56227081344245389 0.016885964974369203 0.17309045530521014 0.016221368054116555 0.91273823370476992 18410795.891473856 11724254.219183365 0.27262892496960162 3812.1259663865553 0.0091917908951133116 0.16094342121026781 3215.3793105525915 11038163.597769784 0.77545835465925406 0.030020946141676139 6118.5328985507249 2457.9790000000007 0.98270388899232952 0.92284222261338977 3215.4944874332937 0.048340530014393368 0.35461386695440106 0.13413661444912578 0.38369961192624213 3215.3572542606303 3215.4885698915477 0.016221368054116555 0.92284222261338977 0.11962474468894457
decision_type=2 2 2 2 2 2 2 2 2 2 2 2 2 2 2 2 2 2 2 2 2 2 2 2 2 2 2 2 2 2
left_child=2 3 7 6 12 14 13 10 23 15 -1 -8 25 -2 16 -6 26 -10 19 -7 -16 29 -13 -5 -19 -4 -3 -12 -22 -15
right_child=1 5 4 8 9 18 11 -9 17 -11 27 22 -14 21 20 -17 -18 24 -20 -21 28 -23 -24 -25 -26 -27 -28 -29 -30 -31
leaf_value=131.0264072116635 10.965990669270829 -27.750306009911583 190.14628784787001 16.103864176740412 51.876297128878065 -28.008800092735125 106.86064793077536 131.55345530225614 -33.212464531596254 106.04621793605023 74.08239595639246 57.537246262067896 86.252652533200887 59.507052053746683 -50.172695631885745 29.361465880152139 12.058876493711487 1.5193279416257175 -39.338997492264006 15.836358908775068 -15.823363801838799 21.88439353812511 27.891557140545196 7.238469006843296 -3.0761647599873534 129.34652164257201 -8.9788852331427282 40.153578771935251 6.2933618138246885 32.179488477394088
leaf_weight=72 1913 121 20 810 343 2345 78 394 69 55 75 195 174 60 45 1091 196 3785 559 32 4389 760 88 2428 5220 32 7850 57 76 163
leaf_count=72 1913 121 20 810 343 2345 78 394 69 55 75 195 174 60 45 1091 196 3785 559 32 4389 760 88 2428 5220 32 7850 57 76 163
internal_value=0.131927 -4.59874 63.9044 5.55499 45.8683 -14.7238 21.0208 115.614 1.46355 37.3905 84.7789 61.0041 101.683 16.0347 -11.2577 34.7501 -8.75231 -1.38879 -29.6889 -27.4179 -15.7944 25.8968 48.3319 9.45662 -1.14458 153.051 -9.26418 59.4728 -15.4468 39.5556
internal_weight=33495 31182 2313 15569 1715 15613 3257 598 12312 1489 204 361 226 2896 12677 1434 8167 9074 2936 2377 4510 983 283 3238 9005 52 7971 132 4465 223
internal_count=33495 31182 2313 15569 1715 15613 3257 598 12312 1489 204 361 226 2896 12677 1434 8167 9074 2936 2377 4510 983 283 3238 9005 52 7971 132 4465 223
is_linear=0
shrinkage=0.05


Tree=30
num_leaves=31
num_cat=0
split_feature=1 2 1 5 1 1 1 2 5 2 1 2 1 5 1 5 13 2 1 1 1 2 4 5 2 5 0 5 5 1
split_gain=3.57004e+09 1.21789e+09 1.15853e+09 3.55176e+08 2.96294e+08 2.12204e+08 1.90537e+08 6.9192e+07 6.03962e+07 5.73215e+07 5.34234e+07 4.93842e+07 3.63183e+07 6.76273e+07 3.63168e+07 3.37375e+07 3.22655e+07 2.87643e+07 2.53476e+07 2.46319e+07 2.28341e+07 2.23878e+07 2.05925e+07 1.72824e+07 2.34298e+07 1.65614e+07 1.58098e+07 1.4488e+07 1.44508e+07 1.3671e+07
threshold=0.071879639829610195 0.58857109896505355 0.56227081344245389 4856.3835616438364 0.91273823370476992 0.24328389428502176 0.20246691425759994 0.5885761194923923 2841.1853581511455 0.5885661277430011 0.77545835465925406 0.58856158776170264 0.049147209926533451 4336.3406196139304 0.29543069598353844 6118.5328985507249 0.76669697406115045 1.2828638534762036 0.33939835140530056 0.13000979767815313 0.96174767402449068 1.2821204381987015 3487.5671711202763 3215.4622906266145 0.79185056015209632 3215.4885698915477 0.036572657895811558 6116.8606577480496 6119.6477257525094 0.049147209926533451
decision_type=2 2 2 2 2 2 2 2 2 2 2 2 2 2 2 2 2 2 2 2 2 2 2 2 2 2 2 2 2 2
left_child=1 9 3 5 10 11 16 -3 -9 29 15 -2 22 -14 -8 25 -5 18 -7 -18 -6 28 26 -13 -25 -4 -10 -16 -12 -1
right_child=2 7 4 6 20 17 14 8 12 -11 21 23 13 -15 27 -17 19 -19 -20 -21 -22 -23 -24 24 -26 -27 -28 -29 -30 -31
leaf_value=33.285783538910401 8.8018402609515771 81.558239983410331 -27.022816484638778 50.522988881096374 -24.35658765076165 3.06354656252647 42.140222424811128 54.548930119788885 130.77390286687998 51.576184393674083 -15.252537944264374 -2.8920011857582328 53.254475095219725 125.51438999196515 9.545233438266699 11.763582586693099 132.24291988607726 -29.777053836511556 -2.6339589173573614 81.97887281276013 -33.171264801072198 -54.298769338507412 178.47998822108264 20.313819502216525 52.701469484642274 -8.5389410428220582 100.9944566974532 26.479330532018544 1.4768300942779933 22.272860743160823
leaf_weight=663 4095 160 123 58 1688 2800 201 35 367 355 4365 74 50 93 285 204 34 87 6446 90 1304 36 21 1028 59 7890 53 227 133 492
leaf_count=663 4095 160 123 58 1688 2800 201 35 367 355 4365 74 50 93 285 204 34 87 6446 90 1304 36 21 1028 59 7890 53 227 133 492
internal_value=-0.0695784 60.202 -4.48778 5.22315 -14.0389 3.34738 35.7953 110.976 118.566 34.0024 -10.716 11.3829 122.392 100.304 24.133 -8.31177 81.4452 -1.17797 -0.908547 95.8564 -28.1993 -15.073 129.53 20.4849 22.0764 -8.823 127.041 17.0568 -14.7578 28.5969
internal_weight=33516 2289 31227 15484 15743 14589 895 779 619 1510 12751 5256 584 143 713 8217 182 9333 9246 124 2992 4534 441 1161 1087 8013 420 512 4498 1155
internal_count=33516 2289 31227 15484 15743 14589 895 779 619 1510 12751 5256 584 143 713 8217 182 9333 9246 124 2992 4534 441 1161 1087 8013 420 512 4498 1155
is_linear=0
shrinkage=0.05


Tree=31
num_leaves=31
num_cat=0
split_feature=1 2 1 9 1 1 1 5 2 5 1 2 9 1 1 9 1 11 1 5 1 2 2 5 13 6 2 5 1 1
split_gain=3.22215e+09 1.09927e+09 1.04655e+09 3.3186e+08 3.04514e+08 1.63107e+08 8.96651e+07 7.41394e+07 6.24552e+07 5.45028e+07 5.32267e+07 5.17349e+07 3.68755e+07 3.45515e+07 3.27734e+07 6.31442e+07 3.02001e+07 2.99256e+07 2.42774e+07 2.23633e+07 2.17893e+07 1.93686e+07 1.82287e+07 1.70106e+07 1.54928e+07 1.49045e+07 1.45406e+07 1.27808e+07 1.23715e+07 1.23381e+07
threshold=0.071879639829610195 0.58857109896505355 0.49124184190830239 18410795.891473856 0.89228782787158656 0.27262892496960162 0.24328389428502176 3346.9401329833022 0.5885761194923923 2841.1853581511455 0.69904368789777227 0.5885661277430011 18384220.837491397 0.95341075375548356 0.049147209926533451 17379634.116327565 0.13000979767815313 3668.7690709547346 0.13000979767815313 4872.1369863013706 0.17603705162520031 1.2829314799015794 1.2821204381987015 6120.5674581939811 0.92284222261338977 3871.7042621225614 1.2826610186807736 6115.0490635451506 0.36581699142475027 0.049147209926533451
decision_type=2 2 2 2 2 2 2 2 2 2 2 2 2 2 2 2 2 2 2 2 2 2 2 2 2 2 2 2 2 2
left_child=1 11 3 5 10 7 17 16 -3 -10 12 29 26 23 25 -16 -2 -5 -19 21 -9 28 24 -6 -12 -11 -4 -8 -7 -1
right_child=2 8 4 6 13 19 27 20 9 14 22 -13 -14 -15 15 -17 -18 18 -20 -21 -22 -23 -24 -25 -26 -27 -28 -29 -30 -31
leaf_value=31.621745428473073 14.540468449650016 77.482874588665553 -6.4045081810961237 33.066688725361573 -21.576039301176664 2.2582211746391248 12.98899155841081 38.451560858455984 51.829253778702174 119.94591811869319 -12.251906017423602 48.998101818887193 12.831720616225448 -30.65486801207032 55.507520897053624 123.1410971914829 6.4479719688649091 125.19068177600514 75.714040591507555 17.69382819886982 18.957195937832779 -34.715529038552241 -45.772666615322052 8.5175287841511373 7.6709681300173855 151.52267686883701 -29.293988829434518 38.095109843148819 -1.9421978224726204 21.159444079703309
leaf_weight=663 1752 160 6864 32 2067 2883 76 271 35 398 6522 355 252 1588 59 84 3372 32 115 173 305 41 40 48 99 43 70 153 4472 492
leaf_count=663 1752 160 6864 32 2067 2883 76 271 35 398 6522 355 252 1588 59 84 3372 32 115 173 305 41 40 48 99 43 70 153 4472 492
internal_value=-0.065939 57.1937 -4.26335 6.1054 -12.3439 4.73948 50.516 11.1275 105.432 112.643 -8.93785 32.3026 -5.95313 -25.0798 116.278 95.2947 9.21519 77.0227 86.5623 -0.0712141 28.1341 -0.486991 -12.1577 -20.8927 -11.9539 123.058 -6.636 29.7723 -0.295716 27.1673
internal_weight=33516 2289 31227 13677 17550 13269 408 5700 779 619 13847 1510 7186 3703 584 143 5124 179 147 7569 576 7396 6661 2115 6621 441 6934 229 7355 1155
internal_count=33516 2289 31227 13677 17550 13269 408 5700 779 619 13847 1510 7186 3703 584 143 5124 179 147 7569 576 7396 6661 2115 6621 441 6934 229 7355 1155
is_linear=0
shrinkage=0.05


Tree=32
num_leaves=31
num_cat=0
split_feature=0 1 4 1 0 1 4 9 1 0 1 2 2 1 1 14 14 1 4 1 13 14 1 1 2 0 13 2 14 11
split_gain=2.91186e+09 1.01665e+09 5.95798e+08 3.4595e+08 3.07678e+08 2.53921e+08 9.95181e+07 9.02462e+07 6.71066e+07 6.46874e+07 6.40617e+07 6.22323e+07 5.37609e+07 5.15468e+07 4.64823e+07 3.35486e+07 2.60756e+07 2.38245e+07 2.12484e+07 1.8888e+07 1.79171e+07 1.7853e+07 1.57502e+07 1.53823e+07 1.53674e+07 1.50869e+07 1.37751e+07 1.31609e+07 1.26772e+07 1.22033e+07
threshold=0.06230706527501214 0.38553156405285566 2599.1145832785091 0.83948425328760912 0.0096919870310328872 0.08774036175902325 3985.930838727963 23602730.624149684 0.022950863673839812 0.036572657895811558 0.93166685477984712 0.5885761194923923 0.58855990152889748 0.63164793292141386 0.027329021570477754 69.800694740390597 56.705074037022086 0.049147209926533451 1557.3489600171799 0.011297546627448361 0.92284222261338977 49.629013690950607 0.98776890070994827 0.014879559685362214 1.2822825644932025 0.021540207794481219 0.92284222261338977 0.67549018475662725 56.704430960304002 2755.4167094891613
decision_type=2 2 2 2 2 2 2 2 2 2 2 2 2 2 2 2 2 2 2 2 2 2 2 2 2 2 2 2 2 2
left_child=2 5 4 13 11 6 14 12 19 -4 27 -1 -7 15 23 21 -14 -13 -10 -6 24 -3 26 -2 -15 -20 -12 -5 -11 -16
right_child=1 3 9 10 8 7 -8 -9 18 28 22 17 16 20 29 -17 -18 -19 25 -21 -22 -23 -24 -25 -26 -27 -28 -29 -30 -31
leaf_value=49.51886653609688 88.287224899913383 -25.669806034684058 117.53984173551055 -15.238478582173872 111.32311315752264 2.1034681975405265 137.28816846513072 53.697276831110685 23.531774342429316 105.53502882483595 -25.988120663200455 119.48739969323761 -11.795511494955852 -9.1477850755989643 22.46549886848614 11.272338997136215 10.639882702630942 76.291157466242311 66.005830931165661 58.977331734400572 10.213164353560842 -3.7428677739656999 -37.491448080475998 44.194730778302869 -36.395430352912072 34.433846394504023 9.9371436397087969 -25.932175733183144 76.34896656965303 52.895530955742529
leaf_weight=59 22 94 315 2950 22 5120 21 98 778 48 1975 133 134 7897 1029 377 3801 43 43 82 119 6905 318 200 52 320 27 319 181 34
leaf_count=59 22 94 315 2950 22 5120 21 98 778 48 1975 133 134 7897 1029 377 3801 43 43 82 119 6905 318 200 52 320 27 319 181 34
internal_value=-0.062506 -3.79882 58.0692 -10.1338 41.6175 8.94087 29.5646 5.99788 31.7079 102.812 -20.7933 94.0812 5.48105 -6.27621 27.7936 -3.25505 9.8756 108.983 28.1984 70.1468 -9.03816 -4.03772 -27.1479 48.6021 -9.32649 38.1909 -25.5031 -16.2828 82.51 23.4437
