tree
version=v4
num_class=1
num_tree_per_iteration=1
label_index=0
max_feature_idx=67
objective=regression
feature_names=segment_avg_fee state_avg_fee propertytype_avg_fee TargetTime rolling_avg_fee_segment rolling_avg_fee_proptype segment_std_fee client_avg_fee segment_win_rate PropertyState_frequency client_std_fee distance_x_volume state_std_fee TargetTime_Original office_avg_fee RooftopLongitude OfficeId avg_historical_fee_client rolling_avg_fee_office propertytype_std_fee office_std_fee BusinessSegment_encoded RooftopLatitude state_win_rate BusinessSegment_frequency targettime_ratio_to_proptype prev_fee_same_client propertytype_win_rate building_size_numeric PropertyState_encoded rolling_bid_count_office DistanceInKM rolling_avg_fee_state Bid_Property_Type_encoded rolling_std_fee_office days_since_last_bid_client market_competitiveness BidCompanyType_encoded BidCompanyName_encoded BidCompanyType_frequency total_bids_to_client days_since_start win_rate_with_client DayOfMonth rolling_win_rate_office Bid_SubProperty_Type_encoded JobCount OfficeLocation_frequency office_win_rate DistanceInMiles Month_cos IncomePerHousehold NumberofEmployees AverageHouseValue client_win_rate NumberofBusinesses total_wins_with_client DeliveryTotal OfficeLocation_encoded Bid_Property_Type_frequency MedianAge LeaseCount WeekOfYear PropertyCity_encoded targettime_x_size DayOfWeek_sin DayOfWeek Quarter
feature_infos=[1916.5921112929625:6438.3938622754486] [2662.0864022133323:11730] [2466.8624522292994:4862.9598958750494] [0:2800] [1354.1666666666667:13000] [0:7800] [1675.5224086583171:5424.8632820512048] [35.799999999999997:15000] [0.41010716130142882:0.95206243032329985] [8.7333956315555054e-06:0.28453402967607838] [0:10182.337649086285] [0:6244172.2317631897] [0:5533.308232874796] [0:2800] [2752.9411764705883:7250] [-158.02293399999999:144.30429100000001] [1:191] [0:15000] [0:10500] [1499.6015996040919:3548.7804427140186] [1200.0680808574198:5410.1042663891985] [0:11] [-36.850093999999999:61.592007000000002] [0:1] [0.00017466791263109999:0.81172545697492637] [0:122.95715327381492] [0:15000] [0.31198686371100159:0.73170731707317072] [0:5] [0:72] [0:1030] [0:15642.1766363114] [0:15000] [0:12] [0:7138.8607868016607] [0:999999] [0:621] [0:38] [1:6902] [0.0001310009344733:0.57347842414609229] [0:9725] [1827:2508] [0:1] [1:31] [0:1] [0:70] [0:34] [2.6200186894666515e-05:0.27914552457140862] [0.10000000000000001:1] [0:7683.4491192258301] [-1:1] [0:160148] [0:179047] [0:962000] [0:1] [0:5647] [0:3094] [0:60309] [0:54] [0.0003668026165253:0.22383693003676761] [0:61] [0:13600] [1:52] [4:5851] [0:5600] [-0.97492791218182362:0.97492791218182362] [0:6] [1:4]
tree_sizes=1631 1747 1748 1770 1752 1748 1772 1740 1737 1738 1753 1746 1750 1777 1752 1764 1744 1736 1751 1733 1740 1742 1781 1731 1737 1751 1743 1746 1764 1783 1746 1781 1768 1746 1726 1744 1740 1746 1740 1749 1754 1718 1766 1755 1779 1764 1716 1760 1738 1718 1749 1765 1747 1759 1744 1733 1750 1760 1780 1743 1753 1731 1749 1765 1741 1761 1743 1766 1754 1720 1723 1739 1751 1743 1738 1743 1763 1747 1741 1744 1758 1744 1755 1744 1752 1756 1753 1742 1730 1754 1757 1778 1747 1759 1782 1739 1774 1739 1736 1769 1736 1751 1760 1785 1754 1761 1758 1748 1759 1754 1759 1769 1757 1758 1754 1729 1769 1719 1755 1778 1749 1760 1749 1770 1752 1718 1742 1745 1754 1756 1721 1727 1723 1746 1788 1758 1752 1736 1740 1746 1747 1757 1726 1721 1750 1703 1752 1743 1769 1734 1749 1711 1742 1754 1781 1744 1743 1761 1763 1765 1755 1779 1749 1740 1719 1732 1731 1727 1741 1755 1731 1721 1763 1757 1748 1752 1730 1751 1735 1752 1727 1737 1724 1731 1748 1744 1750 1764 1761 1733 1768 1767 1733 1778 1730 1689 1762 1755 1732 1763 1736 1736 1722 1772 1719 1704 1773 1729 1775 1764 1759 1662 1761 1745 1747 1761 1764 1745 1764 1743 1685 1727 1755 1738 1730 1741 1748 1721 1725 1748 1765 1776 1761 1702 1757 1715 1706 1718 1746 1676 1681 1752 1761 1743 1734 1736 1713 1740 1717 1741 1726 1725 1761 1767 1745 1749 1715 1721 1746 1706 1713 1673 1772 1749 1763 1755 1756 1709 1719 1744 1768 1708 1674 1720 1702 1680 1730 1744 1694 1719 1707 1728 1738 1666 1732 1750 1731 1691 1749 1729 1743 1771 1727 1712 1744 1770 1701 1730 1741 1775 1746 1651 1639 1745 1683 1729 1702 1671 1686 1681 1740 1747 1672 1668 1784 1724 1754 1744 1713 1744 1721 1699 1728 1744 1754 1747 1744 1714 1733 1712 1751 1744 1726 1712 1752 1737 1750 1743 1723 1723 1713 1720 1692 1716 1722 1719 1670 1668 1698 1697 1729 1697 1719 1753 1746 1780 1694 1758 1658 1756 1745 1754 1798 1765 1772 1761 1673 1701 1759 1750 1721 1720 1743 1720 1729 1743 1734 1756 1724 1735 1639 1730 1735 1720 1693 1715 1700 1750 1425 1692 1736 1801 1759 1725 1787 1719 1737 1756 1714 1719 1765 1703 1702 1707 1670 1688 1734 1649 1689 1728 1747 1761 1697 1763 1746 1750 1753 1778 1753 1705 1723 1720 1721 1771 1761 1753 1689 1750 1712 1776 1720 1710 1676 1713 1708 1659 1681 1672 1727 1670 1765 1746 1684 1748 1735 1696 1735 1645 1750 1728 1707 1734 1756 1693 1731 1688 1701 1667 1710 1685 1782 1767 1743 1743 1741 1773 1780 1701 1763 1761 1758 1738 1724 1776 1779 1720 1738 1724 1801 1698 1694 1725 1742 1721 1731 1770 1680 1759 1759 1747 1746 1745 1722 1733 1727 1718 1761 1725 1793 1715 1720 1772 1689 1730 1776 1640 1728 1670 1682 1723 1712 1746 1771 1682 1700 1760 1651 1787 1726 1742 1631 1661 1601 1699 1665 1717 1771 1776 1717 1676 1692 1711 1715 1713 1656 1633 1702 1687 1718 1667 1719 1610 1703 1747 1696 1750 1656 1734 1648 1712 1726 1652 1706 1720 1745 1665 1705 1626 1660 1776 1680 1750 1689 1663 1735 1655 1681 1687 1668 1665 1688 1708 1703 1715 1672 1667 1682 1692 1679 1698 1640 1742 1651 1699 1634 1691 1747 1727 1734 1703 1664 1670 1694 1695 1702 1690 1723 1693 1714 1727 1749 1673 1664 1677 1694 1704 1749 1741 1721 1721 1631 1625 1710 1642 1708 1703 1746 1745 1745 1667 1731 1659 1692 1700 1713 1721 1734 1703 1688 1678 1747 1767 1731 1767 1753 1751 1693 1681 1717 1728 1726 1721 1707 1662 1650 1746 1670 1650 1692 1673 1691 1703 1631 1637 1676 1751 1646 1723 1678 1628 1751 1756 1764 1662 1752 1621 1612 1619 1653 1637 1743 1620 1681 1759 1685 1766 1712 1713 1686 1785 1641 1657 1681 1732 1668 1733 1748 1746 1687 1743 1625 1667 1602 1748 1634 1723 1754 1663 1766 1764 1681 1665 1705 1738 1678 1766 1702 1672 1683 1755 1691 1693 1709 1720 1676 1709 1686 1697 1707 1684 1722 1733 1659 1679 1678 1678 1627 1723 1710 1710 1719 1707 1726 1727 1708 1645 1672 1708 1687 1716 1686 1701 1699 1702 1721 1676 1652 1674 1678 1698 1688 1679 1743 1708 1699 1696 1738 1696 1703 1645 1762 1694 1738 1706 1694 1734 1638 1704 1620 1716 1718 1766 1730 1807 1693 1698 1657 1675 1677 1637 1774 1764 1715 1755 1701 1684 1709 1619 1751 1688 1707 1729 1705 1720 1729 1713 1601 1687 1617 1593 1731 1747 1713 1750 1715 1610 1704 1718 1633 1698 1694 1662 1691 1732 1658 1686 1663 1661 1661 1703 1623 1749 1715 1651 1747 1670 1732 1689 1712 1589 1682 1700 1595 1645 1638 1693 1707 1626 1714 1709 1629 1629 1653 1670 1658 1676 1638 1740 1688 1681 1617 1684 1613 1705 1736 1712 1736 1658 1703 1703 1710 1513 1413 1680 1706 1709 1694 1683 1698 1695 1716 1670 1705 1685 1675 1664 1760 1568 1632 1646 1690 1640 1616 1712 1660 1673 1675 1695 1672 1640 1683 1738 1715 1754 1668 1671 1697 1744 1732 1682 1659 1694 1685 1629 1625 1712 1700 1644 1693 1732 1661 1610 1669 1633 1653 1695 1706 1695 1666 1644 1662 1624 1680 1645 1628 1616 1618 1700 1615 1706 1725 1702 1703 1663 1639 1622 1628 1765 1689 1729 1705 1762 1710 1786 1702 1598 1710 1762 1718 1696 1725 1587 1675 1685 1731 1788 1692 1625 1693 1698 1628 1618 1660 1682 1557 1603 1613 1629 1649 1693 1701 1690 1660 1635 1613 1568 1688 1747 1696 1557 1702 1700 1684 1718 1720 1632 1643 1653 1629 1653 1713 1722 1639 1709 1700 1714 1677 1716 1624 1650 1649 1638 1682 1600 1624 1655 1716 1692 1727 1677 1658 1701 1676 1697 1671 1653 1606 1672 1719 1700 1689 1686 1665 1690 1669 1706 1689 1661 1705 1652 1663 1691 1652 1703 1727 1705 1676 1622 1663 1620 1661 1622 1690 1696 1653 1696 1679 1679 1634 1659 1718 1640 1737 1712 1695 1675 1674 1722 1637 1684 1646 1681 1662 1773 1631 1749 1723 1668 1691 1634 1616 1680 1631 1640 1684 1704 1656 1680 1664 1603 1689 1676 1680 1692 1722 1647 1672 1671 1645 1631 1679 1614 1676 1675 1629 1649 1708 1663 1779 1705 1710 1709 1681 1738 1638 1561 1633 1596 1666 1615 1672 1624 1698 1691 1715 1649 1682 1651 1597 1635 1658 1647 1693 1562 1635 1634 1607 1601 1678 1582 1662 1666 1654 1677 1601 1649 1666 1622 1709 1605 1704 1707 1668 1733 1623 1693 1613 1650 1669 1672 1635 1688 1648 1681 1656 1763 1696 1731 1676 1726 1654 1691 1685 1667 1672 1679 1727 1732 1678 1688 1584 1689 1665 1684 1642 1597 1609 1627 1694 1607 1628 1598 1575 1651 1592 1653 1656 1645 1639 1657 1657 1654 1633 1667 1683 1709 1643 1723 1680 1719 1660 1620 1639 1641 1655 1683 1604 1614 1602 1629 1628 1720 1717 1721 1585 1680 1758 1665 1665 1703 1709 1629 1685 1636 1659 1633 1658 1661 1691 1655 1620 1630 1649 1639 1651 1669 1687 1735 1709 1705 1651 1663 1626 1612 1627 1550 1584 1608 1587 1635 1602 1632 1646 1635 1699 1686 1736 1611 1767 1657 1680 1660 1725 1596 1645 1709 1703 1635 1717 1628 1644 1697 1660 1688 1655 1639 1654 1638 1658 1657 1710 1660 1708 1670 1616 1630 1651 1743 1747 1730 1702 1714 1635 1656 1678 1615 1678 1607 1595 1637 1670 1608 1680 1644 1648 1579 1679 1609 1608 1593 1641 1625 1590 1633 1657 1658 1723 1689 1767 1698 1648 1640 1645 1643 1741 1775 1642 1570 1714 1685 1651 1669 1646 1664 1629 1645 1763 1652 1626 1657 1732 1640 1683 1710 1730 1646 1693 1654 1655 1635 1591 1616 1689 1560 1639 1694 1670 1625 1659 1690 1683 1663 1613 1682 1680 1612 1650 1645 1600 1713 1677 1614 1600 1672 1738 1619 1633 1606 1578 1544 1634 1604 1742 1664 1669 1561 1605 1542 1538 1561 1670 1643 1669 1650 1651 1668 1654 1688 1748 1700 1616 1545 1655 1669 1628 1596 1540 1615 1541 1709 1605 1701 1715 1584 1598 1688 1642 1688 1664 1704 1682 1707 1689 1621 1620 1661 1661 1698 1679 1672 1567 1622 1586 1602 1580 1682 1688 1696 1657 1662 1575 1662 1640 1700 1658 1572 1679 1672 1585 1604 1674 1695 1715 1637 1677 1635 1697 1678 1701 1655 1642 1648 1667 1644 1684 1628 1679 1622 1646 1623 1555 1624 1626 1668 1611 1688 1713 1660 1686 1664 1647 1628 1639 1608 1636 1655 1694 1686 1706 1681 1730 1756 1686 1666 1697 1587 1540 1757 1675 1615

Tree=0
num_leaves=18
num_cat=0
split_feature=0 1 0 0 22 1 0 0 0 0 1 1 0 7 0 1 13
split_gain=2704.47 2623.21 900.773 2044.07 856.835 830.924 813.163 513.115 456.956 321.132 202.948 226.647 148.93 118.318 113.086 105.935 75.0704
threshold=3215.4901353503187 3865.1734424015472 3346.9401329833022 3215.5169041573422 29.916308500000003 3865.2005304030208 3215.5030947667415 3215.4773534601486 2841.1853581511455 3215.4519349285597 3806.3875598086129 3865.0220872341083 3215.5112502151837 3750.813278716505 3215.4955149337238 3865.1918284784679 14.500000000000002
decision_type=2 2 2 2 2 2 2 2 2 2 2 2 2 2 2 2 2
left_child=7 2 3 6 5 15 14 8 16 -10 13 -12 -8 -4 -2 -3 -1
right_child=1 4 10 -5 -6 -7 12 -9 9 -11 11 -13 -14 -15 -16 -17 -18
leaf_value=7.8367695633109733 7.8521744487251475 7.8234378178037058 7.8538335203815244 7.7060048844794 7.8508508731764053 7.7312664855140589 7.8361829976650803 7.8575452890132844 7.8787768322145171 7.8649695401859425 7.8821811883417983 7.8580060024984801 7.8179990267189714 7.8633917978315253 7.8469192429669494 7.806681735744105 7.8558830843579237
leaf_weight=218 4527 278 1543 39 233 53 1029 7902 846 3467 305 324 228 772 2594 463 125
leaf_count=218 4527 278 1543 39 233 53 1029 7902 846 3467 305 324 228 772 2594 463 125
internal_value=7.85412 7.84749 7.85026 7.84693 7.8169 7.80703 7.84763 7.86066 7.86593 7.8677 7.85977 7.86984 7.8328 7.85701 7.85025 7.81281 7.84382
internal_weight=24946 12388 11361 8417 1027 794 8378 12558 4656 4313 2944 629 1257 2315 7121 741 343
internal_count=24946 12388 11361 8417 1027 794 8378 12558 4656 4313 2944 629 1257 2315 7121 741 343
is_linear=0
shrinkage=1


Tree=1
num_leaves=18
num_cat=0
split_feature=0 1 0 0 22 1 0 0 0 0 19 0 7 2 0 16 1
split_gain=2598.1 2520.78 865.422 1967.18 823.203 799.549 781.136 493.234 430.009 320.934 195.297 143.042 116.348 110.15 108.596 107.434 101.571
threshold=3215.4901353503187 3865.1734424015472 3346.9401329833022 3215.5169041573422 29.916308500000003 3865.2005304030208 3215.5030947667415 3215.4778914184885 2841.1853581511455 3215.4519349285597 2805.8071472114357 3215.5112502151837 3229.7242855669042 4818.5603083700453 3215.4955149337238 52.500000000000007 3865.1918284784679
decision_type=2 2 2 2 2 2 2 2 2 2 2 2 2 2 2 2 2
left_child=7 2 3 6 5 16 14 8 15 -10 12 -8 -4 -12 -2 -1 -3
right_child=1 4 10 -5 -6 -7 11 -9 9 -11 13 -13 -14 -15 -16 -17 -18
leaf_value=0.004771129249678395 -0.0018976623297221327 -0.030063924976757597 -0.0039828903759967114 -0.14528831784318133 -0.0031953040001557226 -0.12047679259560326 -0.017569962554944592 0.0032511628367482615 0.024173854797516228 0.010454344434039402 0.029308421699080003 -0.035395839131396753 0.005975714181624037 0.0063336177514149595 -0.0070478578295288911 -0.018328888981237211 -0.046484583941839075
leaf_weight=121 4527 278 608 39 233 53 1029 7686 846 3683 199 228 1983 154 2594 222 463
leaf_count=121 4527 278 608 39 233 53 1029 7686 846 3683 199 228 1983 154 2594 222 463
internal_value=3.90712e-06 -0.00649252 -0.00377295 -0.00703923 -0.0364726 -0.0461551 -0.00635638 0.00641559 0.0113962 0.0130355 0.00555033 -0.0208862 0.00362215 0.0194902 -0.00378082 -0.0100835 -0.0404754
internal_weight=24946 12388 11361 8417 1027 794 8378 12558 4872 4529 2944 1257 2591 353 7121 343 741
internal_count=24946 12388 11361 8417 1027 794 8378 12558 4872 4529 2944 1257 2591 353 7121 343 741
is_linear=0
shrinkage=0.02


Tree=2
num_leaves=18
num_cat=0
split_feature=0 1 0 0 22 1 0 0 0 0 1 1 0 0 1 17 0
split_gain=2495.92 2422.35 831.455 1893.17 790.89 769.354 750.788 475.017 436.553 280.23 189.188 212.694 129.971 111.404 97.7613 90.1029 76.8699
threshold=3215.4901353503187 3865.1734424015472 3346.9401329833022 3215.5169041573422 29.916308500000003 3865.2005304030208 3215.5036327250823 3215.4769499913932 2841.1853581511455 3215.4454256326394 3806.3875598086129 3865.0355161300226 3215.5112502151837 3215.4955149337238 3865.1943607845546 3835.6093731595142 3215.4843469185748
decision_type=2 2 2 2 2 2 2 2 2 2 2 2 2 2 2 2 2
left_child=7 2 3 6 5 14 13 8 -1 -10 15 -12 -8 -2 -3 -4 -9
right_child=1 4 10 -5 -6 -7 12 16 9 -11 11 -13 -14 -15 -16 -17 -18
leaf_value=-0.0098811247716590334 -0.0018597258403272154 -0.030611724916063707 0.00026646258467690761 -0.14252429334128777 -0.0031319419392879973 -0.11815487725084479 -0.017560789116174293 0.0056392043732192802 0.025769654159470808 0.01118598729790022 0.02637608137517165 0.0029508719944662961 -0.034694077709446783 -0.0070349176638514338 -0.046359691778441223 0.0090479783373089828 0.0017290740741850608
leaf_weight=343 4527 322 1661 39 233 53 964 3632 633 3349 325 304 228 2659 419 654 4601
leaf_count=343 4527 322 1661 39 233 53 964 3632 633 3349 325 304 228 2659 419 654 4601
internal_value=3.11467e-06 -0.00636425 -0.00369822 -0.00689981 -0.0357533 -0.0452439 -0.00622983 0.00628748 0.0116568 0.0135261 0.0054401 0.0151631 -0.0209241 -0.00378167 -0.0396711 0.00277022 0.00345984
internal_weight=24946 12388 11361 8417 1027 794 8378 12558 4325 3982 2944 629 1192 7186 741 2315 8233
internal_count=24946 12388 11361 8417 1027 794 8378 12558 4325 3982 2944 629 1192 7186 741 2315 8233
is_linear=0
shrinkage=0.02


Tree=3
num_leaves=18
num_cat=0
split_feature=1 9 1 13 1 23 1 3 7 26 1 12 1 20 1 9 20
split_gain=1442.94 2239.48 1166.79 610.492 480.865 261.813 235.205 151.224 136.823 151.406 126.566 111.628 173.922 108.564 92.5252 137.225 74.9479
threshold=3865.1490862211858 0.25906744801446252 3865.2005304030208 20.500000000000004 3865.1859965008139 0.37748392343066517 2662.5389763337948 27.500000000000004 2763.0959928229672 1.0000000180025095e-35 3865.1136185886621 2657.303077912688 3865.0220872341083 4383.5390360036627 2662.5771114517524 0.18341004165829713 3201.1212113428992
decision_type=2 2 2 2 2 2 2 2 2 2 2 2 2 2 2 2 2
left_child=3 13 4 5 -3 10 -7 -5 14 -10 11 -1 -13 -2 -8 -16 -11
right_child=1 2 -4 7 -6 6 8 -9 9 16 -12 12 -14 -15 15 -17 -18
leaf_value=0.0013481089695220883 0.0074763766786716057 -0.014143710906750389 -0.13067445093271685 0.0043125195228718698 -0.041329011385677426 0.0070109220616266892 -0.0022318412036756458 0.010639549757304514 -0.044577462940448613 -0.0013371510059401123 -0.0013416535868705317 0.024733580765116631 0.0065110462321545269 -0.023191709201782942 -0.0055866663961369111 -0.016555204317184751 -0.020617870714788031
leaf_weight=1115 968 446 47 5923 653 942 1148 2051 31 6618 1386 257 1180 46 1351 704 80
leaf_count=1115 968 446 47 5923 653 942 1148 2051 31 6618 1386 257 1180 46 1351 704 80
internal_value=2.42899e-06 -0.015611 -0.0347473 0.0014855 -0.0303786 -0.000914205 -0.00251643 0.00594718 -0.00342531 -0.00179671 0.0034989 0.00614248 0.0098277 0.00600284 -0.006831 -0.00937615 -0.00157949
internal_weight=24946 2160 1146 22786 1099 14812 10874 7974 9932 6729 3938 2552 1437 1014 3203 2055 6698
internal_count=24946 2160 1146 22786 1099 14812 10874 7974 9932 6729 3938 2552 1437 1014 3203 2055 6698
is_linear=0
shrinkage=0.02


Tree=4
num_leaves=18
num_cat=0
split_feature=20 3 11 7 19 2 19 2 7 2 3 12 5 7 3 26 41
split_gain=799.902 655.618 543.894 262.072 259.011 159.198 177.494 186.46 113.907 105.688 105.549 86.7211 80.6173 76.491 69.3375 71.9847 66.2572
threshold=4383.5390360036627 21.500000000000004 1777138.234252204 3152.2054244793471 2572.0326220820903 3061.9839030938915 2066.9973806121357 3055.3886645360121 3902.5431034482767 4819.2155947136571 10.500000000000002 2891.7715119656327 3270.3723678146839 2079.1666666666674 10.500000000000002 1.0000000180025095e-35 2090.0000000000005
decision_type=2 2 2 2 2 2 2 2 2 2 2 2 2 2 2 2 2
left_child=1 2 3 10 5 6 7 -4 11 -6 -1 14 -3 -12 -5 -16 -2
right_child=16 12 4 8 9 -7 -8 -9 -10 -11 13 -13 -14 -15 15 -17 -18
leaf_value=-0.0079549556788932156 -0.035710350049118843 0.0062991265550118684 0.010110346825793386 -0.0043775533947809798 0.011873295360269983 -0.03097401683137585 0.0081953224502994033 -0.041358241076054778 0.0067686737291610634 -0.020949897553314858 -0.0087233065548826452 -0.020470518856561065 0.012810758111884066 -0.0012320560556556435 -0.027156669737305492 0.0019364292296247579 -0.019309011509958049
leaf_weight=1281 184 2464 38 792 146 388 112 90 1665 51 588 72 1138 7665 32 7965 275
leaf_count=1281 184 2464 38 792 146 388 112 90 1665 51 588 72 1138 7665 32 7965 275
internal_value=1.83596e-06 0.000494774 -0.000862804 -0.00020547 -0.0167585 -0.0230256 -0.00986065 -0.0258503 0.0019678 0.00304976 -0.00260897 0.00105987 0.00837345 -0.00177261 0.00124541 0.00180825 -0.026097
internal_weight=24946 24487 20885 20060 825 628 240 128 10526 197 9534 8861 3602 8253 8789 7997 459
internal_count=24946 24487 20885 20060 825 628 240 128 10526 197 9534 8861 3602 8253 8789 7997 459
is_linear=0
shrinkage=0.02


Tree=5
num_leaves=18
num_cat=0
split_feature=0 1 22 1 0 0 0 0 0 0 1 1 0 7 0 1 1
split_gain=2375.27 2184.59 759.037 825.016 728.986 1925.82 715.661 446.067 367.948 297.795 166.235 198.429 128.043 114.766 102.249 94.8059 72.3618
threshold=3215.4908024186611 3865.1734424015472 29.916308500000003 3865.2005304030208 3346.9401329833022 3215.5169041573422 3215.5036327250823 3215.4784293768294 2841.1853581511455 3215.4519349285597 3806.3875598086129 3865.0355161300226 3215.5101527801689 3839.3465045592707 3215.4955149337238 3865.1943607845546 3865.1887590165447
decision_type=2 2 2 2 2 2 2 2 2 2 2 2 2 2 2 2 2
left_child=7 4 3 15 5 6 14 8 16 -10 13 -12 -8 -6 -2 -3 -1
right_child=1 2 -4 -5 10 -7 12 -9 9 -11 11 -13 -14 -15 -16 -17 -18
leaf_value=-0.0064625872222795555 -0.0018231903977354261 -0.028791170376483523 -0.0015728604813505496 -0.11757225902456986 -0.00071456309393110018 -0.13881849939172919 -0.016780440351579645 0.0029115537683915265 0.022915042571274632 0.0096696404279543978 0.02548731823177899 0.0024366190358873444 -0.03291964231115399 0.0088044349162123333 -0.0067941617603948894 -0.044317487860410412 -0.037783963925698223
leaf_weight=294 4469 319 222 55 1567 42 937 7552 828 3954 304 301 262 742 2659 416 32
leaf_count=294 4469 319 222 55 1567 42 937 7552 828 3954 304 301 262 742 2659 416 32
internal_value=-7.09762e-05 -0.00633327 -0.0344582 -0.0436216 -0.00380147 -0.00680282 -0.00609898 0.00600765 0.0105744 0.0119801 0.00480342 0.0141308 -0.0203894 0.00233204 -0.00368454 -0.0377295 -0.00987067
internal_weight=24955 12295 1012 790 11283 8369 8327 12660 5108 4782 2914 605 1199 2309 7128 735 326
internal_count=24955 12295 1012 790 11283 8369 8327 12660 5108 4782 2914 605 1199 2309 7128 735 326
is_linear=0
shrinkage=0.02


Tree=6
num_leaves=18
num_cat=0
split_feature=1 9 1 13 1 23 1 7 3 1 16 1 30 15 1 1 14
split_gain=1311.12 2079.06 1114.69 530.895 428.799 247.91 227.246 129.063 128.587 112.05 94.195 92.091 123.276 89.7764 160.358 75.9147 218.896
threshold=3865.1490862211858 0.25906744801446252 3865.2005304030208 20.500000000000004 3865.1859965008139 0.37748392343066517 2662.5389763337948 2763.0959928229672 27.500000000000004 3865.1151533196235 183.50000000000003 2662.5771114517524 363.50000000000006 -77.285429499999978 3865.0355161300226 3263.5172097292339 3734.866566168294
decision_type=2 2 2 2 2 2 2 2 2 2 2 2 2 2 2 2 2
left_child=3 10 4 5 -3 9 -7 11 -5 13 -2 -8 -13 -1 -15 -9 -17
right_child=1 2 -4 8 -6 6 7 15 -10 -11 -12 12 -14 14 -16 16 -18
leaf_value=0.0013187251612003525 0.0074442531247213839 -0.013375926184709426 -0.12355872900980824 0.0039963526780160737 -0.039367188562644768 0.0068826412834841399 -0.0021197083640868801 -0.00078262730640260569 0.0098624622754354269 -0.0016037997264516436 -0.022656637180683226 -0.0056683051888639256 -0.0161794500786092 0.022328071436861104 0.0056738692637456579 -0.0032093446962407199 -0.029670914147101657
leaf_weight=1161 942 430 51 5932 650 944 1145 5525 2022 1247 41 1334 687 283 1315 1106 140
leaf_count=1161 942 430 51 5932 650 944 1145 5525 2022 1247 41 1334 687 283 1315 1106 140
internal_value=-7.02973e-05 -0.0151329 -0.033605 0.00132324 -0.0290996 -0.000903292 -0.00247134 -0.00336519 0.00549472 0.00334494 0.00610471 -0.00670196 -0.0092736 0.00559568 0.00867249 -0.00179755 -0.00625739
internal_weight=24955 2114 1131 22841 1080 14887 10881 9937 7954 4006 983 3166 2021 2759 1598 6771 1246
internal_count=24955 2114 1131 22841 1080 14887 10881 9937 7954 4006 983 3166 2021 2759 1598 6771 1246
is_linear=0
shrinkage=0.02


Tree=7
num_leaves=18
num_cat=0
split_feature=0 1 12 0 0 0 0 1 9 0 0 1 1 0 26 0 16
split_gain=2230.39 2015.34 698.615 685.102 1847.48 674.147 424.323 414.086 404.488 378.012 245.784 156.786 187.595 118.55 109.409 102.282 97.0068
threshold=3215.4908024186611 3865.1734424015472 2657.303077912688 3346.9401329833022 3215.5169041573422 3215.5041706834227 3215.4761699517994 3865.2005304030208 0.0011091412452075 2841.1853581511455 3215.443058615941 3806.3875598086129 3865.0355161300226 3215.5112502151837 2955.0000000000005 3215.4969351437426 52.500000000000007
decision_type=2 2 2 2 2 2 2 2 2 2 2 2 2 2 2 2 2
left_child=6 3 -3 4 5 15 9 -4 -9 16 -11 14 -13 -7 -5 -2 -1
right_child=1 2 7 11 -6 13 -8 8 -10 10 -12 12 -14 -15 -16 -17 -18
leaf_value=0.005416240600988621 -0.0021153720446566416 0.00055604966489052532 -0.036263923366810606 -0.0047837762941013683 -0.13591859687458385 -0.016715400834152207 0.003196620506420873 -0.022279963572509588 -0.11785213546932868 0.024619045412883338 0.010540365037894009 0.02473667775688608 0.0023205627277017057 -0.032876465980671656 0.004929943181174015 -0.0073980960736088853 -0.017360798247141519
leaf_weight=109 5110 196 735 636 42 901 8381 30 51 589 3364 304 301 240 1673 2076 217
leaf_count=109 5110 196 735 636 42 901 8381 30 51 589 3364 304 301 240 1673 2076 217
internal_value=-6.93092e-05 -0.00613767 -0.0331514 -0.00370575 -0.00661541 -0.00592594 0.00582097 -0.0412783 -0.0843268 0.0109479 0.0126596 0.00463586 0.0136945 -0.0202013 0.00223523 -0.00364872 -0.00963662
internal_weight=24955 12295 1012 11283 8369 8327 12660 816 81 4279 3953 2914 605 1141 2309 7186 326
internal_count=24955 12295 1012 11283 8369 8327 12660 816 81 4279 3953 2914 605 1141 2309 7186 326
is_linear=0
shrinkage=0.02


Tree=8
num_leaves=18
num_cat=0
split_feature=0 1 12 0 0 0 0 0 1 9 1 0 1 1 0 7 16
split_gain=2143.99 1930.97 691.472 631.294 1785.56 669.487 385.218 409.297 376.358 197.72 267.406 186.98 150.652 180.643 134.761 108.087 93.2454
threshold=3215.4897265019799 3865.1734424015472 2657.303077912688 3346.9401329833022 3215.5169041573422 3215.5025568084006 3215.4740934326051 2841.1853581511455 3865.1985812946996 0.0011091412452075 3865.2005304030208 3215.4339133241524 3806.3875598086129 3865.0151809447807 3215.5101527801689 3839.3465045592707 52.500000000000007
decision_type=2 2 2 2 2 2 2 2 2 2 2 2 2 2 2 2 2
left_child=6 3 -3 4 5 -2 7 16 -4 -10 -11 -9 15 -14 -7 -5 -1
right_child=1 2 8 12 -6 14 -8 11 9 10 -12 -13 13 -15 -16 -17 -18
leaf_value=0.0053098675934178333 -0.0031737624417373608 0.00050622073123636458 -0.033423146909817472 -0.00076587387321233743 -0.13332378734241832 -0.015284810622679793 0.003729299109913898 0.026183849475600502 -0.020576362273354524 -0.052302713765726462 -0.11558403775377095 0.011927374038392559 0.025680280724422636 0.0035299694076837865 -0.031536070839925247 0.0084719830050830423 -0.017016753197741187
leaf_weight=109 7385 205 660 1567 42 1082 8926 438 32 75 51 2557 267 338 262 742 217
leaf_count=109 7385 205 660 1567 42 1082 8926 438 32 75 51 2557 267 338 262 742 217
internal_value=-6.84636e-05 -0.00582452 -0.0321504 -0.0035112 -0.0061923 -0.00554562 0.00590097 0.0117201 -0.0403646 -0.0683304 -0.0796349 0.0140417 0.00454379 0.0134237 -0.0185247 0.00219018 -0.00944291
internal_weight=24955 12708 1023 11685 8771 8729 12247 3321 818 158 126 2995 2914 605 1344 2309 326
internal_count=24955 12708 1023 11685 8771 8729 12247 3321 818 158 126 2995 2914 605 1344 2309 326
is_linear=0
shrinkage=0.02


Tree=9
num_leaves=18
num_cat=0
split_feature=0 1 0 0 12 0 0 1 1 0 0 15 1 0 16 1 7
split_gain=2062.89 1819.94 709.763 1688.4 632.254 568.926 460.095 397.009 335.002 316.935 274.16 146.361 114.257 109.318 89.6305 88.9583 88.1035
threshold=3215.4914910053367 3865.1734424015472 3346.9401329833022 3215.5169041573422 2657.303077912688 3215.5041706834227 3215.4795590893441 3865.2005304030208 3895.3431372549026 2841.1853581511455 3215.4558351265282 -80.247264999999985 3865.0969053684898 3215.5112502151837 52.500000000000007 3865.1943607845546 3839.3465045592707
decision_type=2 2 2 2 2 2 2 2 2 2 2 2 2 2 2 2 2
left_child=6 2 3 5 -3 -2 9 15 -9 14 -11 16 -13 -7 -1 -6 -4
right_child=1 4 11 -5 7 13 -8 8 -10 10 -12 12 -14 -15 -16 -17 -18
leaf_value=0.005205583673280975 -0.0040356073078787295 0.0005747522371045003 -0.0013224744070625843 -0.13077851208773525 -0.026210139596202293 -0.0160688955218821 0.0022147620501203197 -0.11496651992797852 -0.027856678975855604 0.02027996087658639 0.0085985721779936186 0.014298010762960053 -0.0043626495914605374 -0.031598861582023054 -0.016679526226399424 -0.041196980020075893 0.0077993082779225292
leaf_weight=109 6155 190 1401 42 319 901 8377 48 32 1018 3977 757 154 240 217 416 602
leaf_count=109 6155 190 1401 42 319 901 8377 48 32 1018 3977 757 154 240 217 416 602
internal_value=-6.76675e-05 -0.00641181 -0.00388645 -0.00720417 -0.0320744 -0.00645168 0.0051432 -0.0397176 -0.0821397 0.00974343 0.0109945 0.00445369 0.0110971 -0.0194201 -0.00925304 -0.0348355 0.00140416
internal_weight=24955 11257 10252 7338 1005 7296 13698 815 80 5321 4995 2914 911 1141 326 735 2003
internal_count=24955 11257 10252 7338 1005 7296 13698 815 80 5321 4995 2914 911 1141 326 735 2003
is_linear=0
shrinkage=0.02


Tree=10
num_leaves=18
num_cat=0
split_feature=0 1 0 0 0 22 1 0 0 0 1 1 0 0 0 1 7
split_gain=2015.32 1808.43 624.217 1739.38 641.469 605.355 607.396 376.723 367.571 189.239 136.415 179.621 134.989 87.0695 85.4802 83.1398 83.0087
threshold=3215.4897265019799 3865.1734424015472 3346.9401329833022 3215.5169041573422 3215.5025568084006 29.916308500000003 3865.2005304030208 3215.4740934326051 2841.1853581511455 3215.4339133241524 3864.7408674056137 3865.0029030970877 3215.5101527801689 3215.4837121277333 3215.495025391634 3865.1918284784679 3746.1908770375626
decision_type=2 2 2 2 2 2 2 2 2 2 2 2 2 2 2 2 2
left_child=7 2 3 4 14 6 15 8 -1 -10 16 -12 -6 -9 -2 -3 -4
right_child=1 5 10 -5 12 -7 -8 13 9 -11 11 -13 -14 -15 -16 -17 -18
leaf_value=-0.0082809325813689976 -0.0013135683487568192 -0.024739052158362453 -0.00020179563176728064 -0.12868179238360861 -0.014650959772092326 -0.002949256085657648 -0.10103421882788341 0.0054902261815246755 0.025538653587562993 0.011454383314354961 0.026118888783739858 0.003916660237975501 -0.030531517105443138 0.0015265581907714591 -0.0057347368714692716 -0.039508305246179758 0.0078414586523783969
leaf_weight=339 4591 281 1548 44 1078 243 58 4613 454 2641 249 362 278 4338 2858 460 759
leaf_count=339 4591 281 1548 44 1078 243 58 4613 454 2641 249 362 278 4338 2858 460 759
internal_value=-7.53725e-06 -0.00557086 -0.00332821 -0.00597512 -0.00532831 -0.0308033 -0.0391961 0.00574299 0.0113783 0.0135485 0.00468359 0.0130857 -0.0179763 0.00357452 -0.00301632 -0.0340431 0.0024316
internal_weight=25194 12809 11767 8849 8805 1042 799 12385 3434 3095 2918 611 1356 8951 7449 741 2307
internal_count=25194 12809 11767 8849 8805 1042 799 12385 3434 3095 2918 611 1356 8951 7449 741 2307
is_linear=0
shrinkage=0.02


Tree=11
num_leaves=18
num_cat=0
split_feature=0 4 0 0 0 0 0 0 0 16 0 0 14 11 16 0 7
split_gain=1936.32 758.465 1800.06 963.432 1678.39 351.152 353.116 309.301 301.516 202.418 181.748 137.677 136.729 115.825 85.2014 78.7579 67.1303
threshold=3215.4894575228095 3422.1258889322412 3215.5053272938544 3346.9401329833022 3215.5169041573422 3215.4740934326051 2841.1853581511455 3215.5127887760377 3816.295737467402 183.50000000000003 3215.4339133241524 3215.497177224996 3510.4935666495116 156069.02842463375 52.500000000000007 3215.4832710018941 3746.1908770375626
decision_type=2 2 2 2 2 2 2 2 2 2 2 2 2 2 2 2 2
left_child=5 2 11 4 7 6 14 -4 -5 13 -8 -2 -11 16 -1 -7 -3
right_child=1 9 3 8 -6 15 10 -9 -10 12 -12 -13 -14 -15 -16 -17 -18
leaf_value=0.0054735458580682343 -0.0017821095522637335 0.00053111537619055394 -0.019098106592162063 0.0013220936084947983 -0.11974348300840797 0.0056920840280214784 0.025030120838629571 -0.037195005912378613 -0.053469500541687011 0.0119093053970162 0.011225469055790997 -0.0077258086545529386 -0.028401032916638029 0.013991097323869895 -0.015349029814038011 0.0018558010002934873 0.0084792435307745589
leaf_weight=116 6046 1181 935 596 80 3932 454 662 41 44 2641 2113 117 543 223 4797 673
leaf_count=116 6046 1181 935 596 80 3932 454 662 41 44 2641 2113 117 543 223 4797 673
internal_value=-7.9195e-06 -0.00536585 -0.00775162 -0.023316 -0.0312635 0.00572903 0.011151 -0.0266619 -0.00229824 0.00438479 0.0132782 -0.00332781 -0.0171282 0.0058595 -0.00811629 0.00358935 0.00344386
internal_weight=25194 13031 10473 2314 1677 12163 3434 1597 637 2558 3095 8159 161 2397 339 8729 1854
internal_count=25194 13031 10473 2314 1677 12163 3434 1597 637 2558 3095 8159 161 2397 339 8729 1854
is_linear=0
shrinkage=0.02


Tree=12
num_leaves=18
num_cat=0
split_feature=0 1 0 0 46 0 0 1 0 0 15 1 0 0 0 1 1
split_gain=1861.01 1635.76 693.431 1579.48 524.411 512.511 442.55 413.062 276.21 251.675 128.505 100.582 93.2953 80.8438 80.0626 77.0497 73.105
threshold=3215.4917976415909 3865.1734424015472 3346.9401329833022 3215.5169041573422 1.0000000180025095e-35 3215.5053272938544 3215.4788866414187 3865.2005304030208 2841.1853581511455 3215.454893699432 -80.476651999999987 3865.1027219988341 3215.4982531416767 3346.9401329833022 3215.5116752022727 3865.1943607845546 3806.3875598086129
decision_type=2 2 2 2 2 2 2 2 2 2 2 2 2 2 2 2 2
left_child=6 2 3 5 7 12 8 15 -1 -10 -4 16 -2 -6 -7 -3 -12
right_child=1 4 10 -5 13 14 -8 -9 9 -11 11 -13 -14 -15 -16 -17 -18
leaf_value=-0.0079527720323657267 -0.0027526463133782943 -0.024626481734216214 0.0014000040487016749 -0.12392930746078491 -0.026116328506275665 -0.016547061431301809 0.0020716562803585977 -0.082834014312426249 0.019574621187513741 0.0082937273268809415 0.0064407486957640215 -0.0047121620944559281 -0.0084053549410714311 0.0045762672971287176 -0.030502175609270734 -0.038584579854853016 0.018285915376159822
leaf_weight=339 4584 318 1897 44 41 672 8882 73 1003 3908 407 149 1586 165 238 423 465
leaf_count=339 4584 318 1897 44 41 672 8882 73 1003 3908 407 149 1586 165 238 423 465
internal_value=-7.97902e-06 -0.00615281 -0.00369419 -0.00705941 -0.0302644 -0.00629265 0.00479933 -0.037465 0.00940386 0.0106129 0.00450714 0.010227 -0.00421441 -0.00153253 -0.0202996 -0.0327307 0.0128304
internal_weight=25194 11062 10042 7124 1020 7080 14132 814 5250 4911 2918 1021 6170 206 910 741 872
internal_count=25194 11062 10042 7124 1020 7080 14132 814 5250 4911 2918 1021 6170 206 910 741 872
is_linear=0
shrinkage=0.02


Tree=13
num_leaves=18
num_cat=0
split_feature=1 9 1 13 1 23 1 3 7 16 1 30 1 15 1 26 20
split_gain=974.116 1581.63 930.588 425.057 377.893 193.865 177.558 111.539 99.2825 93.3379 82.5945 95.2016 80.8447 87.6877 116.84 72.5573 68.3003
threshold=3865.14570981307 0.25906744801446252 3865.2005304030208 20.500000000000004 3865.1859965008139 0.37748392343066517 2662.535985344151 27.500000000000004 2722.9003378378379 183.50000000000003 2662.5808501888064 363.50000000000006 3865.1119457319137 -85.729481499999991 3865.0029030970877 1.0000000180025095e-35 3201.1212113428992
decision_type=2 2 2 2 2 2 2 2 2 2 2 2 2 2 2 2 2
left_child=3 9 4 5 -3 12 -7 -5 10 -2 -8 -12 13 -1 -15 -10 -17
right_child=1 2 -4 7 -6 6 8 -9 15 -11 11 -13 -14 14 -16 16 -18
leaf_value=0.0010718645074809699 0.0065852887094744045 -0.01103278580560722 -0.10882838812741367 0.0035535039227230958 -0.034273363512225839 0.0067020905976038292 -0.0018494992029324249 0.0090041282850926597 -0.029948842576510894 -0.022099999493740974 -0.0052051665519393655 -0.014970762261933689 -0.00083560897929191552 0.022618641848971204 0.0061036704140305011 -0.0011920290503918296 -0.018763582295324238
leaf_weight=1148 1016 505 53 6013 652 837 1220 2026 34 45 1167 625 1359 203 1167 7036 88
leaf_count=1148 1016 505 53 6013 652 837 1220 2026 34 45 1167 625 1359 203 1167 7036 88
internal_value=-8.401e-06 -0.0124984 -0.0281138 0.00122823 -0.0242005 -0.000771028 -0.0021278 0.00493405 -0.00285961 0.00529174 -0.00590962 -0.00864633 0.00306971 0.00519232 0.00860934 -0.00156933 -0.0014199
internal_weight=25194 2271 1210 22923 1157 14884 11007 8039 10170 1061 3012 1792 3877 2518 1370 7158 7124
internal_count=25194 2271 1210 22923 1157 14884 11007 8039 10170 1061 3012 1792 3877 2518 1370 7158 7124
is_linear=0
shrinkage=0.02


Tree=14
num_leaves=18
num_cat=0
split_feature=0 4 0 0 0 0 0 0 0 16 0 0 14 11 16 0 7
split_gain=1752.94 686.473 1618.08 922.771 1502.06 321.431 325.005 273.529 240.651 184.852 165.276 142.816 124.973 104.914 80.3835 73.4562 63.6396
threshold=3215.4894575228095 3422.1258889322412 3215.5064301084526 3346.9401329833022 3215.5169041573422 3215.4731304871752 2841.1853581511455 3816.295737467402 3215.5133052160445 183.50000000000003 3215.4296096574285 3215.4980594766744 3510.4935666495116 156069.02842463375 52.500000000000007 3215.4832710018941 3746.1908770375626
decision_type=2 2 2 2 2 2 2 2 2 2 2 2 2 2 2 2 2
left_child=5 2 11 4 8 6 14 -5 -4 13 -8 -2 -11 16 -1 -7 -3
right_child=1 9 3 7 -6 15 10 -9 -10 12 -12 -13 -14 -15 -16 -17 -18
leaf_value=0.0054369855090044437 -0.001921699398022009 0.00044215160601422828 -0.019389036826722258 0.0012102690423173204 -0.11442955493927003 0.0054360356933626907 0.024595283906047163 -0.050973608493804931 -0.036069027040643423 0.011347772756024548 0.010886959556679364 -0.0083165761524079639 -0.027168031981011399 0.013319378044422066 -0.014784441935684947 0.0017470849020973082 0.0081808860237261756
leaf_weight=116 6481 1181 886 596 80 3996 414 41 599 44 2617 1790 117 543 223 4797 673
leaf_count=116 6481 1181 886 596 80 3996 414 41 599 44 2617 1790 117 543 223 4797 673
internal_value=-8.63518e-06 -0.00510663 -0.00737642 -0.0226072 -0.0308604 0.00544983 0.0107057 -0.00223494 -0.0261836 0.00416923 0.0127875 -0.00331218 -0.0163865 0.00557908 -0.00775641 0.00342894 0.00327864
internal_weight=25194 13031 10473 2202 1565 12163 3370 637 1485 2558 3031 8271 161 2397 339 8793 1854
internal_count=25194 13031 10473 2202 1565 12163 3370 637 1485 2558 3031 8271 161 2397 339 8793 1854
is_linear=0
shrinkage=0.02


Tree=15
num_leaves=18
num_cat=0
split_feature=1 9 1 13 1 23 1 3 1 7 20 1 30 22 1 1 20
split_gain=932.671 1583.32 774.79 390.337 219.293 159.648 167.906 107.691 93.8608 85.2059 77.1711 67.2526 79.8859 61.8401 122.204 61.2653 137.071
threshold=3865.152155683109 0.25906744801446252 3865.2005304030208 20.500000000000004 3865.1887590165447 0.37748392343066517 2662.535985344151 27.500000000000004 3865.1175014579949 2763.0959928229672 4383.5390360036627 2662.5729053725659 363.50000000000006 35.018003000000007 3865.0355161300226 3263.5172097292339 2359.6522139741146
decision_type=2 2 2 2 2 2 2 2 2 2 2 2 2 2 2 2 2
left_child=3 10 4 5 -3 8 -7 -5 13 11 -2 -8 -13 14 -1 -11 -17
right_child=1 2 -4 7 -6 6 9 -9 -10 15 -12 12 -14 -15 -16 16 -18
leaf_value=0.019018692095664768 0.0062698718025198863 -0.015481615360630186 -0.10573365491170149 0.0033344969876292099 -0.034610116255956488 0.0065151680353809803 -0.0013260095387630636 0.0086614848058011989 -0.0017573240280632915 -0.00057142583060852984 -0.019566612821072339 -0.004453550263215064 -0.012544276899369598 0.0011251474231966129 0.004613853144694877 -0.0025676817841606019 -0.02081657748688296
leaf_weight=289 959 454 50 6013 547 848 1089 2055 1317 5653 46 1341 792 1155 1331 1058 195
leaf_count=289 959 454 50 6013 547 848 1089 2055 1317 5653 46 1341 792 1155 1331 1058 195
internal_value=0 -0.0129021 -0.0300463 0.00114782 -0.0260225 -0.000750862 -0.00200985 0.0046981 0.00261568 -0.00272872 0.00501107 -0.0054181 -0.00748537 0.00470526 0.00722855 -0.001467 -0.00546821
internal_weight=25192 2056 1051 23136 1001 15068 10976 8068 4092 10128 1005 3222 2133 2775 1620 6906 1253
internal_count=25192 2056 1051 23136 1001 15068 10976 8068 4092 10128 1005 3222 2133 2775 1620 6906 1253
is_linear=0
shrinkage=0.02


Tree=16
num_leaves=18
num_cat=0
split_feature=0 1 0 0 46 0 0 1 0 0 15 1 0 1 1 0 21
split_gain=1626.35 1366.4 590.547 1385.68 461.633 448.47 387.897 376.175 255.135 230.242 125.609 114.645 99.3971 73.652 66.5803 65.8683 77.709
threshold=3215.4917976415909 3865.1816992541212 3346.9401329833022 3215.5169041573422 1.0000000180025095e-35 3215.5041706834227 3215.4795590893441 3865.2005304030208 2841.1853581511455 3215.4570455327944 -80.247264999999985 3865.0942195893062 3215.5112502151837 2662.4808389725954 3865.1734424015472 3815.6321964647932 6.5000000000000009
decision_type=2 2 2 2 2 2 2 2 2 2 2 2 2 2 2 2 2
left_child=6 2 3 5 7 -2 8 -3 14 -10 13 -12 -7 -4 -1 -15 -17
right_child=1 4 10 -5 -6 12 -8 -9 9 -11 11 -13 -14 15 -16 16 -18
leaf_value=-0.0044143283387636737 -0.0037535332341688825 -0.031238533552568434 0.01654313745169804 -0.1186537778377533 -0.0010101925570289699 -0.014206736273108384 0.0018737998742547842 -0.082112855866099857 0.018018273949073755 0.0075713099209846488 0.013356216129388523 -0.0042697605366443497 -0.028939476486079946 0.0060412622801992088 -0.031137873977422716 -0.0044304472476612081 0.0084411019820150365
leaf_weight=297 5916 687 114 42 194 934 8785 64 1083 3983 762 178 240 534 42 1115 222
leaf_count=297 5916 687 114 42 194 934 8785 64 1083 3983 762 178 240 534 42 1115 222
internal_value=0 -0.00577073 -0.00360278 -0.00670802 -0.0287442 -0.00600596 0.00447411 -0.0358337 0.00869087 0.00981876 0.00395446 0.00997409 -0.0172966 0.00107656 -0.00800572 9.61633e-05 -0.00225392
internal_weight=25192 11002 10057 7132 945 7090 14190 751 5405 5066 2925 940 1174 1985 339 1871 1337
internal_count=25192 11002 10057 7132 945 7090 14190 751 5405 5066 2925 940 1174 1985 339 1871 1337
is_linear=0
shrinkage=0.02


Tree=17
num_leaves=18
num_cat=0
split_feature=0 1 0 0 0 22 1 0 0 0 0 15 1 1 0 1 1
split_gain=1565.94 1353.58 460.145 1366.2 500.934 436.684 476.229 285.778 307.78 148.269 135.657 129.039 94.1653 70.7794 67.4329 66.3261 66.1696
threshold=3215.4894575228095 3865.1734424015472 3346.9401329833022 3215.5169041573422 3215.5017229729729 29.916308500000003 3865.2005304030208 3215.4731304871752 2841.1853581511455 3215.4378135221214 3215.5096040626618 -80.247264999999985 3865.0880806654595 2662.4808389725954 3215.4843469185748 3865.194897940391 3806.3875598086129
decision_type=2 2 2 2 2 2 2 2 2 2 2 2 2 2 2 2 2
left_child=7 2 3 4 -2 6 15 8 -1 -10 -6 13 16 -4 -9 -3 -13
right_child=1 5 11 -5 10 -7 -8 14 9 -11 -12 12 -14 -15 -16 -17 -18
leaf_value=-0.0078521223560172274 -0.0023650595189927139 -0.02458779529169882 0.016217979151627114 -0.11638856942003424 -0.011730906804373473 -0.0022014681283612308 -0.091247520186684347 0.0048732823591048514 0.021634873443276345 0.010015602596360022 -0.026642034425363913 0.0060770890247506598 -0.0029813947327584694 9.4454711530848876e-05 0.0013578584744118813 -0.037951758499432324 0.018321575949543631
leaf_weight=339 7328 480 114 42 1359 227 53 4746 546 2473 306 323 173 1871 4116 264 432
leaf_count=339 7328 480 114 42 1359 227 53 4746 546 2473 306 323 173 1871 4116 264 432
internal_value=0 -0.00484004 -0.00294271 -0.00517301 -0.00462339 -0.0268901 -0.0338487 0.00513639 0.0101092 0.0121432 -0.014524 0.00395989 0.0101128 0.00105596 0.00324571 -0.0294725 0.0131659
internal_weight=25192 12972 11948 9035 8993 1024 797 12220 3358 3019 1665 2913 928 1985 8862 744 755
internal_count=25192 12972 11948 9035 8993 1024 797 12220 3358 3019 1665 2913 928 1985 8862 744 755
is_linear=0
shrinkage=0.02


Tree=18
num_leaves=18
num_cat=0
split_feature=1 9 1 1 1 1 1 18 9 1 14 1 16 14 1 1 25
split_gain=831.32 1303.17 741.491 298.218 360.297 268.649 181.733 187.444 111.426 139.429 102.634 88.3749 85.9073 80.9715 71.7638 487.43 140.401
threshold=3865.1490862211858 0.25906744801446252 3865.2005304030208 3647.7408142999011 3865.0742680868048 3865.1859965008139 2662.5172916588781 3121.1606116433313 0.0094451673755272022 3864.9438159550637 2758.9019627681105 3263.4636137153352 183.50000000000003 3691.4520040847592 3278.6390685613301 3263.6201403002692 0.62295716272612123
decision_type=2 2 2 2 2 2 2 2 2 2 2 2 2 2 2 2 2
left_child=3 -2 5 6 8 -3 -1 10 -5 -10 -8 13 -12 -9 15 -13 -17
right_child=1 2 -4 4 -6 -7 7 11 9 -11 12 14 -14 -15 -16 16 -18
leaf_value=0.0088704550853766859 0.0047463459418041502 -0.010557957984540494 -0.10052150501654698 0.0027139349868461394 0.001653268798363714 -0.030910662836458606 0.0071505974163139233 -0.00025806399796639019 0.024244767266207945 0.010639329584463605 -0.0026497073760967734 -0.00069543521494456215 -0.026941533730191699 0.0079527456813981261 0.0023868316084838075 -0.023617859908512662 -0.086259392680543848
leaf_weight=835 1005 444 50 388 4030 659 429 699 449 991 9591 1507 57 1471 2523 33 31
leaf_count=835 1005 444 50 388 4030 659 429 699 449 991 9591 1507 57 1471 2523 33 31
internal_value=0 -0.011865 -0.0263618 0.00111129 0.00500745 -0.0227881 -0.000215629 -0.00068339 0.0123703 0.0149371 -0.00237387 0.00202963 -0.00280292 0.00529166 0.0002891 -0.00305314 -0.0562604
internal_weight=25192 2158 1153 23034 5858 1103 17176 16341 1828 1440 10077 6264 9648 2170 4094 1571 64
internal_count=25192 2158 1153 23034 5858 1103 17176 16341 1828 1440 10077 6264 9648 2170 4094 1571 64
is_linear=0
shrinkage=0.02


Tree=19
num_leaves=18
num_cat=0
split_feature=0 1 0 0 0 12 0 0 1 0 1 1 15 1 0 16 0
split_gain=1473.48 1211.22 534.593 1268.07 410.884 394.057 347.725 235.668 216.358 203.4 167.106 161.248 111.784 102.921 75.9522 72.2772 71.2005
threshold=3215.4917976415909 3865.1816992541212 3346.9401329833022 3215.5169041573422 3215.5053272938544 2633.9524150318216 3215.4788866414187 2841.1853581511455 3865.1985812946996 3215.4482337751765 3895.3431372549026 3865.2005304030208 -80.247264999999985 3865.0996064949818 3215.4982531416767 52.500000000000007 3215.5116752022727
decision_type=2 2 2 2 2 2 2 2 2 2 2 2 2 2 2 2 2
left_child=6 2 3 4 14 -3 7 15 -7 -9 11 -10 -4 -14 -2 -1 -6
right_child=1 5 12 -5 16 8 -8 9 10 -11 -12 -13 13 -15 -16 -17 -18
leaf_value=0.0050759226062699501 -0.0024981605288155856 2.9322590636110856e-05 0.0010209837552572136 -0.1134991998022253 -0.014750653428523814 -0.027607954938565535 0.0018599887133189056 0.018793687664094519 -0.043966093802116295 0.0076645498546660598 -0.016336259880080455 -0.095990380802933054 0.012367482142361105 -0.0052429275904859228 -0.007568095900067854 -0.014203381343058458 -0.028028901893499113
leaf_weight=113 4530 172 1985 42 712 618 8963 791 69 4097 39 47 785 155 1621 226 227
leaf_count=113 4530 172 1985 42 712 618 8963 791 69 4097 39 47 785 155 1621 226 227
internal_value=0 -0.00549411 -0.00345268 -0.00640724 -0.00573537 -0.0271243 0.00425737 0.00835834 -0.0332024 0.00948065 -0.0546172 -0.0666536 0.00373719 0.00941621 -0.00384279 -0.00766757 -0.0180559
internal_weight=25192 11002 10057 7132 7090 945 14190 5227 773 4888 155 116 2925 940 6151 339 939
internal_count=25192 11002 10057 7132 7090 945 14190 5227 773 4888 155 116 2925 940 6151 339 939
is_linear=0
shrinkage=0.02


Tree=20
num_leaves=18
num_cat=0
split_feature=0 1 0 0 12 0 0 1 0 0 5 9 1 7 0 0 16
split_gain=1446.59 1152.65 586.866 1292.58 443.014 381.241 363.143 261.845 195.245 239.332 116.192 106.603 145.052 83.6287 73.7023 69.5618 68.1573
threshold=3215.4926314770187 3865.1816992541212 3346.9401329833022 3215.5169041573422 2633.9524150318216 3215.4812160010329 3215.5053272938544 3865.1985812946996 2841.1853581511455 3215.4602732828375 4308.6239815480485 0.0011091412452075 3865.2005304030208 3229.7242855669042 3346.9401329833022 3215.5116752022727 52.500000000000007
decision_type=2 2 2 2 2 2 2 2 2 2 2 2 2 2 2 2 2
left_child=5 2 3 6 14 8 -2 -6 16 -10 13 -9 -13 -4 -3 -8 -1
right_child=1 4 10 -5 7 -7 15 11 9 -11 -12 12 -14 -15 -16 -17 -18
leaf_value=0.0049531155127789019 -0.0042532729906430587 -0.021852996281602165 -0.0044738233662792483 -0.11278425900832467 -0.027141597112655638 0.0011698497183349078 -0.014408779230255346 -0.021035613821021149 0.016035893775664355 0.0063346555131085051 0.013600677345015542 -0.043018403450647995 -0.090664712573800765 0.0041579515569156369 0.0075766859116070222 -0.027392796094600973 -0.013938662088389888
leaf_weight=113 5315 42 582 44 623 8603 726 33 1313 4665 412 70 54 1900 147 232 214
leaf_count=113 5315 42 582 44 623 8603 726 33 1313 4665 412 70 54 1900 147 232 214
internal_value=-5.28613e-05 -0.00586552 -0.00367479 -0.00709325 -0.0265982 0.00391391 -0.00630983 -0.0332408 0.00765021 0.00847676 0.00377293 -0.0565459 -0.0651948 0.00211583 0.000666986 -0.0176453 -0.00729831
internal_weight=25088 10180 9211 6317 969 14908 6273 780 6305 5978 2894 157 124 2482 189 958 327
internal_count=25088 10180 9211 6317 969 14908 6273 780 6305 5978 2894 157 124 2482 189 958 327
is_linear=0
shrinkage=0.02


Tree=21
num_leaves=18
num_cat=0
split_feature=0 1 12 0 0 0 1 0 0 29 0 0 0 33 7 1 16
split_gain=1392.61 1187.66 440.888 387.029 1299.51 475.81 260.953 232.849 269.65 133.586 152.355 123.157 121.29 111.174 84.7748 69.6644 65.5169
threshold=3215.4885698915477 3865.1734424015472 2633.9524150318216 3346.9401329833022 3215.5169041573422 3215.5009429333795 3865.1985812946996 3215.4721083663285 2841.1853581511455 62.500000000000007 3215.5169041573422 3215.4250370115346 3215.5096040626618 11.500000000000002 3229.7242855669042 3864.9745105742968 52.500000000000007
decision_type=2 2 2 2 2 2 2 2 2 2 2 2 2 2 2 2 2
left_child=7 3 -3 4 5 -2 -4 8 16 -8 -11 -10 -7 14 -5 -15 -1
right_child=1 2 6 13 -6 12 9 -9 11 10 -12 -13 -14 15 -16 -17 -18
leaf_value=0.0048557760560804086 -0.0019739663086846843 0.00046543361212719568 -0.025604228435984092 -0.0042593276993310092 -0.11062664716140085 -0.010975204734937518 -0.017054005823526029 0.0033910198846235206 0.022720510050455733 -0.041533110723475042 -0.089790842344886393 0.010211997663938779 -0.024869825392491433 0.023384060527790677 0.0043607210261717277 0.0046991507559554814 -0.013662470013800044
leaf_weight=113 8009 218 679 589 44 1408 35 8359 373 70 55 2317 315 174 1956 160 214
leaf_count=113 8009 218 679 589 44 1408 35 8359 373 70 55 2317 315 174 1956 160 214
internal_value=-5.24213e-05 -0.00434568 -0.0246965 -0.00263911 -0.00453887 -0.00403249 -0.0312675 0.00511878 0.00988709 -0.0544411 -0.0641611 0.0119769 -0.0135645 0.00379656 0.00234826 0.0146335 -0.007151
internal_weight=25088 13712 1057 12655 9776 9732 839 11376 3017 160 125 2690 1723 2879 2545 334 327
internal_count=25088 13712 1057 12655 9776 9732 839 11376 3017 160 125 2690 1723 2879 2545 334 327
is_linear=0
shrinkage=0.02


Tree=22
num_leaves=18
num_cat=0
split_feature=1 22 1 13 1 1 1 1 3 7 20 26 14 36 13 16 7
split_gain=725.473 1213.86 615.252 309.437 179.046 119.83 161.296 123.551 84.2599 79.7918 69.7858 65.9883 63.5532 72.7832 45.9524 90.3262 45.3805
threshold=3865.152155683109 1.0000000180025095e-35 3865.2005304030208 20.500000000000004 3865.1887590165447 3806.3875598086129 3865.0635249700731 2662.5285078700422 27.500000000000004 2763.0959928229672 4383.5390360036627 1.0000000180025095e-35 2915.4005381390402 223.50000000000006 10.500000000000002 3.0000000000000004 5686.4285714285725
decision_type=2 2 2 2 2 2 2 2 2 2 2 2 2 2 2 2 2
left_child=3 2 4 5 -2 7 -7 -1 -5 12 -3 -11 -9 -14 15 -13 -10
right_child=1 10 -4 8 -6 6 -8 9 16 11 -12 14 13 -15 -16 -17 -18
leaf_value=0.0065270952200343849 -0.013076482449462254 0.0054906565799920084 -0.091129690440637734 0.0029319171556340964 -0.030261728043178861 0.014133715590994274 0.00092009733286890609 -0.0020270807473018932 0.0065945457792428146 -0.027338646751289306 -0.019582360566634198 -0.02561458586310239 -0.0040057106746284304 -0.012683875248534957 0.00024232830749780246 -0.0023592386271545545 0.01650337497023649
leaf_weight=697 459 965 54 5991 554 432 2550 1785 1820 36 44 67 986 659 5085 2691 213
leaf_count=697 459 965 54 5991 554 432 2550 1785 1820 36 44 67 986 659 5085 2691 213
internal_value=-5.18292e-05 -0.0113707 -0.0262274 0.000968453 -0.0225554 -0.000726251 0.00285594 -0.00161964 0.00413836 -0.00212634 0.00432114 -0.00101091 -0.00467485 -0.00751772 -0.000878026 -0.00295682 0.00766756
internal_weight=25088 2076 1067 23012 1013 14988 2982 12006 8024 11309 1009 7879 3430 1645 7843 2758 2033
internal_count=25088 2076 1067 23012 1013 14988 2982 12006 8024 11309 1009 7879 3430 1645 7843 2758 2033
is_linear=0
shrinkage=0.02


Tree=23
num_leaves=18
num_cat=0
split_feature=0 1 0 0 12 0 0 1 0 0 29 1 5 0 26 0 0
split_gain=1314.94 1012.92 548.932 1185.67 394.065 357.686 319.75 236.89 178.227 218.905 112.486 138.231 106.036 70.4813 68.5927 66.0647 59.366
threshold=3215.4928735582721 3865.1816992541212 3346.9401329833022 3215.5169041573422 2633.9524150318216 3215.4812160010329 3215.5053272938544 3865.1985812946996 2841.1853581511455 3215.4602732828375 62.500000000000007 3865.2005304030208 4308.6239815480485 3346.9401329833022 2955.0000000000005 3215.5116752022727 3215.4129329488728
decision_type=2 2 2 2 2 2 2 2 2 2 2 2 2 2 2 2 2
left_child=5 2 3 6 13 8 -2 -6 -1 16 -9 -12 14 -3 -4 -8 -10
right_child=1 4 12 -5 7 -7 15 10 9 -11 11 -13 -14 -15 -16 -17 -18
leaf_value=-0.0069788999459777018 -0.0042142919838586397 -0.021424144939942793 -0.003308531746002371 -0.10821671817613686 -0.02556869761276245 0.001056794158726224 -0.013671998198215778 -0.017603413462904945 0.023429039269685745 0.0060409965127138201 -0.040772517455948724 -0.087182675302028653 0.012957308073415632 0.0073567804017873016 0.0040670493284591502 -0.026320996529016739 0.012900389218073518
leaf_weight=327 5094 42 695 44 623 8824 726 33 294 4665 70 54 412 147 1787 232 1019
leaf_count=327 5094 42 695 44 623 8824 726 33 294 4665 70 54 412 147 1787 232 1019
internal_value=-5.11031e-05 -0.00569551 -0.00359343 -0.00700005 -0.0251091 0.00366207 -0.00622206 -0.0313739 0.00730039 0.00809024 -0.053547 -0.0623639 0.00356845 0.00059423 0.00198466 -0.0168253 0.0153204
internal_weight=25088 9959 8990 6096 969 15129 6052 780 6305 5978 157 124 2894 189 2482 958 1313
internal_count=25088 9959 8990 6096 969 15129 6052 780 6305 5978 157 124 2894 189 2482 958 1313
is_linear=0
shrinkage=0.02


Tree=24
num_leaves=18
num_cat=0
split_feature=0 1 0 0 0 12 0 1 0 0 22 1 19 0 7 1 16
split_gain=1265.79 1039.52 384.656 1186.04 403.57 379.073 241.145 240.54 234.705 122.952 108.903 111.485 102.847 96.789 78.3677 65.1275 61.99
threshold=3215.4897265019799 3865.1734424015472 3346.9401329833022 3215.5169041573422 3215.5020726458947 2633.9524150318216 3215.4731304871752 3865.1985812946996 2841.1853581511455 3215.4296096574285 29.916308500000003 3865.2005304030208 2805.8071472114357 3215.5096040626618 3229.7242855669042 3864.9745105742968 52.500000000000007
decision_type=2 2 2 2 2 2 2 2 2 2 2 2 2 2 2 2 2
left_child=6 2 3 4 -2 -3 8 -7 16 -10 11 -9 14 -6 -4 -14 -1
right_child=1 5 12 -5 13 7 -8 10 9 -11 -12 -13 15 -15 -16 -17 -18
leaf_value=0.0048327146455159654 -0.0023832535769062885 0.00043046750483058746 -0.004171034240937334 -0.10614648466524872 -0.011119851748960267 -0.02411043041253055 0.0028181951323905962 -0.039979719685183629 0.021085164383626901 0.0092366056668291546 -0.015206317112117012 -0.081500472207864119 0.022207097312363474 -0.023871190051551121 0.0041239759263460036 0.004258510500209171 -0.01317675134891437
leaf_weight=113 7379 208 588 44 1124 679 8983 70 414 2577 31 58 179 315 1952 160 214
leaf_count=113 7379 208 588 44 1124 679 8983 70 414 2577 31 58 179 315 1952 160 214
internal_value=-5.0635e-05 -0.00445806 -0.00275014 -0.00481517 -0.00428106 -0.0235488 0.00452765 -0.0295352 0.00913922 0.010903 -0.0518657 -0.0600659 0.00359136 -0.0139682 0.00218621 0.0139278 -0.00684017
internal_weight=25088 12787 11741 8862 8818 1046 12301 838 3318 2991 159 128 2879 1439 2540 339 327
internal_count=25088 12787 11741 8862 8818 1046 12301 838 3318 2991 159 128 2879 1439 2540 339 327
is_linear=0
shrinkage=0.02


Tree=25
num_leaves=18
num_cat=0
split_feature=0 1 12 0 0 0 1 0 0 0 1 1 0 26 1 40 0
split_gain=1186.07 990.365 413.507 299.962 933.852 411.212 274.905 184.595 234.721 101.436 100.277 134.973 94.9823 71.8603 59.8399 57.4119 53.9295
threshold=3215.4880050352904 3865.1734424015472 2657.303077912688 3346.9401329833022 3215.51622095025 3215.5004856687901 3865.2005304030208 3215.4710324496477 2841.1853581511455 3215.4250370115346 3864.7408674056137 3865.0029030970877 3215.5090930022384 2955.0000000000005 3865.194897940391 48.500000000000007 3215.4944874332937
decision_type=2 2 2 2 2 2 2 2 2 2 2 2 2 2 2 2 2
left_child=7 3 -3 4 5 16 14 8 -1 -10 13 -12 -7 -5 -4 -8 -2
right_child=1 2 6 10 -6 12 15 -9 9 -11 11 -13 -14 -15 -16 -17 -18
leaf_value=-0.0065604585755650391 -0.0006285195328635634 0.0011650518116137359 -0.020594803641990761 -0.0043231783304616888 -0.088506273948229283 -0.0099726143033052692 -0.037979738200930029 0.0033894690733531291 0.021159625736915547 0.0096602919518974494 0.021623466894961894 0.0024421640182263221 -0.021948197617250333 0.0035598454589351831 -0.033248086649245931 -0.081340225466943167 -0.0041243663319442151
leaf_weight=327 5969 224 461 632 50 1407 31 7956 366 2215 254 358 338 1685 267 45 2527
leaf_count=327 5969 224 461 632 50 1407 31 7956 366 2215 254 358 338 1685 267 45 2527
internal_value=-5.46503e-07 -0.00379736 -0.0226914 -0.0023219 -0.00393078 -0.00349675 -0.029374 0.00497502 0.00929389 0.0113216 0.00331605 0.0105127 -0.0123376 0.0013905 -0.0253687 -0.0655939 -0.00167374
internal_weight=25112 14248 1028 13220 10291 10241 804 10864 2908 2581 2929 612 1745 2317 728 76 8496
internal_count=25112 14248 1028 13220 10291 10241 804 10864 2908 2581 2929 612 1745 2317 728 76 8496
is_linear=0
shrinkage=0.02


Tree=26
num_leaves=18
num_cat=0
split_feature=0 1 12 0 0 0 1 0 0 0 0 7 41 0 0 0 1
split_gain=1139.42 951.876 397.532 288.205 900.48 418.369 264.836 177.346 222.254 107.237 100.214 97.2492 67.91 67.1665 120.018 108.454 57.4029
threshold=3215.4880050352904 3865.1734424015472 2657.303077912688 3346.9401329833022 3215.5169041573422 3215.5009429333795 3865.2005304030208 3215.4721083663285 2841.1853581511455 3215.5096040626618 3215.4250370115346 3035.799696048633 2046.5000000000002 3815.1721848739503 4336.3406196139304 3816.1139408866998 3865.194897940391
decision_type=2 2 2 2 2 2 2 2 2 2 2 2 2 2 2 2 2
left_child=7 3 -3 4 5 -2 16 8 -1 -7 -10 -5 -8 -13 15 -15 -4
right_child=1 2 6 11 -6 9 12 -9 10 -11 -12 13 -14 14 -16 -17 -18
leaf_value=-0.0064300470043392715 -0.0016795588778167967 0.00114195698975231 -0.020184686581722861 -0.0037363840135262076 -0.099813611324016865 -0.010045914568842065 -0.089009876937577226 0.0032897679896729064 0.020738733077178832 -0.023031961049562618 0.0093442773513702886 0.012337369524088261 -0.043451964697067406 -0.0004085486961593872 0.0075123091545833123 -0.028127723028582911 -0.032588068596935631
leaf_weight=327 8560 224 461 620 37 1372 31 7869 366 322 2302 426 45 671 1152 60 267
leaf_count=327 8560 224 461 620 37 1372 31 7869 366 322 2302 426 45 671 1152 60 267
internal_value=-1.0233e-06 -0.00372246 -0.0222458 -0.00227589 -0.00385296 -0.00348341 -0.0287981 0.0048757 0.00902422 -0.0125622 0.0109367 0.00325032 -0.0643534 0.00514527 0.00348559 -0.00280883 -0.0248653
internal_weight=25112 14248 1028 13220 10291 10254 804 10864 2995 1694 2668 2929 76 2309 1883 731 728
internal_count=25112 14248 1028 13220 10291 10254 804 10864 2995 1694 2668 2929 76 2309 1883 731 728
is_linear=0
shrinkage=0.02


Tree=27
num_leaves=18
num_cat=0
split_feature=0 1 0 0 12 0 0 1 0 0 7 40 0 0 0 16 0
split_gain=1095.63 851.89 445.923 820.926 363.219 308.82 280.076 274.113 145.085 192.14 92.7439 67.3942 65.4039 114.714 104.134 62.4983 53.4354
threshold=3215.4928735582721 3865.1816992541212 3346.9401329833022 3215.5169041573422 2657.303077912688 3215.4815280168705 3215.5064301084526 3865.2005304030208 2841.1853581511455 3215.4618871578587 3035.799696048633 48.500000000000007 3815.1721848739503 4336.3406196139304 3816.0414981164886 52.500000000000007 3215.4993290583579
decision_type=2 2 2 2 2 2 2 2 2 2 2 2 2 2 2 2 2
left_child=5 2 3 6 -3 8 16 -6 15 -10 -4 -9 -12 14 -14 -1 -2
right_child=1 4 10 -5 7 -7 -8 11 9 -11 12 -13 13 -15 -16 -17 -18
leaf_value=0.0055023971839048167 -0.0029002351395033357 0.0015332346958839285 -0.0037119718622532672 -0.097919712800246014 -0.025401350373144841 0.00084153093799171018 -0.016556809237963863 -0.037258186060935262 0.013993750919920476 0.0054469705742379816 0.012030192132071007 -0.084185851067304612 -6.7276787412105839e-05 0.0072364070346035685 -0.023786048874968574 -0.012629982646241407 -0.0077245216841091884
leaf_weight=112 3976 184 623 37 671 8498 832 30 1345 5007 427 42 654 1159 82 215 1218
leaf_count=112 3976 184 623 37 671 8498 832 30 1345 5007 427 42 654 1159 82 215 1218
internal_value=-1.64653e-06 -0.00516598 -0.00327947 -0.00638224 -0.0234084 0.00337658 -0.00578126 -0.0296262 0.00659482 0.00726683 0.00309477 -0.0667086 0.00493987 0.00331012 -0.00282136 -0.00630223 -0.00404177
internal_weight=25112 9935 9008 6063 927 15177 6026 743 6679 6352 2945 72 2322 1895 736 327 5194
internal_count=25112 9935 9008 6063 927 15177 6026 743 6679 6352 2945 72 2322 1895 736 327 5194
is_linear=0
shrinkage=0.02


Tree=28
num_leaves=18
num_cat=0
split_feature=0 11 20 0 0 0 14 14 0 0 0 3 0 7 0 0 0
split_gain=1055.77 320.043 294.236 303.222 1239.49 322.436 236.89 235.37 234.296 149.113 208.602 104.134 91.9325 69.1599 70.2799 54.1821 53.1811
threshold=3215.487493974867 1777138.234252204 3201.1212113428992 3346.9401329833022 3215.5149298502324 3215.5004856687901 3511.8345864661655 2915.4161817157878 3215.5169041573422 3215.4710324496477 2841.1853581511455 26.500000000000004 3215.4250370115346 4601.3333333333348 3815.7082613735156 3215.4939494749528 3215.5085550438976
decision_type=2 2 2 2 2 2 2 2 2 2 2 2 2 2 2 2 2
left_child=9 2 3 4 5 15 -4 -3 -6 10 -1 13 -12 14 -5 -2 -7
right_child=1 7 6 11 8 16 -8 -9 -10 -11 12 -13 -14 -15 -16 -17 -18
leaf_value=-0.0061746182220798317 -0.00026802993054583156 0.0048564090062492354 -0.013640204645150785 0.0048249660377959027 -0.039019628996942557 -0.0092527560930733294 -0.068706065188435944 -0.023953322536226517 -0.092399646167097421 0.0034000555150889072 0.020047858794746191 0.0092214658341124751 0.0090962192511633809 0.007763509029544857 -0.0042811765108025177 -0.0035045952143735156 -0.018611895269567861
leaf_weight=327 5800 144 513 515 100 1306 32 488 56 7364 366 898 2215 457 974 3241 316
leaf_count=327 5800 144 513 515 100 1306 32 488 56 7364 366 898 2215 457 974 3241 316
internal_value=-2.13214e-06 -0.00341536 -0.00279119 -0.00221164 -0.00374096 -0.00291249 -0.0171859 -0.0173314 -0.0593619 0.00492479 0.00876718 0.0035906 0.010679 0.000964851 -0.00110256 -0.00143321 -0.0111214
internal_weight=25112 14840 14208 13663 10819 10663 545 632 156 10272 2908 2844 2581 1946 1489 9041 1622
internal_count=25112 14840 14208 13663 10819 10663 545 632 156 10272 2908 2844 2581 1946 1489 9041 1622
is_linear=0
shrinkage=0.02


Tree=29
num_leaves=18
num_cat=0
split_feature=1 22 1 1 13 23 1 3 25 20 17 1 1 1 24 22 1
split_gain=523.016 799.081 523.618 237.741 232.301 109.672 102.745 71.3155 54.1132 51.1257 48.1344 43.2746 58.3554 69.3302 38.031 36.7333 52.3892
threshold=3865.1448657110413 1.0000000180025095e-35 3865.2005304030208 3865.1887590165447 20.500000000000004 0.37748392343066517 2662.5285078700422 26.500000000000004 0.44417111256925002 4383.5390360036627 2830.1209677419361 3865.1089530065387 3864.7408674056137 3864.9745105742968 0.0061133769420888004 33.134385500000008 3865.0573860462264
decision_type=2 2 2 2 2 2 2 2 2 2 2 2 2 2 2 2 2
left_child=4 2 3 -2 5 11 -7 -6 -8 -3 14 12 -1 -14 -10 16 -9
right_child=1 9 -4 -5 7 6 8 15 10 -11 -12 -13 13 -15 -16 -17 -18
leaf_value=0.00067482552126473113 -0.0089511247836441994 0.0050510857933307911 -0.082841002789198176 -0.026932329749534144 0.0024902811718475297 0.0056667985687776888 -0.0062758468567832657 0.011866759154086946 -0.020273574744351208 -0.018426618519925365 -0.00046096207135882183 -0.0003758726493796557 0.019104437517397332 0.0050422714946761109 -0.00318959664514799 0.0035808480448942044 0.0030608527421216386
leaf_weight=1169 669 964 49 541 5844 721 1122 844 52 36 5651 1482 163 1100 3389 896 420
leaf_count=1169 669 964 49 541 5844 721 1122 844 52 36 5651 1482 163 1100 3389 896 420
internal_value=-2.53641e-06 -0.0091801 -0.0197743 -0.0170548 0.000903632 -0.000574522 -0.00160496 0.00365036 -0.0021232 0.00413088 -0.00160507 0.00229347 0.00393551 0.00691606 -0.00347101 0.00676529 0.0089818
internal_weight=25112 2259 1259 1210 22853 14849 10935 8004 10214 1000 9092 3914 2432 1263 3441 2160 1264
internal_count=25112 2259 1259 1210 22853 14849 10935 8004 10214 1000 9092 3914 2432 1263 3441 2160 1264
is_linear=0
shrinkage=0.02


Tree=30
num_leaves=18
num_cat=0
split_feature=0 1 22 1 0 0 0 0 0 0 5 0 16 0 0 0 0
split_gain=992.611 817.108 321.869 313.666 282.539 904.419 352.644 168.515 180.294 116.363 80.6496 80.6125 61.975 58.3911 57.929 111.768 118.883
threshold=3215.4885698915477 3865.1816992541212 29.916308500000003 3865.2005304030208 3346.9401329833022 3215.5169041573422 3215.5020726458947 3215.4754114305392 2841.1853581511455 3215.4378135221214 4226.2384146341474 3215.5101527801689 52.500000000000007 3215.495025391634 3815.5199101709654 4336.3406196139304 3816.1139408866998
decision_type=2 2 2 2 2 2 2 2 2 2 2 2 2 2 2 2 2
left_child=7 4 3 -3 5 6 13 8 12 -10 14 -8 -1 -2 -6 16 -16
right_child=1 2 -4 -5 10 -7 11 -9 9 -11 -12 -13 -14 -15 15 -17 -18
leaf_value=0.0055641732135613972 -0.00067030285531849616 -0.023769075812279494 -0.00074523686690263727 -0.074111732168631123 0.0069085720803006376 -0.096525471778143024 -0.010242804138093533 0.002641793778277612 0.017648022101409193 0.0075430444789395673 0.011307705427075333 -0.022633868162311725 -0.012169378354683914 -0.0042278701170030547 -0.0027407481370359671 0.0039412281710356021 -0.026047568402244047
leaf_weight=116 5500 694 239 53 657 40 1184 7645 550 2934 419 266 224 2803 630 1133 101
leaf_count=116 5500 694 239 53 657 40 1184 7645 550 2934 419 266 224 2803 630 1133 101
internal_value=2.19767e-05 -0.00360634 -0.0211326 -0.0275827 -0.00224292 -0.00387699 -0.0034732 0.00436546 0.0077978 0.00915895 0.00318543 -0.0125715 -0.00600499 -0.00187684 0.00181173 0 -0.00607783
internal_weight=25188 13719 986 747 12733 9793 9753 11469 3824 3484 2940 1450 340 8303 2521 1864 731
internal_count=25188 13719 986 747 12733 9793 9753 11469 3824 3484 2940 1450 340 8303 2521 1864 731
is_linear=0
shrinkage=0.02


Tree=31
num_leaves=18
num_cat=0
split_feature=1 9 1 13 1 23 1 7 26 5 20 1 15 1 8 26 13
split_gain=492.855 754.636 444.348 203.869 197.236 99.7159 95.7465 67.9436 57.3476 49.9653 46.0944 45.5112 54.5282 69.7998 37.6204 36.635 36.6088
threshold=3865.14570981307 0.25906744801446252 3865.2005304030208 20.500000000000004 3865.1887590165447 0.37748392343066517 2662.5285078700422 5686.4285714285725 1750.5000000000002 3302.1148222395227 4383.5390360036627 3865.1089530065387 -77.285429499999978 3864.9438159550637 0.92284222261338977 1.0000000180025095e-35 10.500000000000002
decision_type=2 2 2 2 2 2 2 2 2 2 2 2 2 2 2 2 2
left_child=3 10 4 5 -3 11 -7 9 15 -5 -2 12 -1 -14 16 -8 -10
right_child=1 2 -4 7 -6 6 8 -9 14 -11 -12 -13 13 -15 -16 -17 -18
leaf_value=0.00070958938276998297 0.0046967353378137462 -0.0091128416937466469 -0.079422735720872883 0.002159950488409211 -0.02563771420386695 0.0056430977822112096 -0.023718528045256707 0.012255525215581103 -0.0032784737055359158 0.005969690618954515 -0.016539173183874007 -0.0004677077969821221 0.019800365170514263 0.0050315072751108362 0.0075200914725023797 -0.0049044479634760369 -0.00052131120582247202
leaf_weight=1133 978 627 46 5953 557 702 42 337 3033 1820 40 1501 146 1131 185 1560 5397
leaf_count=1133 978 627 46 5953 557 702 42 337 3033 1820 40 1501 146 1131 185 1560 5397
internal_value=2.10317e-05 -0.00891004 -0.0194446 0.000898674 -0.0169506 -0.000493293 -0.00147698 0.00344846 -0.00197112 0.00305843 0.00379231 0.00224216 0.0039455 0.00677963 -0.00131815 -0.0054516 -0.00151859
internal_weight=25188 2248 1230 22940 1184 14830 10919 8110 10217 7773 1018 3911 2410 1277 8615 1602 8430
internal_count=25188 2248 1230 22940 1184 14830 10919 8110 10217 7773 1018 3911 2410 1277 8615 1602 8430
is_linear=0
shrinkage=0.02


Tree=32
num_leaves=18
num_cat=0
split_feature=1 9 1 1 13 1 1 1 3 26 16 9 1 13 8 13 16
split_gain=473.818 698.553 436.398 207.836 195.431 96.1447 108.796 86.2649 59.448 55.6315 43.3064 40.2601 56.0256 34.2148 33.6858 39.6482 109.366
threshold=3865.1448657110413 0.25906744801446252 3865.2005304030208 3865.1859965008139 20.500000000000004 3806.3875598086129 3865.0573860462264 2662.5285078700422 27.500000000000004 1750.5000000000002 183.50000000000003 0.061212369981572513 3865.0512471223801 23.500000000000004 0.92284222261338977 10.500000000000002 3.0000000000000004
decision_type=2 2 2 2 2 2 2 2 2 2 2 2 2 2 2 2 2
left_child=4 10 3 -3 5 7 -7 -1 -6 -9 13 -10 -13 -2 15 16 -11
right_child=1 2 -4 -5 8 6 -8 9 11 14 -12 12 -14 -15 -16 -17 -18
leaf_value=0.005530556463424794 0.0021021968407477637 -0.0071699449224718681 -0.077900467595706388 -0.023744876671053489 0.0023719317056072708 0.012415654485183369 0.0012118712693197243 -0.0050154706272005911 0.0030099553648138835 -0.029423613484287934 -0.015983946096551203 0.012086102979141287 0.0029538529263355724 0.010423332265474729 0.0073188555880477251 -0.00030946468722942367 -0.0025207493118850673
leaf_weight=702 692 578 46 660 6025 407 2361 1699 885 60 40 748 442 286 184 6219 3154
leaf_count=702 692 578 46 660 6025 407 2361 1699 885 60 40 748 442 286 184 6219 3154
internal_value=2.04208e-05 -0.00862299 -0.0184268 -0.0160626 0.000892248 -0.000473341 0.00288146 -0.0012497 0.00338948 -0.00167476 0.00371521 0.00631965 0.00873833 0.0045927 -0.00107949 -0.00124907 -0.0030534
internal_weight=25188 2302 1284 1238 22886 14786 2768 12018 8100 11316 1018 2075 1190 978 9617 9433 3214
internal_count=25188 2302 1284 1238 22886 14786 2768 12018 8100 11316 1018 2075 1190 978 9617 9433 3214
is_linear=0
shrinkage=0.02


Tree=33
num_leaves=18
num_cat=0
split_feature=0 1 52 0 0 0 1 0 0 1 1 0 0 16 16 26 35
split_gain=919.188 728.609 260.446 240.554 874.091 327.997 227.061 131.528 190.816 88.8989 99.4362 85.801 74.9058 66.002 57.7991 52.702 52.1598
threshold=3215.487493974867 3865.1657380521201 106.50000000000001 3346.9401329833022 3215.51622095025 3215.5004856687901 3865.1985812946996 3215.4710324496477 2841.1853581511455 3864.7408674056137 3864.9745105742968 3215.4169676364268 3215.5090930022384 183.50000000000003 52.500000000000007 2897.5000000000005 22.500000000000004
decision_type=2 2 2 2 2 2 2 2 2 2 2 2 2 2 2 2 2
left_child=7 3 6 4 5 -2 -3 8 14 13 -11 -10 -7 15 -1 -5 -8
right_child=1 2 -4 9 -6 12 16 -9 11 10 -12 -13 -14 -15 -16 -17 -18
leaf_value=0.0053396494178717035 -0.0013435092558087894 -0.019100726668123177 -0.00011231840595663074 -0.0031697256939335937 -0.082820276433771309 -0.008810719439088191 -0.054762153394165493 0.003158225541353284 0.019507271255363758 0.020206915593447807 0.0030715383129531777 0.0085668364695753313 -0.019614587756524606 -0.023618148874218869 -0.011779432463340164 0.0037226444558647212 -0.0207348355221929
leaf_weight=116 9054 762 246 592 53 1343 103 7409 337 236 332 2276 330 39 224 1705 31
leaf_count=116 9054 762 246 592 53 1343 103 7409 337 236 332 2276 330 39 224 1705 31
internal_value=1.98811e-05 -0.00317244 -0.0185097 -0.00188703 -0.00326511 -0.00285295 -0.0235047 0.00459106 0.0081679 0.00321353 0.0103073 0.010007 -0.0109865 0.00146424 -0.00582478 0.00192768 -0.047605
internal_weight=25188 14826 1142 13684 10780 10727 896 10362 2953 2904 568 2613 1673 2336 340 2297 134
internal_count=25188 14826 1142 13684 10780 10727 896 10362 2953 2904 568 2613 1673 2336 340 2297 134
is_linear=0
shrinkage=0.02


Tree=34
num_leaves=18
num_cat=0
split_feature=0 1 0 0 0 52 0 1 0 0 7 0 0 0 0 40 0
split_gain=886.257 670.865 324.366 813.215 262.443 247.474 214.554 197.391 137.157 137.279 72.9684 53.1657 81.3824 93.064 52.2869 50.7777 49.1678
threshold=3215.4914910053367 3865.1816992541212 3346.9401329833022 3215.5169041573422 3215.5053272938544 106.50000000000001 3215.4795590893441 3865.2005304030208 2841.1853581511455 3215.4570455327944 4502.7985074626877 3815.5488872790502 4336.3406196139304 3816.1139408866998 3215.4969351437426 94.500000000000014 3215.5116752022727
decision_type=2 2 2 2 2 2 2 2 2 2 2 2 2 2 2 2 2
left_child=6 2 3 4 14 7 8 -3 -1 -10 11 -4 13 -13 -2 -9 -6
right_child=1 5 10 -5 16 -7 -8 15 9 -11 -12 12 -14 -15 -16 -17 -18
leaf_value=-0.0057066935924840381 -0.0015470460179084927 -0.021963561271456468 0.0060070192515460762 -0.092710211163475414 -0.01151127851991491 0 0.001402824125570269 -0.034350364142481021 0.013631901092132659 0.0055861215722775573 0.0082637500415912377 -0.0029968243577457882 0.0031115194338801229 -0.024296038249104295 -0.0053255439760008872 -0.076762924318512282 -0.022555992515572224
leaf_weight=340 4050 694 620 40 702 197 8506 32 1092 3996 764 587 874 95 2336 34 229
leaf_count=340 4050 694 620 40 702 197 8506 32 1092 3996 764 587 874 95 2336 34 229
internal_value=1.90353e-05 -0.0041534 -0.00265829 -0.00490392 -0.00439324 -0.0201595 0.00339195 -0.0253255 0.00649999 0.00732546 0.00294706 0.00105611 -0.00089612 -0.00608457 -0.00293672 -0.0584026 -0.0143134
internal_weight=25188 11254 10297 7357 7317 957 13934 760 5428 5088 2940 2176 1556 682 6386 66 931
internal_count=25188 11254 10297 7357 7317 957 13934 760 5428 5088 2940 2176 1556 682 6386 66 931
is_linear=0
shrinkage=0.02


Tree=35
num_leaves=18
num_cat=0
split_feature=0 4 0 0 0 0 0 8 0 0 20 14 3 16 0 0 0
split_gain=874.056 523.524 617.92 392.218 858.666 243.618 218.14 137.522 164.098 110.65 89.8954 72.8973 69.3131 48.2815 46.7686 46.1344 42.3946
threshold=3215.4928735582721 3422.1258889322412 3215.5071294542954 3346.9401329833022 3215.5169041573422 3215.4820713547947 3816.295737467402 0.50705896023411956 3215.4618871578587 3215.5133052160445 3201.1212113428992 3510.4935666495116 21.500000000000004 52.500000000000007 6434.0151197604791 3215.4062084696166 3215.4993290583579
decision_type=2 2 2 2 2 2 2 2 2 2 2 2 2 2 2 2 2
left_child=5 2 16 4 9 7 -5 8 15 -4 12 -12 14 -9 -3 -1 -2
right_child=1 10 3 6 -6 -7 -8 13 -10 -11 11 -13 -14 -15 -16 -17 -18
leaf_value=0.020223491514170612 -0.0025916103264270354 0.0021414337647835172 -0.01346693505545915 0.00061623925099797228 -0.085740362899610775 0.00071584634561183604 -0.042489546888014845 0.0040211009259780795 0.0047783997556853702 -0.024905566898530632 0.0073560479688539841 -0.020002438994853395 0.0087242200828108636 -0.011877429742170008 -0.020853257675965627 0.01068445905962795 -0.0068805086530119601
leaf_weight=268 3998 1486 866 573 78 8482 49 109 5043 597 55 113 858 226 34 1112 1225
leaf_count=268 3998 1486 866 573 78 8482 49 109 5043 597 55 113 858 226 34 1112 1225
internal_value=-2.8182e-05 -0.00464575 -0.00734277 -0.0163324 -0.0217414 0.0029787 -0.00284075 0.00581186 0.0064669 -0.0181896 0.00316232 -0.0108293 0.00417587 -0.00659262 0.00157407 0.0125925 -0.00360743
internal_weight=25172 9932 7386 2163 1541 15240 622 6758 6423 1463 2546 168 2378 335 1520 1380 5223
internal_count=25172 9932 7386 2163 1541 15240 622 6758 6423 1463 2546 168 2378 335 1520 1380 5223
is_linear=0
shrinkage=0.02


Tree=36
num_leaves=18
num_cat=0
split_feature=0 1 0 0 22 1 0 0 0 0 5 0 0 0 1 0 1
split_gain=839.729 607.164 349.874 792.95 257.878 276.46 233.997 212.519 132.079 157.652 72.6568 54.5719 105.912 117.596 48.1397 47.9228 45.586
threshold=3215.4928735582721 3865.1859965008139 3346.9401329833022 3215.5169041573422 29.916308500000003 3865.2005304030208 3215.4820713547947 3215.5064301084526 2841.1853581511455 3215.4602732828375 4308.6239815480485 3815.5199101709654 4336.3406196139304 3816.258826427123 3865.1734424015472 3346.9401329833022 3865.0512471223801
decision_type=2 2 2 2 2 2 2 2 2 2 2 2 2 2 2 2 2
left_child=6 2 3 7 5 -3 8 -2 14 -10 11 -4 13 -13 -1 -6 -12
right_child=1 4 10 -5 15 -7 -8 -9 9 -11 16 12 -14 -15 -16 -17 -18
leaf_value=-0.003504555462096447 -0.0035177656205698494 -0.02187777182075875 0.0064187139577711882 -0.088477804349816364 -0.019152196669443088 -0.067774425654088047 0.00070153279359559337 -0.014258486851359959 0.012452676781770105 0.0047124197929921717 0.014369265828861834 -0.0040136645580355962 0.0035258995233634167 -0.036275863805595714 -0.027223242281936112 0.0042432258794741599 -0.00056959393927344252
leaf_weight=297 5194 650 646 44 42 57 8482 862 1341 5082 307 686 1125 47 38 168 104
leaf_count=297 5194 650 646 44 42 57 8482 862 1341 5082 307 686 1125 47 38 168 104
internal_value=-2.7856e-05 -0.00455387 -0.00296926 -0.00569446 -0.0200483 -0.0258152 0.00291936 -0.00505739 0.00569602 0.00633804 0.00271986 0.00141823 -0.000303887 -0.00622982 -0.00645932 -0.000383718 0.0105078
internal_weight=25172 9932 9015 6100 917 707 15240 6056 6758 6423 2915 2504 1858 733 335 210 411
internal_count=25172 9932 9015 6100 917 707 15240 6056 6758 6423 2915 2504 1858 733 335 210 411
is_linear=0
shrinkage=0.02


Tree=37
num_leaves=18
num_cat=0
split_feature=20 14 13 14 11 14 3 11 14 17 24 2 37 13 13 16 2
split_gain=268.876 283.566 255.377 100.903 86.2306 283.221 85.4217 68.1309 120.874 57.7456 47.1099 34.559 31.4785 42.6849 30.8348 181.445 30.7522
threshold=4383.5390360036627 3511.8345864661655 20.500000000000004 3510.2660566109048 1777138.234252204 2915.4161817157878 27.500000000000004 1777138.234252204 2915.3919341718297 3648.0178894342548 0.0061133769420888004 3054.6096438762702 20.500000000000004 2.5000000000000004 10.500000000000002 3.0000000000000004 2474.0545966029731
decision_type=2 2 2 2 2 2 2 2 2 2 2 2 2 2 2 2 2
left_child=2 3 4 -2 9 -6 7 -4 -9 10 12 16 13 -1 15 -13 -12
right_child=1 -3 6 -5 5 -7 -8 8 -10 -11 11 14 -14 -15 -16 -17 -18
leaf_value=-0.036798972202198847 0.0097486471895266453 -0.066903259265117157 0.0022709168827586401 -0.014815419984301395 0.0061065424055754946 -0.020781313277748428 0.0064211232724663628 0.0085582334104487134 -0.019253602676200354 0.0012973380753977823 0 -0.040246163160339292 -0.000907867778001762 -0.0092531497836154837 -0.00053045259607844956 -0.0022195050814449724 -0.016650378560381277
leaf_weight=33 79 37 6228 351 284 341 2207 100 155 3530 78 49 80 87 7467 3956 110
leaf_count=33 79 37 6228 351 284 341 2207 100 155 3530 78 49 80 87 7467 3956 110
internal_value=-2.77759e-05 -0.0150308 0.000255401 -0.0101857 -0.00124068 -0.00851917 0.00301682 0.00185011 -0.00820963 -0.000941429 -0.00161125 -0.00144115 -0.0112175 -0.0176352 -0.00129678 -0.00271459 -0.00993385
internal_weight=25172 467 24705 430 16015 625 8690 6483 255 15390 11860 11660 200 120 11472 4005 188
internal_count=25172 467 24705 430 16015 625 8690 6483 255 15390 11860 11660 200 120 11472 4005 188
is_linear=0
shrinkage=0.02


Tree=38
num_leaves=18
num_cat=0
split_feature=0 1 0 0 22 1 0 0 0 0 26 0 0 0 0 0 16
split_gain=796.383 553.165 361.23 748.437 239.77 263.221 238.874 185.138 124.194 150.099 74.3355 51.415 72.9924 55.4472 47.297 45.15 44.9956
threshold=3215.4938096057845 3865.1859965008139 3346.9401329833022 3215.5169041573422 29.916308500000003 3865.2005304030208 3215.4820713547947 3215.5064301084526 2841.1853581511455 3215.4622906266145 2955.0000000000005 3815.1721848739503 4336.3406196139304 3815.9219675456397 3346.9401329833022 3215.4062084696166 52.500000000000007
decision_type=2 2 2 2 2 2 2 2 2 2 2 2 2 2 2 2 2
left_child=6 2 3 7 5 -3 8 -2 16 15 -4 -12 13 -13 -6 -10 -1
right_child=1 4 10 -5 14 -7 -8 -9 9 -11 11 12 -14 -15 -16 -17 -18
leaf_value=0.0040024465551549522 -0.0037684430114442555 -0.021118865565288285 -0.0025495126519599217 -0.086464891485545953 -0.019514644138869785 -0.065904621762239324 0.00057750932451735974 -0.013891223662843306 0.019488342492668717 0.0045261518939209884 0.011155309346581333 0.00054486784141172999 0.0063131007810634668 -0.0144153890311718 0.0041647785687271288 0.010098475100158098 -0.011340804726575712
leaf_weight=109 4601 650 794 44 40 57 9077 862 268 5002 392 544 1067 118 168 1153 226
leaf_count=109 4601 650 794 44 40 57 9077 862 268 5002 392 544 1067 118 168 1153 226
internal_value=-2.76736e-05 -0.00466141 -0.00304884 -0.00606381 -0.0194215 -0.0249617 0.00270229 -0.00537752 0.00554926 0.0061719 0.00263357 0.00459329 0.00307126 -0.00209691 -0.000340965 0.0119224 -0.0062357
internal_weight=25172 9337 8422 5507 915 707 15835 5463 6758 6423 2915 2121 1729 662 208 1421 335
internal_count=25172 9337 8422 5507 915 707 15835 5463 6758 6423 2915 2121 1729 662 208 1421 335
is_linear=0
shrinkage=0.02


Tree=39
num_leaves=18
num_cat=0
split_feature=0 1 22 1 4 0 0 0 0 0 0 0 0 15 1 1 1
split_gain=767.133 580.514 241.396 253.212 241.357 259.352 157.043 147.11 136.115 622.246 104.638 85.3703 73.6684 62.109 58.4317 46.0535 44.5925
threshold=3215.4908024186611 3865.1859965008139 29.916308500000003 3865.2005304030208 3422.1258889322412 3215.5004856687901 3215.4761699517994 2841.1853581511455 3346.9401329833022 3215.5169041573422 3215.4378135221214 3816.1139408866998 3215.5116752022727 -80.831714999999988 3865.0846275207959 2662.4808389725954 3865.1734424015472
decision_type=2 2 2 2 2 2 2 2 2 2 2 2 2 2 2 2 2
left_child=6 4 3 -3 5 -2 7 16 9 12 -9 -10 -7 15 -15 -6 -1
right_child=1 2 -4 -5 13 8 -8 10 11 -11 -12 -13 -14 14 -16 -17 -18
leaf_value=-0.0032613507079047757 -0.0017785610669721456 -0.020697784132204175 -0.00038170491561556575 -0.06463121050495213 0.013883128951091577 -0.0085805216142907734 0.0018220516587968392 0.015579416227841755 0.001420955783346208 -0.084810780701429958 0.0062473414207829762 -0.029612569777589096 -0.021035829644118036 0.009980114928476419 -0.0034837019232594789 -7.671562378877843e-05 -0.026093822834081948
leaf_weight=297 6685 650 222 57 99 1598 8476 569 516 44 3399 36 222 719 151 1394 38
leaf_count=297 6685 650 222 57 99 1598 8476 569 516 44 3399 36 222 719 151 1394 38
internal_value=-2.73713e-05 -0.00357407 -0.0187687 -0.0244685 -0.0023362 -0.00381683 0.00340908 0.00652361 -0.00943399 -0.0120162 0.00760278 -0.000630366 -0.0101432 0.00334789 0.00759479 0.000839532 -0.00610949
internal_weight=25172 12393 929 707 11464 9101 12779 4303 2416 1864 3968 552 1820 2363 870 1493 335
internal_count=25172 12393 929 707 11464 9101 12779 4303 2416 1864 3968 552 1820 2363 870 1493 335
is_linear=0
shrinkage=0.02


Tree=40
num_leaves=18
num_cat=0
split_feature=0 1 22 1 4 0 0 0 0 0 0 0 1 1 0 1 4
split_gain=738.335 559.908 246.346 279.706 178.601 293.826 123.291 574.721 105.068 144.562 99.8418 74.2153 66.2751 103.035 66.0329 45.8413 44.9922
threshold=3215.487493974867 3865.1816992541212 29.916308500000003 3865.2005304030208 3422.1258889322412 3215.4998401187813 3346.9401329833022 3215.5169041573422 3215.4704944913069 2841.1853581511455 3816.1139408866998 3215.5101527801689 3864.7408674056137 3864.9745105742968 3215.4169676364268 2662.4612106030586 3422.1258889322412
decision_type=2 2 2 2 2 2 2 2 2 2 2 2 2 2 2 2 2
left_child=8 4 3 -3 5 -2 7 11 9 -1 -8 -7 15 -14 -11 -6 -4
right_child=1 2 16 -5 12 6 10 -9 -10 14 -12 -13 13 -15 -16 -17 -18
leaf_value=-0.0050111969831782436 -0.0011813480842152236 -0.019714515587135599 -0.0097668715115826095 -0.067234632502902639 0.015238394074969821 -0.0080459359090150513 0.0014262106025619556 -0.083849688685217569 0.0028570185978290829 0.017711823606939524 -0.032964855531851453 -0.019727847009783046 0.01953175607480501 0.0016979266846898053 0.0077902463064487403 0.00056563786916509148 0.0062354403391480448
leaf_weight=324 8912 673 129 53 88 1608 530 41 7481 317 34 259 226 314 2125 1776 148
leaf_count=324 8912 673 129 53 88 1608 530 41 7481 317 34 259 226 314 2125 1776 148
internal_value=-2.57207e-05 -0.00288578 -0.0173028 -0.0234137 -0.00183177 -0.00287959 -0.00897997 -0.0114076 0.00409848 0.00743724 -0.000685496 -0.00970729 0.00311178 0.00928005 0.00910799 0.00129537 -0.00109012
internal_weight=25038 14791 1003 726 13788 11384 2472 1908 10247 2766 564 1867 2404 540 2442 1864 277
internal_count=25038 14791 1003 726 13788 11384 2472 1908 10247 2766 564 1867 2404 540 2442 1864 277
is_linear=0
shrinkage=0.02


Tree=41
num_leaves=18
num_cat=0
split_feature=0 1 0 0 12 0 0 1 0 0 7 0 1 1 5 0 0
split_gain=710.763 490.68 284.519 643.722 199.991 198.155 161.979 153.633 92.5938 120.541 77.6207 53.8807 52.8149 78.0926 51.1138 46.5615 66.1794
threshold=3215.4928735582721 3865.1816992541212 3346.9401329833022 3215.51622095025 2657.303077912688 3215.4812160010329 3215.5041706834227 3865.1985812946996 2841.1853581511455 3215.454893699432 3229.7242855669042 3346.9401329833022 3895.3431372549026 3865.2005304030208 4226.2384146341474 3815.3605360765 4336.3406196139304
decision_type=2 2 2 2 2 2 2 2 2 2 2 2 2 2 2 2 2
left_child=5 2 3 6 11 8 -2 -6 -1 -10 -4 -3 13 -9 15 -12 -17
right_child=1 4 10 -5 7 -7 -8 12 9 -11 14 -13 -14 -15 -16 16 -18
leaf_value=-0.0049115878928462017 -0.0029637934520971403 -0.018752849362394276 -0.003552688890608567 -0.074025878199824591 -0.017734747234466261 0.00076001447460501245 -0.011314343333911733 -0.031187676835704493 0.012377736635212942 0.0046986928065705352 0.0088240262635163689 0.0056748519269510722 -0.015051630151591132 -0.067452065861225124 0.010894784417971967 -0.0039982493635140372 0.00452174827126122
leaf_weight=324 4802 45 682 52 601 8796 1159 72 989 4995 399 154 33 48 373 601 913
leaf_count=324 4802 45 682 52 601 8796 1159 72 989 4995 399 154 33 48 373 601 913
internal_value=-2.5453e-05 -0.00418161 -0.00272637 -0.00522883 -0.0178193 0.00270562 -0.00459735 -0.022515 0.00541118 0.00597823 0.0023301 0 -0.0405632 -0.0468893 0.00410421 0.00274929 0.00111244
internal_weight=25038 9934 8981 6013 953 15104 5961 754 6308 5984 2968 199 153 120 2286 1913 1514
internal_count=25038 9934 8981 6013 953 15104 5961 754 6308 5984 2968 199 153 120 2286 1913 1514
is_linear=0
shrinkage=0.02


Tree=42
num_leaves=18
num_cat=0
split_feature=1 9 1 1 1 1 1 13 9 1 26 20 14 20 1 8 8
split_gain=339.919 500.566 369.98 150.613 179.226 141.208 97.1539 80.9793 76.8946 72.6249 45.7299 45.1366 56.1825 40.7237 38.6498 33.3355 31.8175
threshold=3865.14570981307 0.25906744801446252 3865.2005304030208 3647.7408142999011 3865.0635249700731 3865.1918284784679 2662.4808389725954 14.500000000000002 0.0094451673755272022 3864.8985413916948 136.50000000000003 3201.1212113428992 2829.8843695380779 4383.5390360036627 3865.1089530065387 0.92284222261338977 0.50705896023411956
decision_type=2 2 2 2 2 2 2 2 2 2 2 2 2 2 2 2 2
left_child=3 13 5 6 8 -3 -1 10 -5 -10 -8 -9 -13 -2 -6 16 -12
right_child=1 2 -4 4 14 -7 7 11 9 -11 15 12 -14 -15 -16 -17 -18
leaf_value=0.0098852840114284201 0.0038382897591486727 -0.0078479175839921561 -0.068577981768892363 0.0015797620026382878 0.0033640783261276652 -0.022179509913293937 -0.019157727168811884 0.0012008960493572916 0.019404898932535355 0.0083931276424494775 -0.0014659078180841723 0.0011484768965461275 -0.019260449891491813 -0.014378918969967203 -0.00043777063658875087 0.0070136351502116988 -0.0055969353056902725
leaf_weight=368 961 693 50 396 2013 473 59 7902 363 789 7463 112 96 49 2245 168 838
leaf_count=368 961 693 50 396 2013 473 59 7902 363 789 7463 112 96 49 2245 168 838
internal_value=-2.53644e-05 -0.00748325 -0.0161212 0.000701217 0.00348234 -0.0137239 -0.000246231 -0.000473885 0.00931 0.0119253 -0.00183596 0.000953561 -0.00817427 0.00288829 0.00135093 -0.00170607 -0.00188901
internal_weight=25038 2226 1216 22812 5806 1166 17006 16638 1548 1152 8528 8110 208 1010 4258 8469 8301
internal_count=25038 2226 1216 22812 5806 1166 17006 16638 1548 1152 8528 8110 208 1010 4258 8469 8301
is_linear=0
shrinkage=0.02


Tree=43
num_leaves=18
num_cat=0
split_feature=0 6 0 0 0 20 0 0 0 0 0 0 0 0 0 0 0
split_gain=671.667 221.879 784.457 212.772 556.102 149.168 114.373 112.636 123.7 103.237 69.6214 135.422 78.5516 66.5031 61.799 49.9066 43.6579
threshold=3215.4885698915477 2755.4167094891613 3215.5082860647276 3346.9401329833022 3215.5169041573422 3201.1212113428992 3815.0236771950163 3215.4724311413324 2841.1853581511455 3215.4980594766744 4336.3406196139304 3816.1827615184015 6434.4829341317372 3215.4250370115346 3215.5149298502324 3815.8060591133012 1936.6002945990183
decision_type=2 2 2 2 2 2 2 2 2 2 2 2 2 2 2 2 2
left_child=7 2 9 4 14 6 -3 8 16 -2 11 15 -12 -10 -4 -8 -1
right_child=1 5 3 -5 -6 -7 10 -9 13 -11 12 -13 -14 -15 -16 -17 -18
leaf_value=0.014267330493141966 -0.0010424332468259984 0.016084745490407368 -0.014922587590971741 -0.0015425124520472059 -0.073592166189964003 -0.013254200369274221 0.0024248012155058253 0.0023437768788576339 0.016403035465943613 -0.0060255676262779695 0.005553355678248174 -0.033194738300341482 -0.021443096189124679 0.0069844429851515415 -0.026040903000719217 -0.0073628165797419744 -0.0075810581472627696
leaf_weight=39 7093 247 801 259 76 239 722 8255 352 2183 1394 51 42 2415 295 290 285
leaf_count=39 7093 247 801 259 76 239 722 8255 352 2183 1394 51 42 2415 295 290 285
internal_value=-2.49898e-05 -0.00300829 -0.00435351 -0.0181296 -0.0217523 0.00180319 0.00313697 0.00357154 0.00683391 -0.00222051 0.00182938 -0.00202226 0.00470722 0.00820804 -0.0179936 -0.000349493 -0.00475706
internal_weight=25038 13692 10707 1431 1172 2985 2746 11346 3091 9276 2499 1063 1436 2767 1096 1012 324
internal_count=25038 13692 10707 1431 1172 2985 2746 11346 3091 9276 2499 1063 1436 2767 1096 1012 324
is_linear=0
shrinkage=0.02


Tree=44
num_leaves=18
num_cat=0
split_feature=13 31 7 8 14 11 5 14 8 11 14 30 23 30 14 14 14
split_gain=167.927 93.0937 79.0894 70.6171 69.3525 161.441 61.2148 61.0628 59.905 56.0691 91.8083 55.1821 42.0288 41.5284 50.6647 39.8203 36.4102
threshold=14.500000000000002 1.0000000180025095e-35 5402.5000000000009 0.92284222261338977 2915.3845034728743 1777138.234252204 3589.1944444444448 3511.6748120300758 0.7607939727615185 1777138.234252204 2915.4161817157878 350.50000000000006 0.64082475578574727 363.50000000000006 2915.3066766785564 2915.4161817157878 2759.1144273573459
decision_type=2 2 2 2 2 2 2 2 2 2 2 2 2 2 2 2 2
left_child=3 7 6 4 13 8 9 -2 11 -3 -11 -6 -10 16 -15 -13 -1
right_child=1 2 -4 -5 5 -7 -8 -9 12 10 -12 15 -14 14 -16 -17 -18
leaf_value=2.9119006762415447e-05 -0.0044798619697002818 0.00097704066481863437 0.0096217408330085529 0.0089373425516920801 -0.0011586344748680821 -0.016949909397632263 0.0041942459379806628 -0.027433915380388498 -0.0069261878846949747 0.0077988084136386927 -0.016584515475150611 -0.0028185335995063949 -0.025431797805807142 0.010779152448606675 0.001177694541639468 -0.0096997844574142605 -0.0086746517628123118
leaf_weight=594 195 9727 491 238 6677 312 2566 62 347 90 178 917 59 259 1495 555 276
leaf_count=594 195 9727 491 238 6677 312 2566 62 347 90 178 917 59 259 1495 555 276
internal_value=-2.48126e-05 0.00151108 0.00174906 -0.00177097 -0.00199776 -0.00284388 0.00143666 -0.0103409 -0.00232092 0.000724008 -0.00825082 -0.00193983 -0.00982495 0.000846218 0.00262891 -0.0054498 -0.00269977
internal_weight=25038 13309 13052 11729 11491 8867 12561 257 8555 9995 268 8149 406 2624 1754 1472 870
internal_count=25038 13309 13052 11729 11491 8867 12561 257 8555 9995 268 8149 406 2624 1754 1472 870
is_linear=0
shrinkage=0.02


Tree=45
num_leaves=18
num_cat=0
split_feature=1 9 1 1 1 1 7 20 9 1 1 18 20 26 14 1 1
split_gain=313.375 402.562 385.987 166.884 144.208 148.002 93.3866 74.2823 67.7284 61.7432 55.4332 57.6725 46.4023 45.7865 37.4587 31.9453 29.0121
threshold=3865.1401080450601 0.25906744801446252 3865.2005304030208 3865.1887590165447 3647.7408142999011 3865.0635249700731 3853.086297760211 3201.1212113428992 0.0094451673755272022 3864.8985413916948 2662.5266385015143 3121.1606116433313 4383.5390360036627 136.50000000000003 2829.8843695380779 3263.4636137153352 3865.1058375026864
decision_type=2 2 2 2 2 2 2 2 2 2 2 2 2 2 2 2 2
left_child=4 12 3 -3 6 8 7 10 -6 -10 -1 13 -2 -12 -9 -13 -7
right_child=1 2 -4 -5 5 16 -8 14 9 -11 11 15 -14 -15 -16 -17 -18
leaf_value=0.0049111114264362389 0.0039449474937988793 -0.0058217946494145793 -0.06666888529399656 -0.020042381761730583 0.0015676214077238796 0.0033015196941940501 0.0042542322868589465 -0.0019758239611215199 0.018371065543533044 0.0080659042042799493 -0.021924195911631816 0.0032570244141594934 -0.016288772830937773 -0.0016212726670808834 -0.0190360685307106 -0.00012874493235887427 -7.2590838587933477e-05
leaf_weight=718 954 856 51 550 393 1917 1710 95 352 778 43 1601 45 9128 129 3591 2126
leaf_count=718 954 856 51 550 393 1917 1710 95 352 778 43 1601 45 9128 129 3591 2126
internal_value=0 -0.00678037 -0.0134832 -0.0114336 0.000739432 0.00353361 -0.000172563 -0.000670266 0.00884851 0.0113381 -0.000496876 -0.000770649 0.00296283 -0.00172559 -0.0120592 0.000908439 0.00151821
internal_weight=25037 2456 1457 1406 22581 5566 17015 15305 1523 1130 15081 14363 999 9171 224 5192 4043
internal_count=25037 2456 1457 1406 22581 5566 17015 15305 1523 1130 15081 14363 999 9171 224 5192 4043
is_linear=0
shrinkage=0.02


Tree=46
num_leaves=18
num_cat=0
split_feature=0 1 9 1 6 0 0 0 0 16 40 0 0 0 0 0 0
split_gain=601.319 458.915 186.855 239.159 163.905 306.751 97.4308 81.6335 131.255 69.9505 116.669 58.8153 112.226 65.4756 52.9622 50.9515 158.511
threshold=3215.487305689448 3865.1816992541212 0.25906744801446252 3865.2005304030208 2755.4167094891613 3215.5020726458947 3814.8824137931038 3215.4704944913069 2841.1853581511455 5.5000000000000009 64.500000000000014 4336.3406196139304 3815.8386583598963 6434.4829341317372 3215.4169676364268 3346.9401329833022 3215.5149298502324
decision_type=2 2 2 2 2 2 2 2 2 2 2 2 2 2 2 2 2
left_child=7 4 -3 -4 5 -2 -6 8 -1 10 -7 12 -8 -13 -10 16 -11
right_child=1 2 3 -5 6 9 11 -9 14 15 -12 13 -14 -15 -16 -17 -18
leaf_value=-0.005057300662411183 -0.0012417746912689082 -0.001422777695858732 -0.017537573803162228 -0.063006187740202044 0.015868985402696538 -0.0039489372387867087 0.0025012729783225425 0.0026582028714443907 0.016065264432867873 -0.0095961431307000754 -0.052720594924034143 0.0051895998814287672 -0.011186278878346735 -0.023152494612996552 0.0071297450852917492 0 -0.050817815462748217
leaf_weight=329 9536 280 688 49 210 42 775 7278 314 1413 39 1338 343 31 2139 196 37
leaf_count=329 9536 280 688 49 210 42 775 7278 314 1413 39 1338 343 31 2139 196 37
internal_value=0 -0.0025391 -0.0155009 -0.0207771 -0.00158987 -0.00265213 0.00283011 0.00378246 0.00670526 -0.0104061 -0.028618 0.00170119 -0.0016748 0.0044858 0.008302 -0.00945198 -0.0107441
internal_weight=25037 14977 1017 737 13960 11263 2697 10060 2782 1727 81 2487 1118 1369 2453 1646 1450
internal_count=25037 14977 1017 737 13960 11263 2697 10060 2782 1727 81 2487 1118 1369 2453 1646 1450
is_linear=0
shrinkage=0.02


Tree=47
num_leaves=18
num_cat=0
split_feature=1 9 1 7 1 7 13 20 13 20 23 1 30 1 24 13 1
split_gain=290.818 493.169 310.859 123.689 83.6999 63.8441 50.3632 44.2081 36.6863 30.933 26.0273 41.7504 27.7648 50.5981 25.7984 22.1095 21.0275
threshold=3865.152155683109 0.25906744801446252 3865.2005304030208 3358.8734473869231 3865.1918284784679 4977.5000000000009 14.500000000000002 4383.5390360036627 25.500000000000004 3201.1212113428992 0.37748392343066517 2662.5658952405879 311.50000000000006 3263.5303219038883 0.0061133769420888004 27.500000000000004 2662.4808389725954
decision_type=2 2 2 2 2 2 2 2 2 2 2 2 2 2 2 2 2
left_child=3 7 4 6 -3 8 10 15 9 16 -1 -12 14 -14 -13 -2 -5
right_child=1 2 -4 5 -6 -7 -8 -9 -10 -11 11 12 13 -15 -16 -17 -18
leaf_value=0.00044234581943119555 0.002138933087921447 -0.0084875232901024285 -0.064216986799015191 0.0087813440691202112 -0.020277834866888091 0.0073976864039545535 0.00070251588405166089 -0.015950161629217738 0.0049447127995737306 -0.00798165020293423 0.00079602206854467966 -0.012676883415180319 -0.005182111898859758 -0.030996020322199912 -0.0019313628927084083 0.0096979488775946719 0.0013036960773802309
leaf_weight=1641 752 529 51 154 477 923 6352 45 1304 138 1236 92 1215 30 2888 202 7008
leaf_count=1641 752 529 51 154 477 923 6352 45 1304 138 1236 92 1215 30 2888 202 7008
internal_value=0 -0.00720213 -0.0167171 0.000645533 -0.0141468 0.00238976 -0.000586782 0.00283864 0.00184629 0.00128614 -0.00174543 -0.00241008 -0.00335741 -0.00588493 -0.0022848 0.00379826 0.00147247
internal_weight=25037 2056 1057 22981 1006 9527 13454 999 8604 7300 7102 5461 4225 1245 2980 954 7162
internal_count=25037 2056 1057 22981 1006 9527 13454 999 8604 7300 7102 5461 4225 1245 2980 954 7162
is_linear=0
shrinkage=0.02


Tree=48
num_leaves=18
num_cat=0
split_feature=0 1 0 0 0 46 1 0 0 0 7 0 0 0 7 0 30
split_gain=570.07 408.865 218.802 536.06 168.521 161.514 150.531 137.318 92.9583 84.904 60.3589 40.9433 63.3086 54.6376 40.642 38.9615 35.0482
threshold=3215.4914910053367 3865.1859965008139 3346.9401329833022 3215.51622095025 3215.5036327250823 1.0000000180025095e-35 3865.2005304030208 3215.4788866414187 2841.1853581511455 3215.443058615941 4439.1381766381774 3815.6068414952192 4336.3406196139304 3816.0414981164886 2702.9513888888891 3215.5116752022727 297.50000000000006
decision_type=2 2 2 2 2 2 2 2 2 2 2 2 2 2 2 2 2
left_child=7 2 3 4 -2 6 -3 8 14 -10 11 -4 13 -13 -1 -6 -7
right_child=1 5 10 -5 15 16 -8 -9 9 -11 -12 12 -14 -15 -16 -17 -18
leaf_value=-0.01546559489046288 -0.0022060502480909837 -0.017419850609941275 0.0047307614809673857 -0.070013845599427513 -0.0085317410561582662 -0.0046939572345323956 -0.048739080052350607 0.0011770401234804013 0.013185299585262935 0.0050111033569585853 0.0070670773286463017 -0.0028381033992668876 0.0023098011294232289 -0.017333769938525031 -6.5634439253762109e-05 -0.018060048523249928 0.015303491501344576
leaf_weight=99 6114 640 669 47 1039 156 69 8598 586 4249 805 492 847 134 230 220 43
leaf_count=99 6114 640 669 47 1039 156 69 8598 586 4249 805 492 847 134 230 220 43
internal_value=0 -0.00333348 -0.00220028 -0.00403311 -0.00358821 -0.0161945 -0.0206526 0.0027318 0.00531125 0.00601512 0.0024005 0.000623109 -0.00121925 -0.00605003 -0.00488596 -0.0102545 -6.46175e-05
internal_weight=25037 11275 10367 7420 7373 908 709 13762 5164 4835 2947 2142 1473 626 329 1259 199
internal_count=25037 11275 10367 7420 7373 908 709 13762 5164 4835 2947 2142 1473 626 329 1259 199
is_linear=0
shrinkage=0.02


Tree=49
num_leaves=18
num_cat=0
split_feature=0 1 1 1 6 0 0 0 0 16 13 0 0 0 0 0 0
split_gain=549.715 406.886 172.211 207.77 147.898 285.186 92.8136 75.682 132.523 64.9961 166.104 55.0482 105.69 62.3744 46.0549 44.9359 147.846
threshold=3215.487305689448 3865.1859965008139 3865.2159568361499 3865.2005304030208 2755.4167094891613 3215.5020726458947 3814.8824137931038 3215.4678046996046 2841.1853581511455 5.5000000000000009 9.5000000000000018 4336.3406196139304 3815.8386583598963 6434.4829341317372 3215.495025391634 3346.9401329833022 3215.5149298502324
decision_type=2 2 2 2 2 2 2 2 2 2 2 2 2 2 2 2 2
left_child=7 4 3 -3 5 14 -6 8 -1 10 -7 12 -8 -13 -2 16 -11
right_child=1 2 -4 -5 6 9 11 -9 -10 15 -12 13 -14 -15 -16 -17 -18
leaf_value=-0.0047925331331212699 -0.00029111420177231102 -0.017072538935878196 -0.001483183043404302 -0.059624951917166803 0.015352949081164486 -0.06335878597572446 0.0023829791911181889 0.0026702159307095104 0.0088407839699504304 -0.0091642125492184864 -0.004105576820460693 0.0049156231514825913 -0.010737649957005048 -0.022746876033418104 -0.0033467612040639352 0 -0.048967067584013327
leaf_weight=329 6725 640 277 49 210 30 777 7793 1938 1446 51 1341 355 31 2811 197 37
leaf_count=329 6725 640 277 49 210 30 777 7793 1938 1446 51 1341 355 31 2811 197 37
internal_value=0 -0.00242873 -0.0149744 -0.0203205 -0.00155889 -0.0025678 0.00262476 0.0036155 0.00684213 -0.00996077 -0.027531 0.00152994 -0.00170811 0.00422928 -0.00119656 -0.00905813 -0.0102488
internal_weight=25037 14977 966 689 14011 11297 2714 10060 2267 1761 81 2504 1132 1372 9536 1680 1483
internal_count=25037 14977 966 689 14011 11297 2714 10060 2267 1761 81 2504 1132 1372 9536 1680 1483
is_linear=0
shrinkage=0.02


Tree=50
num_leaves=18
num_cat=0
split_feature=0 0 0 0 0 0 20 14 6 0 0 3 0 21 0 23 0
split_gain=556.926 353.901 758.877 268.603 167.741 124.456 116.549 86.4572 76.0707 74.347 71.6369 68.6379 47.6169 65.0944 40.2736 66.6159 39.318
threshold=3215.4938096057845 3346.9401329833022 3215.51622095025 3215.5082860647276 3215.4820713547947 3215.5169041573422 4383.5390360036627 3511.6748120300758 2387.3862705491356 3215.4622906266145 1939.4644517184945 26.500000000000004 3815.5488872790502 6.5000000000000009 5224.2126470588246 0.63373983739837414 3215.4998401187813
decision_type=2 2 2 2 2 2 2 2 2 2 2 2 2 2 2 2 2
left_child=4 2 3 16 8 -4 11 -8 9 -1 -10 12 -3 14 -14 -16 -2
right_child=1 6 5 -5 -6 -7 7 -9 10 -11 -12 -13 13 -15 15 -17 -18
leaf_value=0.0087917169897879476 -0.0024231044088440985 0.005662609725771651 -0.030125815842462624 -0.01487001064010695 0.00047553109837742704 -0.066754749937028429 -0.0054140642745410163 -0.035622118520736698 0.0054160673726299721 0.0037783261502061546 -0.020955753058529973 0.006945562328560243 -0.0021412692210307557 0.0074312120421152084 -0.0029818482895214589 -0.035643004875630144 -0.0064207503042275488
leaf_weight=1580 3529 516 90 1018 8987 80 181 48 72 4986 87 962 1102 270 76 38 1400
leaf_count=1580 3529 516 90 1018 8987 80 181 48 72 4986 87 962 1102 270 76 38 1400
internal_value=-2.67658e-05 -0.00390409 -0.00672181 -0.00551442 0.00226836 -0.0481713 0.00148228 -0.0121726 0.00465743 0.00499312 -0.00884642 0.00255825 0.000425277 -0.00137162 -0.00336803 -0.0146406 -0.00356882
internal_weight=25022 9310 6117 5947 15712 170 3193 229 6725 6566 159 2964 2002 1486 1216 114 4929
internal_count=25022 9310 6117 5947 15712 170 3193 229 6725 6566 159 2964 2002 1486 1216 114 4929
is_linear=0
shrinkage=0.02


Tree=51
num_leaves=18
num_cat=0
split_feature=1 9 1 1 1 1 1 9 1 18 1 1 26 1 1 25 1
split_gain=243.061 307.567 290.713 124.215 125.62 88.28 71.514 60.5592 58.8581 56.9112 55.9939 46.3796 37.3668 33.4459 278.164 101.895 33.2003
threshold=3865.1401080450601 0.25906744801446252 3865.1985812946996 3647.7408142999011 3865.0635249700731 3865.1887590165447 2662.498130631473 0.0094451673755272022 3864.8985413916948 3121.1606116433313 3865.2005304030208 3263.4636137153352 136.50000000000003 3278.6390685613301 3263.6201403002692 0.75874393899480708 3106.3079326923084
decision_type=2 2 2 2 2 2 2 2 2 2 2 2 2 2 2 2 2
left_child=3 -2 5 6 7 -3 -1 -5 -9 12 -4 16 -8 14 -13 -16 -11
