tree
version=v4
num_class=1
num_tree_per_iteration=1
label_index=0
max_feature_idx=83
objective=regression
feature_names=TargetTime BusinessSegmentDetail DistanceInKM DistanceInMiles RooftopLongitude RooftopLatitude OfficeId JobCount IECount LeaseCount SaleCount PopulationEstimate AverageHouseValue IncomePerHousehold MedianAge DeliveryTotal NumberofBusinesses NumberofEmployees ZipPopulation TargetTime_Original Year Quarter Month DayOfWeek DayOfMonth WeekOfYear Month_sin Month_cos DayOfWeek_sin DayOfWeek_cos rolling_avg_fee_office rolling_avg_fee_proptype rolling_avg_fee_state rolling_avg_fee_segment rolling_bid_count_office rolling_win_rate_office rolling_std_fee_office prev_fee_same_client prev_won_same_client days_since_last_bid_client same_proptype_as_last_client total_bids_to_client total_wins_with_client win_rate_with_client avg_historical_fee_client office_avg_fee office_std_fee office_win_rate propertytype_avg_fee propertytype_std_fee propertytype_win_rate state_avg_fee state_std_fee state_win_rate segment_avg_fee segment_std_fee segment_win_rate client_avg_fee client_std_fee client_win_rate building_size_numeric targettime_x_size distance_x_volume client_relationship_strength market_competitiveness Bid_Property_Type_frequency PropertyState_frequency OfficeLocation_frequency BusinessSegment_frequency BidCompanyType_frequency MarketOrientation_frequency Bid_Property_Type_encoded Bid_SubProperty_Type_encoded PropertyState_encoded PropertyCity_encoded OfficeLocation_encoded BusinessSegment_encoded BidCompanyName_encoded BidCompanyType_encoded days_since_start quarterly_avg_fee is_peak_season is_weekday targettime_ratio_to_proptype
feature_infos=[0:6000] none [0:15642.1766363114] [0:7683.4491192258301] [-158.07691:175.788208] [-46.490386999999998:61.592007000000002] [1:191] [0:73] [0:1050] [0:13600] [0:54] [0:94239] [0:962000] [0:160148] [0:61] [0:60309] [0:5647] [0:179047] [0:90316] [0:6000] [2018:2024] [1:4] [1:12] [0:6] [1:31] [1:53] [-1:1] [-1:1] [-0.97492791218182362:0.97492791218182362] [-0.90096886790241903:1] [0:15000] [0:8375] [0:15000] [0:15000] [0:1379] [0:1] [0:8117.5858480215657] [0:15000] [0:1] [0:999999] [0:1] [0:9565] [0:3030] [0:1] [0:15000] [0:15000] [0:8273.149339882606] [0:1] [2466.8624522292994:4862.9598958750494] [1499.6015996040919:3548.7804427140186] [0.31198686371100159:0.73170731707317072] [2662.0864022133323:15000] [0:5533.308232874796] [0:1] [1916.5921112929625:6655.3157894736842] [1675.5224086583171:5424.8632820512048] [0.3413949649195212:0.95206243032329985] [0:15000] [0:10606.601717798212] [0:1] [0:5] [0:5600] [0:8384508.6119867051] [0:3030.0000000000005] [0:946] [0.0003668026165253:0.22383693003676761] [8.7333956315555054e-06:0.28453402967607838] [8.7333956315555054e-06:0.27914552457140862] [0.00017466791263109999:0.81172545697492637] [2.6200186894666515e-05:0.57347842414609229] [1.7466791263111011e-05:0.44808432966821832] [0:12] [0:70] [0:72] [1:5853] [0:55] [0:11] [0:6906] [0:38] [0:2467] [3090.5943314763235:3803.1150550592151] [0:1] [0:1] [0:222.71463329857491]
tree_sizes=2868 2888 2899 2917 2900 2905 2947 2897 2900 2906 2916 2898 2896 2910 2919 2890 2890 2895 2894 2908 2907 2873 2925 2876 2893 2884 2891 2864 2890 2923 2903 2890 2870 2886 2890 2888 2882 2881 2915 2924 2876 2871 2874 2861 2861 2879 2884 2847 2868 2866 2857 2870 2888 2889 2860 2872 2857 2864 2860 2896 2903 2875 2877 2911 2873 2881 2906 2885 2879 2888 2869 2902 2891 2900 2857 2915 2900 2847 2890 2870 2885 2839 2831 2878 2873 2879 2836 2904 2894 2883 2882 2844 2882 2869 2915 2877 2910 2855 2889 2909 2867 2882 2891 2863 2864 2887 2857 2878 2886 2859 2868 2930 2874 2922 2895 2840 2837 2836 2826 2897 2908 2842 2822 2886 2869 2879 2884 2855 2841 2876 2868 2827 2840 2888 2850 2894 2844 2865 2837 2844 2823 2848 2825 2859 2873 2873 2888 2876 2893 2878 2820 2857 2900 2901 2855 2854 2838 2826 2844 2873 2889 2825 2864 2854 2858 2878 2808 2829 2806 2886 2881 2847 2856 2844 2861 2814 2849 2866 2871 2851 2861 2865 2871 2916 2814 2849 2871 2862 2869 2851 2832 2856 2839 2842 2796 2875 2810 2895 2839 2835 2899 2807 2878 2892 2886 2809 2803 2859 2878 2875 2882 2825 2872 2895 2887 2910 2887 2834 2829 2890 2833 2847 2844 2851 2872 2819 2863 2865 2870 2910 2857 2825 2873 2898 2877 2875 2808 2801 2847 2808 2838 2794 2848 2870 2862 2809 2840 2820 2799 2798 2918 2842 2894 2807 2830 2864 2858 2863 2873 2867 2861 2892 2908 2851 2787 2857 2855 2792 2890 2873 2823 2864 2851 2815 2784 2818 2850 2820 2849 2796 2801 2828 2935 2848 2826 2844 2844 2788 2816 2801 2847 2815 2808 2891 2878 2864 2872 2785 2876 2793 2790 2837 2861 2815 2847 2879 2865 2796 2813 2853 2818 2814 2809 2820 2820 2836 2870 2865 2822 2864 2808 2803 2812 2846 2799 2814 2792 2773 2829 2777 2811 2771 2805 2798 2804 2776 2825 2795 2786 2793 2789 2773 2775 2732 2786 2801 2799 2855 2803 2818 2856 2754 2721 2803 2828 2827 2809 2839 2824 2821 2771 2798 2795 2752 2728 2779 2826 2792 2785 2769 2759 2780 2842 2786 2822 2813 2868 2868 2820 2813 2814 2811 2819 2777 2790 2846 2749 2729 2768 2754 2859 2848 2794 2766 2757 2754 2703 2792 2793 2846 2835 2774 2801 2811 2750 2807 2735 2810 2773 2746 2759 2773 2814 2744 2730 2738 2744 2825 2789 2729 2762 2730 2766 2695 2742 2693 2742 2730 2718 2718 2790 2811 2764 2775 2808 2757 2762 2751 2793 2738 2748 2726 2736 2832 2799 2727 2773 2746 2742 2783 2718 2702 2738 2777 2751 2754 2729 2792 2744 2766 2710 2767 2746 2746 2754 2735 2695 2697 2731 2717 2774 2782 2751 2734 2777 2695 2728 2746 2726 2706 2741 2770 2799 2805 2705 2715 2708 2709 2783 2748 2793 2747 2745 2797 2717 2725 2718 2735 2691 2701 2731 2713 2688 2652 2758 2797 2731 2744 2722 2733 2798 2729 2748 2773 2724 2726 2733 2721 2699 2709 2685 2680 2694 2676 2672 2748 2795 2774 2750 2704 2697 2691 2679 2714 2707 2707 2705 2750 2702 2696 2706 2662 2667 2767 2705 2723 2711 2727 2763 2696 2729 2745 2803 2675 2768 2648 2677 2703 2723 2700 2692 2752 2746 2703 2708 2719 2689 2695 2690 2743 2738 2648 2715 2693 2698 2724 2736 2767 2730 2741 2706 2720 2686 2705 2746 2790 2702 2715 2747 2698 2752 2694 2679 2659 2689 2743 2733 2737 2689 2761 2671 2674 2656 2655 2705 2679 2667 2656 2673 2662 2707 2699 2700 2784 2713 2733 2778 2691 2730 2772 2644 2719 2744 2731 2719 2711 2694 2708 2760 2745 2705 2662 2710 2719 2711 2693 2717 2689 2728 2769 2689 2739 2688 2759 2682 2736 2758 2699 2732 2652 2709 2683 2687 2711 2677 2694 2724 2686 2695 2685 2683 2695 2690 2691 2661 2690 2650 2730 2717 2798 2719 2717 2790 2756 2733 2727 2681 2674 2709 2655 2793 2767 2709 2768 2743 2646 2665 2648 2679 2657 2747 2671 2664 2662 2687 2685 2711 2726 2670 2707 2680 2690 2698 2678 2751 2748 2702 2736 2798 2761 2676 2732 2702 2678 2710 2667 2675 2661 2670 2709 2701 2714 2695 2701 2736 2767 2654 2662 2757 2665 2712 2688 2705 2716 2678 2649 2691 2639 2763 2655 2649 2681 2682 2656 2696 2702 2683 2697 2721 2748 2672 2665 2636 2686 2648 2673 2708 2674 2662 2654 2703 2705 2699 2695 2708 2670 2679 2735 2705 2716 2722 2700 2767 2784 2710 2659 2723 2685 2715 2723 2653 2717 2648 2655 2654 2660 2731 2727 2700 2679 2787 2723 2712 2726 2728 2700 2776 2726 2725 2749 2712 2661 2723 2757 2692 2664 2757 2692 2708 2688 2667 2704 2784 2710 2722 2721 2652 2760 2756 2656 2702 2743 2718 2764 2797 2683 2664 2714 2706 2703 2699 2690 2669 2683 2700 2676 2690 2675 2677 2646 2662 2741 2734 2672 2663 2742 2642 2686 2634 2639 2662 2739 2662 2658 2641 2651 2652 2646 2649 2656 2709 2684 2693 2726 2722 2729 2766 2692 2777 2727 2719 2760 2712 2664 2751 2699 2638 2688 2690 2626 2692 2695 2737 2692 2687 2738 2717 2691 2671 2757 2706 2743 2694 2713 2703 2671 2810 2825 2667 2707 2655 2743 2684 2674 2718 2710 2703 2742 2688 2683 2675 2696 2654 2682 2774 2652 2719 2726 2667 2677 2755 2708 2771 2678 2714 2661 2657 2640 2672 2669 2654 2663 2668 2666 2685 2679 2661 2670 2686 2701 2794 2665 2685 2782 2647 2691 2694 2679 2712 2699 2651 2679 2666 2742 2743 2709 2765 2677 2723 2666 2695 2671 2694 2703 2682 2666 2672 2658 2645 2654 2719 2688 2683 2713 2658 2676 2645 2749 2656 2706 2663 2665 2664 2658 2649 2645 2665 2679 2667 2661 2677 2708 2778 2768 2726 2817 2698 2702 2733 2790

Tree=0
num_leaves=31
num_cat=0
split_feature=54 54 54 56 54 54 33 54 55 54 54 54 52 51 66 54 54 54 54 51 54 51 31 51 51 51 54 54 54 55
split_gain=8.6011e+10 1.77456e+10 3.45456e+10 1.39223e+10 4.11754e+10 1.35286e+10 1.03949e+10 8.10642e+09 7.24943e+09 9.6506e+09 7.1515e+09 5.33562e+09 2.82025e+09 2.68337e+09 3.34477e+09 2.64231e+09 3.13295e+09 8.0848e+09 2.53936e+09 2.42007e+09 2.01257e+09 1.91917e+09 1.56465e+09 2.03721e+09 1.49393e+09 1.34723e+09 1.21012e+09 1.20781e+09 1.05332e+09 9.8249e+08
threshold=3215.4655183766577 3346.9401329833022 3215.4897265019799 0.50705896023411956 3215.4105175159239 3712.1557185307474 4952.6306429548576 3215.5009429333795 2212.5966591679207 3711.7522930251757 3215.4788866414187 3215.4451566534694 1707.0096914766405 3864.9944620767978 0.25906744801446252 3712.275198514239 3762.3484824830816 3814.0493219356717 3215.3837218109834 3263.1726873401958 3712.3773446141154 3864.8360011050067 4678.7146126185044 3864.9745105742968 2662.4434516020492 2662.406064231503 3492.5851351351357 3215.4843469185748 3815.1721848739503 3335.2423283822714
decision_type=2 2 2 2 2 2 2 2 2 2 2 2 2 2 2 2 2 2 2 2 2 2 2 2 2 2 2 2 2 2
left_child=3 2 10 4 18 8 15 -4 9 -3 -2 -6 25 14 19 -7 20 -18 -1 -14 -17 -16 24 -24 -19 -8 -10 -12 -26 -30
right_child=1 5 7 -5 11 6 12 -9 26 -11 27 -13 13 -15 21 16 17 22 -20 -21 -22 -23 23 -25 28 -27 -28 -29 29 -31
leaf_value=3920.3322049945127 3399.0979066365749 3874.2868916531852 3303.5226289129914 3303.3666266317878 3588.0913026419357 3404.0392482497955 3602.0045063871016 3238.8188270764203 3505.2269278853205 3520.9676340196979 3361.3388003569676 3471.1165883312478 3767.3877461197476 3443.040948226871 3921.3674519311735 3343.5161070522608 3826.3924453779455 3581.1334961890984 3737.3495201479705 3434.1427755221848 3278.0042346197174 3621.8307821829062 3735.8567183282912 3391.6526573197521 3464.7986545875365 3396.6923242195039 3313.5834629055694 3336.0067839223989 3312.2489928156078 3385.1327895424824
leaf_weight=623 10402 244 15888 625 1276 2500 93 6962 108 929 8623 4132 74 281 117 4378 103 75 274 206 1601 99 66 123 195 564 346 10357 1103 796
leaf_count=623 10402 244 15888 625 1276 2500 93 6962 108 929 8623 4132 74 281 117 4378 103 75 274 206 1601 99 66 123 195 564 346 10357 1103 796
internal_value=3360.85 3343.32 3329.92 3528.45 3550.76 3393.31 3375.48 3283.81 3528.84 3594.5 3365.78 3498.72 3502.06 3566.53 3636.46 3358.89 3345.52 3393 3864.49 3522.33 3325.97 3784.26 3374.05 3511.99 3362.02 3425.79 3359.19 3347.52 3354.16 3342.8
internal_weight=73163 66233 52232 6930 6305 14001 12374 22850 1627 1173 29382 5408 1434 777 496 10940 8440 2461 897 280 5979 216 2358 189 2169 657 454 18980 2094 1899
internal_count=73163 66233 52232 6930 6305 14001 12374 22850 1627 1173 29382 5408 1434 777 496 10940 8440 2461 897 280 5979 216 2358 189 2169 657 454 18980 2094 1899
is_linear=0
shrinkage=1


Tree=1
num_leaves=31
num_cat=0
split_feature=54 54 54 56 54 54 54 33 56 54 54 54 54 52 51 53 54 54 54 54 51 54 54 0 68 51 51 54 54 51
split_gain=7.78726e+10 1.79692e+10 2.81116e+10 1.5185e+10 3.2238e+10 1.4349e+10 1.22098e+10 9.38214e+09 6.54271e+09 8.71017e+09 3.47466e+09 2.60859e+09 2.59436e+09 2.54554e+09 2.42476e+09 3.2752e+09 2.38496e+09 2.76246e+09 7.29725e+09 2.29171e+09 2.19064e+09 1.91573e+09 1.80666e+09 1.42902e+09 1.56946e+09 1.4249e+09 1.21604e+09 1.11973e+09 1.09222e+09 9.50153e+08
threshold=3215.4622906266145 3215.4815280168705 3346.9401329833022 0.50705896023411956 3215.4105175159239 3215.497177224996 3712.1557185307474 4952.6306429548576 0.863620199146515 3711.7522930251757 3215.4429295059394 3215.4730497934243 3215.4895812532282 1707.0096914766405 3864.9745105742968 0.50204918032786894 3712.2671506397032 3762.3484824830816 3814.0493219356717 3215.3837218109834 3263.1726873401958 3712.361042509287 3215.5057630401107 26.500000000000004 0.022501593844702756 3864.8360011050067 2662.406064231503 4869.9452054794538 3492.5851351351357 2662.4434516020492
decision_type=2 2 2 2 2 2 2 2 2 2 2 2 2 2 2 2 2 2 2 2 2 2 2 2 2 2 2 2 2 2
left_child=3 11 5 4 19 12 8 16 9 -4 -6 -2 -3 26 15 25 -8 21 -19 -1 -17 -18 -7 29 27 -15 -9 -25 -10 -20
right_child=1 2 6 -5 10 22 7 13 28 -11 -12 -13 -14 14 -16 20 17 18 23 -21 -22 -23 -24 24 -26 -27 -28 -29 -30 -31
leaf_value=531.62598656164744 57.618413235350673 -18.378146116395651 487.88894824098725 -54.49626233008285 223.36105154864265 -83.616120260536718 42.525641359452877 229.22313960123526 137.27816666877459 152.22601766909634 120.2741319120007 15.920067424986195 -49.235004852745789 529.84030199430435 82.576036784318461 386.35169402623154 -10.0820109923982 442.40129216931382 213.69056567003878 357.7948024500638 69.092174633812874 -67.764420570382384 -126.45276594697778 403.44068925081928 2.328927492961204 260.81505019370599 34.163925808208504 118.23116251266939 -44.790491474105323 -18.996031174104541
leaf_weight=623 5830 13919 244 625 1119 5222 2380 93 108 929 3035 10516 13341 118 295 74 3771 103 45 274 205 2328 4658 39 373 85 564 289 346 1612
leaf_count=623 5830 13919 244 625 1119 5222 2380 93 108 929 3035 10516 13341 118 295 74 3771 103 45 274 205 2328 4658 39 373 85 564 289 346 1612
internal_value=0.117088 -14.8429 -29.4292 177.987 206.754 -52.1899 30.9473 14.0157 159.71 222.084 148.048 30.7926 -33.4796 134.265 195.518 264.611 -1.74749 -14.0574 30.6569 478.573 153.348 -32.1002 -103.813 12.6534 72.4919 417.378 61.8057 152.256 -1.4583 -12.6643
internal_weight=73163 67487 51141 5676 5051 37140 14001 12374 1627 1173 4154 16346 27260 1434 777 482 10940 8560 2461 897 279 6099 9880 2358 701 203 657 328 454 1657
internal_count=73163 67487 51141 5676 5051 37140 14001 12374 1627 1173 4154 16346 27260 1434 777 482 10940 8560 2461 897 279 6099 9880 2358 701 203 657 328 454 1657
is_linear=0
shrinkage=0.05


Tree=2
num_leaves=31
num_cat=0
split_feature=54 54 54 56 54 54 54 55 55 54 54 52 51 54 54 54 54 54 55 54 54 54 54 54 55 54 54 51 54 54
split_gain=7.02807e+10 1.62178e+10 2.47878e+10 1.37047e+10 2.91496e+10 1.34965e+10 1.10446e+10 8.38331e+09 6.4108e+09 7.32455e+09 4.31397e+09 3.50253e+09 6.85572e+09 3.03811e+09 2.31418e+09 2.13846e+09 2.04132e+09 1.80067e+09 3.33497e+09 2.99211e+09 1.41705e+09 8.44016e+09 1.63152e+09 1.42195e+09 1.38713e+09 1.52039e+09 1.35316e+09 1.11461e+09 9.85809e+08 8.90387e+08
threshold=3215.4622906266145 3215.4810653726977 3346.9401329833022 0.50705896023411956 3215.4001833362026 3215.4955149337238 3712.1216698307885 3335.2423283822714 2212.5966591679207 3711.7522930251757 3215.4376790325364 2599.1145832785091 3864.9438159550637 3712.2908815517962 3215.5041437855057 3215.4730497934243 3215.4880050352904 5222.3450000000003 3990.9133138745988 5219.4332352941183 3762.3484824830816 3814.5998869892792 3815.6068414952192 3812.7236192408009 3668.7690709547346 6113.9899777034561 3712.3946784977311 3860.5529830810333 3492.5851351351357 3215.3569852814603
decision_type=2 2 2 2 2 2 2 2 2 2 2 2 2 2 2 2 2 2 2 2 2 2 2 2 2 2 2 2 2 2
left_child=3 15 5 4 29 16 8 13 9 -4 -6 17 27 -8 -7 -2 -3 18 19 -9 26 23 -23 -22 -19 -26 -15 -13 -10 -1
right_child=1 2 6 -5 10 14 7 11 28 -11 -12 12 -14 20 -16 -17 -18 24 -20 -21 21 22 -24 -25 25 -27 -28 -29 -30 -31
leaf_value=527.28670864468256 54.737542239791267 -13.694449555050031 463.50450827017613 -51.771884146462902 232.9250452413649 -72.448071056597144 32.887624464962762 482.31749590325728 130.42060677301654 151.97867720789267 117.21578339494816 118.13654079371709 74.760026251963197 -23.434804871631261 -116.96425465302514 16.382208615278714 -41.626771856498046 -37.915275534706367 -16.176061694173839 145.03501704944821 525.02615189622554 36.01434607612007 -72.139576815780657 233.23520806797643 430.44920801116837 57.680732313159048 -83.638530642011858 449.0263080942413 -42.551613291906023 415.40545113823447
leaf_weight=457 5830 12350 244 625 1074 6338 3422 85 108 832 3224 29 416 3930 5414 9648 13906 512 243 290 61 606 821 133 29 457 1224 213 346 296
leaf_count=457 5830 12350 244 625 1074 6338 3422 85 108 832 3224 29 416 3930 5414 9648 13906 512 243 290 61 606 821 133 29 457 1224 213 346 296
internal_value=0.111537 -14.1005 -27.4718 169.088 196.418 -48.4221 29.4012 13.846 156.182 222.659 146.134 100.653 197.892 -5.51344 -92.9569 30.8295 -28.4884 61.0501 128.114 221.594 -24.9097 15.864 -26.2109 325.207 19.5126 80.0081 -37.7337 409.439 -1.38437 483.368
internal_weight=73163 67487 52009 5676 5051 38008 14001 12471 1530 1076 4298 2274 658 10197 11752 15478 26256 1616 618 375 6775 1621 1427 194 998 486 5154 242 454 753
internal_count=73163 67487 52009 5676 5051 38008 14001 12471 1530 1076 4298 2274 658 10197 11752 15478 26256 1616 618 375 6775 1621 1427 194 998 486 5154 242 454 753
is_linear=0
shrinkage=0.05


Tree=3
num_leaves=31
num_cat=0
split_feature=58 37 51 32 51 51 51 30 45 6 45 66 49 48 67 45 51 45 30 51 51 5 45 51 51 51 45 48 45 51
split_gain=1.52582e+10 1.10286e+10 5.46336e+09 5.00355e+09 8.64017e+09 1.11348e+10 2.2869e+10 3.69138e+09 4.84143e+09 3.19381e+09 6.07331e+09 3.09553e+09 3.06884e+09 3.83453e+09 2.78184e+09 2.71091e+09 2.411e+09 2.14542e+09 2.06882e+09 1.98275e+09 1.87007e+09 1.9688e+09 1.66037e+09 1.49357e+09 1.71844e+09 1.45404e+09 1.32857e+09 1.31948e+09 1.29572e+09 1.18201e+09
threshold=2908.8544726594364 2902.5000000000005 2662.4434516020492 3300.0081967213118 3865.087144479573 3860.5529830810333 3864.9438159550637 3287.7974722779959 2915.3654965271267 99.000000000000014 2915.2003003566738 0.0094451673755272022 2651.9624491465875 4818.1153744493404 0.17491681440660944 2915.4040579438088 3865.0282261579546 2915.2362805831931 3624.2607771706139 3865.1214150219471 3864.8360011050067 39.762152500000006 2915.3066766785564 2662.5135529218237 2662.6289864283849 5313.8272727272733 6925.9090909090919 3728.0251798561158 2915.2003003566738 2662.5621565035335
decision_type=2 2 2 2 2 2 2 2 2 2 2 2 2 2 2 2 2 2 2 2 2 2 2 2 2 2 2 2 2 2
left_child=1 7 28 23 5 26 20 8 9 -1 -11 -6 17 -14 -10 -16 -8 -2 -19 -13 21 -7 -12 -4 29 -15 -5 -9 -3 -25
right_child=12 2 3 4 11 6 16 27 14 10 22 19 13 25 15 -17 -18 18 -20 -21 -22 -23 -24 24 -26 -27 -28 -29 -30 -31
leaf_value=-42.405487339059739 260.52425743589396 324.46235169831971 38.72877631748792 17.799675033423114 58.919978732267261 482.55075501171569 142.5318617345834 -9.3982250563999159 -27.911301559206784 387.41292362805683 103.93948147658996 -4.7048626945400605 421.05635492012982 71.062648650134449 -46.845849756071267 -102.72327937935376 48.668145387722149 22.898825030279546 137.01061855979617 -56.063941707589883 270.49693824675916 142.54260213300742 6.0787034042168999 -22.446455202092245 -3.5242307176961312 379.82487951845519 335.1226198887897 36.422478186560276 129.43961115650279 -75.216101958906265
leaf_weight=2113 185 102 1297 9559 1357 384 864 8686 7648 119 526 5411 184 221 5519 3578 3286 785 804 2879 240 48 2461 2838 7861 46 33 1918 516 1695
leaf_count=2113 185 102 1297 9559 1357 384 864 8686 7648 119 526 5411 184 221 5519 3578 3286 785 804 2879 240 48 2461 2838 7861 46 33 1918 516 1695
internal_value=0.106241 -3.93775 14.2254 11.8112 25.5421 50.0539 112.034 -25.3366 -37.0328 5.01556 37.2762 -11.0823 129.032 245.485 -50.1382 -68.8243 68.2129 99.4144 80.6419 -22.5416 382.607 444.814 23.3145 -12.3199 -17.6623 124.38 18.8949 -1.11013 161.675 -42.1795
internal_weight=73163 70938 38370 37752 24061 14414 4822 32568 21964 5219 3106 9647 2225 451 16745 9097 4150 1774 1589 8290 672 432 2987 13691 12394 267 9592 10604 618 4533
internal_count=73163 70938 38370 37752 24061 14414 4822 32568 21964 5219 3106 9647 2225 451 16745 9097 4150 1774 1589 8290 672 432 2987 13691 12394 267 9592 10604 618 4533
is_linear=0
shrinkage=0.05


Tree=4
num_leaves=31
num_cat=0
split_feature=54 54 54 54 56 54 54 55 54 54 55 54 4 51 53 51 51 54 51 54 54 54 54 54 54 54 57 54 54 54
split_gain=6.0152e+10 1.27813e+10 2.25506e+10 1.09354e+10 2.27538e+10 1.08141e+10 9.43197e+09 7.6143e+09 5.35795e+09 4.49193e+09 4.02355e+09 7.82857e+09 3.10189e+09 3.979e+09 2.52606e+09 2.03351e+09 2.02077e+09 1.90628e+09 1.63524e+09 1.32417e+09 1.31586e+09 7.24448e+09 1.44998e+09 1.23104e+09 1.14459e+09 1.06536e+09 9.01779e+08 8.84782e+08 8.56066e+08 8.49027e+08
threshold=3215.4676433121022 3346.9401329833022 3215.4901353503187 3215.4429295059394 0.50705896023411956 3215.4001833362026 3712.1722269913339 3335.2423283822714 3215.5009429333795 3215.4795590893441 2212.5966591679207 3711.8740429219979 -80.964315999999982 3865.0052051935299 0.47746394230769235 3263.1726873401958 3864.8360011050067 3712.3022723896001 2662.3686768609568 3711.3385497317381 3762.3484824830816 3814.5998869892792 3815.7082613735156 3812.7236192408009 3215.4570455327944 3712.403345439538 3226.3370473537611 3215.4848041831642 3215.5096040626618 3492.5851351351357
decision_type=2 2 2 2 2 2 2 2 2 2 2 2 2 2 2 2 2 2 2 2 2 2 2 2 2 2 2 2 2 2
left_child=3 2 9 4 5 -1 10 17 -4 -2 11 19 18 14 16 -16 -14 -8 -9 -3 25 23 -23 -22 -5 -19 -20 -11 -10 -12
right_child=1 6 8 24 -6 -7 7 12 28 27 29 -13 13 -15 15 -17 -18 20 26 -21 21 22 -24 -25 -26 -27 -28 -29 -30 -31
leaf_value=445.87903119579698 28.554710027198283 492.22480071663944 -48.574916985350377 121.6264661348451 -49.386269335051843 206.46132372965701 21.473977118684019 272.30648318518018 -90.140618509180342 -0.4542770695899363 120.20389628450039 105.78449455060372 471.60865020449 16.302276383539471 333.44810751680404 53.084146714424087 208.6482189073771 -25.481168917729466 -47.677280879872498 293.1987108737365 486.43519692678501 22.222285689919417 -78.778921069821948 214.94306492049566 71.951953270532726 -82.029568508979551 53.997387219164459 -22.050509837141917 -128.39673756625925 -40.3203552338816
leaf_weight=753 10117 145 15033 1767 625 1263 3369 75 4871 8440 108 1166 151 300 93 212 142 3698 277 199 61 759 668 133 3376 1075 1024 10826 2091 346
leaf_count=753 10117 145 15033 1767 625 1263 3369 75 4871 8440 108 1166 151 300 93 212 142 3698 277 199 61 759 668 133 3376 1075 1024 10826 2091 346
internal_value=0.101163 -15.5423 -27.0829 131.492 214.192 295.904 26.807 10.2296 -65.3694 1.57695 128.401 167.64 92.6266 164.909 239.445 138.653 344.282 -8.96304 45.4455 377.209 -25.0004 13.9207 -25.0601 300.516 89.0208 -38.2187 32.3475 -12.5897 -101.632 -2.1159
internal_weight=73163 65379 51378 7784 2641 2016 14001 12037 21995 29383 1964 1510 2274 898 598 305 293 9763 1376 344 6394 1621 1427 194 5143 4773 1301 19266 6962 454
internal_count=73163 65379 51378 7784 2641 2016 14001 12037 21995 29383 1964 1510 2274 898 598 305 293 9763 1376 344 6394 1621 1427 194 5143 4773 1301 19266 6962 454
is_linear=0
shrinkage=0.05


Tree=5
num_leaves=31
num_cat=0
split_feature=54 68 54 54 56 54 54 55 55 54 54 54 52 54 0 45 57 54 57 54 79 54 54 54 54 54 54 54 54 54
split_gain=5.53133e+10 1.13409e+10 2.05447e+10 9.87244e+09 2.18726e+10 8.83142e+09 8.55665e+09 6.20156e+09 4.95212e+09 5.50315e+09 4.7894e+09 4.19814e+09 2.96247e+09 2.36309e+09 1.78793e+09 1.44558e+09 1.22028e+09 1.20678e+09 1.11188e+09 9.18049e+08 1.43001e+09 3.83107e+09 1.31257e+09 8.73926e+08 8.11175e+08 8.09771e+08 8.08128e+08 8.02969e+08 7.69468e+08 7.65414e+08
threshold=3215.4670623170946 0.45876963922342651 3215.4911413324157 3215.4376790325364 0.50705896023411956 3712.1216698307885 3215.4001833362026 3335.2423283822714 2212.5966591679207 3711.7522930251757 3215.4998670166983 3215.4795590893441 1707.0096914766405 3712.28564011556 38.500000000000007 2915.2855578499471 5129.6918767507004 3215.454893699432 5501.4705882352946 3815.892990437555 1672.5000000000002 3814.0493219356717 3712.3692967395796 6424.9395209580844 3215.5100664378556 3215.4848041831642 3215.3569852814603 4869.9452054794538 3711.9565852249284 3494.6121621621628
decision_type=2 2 2 2 2 2 2 2 2 2 2 2 2 2 2 2 2 2 2 2 2 2 2 2 2 2 2 2 2 2
left_child=3 5 11 4 6 8 26 13 9 -2 -4 -3 15 -7 18 -9 19 -5 27 20 22 -22 -15 -16 -12 -13 -1 -14 -11 -10
right_child=1 2 10 17 -6 7 -8 12 29 28 24 25 14 16 23 -17 -18 -19 -20 -21 21 -23 -24 -25 -26 -27 -28 -29 -30 -31
leaf_value=464.42902583288105 403.57633349787983 27.515751782892778 -45.712277452450962 123.39951501646927 -44.651386997182058 35.710488410528882 206.08646349800253 148.68790903302704 66.066962783520708 211.1661859107885 -85.553489918305857 -0.44715911023445049 294.97008969884854 -12.097528976921257 315.94816396103454 -2.187242477798399 94.718619310428821 71.382268912036864 198.61680255280365 -98.88190861124643 367.30455863276381 7.2737470404547189 -62.382386816804171 81.43742484673129 -123.98308318732495 -21.091275066914548 357.92228940788198 64.605989947519404 105.34173543899203 -62.942801357658681
leaf_weight=472 246 10307 14807 1629 635 2587 1104 194 224 239 5395 8478 40 3957 181 872 226 3536 259 380 80 953 1931 51 1843 10803 290 671 612 236
leaf_count=472 246 10307 14807 1629 635 2587 1104 194 224 239 5395 8478 40 3957 181 872 226 3536 259 380 80 953 1931 51 1843 10803 290 671 612 236
internal_value=0.193626 -14.6638 -25.4678 127.277 208.817 25.3565 295.07 11.2431 137.586 195.324 -62.0069 1.75629 85.966 -5.51375 139.778 25.2817 -19.6826 87.7902 109.934 -23.2251 -19.0698 35.189 -28.5895 264.454 -95.3403 -12.014 423.947 77.6057 135.083 -0.119939
internal_weight=73238 65572 51633 7666 2501 13939 1866 12382 1557 1097 22045 29588 2268 10114 1202 1066 7527 5165 970 7301 6921 1033 5888 232 7238 19281 762 711 851 460
internal_count=73238 65572 51633 7666 2501 13939 1866 12382 1557 1097 22045 29588 2268 10114 1202 1066 7527 5165 970 7301 6921 1033 5888 232 7238 19281 762 711 851 460
is_linear=0
shrinkage=0.05


Tree=6
num_leaves=31
num_cat=0
split_feature=57 57 0 19 51 51 51 51 51 51 51 45 67 51 58 45 66 6 45 48 31 51 45 45 67 45 51 83 51 51
split_gain=1.49408e+10 9.99336e+09 5.49002e+09 3.66151e+09 2.70807e+09 5.53834e+09 7.46877e+09 2.3345e+09 4.79776e+09 1.22548e+10 2.56103e+09 2.29414e+09 2.16886e+09 1.97276e+09 1.67859e+09 1.67352e+09 1.63933e+09 1.63849e+09 2.71079e+09 1.52307e+09 1.50706e+09 1.40822e+09 1.24923e+09 1.12717e+09 1.81086e+09 1.23221e+09 1.07061e+09 1.06238e+09 1.01963e+09 9.49994e+08
threshold=3358.5077930038092 5501.4705882352946 25.500000000000004 19.500000000000004 3865.0692418429053 3791.8509036144583 3864.9438159550637 3865.1058375026864 3860.5529830810333 3864.9438159550637 2662.4434516020492 2915.3692509855459 0.17491681440660944 3865.06045550815 4278.5275573162571 2915.4005381390402 0.25906744801446252 99.000000000000014 2915.2542706964527 3373.8002876563892 3998.2765567765568 3865.1518487369162 2915.2003003566738 2915.3379638320507 0.17491681440660944 2915.3919341718297 3865.081020903036 1.8610470079003447 4220.7589285714303 2662.3686768609568
decision_type=2 2 2 2 2 2 2 2 2 2 2 2 2 2 2 2 2 2 2 2 2 2 2 2 2 2 2 2 2 2
left_child=3 2 7 11 5 29 -7 8 10 -10 -2 17 -13 -11 19 -14 -9 -1 -19 23 22 -18 -3 -5 -25 -26 -21 -24 -6 -4
right_child=1 20 4 14 28 6 -8 16 9 13 -12 12 15 -15 -16 -17 21 18 -20 26 -22 -23 27 24 25 -27 -28 -29 -30 -31
leaf_value=-37.665130000905258 144.37938311553089 240.88313640940851 246.35306355141489 36.781354429428376 -2.4384084026808459 325.07139490756504 83.319055856810238 25.445123803721017 334.07505440270239 91.670787053225567 -5.0978183605391587 -25.387922407440538 -41.251866064492646 14.000163611208661 353.45627537292296 -86.497426332009667 -27.993691674185154 215.70972961023995 8.6044706463846676 56.847815357378863 214.71127465395864 -110.52924504540211 82.024364462389514 -2.3206697329161758 -21.116401590487627 -81.941508724648784 -7.5517486897870869 251.39374404968203 88.267359179067995 39.208713673225603
leaf_weight=2072 293 164 56 1195 2219 446 1126 1187 368 1093 12829 10068 5004 3243 33 3455 2984 167 2901 1633 453 625 1239 9179 2165 1353 1067 100 360 4161
leaf_count=2072 293 164 56 1195 2219 446 1126 1187 368 1093 12829 10068 5004 3243 33 3455 2984 167 2901 1633 453 625 1239 9179 2165 1353 1067 100 360 4161
internal_value=0.184156 25.1586 18.2401 -20.237 52.8418 71.8267 151.924 5.44059 13.7719 57.0954 -1.75908 -32.8698 -41.0692 33.5807 -2.25318 -59.7328 -25.5253 -3.3148 19.8845 -2.96278 134.766 -42.2897 110.658 -9.64134 -14.0107 -44.511 31.3987 94.6911 10.226 41.9653
internal_weight=73238 32946 30990 40292 8368 5789 1572 22622 17826 4704 13122 23667 18527 4336 16625 8459 4796 5140 3068 16592 1956 3609 1503 13892 12697 3518 2700 1339 2579 4217
internal_count=73238 32946 30990 40292 8368 5789 1572 22622 17826 4704 13122 23667 18527 4336 16625 8459 4796 5140 3068 16592 1956 3609 1503 13892 12697 3518 2700 1339 2579 4217
is_linear=0
shrinkage=0.05


Tree=7
num_leaves=31
num_cat=0
split_feature=57 57 0 31 58 57 30 30 49 48 55 48 48 57 57 58 31 57 19 48 48 48 49 48 48 66 65 48 48 31
split_gain=1.34843e+10 9.0193e+09 4.95482e+09 3.35958e+09 2.13576e+09 1.8354e+09 1.74151e+09 1.58101e+09 1.48934e+09 1.73905e+09 1.22595e+09 1.08985e+09 1.5892e+09 1.07106e+09 1.06429e+09 1.06732e+09 1.06415e+09 9.16581e+08 8.92599e+08 8.70531e+08 8.34175e+08 1.05672e+09 1.3958e+09 1.31218e+09 9.16231e+08 8.24824e+08 7.56505e+08 1.78434e+09 1.0337e+09 6.64548e+08
threshold=3358.5077930038092 5501.4705882352946 25.500000000000004 3476.2035626198963 3359.060303526257 2742.0965823058627 5511.0739019607854 5062.0768437929464 2651.9624491465875 4818.1153744493404 3335.2423283822714 3061.9222524680908 3115.1139076989871 3745.5483805811482 10008.333333333334 3535.1708210156889 3918.2689291101055 3745.5483805811482 19.500000000000004 3194.4202980998093 3729.7675359712234 4818.7456975036721 3425.7870397487627 4818.1153744493404 4147.2026581118253 0.0012881758556544003 0.2176362191383632 3194.2767692847947 3168.9619117372067 4046.6290243389217
decision_type=2 2 2 2 2 2 2 2 2 2 2 2 2 2 2 2 2 2 2 2 2 2 2 2 2 2 2 2 2 2
left_child=3 2 7 5 29 11 10 16 14 -10 20 -1 -13 -12 -3 -16 19 -8 -7 26 -4 22 24 -24 -22 -11 28 -28 -2 -5
right_child=1 8 6 4 -6 18 17 -9 9 25 13 12 -14 -15 15 -17 -18 -19 -20 -21 21 -23 23 -25 -26 -27 27 -29 -30 -31
leaf_value=-19.801589116759747 4.4611548783817829 93.629859639343039 31.29598150244631 -5.4125826786766531 328.09337910691357 -25.598179880658051 258.55973522308165 76.594500615901993 360.48399607563096 313.61547880747713 188.6193508073616 -72.310399159849666 -31.025228476728291 51.033817194056489 393.12272489706942 132.70566080762504 28.321891769476892 78.746289868288727 -1.8059032927215313 -19.188144890302681 214.31277666782145 22.788742910739018 355.71145353534718 116.41994237253967 51.61299625241567 77.904146978681183 248.03457128797868 21.414721077930515 -45.62862393162321 21.458472475952711
leaf_weight=4075 9510 1436 5737 6549 51 10369 147 749 137 48 271 4472 4869 296 61 111 3424 137 6360 5277 98 703 92 152 735 163 90 2417 1155 3547
leaf_count=4075 9510 1436 5737 6549 51 10369 147 749 137 48 271 4472 4869 296 61 111 3424 137 6360 5277 98 703 92 152 735 163 90 2417 1155 3547
internal_value=0.175112 23.901 17.3283 -19.2251 5.66008 -27.6016 50.2002 5.16866 128.03 221.814 45.9235 -41.3785 -50.7911 116.815 107.72 225.238 2.72248 171.877 -16.5529 -2.02871 40.5747 70.477 101.6 206.753 70.7776 131.649 4.84584 29.5598 -0.963853 4.02807
internal_weight=73238 32946 30990 40292 10147 30145 8368 22622 1956 348 8084 13416 9341 567 1608 172 21873 284 16729 18449 7517 1780 1077 244 833 211 13172 2507 10665 10096
internal_count=73238 32946 30990 40292 10147 30145 8368 22622 1956 348 8084 13416 9341 567 1608 172 21873 284 16729 18449 7517 1780 1077 244 833 211 13172 2507 10665 10096
is_linear=0
shrinkage=0.05


Tree=8
num_leaves=31
num_cat=0
split_feature=54 54 54 56 54 54 54 68 56 54 4 51 54 54 53 51 54 54 54 51 51 54 54 54 54 54 54 54 51 6
split_gain=4.61067e+10 1.08627e+10 1.52611e+10 9.43353e+09 1.86957e+10 8.11901e+09 7.28606e+09 5.19273e+09 3.0521e+09 5.70757e+09 2.41074e+09 3.2888e+09 2.13371e+09 1.74293e+09 1.60767e+09 1.80763e+09 1.51197e+09 1.46201e+09 1.35153e+09 1.34592e+09 1.22296e+09 1.0831e+09 5.93569e+09 1.16038e+09 1.03605e+09 9.91045e+08 9.66206e+08 8.15141e+08 6.9476e+08 6.32744e+08
threshold=3215.4618871578587 3215.4820713547947 3346.9401329833022 0.50705896023411956 3215.4164296780859 3215.4955149337238 3712.1722269913339 0.022501593844702756 0.863620199146515 3711.7522930251757 -80.964315999999982 3865.0201688204061 3215.3837218109834 3215.4740934326051 0.47746394230769235 3864.8360011050067 3215.5090553451541 3712.3107742468019 3215.4482337751765 3263.1726873401958 2662.3686768609568 3762.3484824830816 3814.5998869892792 3815.5488872790502 3215.4885698915477 3812.7236192408009 3712.0236508460589 3712.448950061907 4343.1516736401682 52.500000000000007
decision_type=2 2 2 2 2 2 2 2 2 2 2 2 2 2 2 2 2 2 2 2 2 2 2 2 2 2 2 2 2 2
left_child=3 13 5 4 12 24 8 10 9 -4 20 14 -1 -2 15 -12 -7 -9 -6 -16 -8 27 25 -24 -3 -23 -11 -19 -22 -5
right_child=1 2 6 29 18 16 7 17 -10 26 11 -13 -14 -15 19 -17 -18 21 -20 -21 28 22 23 -25 -26 -27 -28 -29 -30 -31
leaf_value=407.1846014229248 44.882545298481574 -12.979286702912194 365.34288749214306 41.317495383851053 144.21491835215787 -65.21518404871442 242.46108838691089 15.267436010254016 -2.1027814837130121 174.95919514273862 407.91187551398025 -5.3896690390190347 262.20521014772424 11.441438221130648 282.12390270428006 169.96663138447002 -111.43390281599586 -30.090593793159258 84.488204058326019 48.065400229810436 15.915814342420198 429.67388685586496 34.332787228228845 -59.632722565910356 -33.2201867338608 189.72676019661364 76.257828223815736 -100.85590285836696 194.2295939804585 -72.028497452910102
leaf_weight=631 6187 12208 246 167 1717 9573 67 3843 460 337 150 270 426 10524 88 171 2171 3778 2114 203 1262 64 518 898 13113 132 939 456 57 468
leaf_count=631 6187 12208 246 167 1717 9573 67 3843 460 337 150 270 426 10524 88 171 2171 3778 2114 203 1262 64 518 898 13113 132 939 456 57 468
internal_value=0.166578 -11.1635 -22.6264 139.077 162.629 -39.3987 21.9726 7.25449 110.759 144.868 75.3571 139.973 348.784 23.8227 204.094 281.248 -73.7601 -8.68757 111.26 118.919 34.2306 -24.4349 10.4439 -25.2583 -23.4615 268.256 102.337 -37.7142 23.6357 -42.2176
internal_weight=73238 67715 51004 5523 4888 37065 13939 11957 1982 1522 2268 882 1057 16711 612 321 11744 9689 3831 291 1386 5846 1612 1416 25321 196 1276 4234 1319 635
internal_count=73238 67715 51004 5523 4888 37065 13939 11957 1982 1522 2268 882 1057 16711 612 321 11744 9689 3831 291 1386 5846 1612 1416 25321 196 1276 4234 1319 635
is_linear=0
shrinkage=0.05


Tree=9
num_leaves=31
num_cat=0
split_feature=54 54 54 54 56 54 54 55 54 55 54 54 52 51 54 52 51 51 54 57 7 54 4 51 54 54 54 54 54 54
split_gain=4.16654e+10 8.0939e+09 1.49654e+10 7.6639e+09 1.66708e+10 6.59152e+09 6.53461e+09 4.46516e+09 3.65453e+09 3.45569e+09 4.37184e+09 2.90716e+09 2.21446e+09 1.79749e+09 1.69142e+09 1.63035e+09 3.69764e+09 1.39109e+09 9.44455e+08 9.06525e+08 9.03041e+08 7.32216e+08 7.28098e+08 7.88754e+08 7.05282e+08 6.98315e+08 1.0904e+09 2.95447e+09 8.7801e+08 6.96766e+08
threshold=3215.4676433121022 3346.9401329833022 3215.4914910053367 3215.4376790325364 0.50705896023411956 3712.1557185307474 3215.4001833362026 3335.2423283822714 3215.4820713547947 2212.5966591679207 3711.7522930251757 3215.5030678688245 1707.0096914766405 3263.1726873401958 3712.2940181593071 2409.9740411982416 3864.9438159550637 2662.4434516020492 3215.455792089861 5129.6918767507004 1.0000000180025095e-35 3215.4757073076266 -1.0000000180025095e-35 3865.0843205746037 3814.8824137931038 3815.9545667922353 3762.3484824830816 3814.0493219356717 3712.4179966983079 3815.3134482758628
decision_type=2 2 2 2 2 2 2 2 2 2 2 2 2 2 2 2 2 2 2 2 2 2 2 2 2 2 2 2 2 2
left_child=3 2 8 4 6 9 -1 14 21 10 -3 -4 17 -14 -7 -15 20 -9 -5 25 -17 -2 -18 -24 -21 26 28 -28 -16 -29
right_child=1 5 11 18 -6 7 -8 12 -10 -11 -12 -13 13 15 19 16 22 -19 -20 24 -22 -23 23 -25 -26 -27 27 29 -30 -31
leaf_value=369.10404043283984 31.277173624083936 347.08316616165303 -44.098260188019914 104.58312286516889 -40.106936563369594 22.679565621545319 178.71747759195486 149.30087749474555 -16.362763760417117 -1.9976650173470809 110.61819056796797 -86.311417431923928 306.93840690432256 19.436109742439921 -21.616961681076688 331.80702498159877 206.84999976362178 -5.9329036374494617 60.202804222718015 161.47288475004595 94.421098966851005 8.257623220316054 80.16753621815208 -76.283014512974063 -20.117307738663612 -98.894140813367471 316.59982644984791 71.898058963139121 -79.793318885929693 -22.16553521773011
leaf_weight=762 5776 246 13330 1810 635 3381 1104 172 17858 460 951 5877 114 409 4228 222 63 894 3552 119 49 8595 217 128 97 298 80 263 766 782
leaf_count=762 5776 246 13330 1810 635 3381 1104 172 17858 460 951 5877 114 409 4228 222 63 894 3552 119 49 8595 217 128 97 298 80 263 766 782
internal_value=0.158464 -12.9207 -22.0792 108.901 181.178 20.8749 256.479 8.24532 -1.25888 114.481 159.24 -57.0151 71.5922 118.117 -6.10224 98.3058 145.804 19.1258 75.1855 -20.7731 288.936 17.5098 50.6855 22.1168 79.9538 -24.1649 -20.5239 23.9449 -30.5417 1.5125
internal_weight=73238 65375 51436 7863 2501 13939 1866 12282 32229 1657 1197 19207 2268 1202 10014 1088 679 1066 5362 6633 271 14371 408 345 216 6417 6119 1125 4994 1045
internal_count=73238 65375 51436 7863 2501 13939 1866 12282 32229 1657 1197 19207 2268 1202 10014 1088 679 1066 5362 6633 271 14371 408 345 216 6417 6119 1125 4994 1045
is_linear=0
shrinkage=0.05


Tree=10
num_leaves=31
num_cat=0
split_feature=57 19 57 51 58 51 51 51 66 51 51 51 51 57 51 51 51 66 5 51 51 57 51 53 51 51 49 51 30 58
split_gain=1.0561e+10 7.7437e+09 3.39981e+09 2.39086e+09 2.06644e+09 1.94924e+09 4.55971e+09 1.08733e+10 1.83191e+09 1.71606e+09 1.70285e+09 5.25814e+09 8.1592e+09 1.62178e+09 1.42003e+09 1.40317e+09 1.24895e+09 1.13262e+09 1.02979e+09 1.27925e+09 1.00142e+09 9.82378e+08 9.59401e+08 8.37923e+08 1.32737e+09 7.87199e+08 7.3441e+08 1.58693e+09 7.34241e+08 6.27937e+08
threshold=4890.1195652173928 22.500000000000004 2768.7822164948461 2662.4808389725954 4390.5556887671564 3865.1150151938368 3860.5529830810333 3864.9745105742968 0.25906744801446252 3865.0692418429053 3865.0843205746037 3791.8509036144583 3864.9438159550637 6629.166666666667 3864.8360011050067 3865.1582946069561 2662.535985344151 0.0094451673755272022 33.722520500000009 3864.8360011050067 2662.4434516020492 2800.0625000000005 3865.0282261579546 0.37748392343066517 3865.1042720771052 2662.3686768609568 3425.7870397487627 3864.9039129500602 3112.6189695900989 1054.0364073296489
decision_type=2 2 2 2 2 2 2 2 2 2 2 2 2 2 2 2 2 2 2 2 2 2 2 2 2 2 2 2 2 2
left_child=1 2 16 25 10 6 28 14 -7 -9 11 20 18 26 -8 -10 -1 -12 19 -13 -3 -22 -14 24 -18 -4 -2 -28 -5 -15
right_child=13 4 3 5 -6 8 7 9 15 -11 17 12 22 29 -16 -17 23 -19 -20 -21 21 -23 -24 -25 -26 -27 27 -29 -30 -31
leaf_value=13.653907243417732 57.228096924812043 118.91747748015055 212.5510334079037 -22.695334710088531 325.55422642803029 19.341906932968232 339.64503378287077 61.879319246168123 -32.890565052100094 2.6015090110280785 50.11310757208944 361.92033289073817 106.62090234769815 272.03473049864482 174.69746754588229 -99.110435385937578 37.219756466787857 -15.726142828816121 70.909172334364413 194.43803529490089 -17.73983457875153 21.033359762405013 36.607792881105695 -44.599335381851148 -40.526635784751257 62.578989285330273 345.33222856032211 41.801926303933868 -5.0307852625618583 135.32987270520348
leaf_weight=1252 1597 227 101 10634 57 1389 242 1552 4315 5722 806 276 643 93 284 982 874 3444 59 195 2081 7598 2047 10646 1476 652 72 107 13166 872
leaf_count=1252 1597 227 101 10634 57 1389 242 1552 4315 5722 806 276 643 93 284 982 874 3444 59 195 2081 7598 2047 10646 1476 652 72 107 13166 872
internal_value=0.0614719 -3.6709 -13.1343 -5.50447 25.2556 -7.23987 -2.05036 31.1263 -31.7666 15.2499 24.2687 33.1752 88.6803 96.3562 250.636 -45.1686 -34.0397 -3.23904 267.972 292.637 15.1322 12.697 53.3466 -38.6344 -11.6112 82.7203 67.9998 164.017 -12.9235 148.531
internal_weight=73461 70720 53287 39039 17433 38286 31600 7800 6686 7274 17376 13126 3220 2741 526 5297 14248 4250 530 471 9906 9679 2690 12996 2350 753 1776 179 23800 965
internal_count=73461 70720 53287 39039 17433 38286 31600 7800 6686 7274 17376 13126 3220 2741 526 5297 14248 4250 530 471 9906 9679 2690 12996 2350 753 1776 179 23800 965
is_linear=0
shrinkage=0.05


Tree=11
num_leaves=31
num_cat=0
split_feature=57 19 57 51 45 58 51 51 51 66 51 51 51 51 57 51 51 66 51 4 51 51 45 57 58 51 66 51 2 45
split_gain=9.53159e+09 6.9888e+09 3.06835e+09 2.15784e+09 2.14129e+09 1.86533e+09 1.76116e+09 4.02965e+09 9.86616e+09 1.67933e+09 1.57855e+09 1.53818e+09 4.38969e+09 7.6424e+09 1.48602e+09 1.28165e+09 1.24205e+09 1.0707e+09 9.36115e+08 9.13931e+08 1.15692e+09 9.03832e+08 9.00515e+08 8.86599e+08 7.78797e+08 7.56936e+08 2.45024e+09 1.73415e+09 6.97256e+08 1.4078e+09
threshold=4890.1195652173928 22.500000000000004 2768.7822164948461 2662.4808389725954 2915.3833302046182 4390.5556887671564 3865.116734092514 3860.5529830810333 3864.9745105742968 0.25906744801446252 3865.0742680868048 3865.0879271923636 3791.8509036144583 3864.9438159550637 7661.8627450980403 3864.8360011050067 3865.1582946069561 0.0094451673755272022 3865.0282261579546 -1.0000000180025095e-35 3864.8360011050067 2662.4434516020492 2915.0728052061827 2800.0625000000005 1054.0364073296489 3865.044724515793 0.25906744801446252 3864.8360011050067 9756.1596411619885 2915.2003003566738
decision_type=2 2 2 2 2 2 2 2 2 2 2 2 2 2 2 2 2 2 2 2 2 2 2 2 2 2 2 2 2 2
left_child=1 2 4 22 28 11 7 -5 15 -8 -10 12 21 19 25 -9 -11 -13 -15 -14 -21 -3 -4 -23 -16 26 -2 -28 -1 -30
right_child=14 5 3 6 -6 -7 9 8 10 16 -12 17 13 18 24 -17 -18 -19 -20 20 -22 23 -24 -25 -26 -27 27 -29 29 -31
leaf_value=-12.079157530733506 53.97614663930981 112.97422183266511 367.1760433503951 -12.277318578211926 -46.726508287165956 309.30502241705852 18.374881264386087 322.66979557684954 55.983199915426319 -31.691200617067452 1.2908886980412404 47.607763307687001 70.674093073963519 101.29068642617607 316.85592866513809 165.96566856891832 -94.155418501180904 -16.791576519345181 32.893099337714915 344.11392370104051 184.72111628702032 -16.852885445234531 68.216085984995104 19.981705600580671 136.65886806726564 13.028431715379241 365.24579123815465 123.38848459116979 297.28819158338086 21.198381786908868
leaf_weight=4604 1237 227 26 23800 9186 57 1389 242 1719 4197 5673 806 60 643 66 284 982 3238 2253 275 195 2081 727 7598 654 458 114 212 52 406
leaf_count=4604 1237 227 26 23800 9186 57 1389 242 1719 4197 5673 806 60 643 66 284 982 3238 2253 275 195 2081 727 7598 654 458 114 212 52 406
internal_value=0.0585879 -3.48722 -12.4775 -5.22916 -32.3377 23.9932 -6.87782 -1.99785 28.9 -30.4436 14.0101 23.0555 31.2487 80.0338 91.54 238.109 -43.5367 -3.95544 48.0824 254.579 278.036 14.3757 78.5861 12.0621 153.219 69.5599 86.1232 208.05 -6.22593 52.6029
internal_weight=73461 70720 53287 39039 14248 17433 38286 31718 7918 6568 7392 17376 13332 3426 2741 526 5179 4044 2896 530 470 9906 753 9679 720 2021 1563 326 5062 458
internal_count=73461 70720 53287 39039 14248 17433 38286 31718 7918 6568 7392 17376 13332 3426 2741 526 5179 4044 2896 530 470 9906 753 9679 720 2021 1563 326 5062 458
is_linear=0
shrinkage=0.05


Tree=12
num_leaves=31
num_cat=0
split_feature=54 54 54 54 56 54 54 33 55 54 54 54 52 54 57 51 66 51 54 54 54 54 54 54 51 51 54 54 54 45
split_gain=3.37785e+10 6.87308e+09 1.10964e+10 6.03161e+09 6.02876e+09 1.59477e+10 5.37503e+09 3.77851e+09 2.04539e+09 4.30294e+09 1.54869e+09 1.46813e+09 1.09593e+09 1.04134e+09 9.95059e+08 9.55231e+08 1.25139e+09 1.01314e+09 9.34017e+08 9.27431e+08 8.86237e+08 2.54723e+09 8.66938e+08 8.56434e+08 6.99693e+08 6.34314e+08 6.11897e+08 5.9637e+08 4.46888e+08 4.45345e+08
threshold=3215.4651149079023 3215.4826200723019 3346.9401329833022 3215.4976882854194 0.50705896023411956 3215.4164296780859 3712.1835765579867 4952.6306429548576 2212.5966591679207 3711.8740429219979 3215.4511817868829 3215.3837218109834 1707.0096914766405 3215.4901353503187 5501.4705882352946 3864.9745105742968 0.25906744801446252 3263.1726873401958 3215.4740934326051 3712.3166760214613 3762.3484824830816 3814.5998869892792 3215.5096040626618 3711.3385497317381 3864.8360011050067 4343.1516736401682 3712.448950061907 3492.5851351351357 3812.7236192408009 2915.2753895250612
decision_type=2 2 2 2 2 2 2 2 2 2 2 2 2 2 2 2 2 2 2 2 2 2 2 2 2 2 2 2 2 2
left_child=4 18 3 13 5 11 8 14 9 23 -7 -1 29 -3 19 16 17 -14 -2 -8 26 28 -5 -4 -18 -17 -21 -10 -22 -9
right_child=1 2 6 22 -6 10 7 12 27 -11 -12 -13 15 -15 -16 25 24 -19 -20 20 21 -23 -24 -25 -26 -27 -28 -29 -30 -31
leaf_value=346.74743455759022 35.513463583864166 -13.294655173310014 366.52950453954838 -61.416513785880923 -42.247224531328463 121.72194445568249 11.354584305319973 123.0590351980082 98.873933142599441 75.330563838196156 63.886577481005453 226.45233350197941 265.02860182010295 -32.775072558798122 84.722716625070305 16.380924473465715 342.17239520568586 41.298192889906723 9.5967918621311092 -26.618623497126908 367.1383173661801 -6.7599904701168088 -98.39831621871258 207.65871013802953 153.00121239497136 212.1326388421887 -87.966806172479608 -37.98331293670261 161.05915746444313 16.211823853154922
leaf_weight=637 5023 14242 143 6919 610 1832 3867 118 105 1304 3145 423 67 13236 298 238 114 206 11291 3671 41 2110 2056 210 86 50 457 328 74 560
leaf_count=637 5023 14242 143 6919 610 1832 3867 118 105 1304 3145 423 67 13236 298 238 114 206 11291 3671 41 2110 2056 210 86 50 457 328 74 560
internal_value=0.0558846 -10.6382 -19.753 -34.3022 107.549 122.685 18.0033 5.07209 91.98 117.264 85.1774 298.769 81.059 -22.6783 -5.32458 122.242 165.949 96.2833 17.5766 -7.95103 -19.7021 5.7344 -69.8893 272.103 260.946 50.4274 -33.4123 -4.78104 234.786 34.8231
internal_weight=73461 66814 50500 36453 6647 6037 14047 11957 2090 1657 4977 1060 1439 27478 10518 761 473 273 16314 10220 6353 2225 8975 353 200 288 4128 433 115 678
internal_count=73461 66814 50500 36453 6647 6037 14047 11957 2090 1657 4977 1060 1439 27478 10518 761 473 273 16314 10220 6353 2225 8975 353 200 288 4128 433 115 678
is_linear=0
shrinkage=0.05


Tree=13
num_leaves=31
num_cat=0
split_feature=54 54 54 56 54 54 54 55 55 54 52 51 54 54 52 51 54 51 54 51 54 54 54 54 54 54 54 51 51 54
split_gain=3.05391e+10 7.09348e+09 1.00149e+10 6.24375e+09 1.28108e+10 5.45535e+09 4.90544e+09 3.08253e+09 3.02134e+09 2.4804e+09 1.57709e+09 1.53762e+09 1.53084e+09 1.33529e+09 1.1774e+09 2.44669e+09 1.12121e+09 1.01177e+09 9.81743e+08 9.51521e+08 9.33458e+08 8.22887e+08 1.56461e+09 3.26256e+09 9.84636e+08 7.6031e+08 6.45088e+08 6.01585e+08 7.12685e+08 5.82227e+08
threshold=3215.4622906266145 3215.4826200723019 3346.9401329833022 0.50705896023411956 3215.4164296780859 3215.4966123687386 3712.1014882377226 2212.5966591679207 3335.2423283822714 3711.3385497317381 1707.0096914766405 3263.1726873401958 3712.2534073462652 3215.3569852814603 2409.9740411982416 3864.9039129500602 3215.4740934326051 3860.5529830810333 3215.4511817868829 2662.406064231503 3215.5096040626618 3815.8060591133012 3762.3484824830816 3814.0493219356717 3712.3575344614123 3215.4891724048894 3711.9565852249284 4343.1516736401682 3865.06045550815 3815.1721848739503
decision_type=2 2 2 2 2 2 2 2 2 2 2 2 2 2 2 2 2 2 2 2 2 2 2 2 2 2 2 2 2 2
left_child=3 16 5 4 13 25 7 9 12 -4 19 -12 -8 -1 -13 17 -2 -16 -6 -10 -7 22 24 -24 -14 -3 -11 28 -17 -25
right_child=1 2 6 -5 18 20 8 -9 10 26 11 14 21 -15 15 27 -18 -19 -20 -21 -22 -23 23 29 -26 -27 -28 -29 -30 -31
leaf_value=347.23386541078901 35.930191461982012 -11.814327975391393 348.21583706624529 -40.135209248812743 115.63617935059902 -55.837390285511326 34.257982222783902 -4.5412872883442841 139.93179855741988 174.69751910146002 273.65754266683729 10.626687151865156 -4.4654722210592928 234.04425936257314 68.800934463606026 91.759416451192735 9.1169565438042426 309.38554947953224 66.144367376562542 -1.8930674125314131 -93.478639772662945 -77.006179091546741 281.8806281846916 74.898880717780287 -44.315518694012241 -28.879083313020288 84.604141719788288 188.10101482209183 -43.80060722732857 -9.2296612230278807
leaf_weight=466 5955 12953 143 610 1832 8286 2076 433 135 343 114 386 4214 594 58 206 11291 178 2213 949 2056 484 128 285 2452 13158 473 69 183 738
leaf_count=466 5955 12953 143 610 1832 8286 2076 433 135 343 114 386 4214 594 58 206 11291 178 2213 949 2056 484 128 285 2452 13158 473 69 183 738
internal_value=0.0532904 -9.31022 -18.7651 111.047 129.113 -32.5871 17.104 106.191 7.30411 156.182 59.4459 99.0836 -4.14273 283.833 80.6327 119.563 18.3757 250.313 88.5618 15.7809 -63.3213 -13.7467 -9.82895 44.0015 -19.1242 -20.4138 122.491 52.1491 27.9921 14.2129
internal_weight=73461 67746 50500 5715 5105 36453 14047 1392 12655 959 2278 1194 10377 1060 1080 694 17246 236 4045 1084 10342 8301 7817 1151 6666 26111 816 458 389 1023
internal_count=73461 67746 50500 5715 5105 36453 14047 1392 12655 959 2278 1194 10377 1060 1080 694 17246 236 4045 1084 10342 8301 7817 1151 6666 26111 816 458 389 1023
is_linear=0
shrinkage=0.05


Tree=14
num_leaves=31
num_cat=0
split_feature=57 0 57 57 51 51 51 51 51 51 51 51 66 51 51 66 4 51 51 51 30 76 58 53 51 51 30 51 51 51
split_gain=7.04042e+09 4.96825e+09 2.09384e+09 1.65367e+09 1.41824e+09 2.55037e+09 6.65078e+09 1.54526e+09 1.43353e+09 1.14882e+09 3.31626e+09 6.0866e+09 1.09544e+09 9.34671e+08 8.9996e+08 8.38482e+08 7.71983e+08 8.92376e+08 7.21134e+08 6.58048e+08 6.58425e+08 6.92519e+08 5.69796e+08 5.59227e+08 9.36809e+08 5.47642e+08 5.47633e+08 4.85271e+08 1.4728e+09 1.45101e+09
threshold=4425.4629629629644 21.500000000000004 2768.7822164948461 6629.166666666667 3865.1150151938368 3860.5529830810333 3864.9438159550637 2662.4911204994955 3865.0661340127081 3865.0892317136809 3791.8509036144583 3864.9438159550637 0.25906744801446252 3865.167886675466 2662.5285078700422 0.0094451673755272022 -1.0000000180025095e-35 3864.8360011050067 3865.0355161300226 2662.406064231503 3368.2342992172503 1.0000000180025095e-35 5847.6936575602604 0.37748392343066517 3865.1058375026864 2662.3686768609568 3112.6189695900989 3865.06045550815 3860.5529830810333 3864.8360011050067
decision_type=2 2 2 2 2 2 2 2 2 2 2 2 2 2 2 2 2 2 2 2 2 2 2 2 2 2 2 2 2 2
left_child=1 2 14 22 5 7 -7 25 -8 10 19 16 -6 -14 -1 -11 -12 -18 -13 -3 -21 -22 27 24 -16 -4 -9 28 -2 -30
right_child=3 9 4 -5 12 6 8 26 -10 15 11 18 13 -15 23 -17 17 -19 -20 20 21 -23 -24 -25 -26 -27 -28 -29 29 -31
leaf_value=17.772855732852531 35.721695579368991 128.22570738259932 178.21839167305887 121.50220920348362 14.913516353615861 236.41840067052931 58.057522412853238 -19.956182866341887 2.5326991003106718 40.240820174057824 59.686893342771263 79.960528907686296 -27.635295955084896 -85.736546613189546 30.541065117928184 -16.045421351158936 297.38795574034907 158.5801876089846 24.882203993617193 -5.9851969360865365 168.0664696189109 18.236902009093267 266.59520725106046 -36.246456192544656 -34.567482042472449 45.665972931987 -4.3459544994209942 7.369294951929982 297.13229645373775 86.188874554181098
leaf_weight=999 1879 119 88 965 1274 353 1467 10173 5598 833 66 809 4382 822 905 3215 291 193 2239 3943 78 6168 29 10793 1418 676 12549 688 107 342
leaf_count=999 1879 119 88 965 1274 353 1467 10173 5598 833 66 809 4382 822 905 3215 291 193 2239 3943 78 6168 29 10793 1418 676 12549 688 107 342
internal_value=0.0507942 -3.66865 -11.5649 64.468 -5.36962 -0.910701 24.647 -8.98311 14.0627 18.98 25.8039 67.1317 -26.641 -36.8142 -27.9723 -4.46209 220.209 242.081 39.5032 11.3779 10.012 20.1106 46.3898 -31.4567 -9.20211 60.9551 -11.335 44.2636 55.1663 136.513
internal_weight=73461 69451 51497 4010 37382 30904 7418 23486 7065 17954 13906 3598 6478 5204 14115 4048 550 484 3048 10308 10189 6246 3045 13116 2323 764 22722 3016 2328 449
internal_count=73461 69451 51497 4010 37382 30904 7418 23486 7065 17954 13906 3598 6478 5204 14115 4048 550 484 3048 10308 10189 6246 3045 13116 2323 764 22722 3016 2328 449
is_linear=0
shrinkage=0.05


Tree=15
num_leaves=31
num_cat=0
split_feature=54 54 56 54 54 54 54 55 54 54 55 54 52 51 73 51 51 54 54 54 54 51 54 54 54 45 54 54 54 0
split_gain=2.56534e+10 4.70918e+09 9.82059e+09 4.70632e+09 9.66499e+09 4.53334e+09 4.1567e+09 2.95918e+09 2.62993e+09 1.5747e+09 1.51763e+09 3.17569e+09 1.33895e+09 1.3279e+09 1.06195e+09 2.31096e+09 9.02291e+08 8.71778e+08 9.18049e+08 2.35581e+09 1.38784e+09 7.54303e+08 6.1301e+08 6.07336e+08 5.38036e+08 4.93634e+08 4.91915e+08 4.84295e+08 4.6496e+08 4.63919e+08
threshold=3215.4686977104498 3215.4429295059394 0.50705896023411956 3346.9401329833022 3215.4928735582721 3215.4001833362026 3712.1835765579867 3335.2423283822714 3215.4809819891548 3215.5064032105356 2212.5966591679207 3711.8740429219979 1767.6620185759191 3263.1726873401958 25.500000000000004 3864.9438159550637 2662.4780349198049 3815.8060591133012 3762.3484824830816 3814.0493219356717 3712.3442864217918 3791.8509036144583 5219.4332352941183 3711.3385497317381 3494.6121621621628 2915.2362805831931 3815.0852535496965 3215.4570455327944 3215.4247680323642 14.500000000000002
decision_type=2 2 2 2 2 2 2 2 2 2 2 2 2 2 2 2 2 2 2 2 2 2 2 2 2 2 2 2 2 2
left_child=1 2 5 4 8 -1 10 17 -2 -6 11 23 16 22 -15 21 -9 18 20 -20 -8 -16 -14 -5 -12 -17 -21 -3 -7 -4
right_child=3 27 29 6 9 28 7 12 -10 -11 24 -13 13 14 15 25 -18 -19 19 26 -22 -23 -24 -25 -26 -27 -28 -29 -30 -31
leaf_value=290.20220715705199 15.390819769560185 79.231579831735303 -71.921668180906906 315.87113673661815 -40.003320149807692 179.59830274705763 4.67987074458848 105.26384404904732 -13.005718690590852 -75.863073310185257 55.215529831981172 66.451412929948418 367.63498337658672 7.2122874299601314 75.567458651594492 179.41667837776288 -8.2018255460832616 -74.394042108245898 253.18272667633246 83.105304054210706 -38.868753699598294 266.64760658585436 136.46555038959883 181.39944556147395 -55.296769695873081 14.745202115548048 -4.7490459343567322 46.892975023869916 114.96728623448453 16.01388573695694
leaf_weight=749 13030 1734 360 142 12487 408 5198 220 21787 4056 212 1309 58 379 68 52 859 473 114 200 2823 216 57 207 229 360 782 3486 879 257
leaf_count=749 13030 1734 360 142 12487 408 5198 220 21787 4056 212 1309 58 379 68 52 859 473 114 200 2823 216 57 207 229 360 782 3486 879 257
internal_value=-0.0557682 85.2065 139.448 -10.3328 -17.3295 192.403 15.4122 3.93267 -2.37851 -48.7958 80.2665 102.192 55.2794 91.8511 74.5607 111.228 14.9406 -8.21644 -4.78229 38.1382 -10.6474 220.939 253.274 236.188 -2.17019 35.5675 13.1505 57.6367 135.469 -35.2971
internal_weight=73191 7873 2653 65318 51360 2036 13958 11859 34817 16543 2099 1658 2269 1190 1075 696 1079 9590 9117 1096 8021 284 115 349 441 412 982 5220 1287 617
internal_count=73191 7873 2653 65318 51360 2036 13958 11859 34817 16543 2099 1658 2269 1190 1075 696 1079 9590 9117 1096 8021 284 115 349 441 412 982 5220 1287 617
is_linear=0
shrinkage=0.05


Tree=16
num_leaves=31
num_cat=0
split_feature=54 54 54 54 56 54 54 54 55 55 54 54 54 0 54 55 54 55 54 54 54 54 54 54 54 54 54 54 54 54
split_gain=2.31533e+10 4.21974e+09 8.8042e+09 4.17779e+09 8.31341e+09 4.67508e+09 3.8e+09 2.67517e+09 2.4027e+09 2.32517e+09 1.78116e+09 1.27083e+09 1.23273e+09 1.20105e+09 7.54024e+08 1.52924e+09 1.76112e+09 1.27818e+09 1.32654e+09 1.00994e+09 6.47664e+08 8.83048e+08 2.30866e+09 7.51293e+08 5.61056e+08 5.58253e+08 5.48745e+08 5.22578e+08 4.97036e+08 4.83763e+08
threshold=3215.4676433121022 3346.9401329833022 3215.4933846186955 3215.4479002410058 0.50705896023411956 3215.4001833362026 3712.1014882377226 3215.4831661000176 3335.2423283822714 2212.5966591679207 3711.3385497317381 3712.28564011556 3215.5064032105356 38.500000000000007 5222.3450000000003 3990.9133138745988 5219.4332352941183 3668.7690709547346 6113.9899777034561 4869.9452054794538 3815.9545667922353 3762.3484824830816 3814.0493219356717 3712.403345439538 5219.4332352941183 3815.3895131845848 3215.4761699517994 3215.4269198657262 3492.5851351351357 3711.9565852249284
decision_type=2 2 2 2 2 2 2 2 2 2 2 2 2 2 2 2 2 2 2 2 2 2 2 2 2 2 2 2 2 2
left_child=3 2 7 4 5 -1 9 26 11 10 -3 -8 -4 14 15 16 -10 -16 -19 -17 21 23 -23 -13 -15 -24 -2 -7 -11 -12
right_child=1 6 12 -5 -6 27 8 -9 13 28 29 20 -14 24 17 19 -18 18 -20 -21 -22 22 25 -25 -26 -27 -28 -29 -30 -31
leaf_value=275.69403397032164 22.911395355455092 300.08869524102749 -39.821837649419628 53.344982416242885 -33.532662149372761 162.46716962437495 24.552413693086969 -15.081595570899147 332.40393654403101 89.415755331312411 152.99157155457689 -11.567444930428179 -72.070013355053774 258.60579534142511 -40.621469565014394 187.41184078767338 86.428396189303996 282.83510765775969 38.444864483738691 -45.080366443349057 -85.883315665850716 240.53468451403825 51.354813222947769 -57.372888773602121 104.31471958620003 -21.401245929744316 4.2204382747164066 101.28835859544884 -32.849145516743263 74.956594846346121
leaf_weight=749 6864 142 11004 4876 617 543 2781 20367 90 111 346 4845 4056 80 574 56 379 62 525 279 309 114 411 1098 224 735 9177 980 330 467
leaf_count=749 6864 142 11004 4876 617 543 2781 20367 90 111 346 4845 4056 80 574 56 379 62 525 279 309 114 411 1098 224 735 9177 980 330 467
internal_value=-0.0528108 -9.74105 -16.3538 81.577 129.223 173.422 14.6423 -3.05347 5.9451 92.8987 136.745 -4.32188 -48.5074 52.5179 38.2053 75.4216 133.691 12.4284 64.3016 -6.17165 -15.0115 -11.9701 26.0495 -20.0311 144.989 4.6941 12.2185 123.11 -2.06168 108.182
internal_weight=73191 65426 51468 7765 2889 2272 13958 36408 12562 1396 955 10293 15060 2269 1965 804 469 1161 587 335 7512 7203 1260 5943 304 1146 16041 1523 441 813
internal_count=73191 65426 51468 7765 2889 2272 13958 36408 12562 1396 955 10293 15060 2269 1965 804 469 1161 587 335 7512 7203 1260 5943 304 1146 16041 1523 441 813
is_linear=0
shrinkage=0.05


Tree=17
num_leaves=31
num_cat=0
split_feature=54 54 54 54 56 54 54 33 55 54 54 54 54 54 57 52 51 2 54 54 51 54 51 5 54 54 0 51 0 0
split_gain=2.10134e+10 5.2761e+09 5.89553e+09 4.9449e+09 4.57741e+09 8.09169e+09 3.42963e+09 2.18586e+09 2.09854e+09 1.60911e+09 1.03153e+09 9.29458e+08 8.848e+08 8.16998e+08 7.99247e+08 7.23029e+08 8.83672e+08 7.17436e+08 5.53645e+08 5.06467e+08 4.75125e+08 4.56456e+08 4.30524e+08 4.48464e+08 8.34634e+08 5.72176e+08 4.18702e+08 3.94963e+08 3.75582e+08 3.49883e+08
threshold=3215.4602732828375 3215.4795590893441 3346.9401329833022 3215.4955149337238 0.50705896023411956 3215.4164296780859 3712.1014882377226 5519.3207735247224 2212.5966591679207 3711.7522930251757 3215.3569852814603 3712.2328955839871 3215.487413281116 3215.5090553451541 5501.4705882352946 1739.9052988997844 3864.9039129500602 7349.9009981626414 3215.4482337751765 3215.4708818213121 3263.1726873401958 3494.6121621621628 3865.1214150219471 27.188108000000003 3762.3484824830816 3812.7236192408009 14.500000000000002 2662.4808389725954 41.500000000000007 34.500000000000007
decision_type=2 2 2 2 2 2 2 2 2 2 2 2 2 2 2 2 2 2 2 2 2 2 2 2 2 2 2 2 2 2
left_child=4 19 3 12 5 10 8 11 9 -4 -1 -8 -3 -5 22 -9 17 20 -7 -2 -17 -10 23 24 -13 -26 -6 -25 -16 -27
right_child=1 2 6 13 26 18 7 15 21 -11 -12 14 -14 -15 28 16 -18 -19 -20 -21 -22 -23 -24 27 25 29 -28 -29 -30 -31
leaf_value=292.4099607243233 34.777478426207871 -3.3150676322302584 240.37995661747595 -44.708931067346498 -66.650416058773672 98.485847743236079 36.204670607631769 32.13560791269807 50.898444515621257 91.762383742252553 191.81236230654892 -2.1427606358212681 -20.695457165273531 -78.45189322417194 49.703218199794215 236.54642677535554 47.061357674319453 266.60442611097204 59.310905295535228 14.010286612948731 53.380740067429237 -50.891397527688873 -30.818989908508481 90.773156380899749 273.93501698440099 35.099349652657423 16.889483362985739 -16.788917085155642 212.6363280032341 143.36453855689169
leaf_weight=458 4630 13522 245 9607 360 1710 1473 558 212 710 577 2833 15972 2206 301 50 268 120 1910 8024 121 229 1832 87 30 522 257 4240 40 87
leaf_count=458 4630 13522 245 9607 360 1710 1473 558 212 710 577 2833 15972 2206 301 50 268 120 1910 8024 121 229 1832 87 30 522 257 4240 40 87
internal_value=-0.0500071 -7.51423 -14.1826 -23.6757 96.1097 113.071 13.9109 5.64838 88.2558 129.911 236.352 -0.867719 -12.7272 -51.0108 -6.34412 72.4077 112.595 172.912 77.8184 21.6091 107.045 -1.95796 -9.00796 -3.88418 9.50065 61.1139 -31.8563 -14.6242 68.8724 50.5868
internal_weight=73191 67919 55265 41307 5272 4655 13958 12562 1396 955 1035 11445 29494 11813 9972 1117 559 291 3620 12654 171 441 9631 7799 3472 639 617 4327 341 609
internal_count=73191 67919 55265 41307 5272 4655 13958 12562 1396 955 1035 11445 29494 11813 9972 1117 559 291 3620 12654 171 441 9631 7799 3472 639 617 4327 341 609
is_linear=0
shrinkage=0.05


Tree=18
num_leaves=31
num_cat=0
split_feature=54 54 54 68 54 54 54 55 55 54 52 54 0 54 54 54 54 45 54 54 54 54 54 54 54 54 33 54 54 5
split_gain=1.89648e+10 4.77369e+09 6.00331e+09 4.13118e+09 7.31852e+09 3.79115e+09 3.09908e+09 2.20772e+09 1.12814e+09 2.37283e+09 1.04151e+09 7.98207e+08 7.82789e+08 7.53544e+08 7.18561e+08 6.70429e+08 6.6492e+08 5.88585e+08 5.27243e+08 5.03723e+08 1.00777e+09 2.0128e+09 5.26825e+08 4.91714e+08 4.57256e+08 4.21763e+08 3.9726e+08 5.73846e+08 4.93423e+08 3.82249e+08
threshold=3215.4602732828375 3215.4815280168705 3346.9401329833022 0.45876963922342651 3215.4105175159239 3215.4976882854194 3712.1835765579867 3335.2423283822714 2212.5966591679207 3711.8740429219979 1767.6620185759191 3215.4371410741956 38.500000000000007 3215.471973876743 3712.3254048699964 3215.4901353503187 3215.3569852814603 2915.3262311494905 3215.5110847391979 3815.9545667922353 3762.3484824830816 3814.5998869892792 3712.4683475030956 3812.7236192408009 3711.3385497317381 3492.5851351351357 5974.5967741935492 5219.4332352941183 4869.9452054794538 29.224900500000004
decision_type=2 2 2 2 2 2 2 2 2 2 2 2 2 2 2 2 2 2 2 2 2 2 2 2 2 2 2 2 2 2
left_child=3 13 5 29 16 15 8 14 9 24 17 -6 26 -2 -8 -3 -5 -9 -7 20 22 23 -16 -22 -4 -10 28 -28 -12 -1
right_child=1 2 6 4 11 18 7 10 25 -11 12 -13 -14 -15 19 -17 -18 -19 -20 -21 21 -23 -24 -25 -26 -27 27 -29 -30 -31
leaf_value=12.910167465785364 32.40986323643363 -9.0588729701898352 273.08427734374999 277.79265741607657 128.48280555763117 -47.61701753129779 9.059171773759596 75.360409324058693 82.406360254386442 57.22462759484911 189.15826678552077 66.470217180115156 163.87780897930855 9.1559426102060115 -21.83473394638208 -24.512573075026644 191.64213180870621 -9.4693762650416957 -78.201738556710708 -80.763796725561619 294.96089751216158 -2.36387890089647 -87.213455119384108 120.17980070076622 156.40635942121108 -30.220608020854407 303.89817432968277 83.453996003317599 25.888621590899749 -66.128711453519571
leaf_weight=280 4929 15079 142 458 622 7189 3980 274 111 1309 50 3134 225 11882 3705 13129 441 805 1753 309 59 1074 336 127 207 330 33 275 607 337
leaf_count=280 4929 15079 142 458 622 7189 3980 274 111 1309 50 3134 225 11882 3705 13129 441 805 1753 309 59 1074 336 127 207 330 33 275 607 337
internal_value=-0.0473527 -7.1384 -14.7409 91.3048 107.418 -25.2448 13.216 3.30383 69.2151 88.1188 47.6543 76.7428 79.9092 15.9742 -7.18991 -16.2516 235.558 12.0772 -53.6137 -18.7177 -15.0996 23.941 -27.2729 175.75 203.945 -1.86006 60.3161 107.164 38.3409 -30.2639
internal_weight=73191 67919 51108 5272 4655 37150 13958 11859 2099 1658 2269 3756 1190 16811 9590 28208 899 1079 8942 5610 5301 1260 4041 186 349 441 965 308 657 617
internal_count=73191 67919 51108 5272 4655 37150 13958 11859 2099 1658 2269 3756 1190 16811 9590 28208 899 1079 8942 5610 5301 1260 4041 186 349 441 965 308 657 617
is_linear=0
shrinkage=0.05


Tree=19
num_leaves=31
num_cat=0
split_feature=54 54 54 56 54 54 54 33 55 54 54 54 54 57 54 54 58 54 54 54 54 31 54 51 31 54 48 51 0 4
split_gain=1.7117e+10 4.11453e+09 6.05788e+09 3.49702e+09 7.02633e+09 2.88278e+09 2.82949e+09 1.81479e+09 1.72746e+09 1.33783e+09 8.51557e+08 8.38074e+08 7.71066e+08 7.15179e+08 6.40392e+08 5.89183e+08 5.73825e+08 4.67871e+08 4.12391e+08 3.87243e+08 3.77782e+08 3.64852e+08 3.61406e+08 3.40909e+08 4.16483e+08 5.20672e+08 4.32057e+08 3.26452e+08 3.21738e+08 2.74197e+08
threshold=3215.4622906266145 3215.4837121277333 3346.9401329833022 0.50705896023411956 3215.4164296780859 3215.4987911000176 3712.1014882377226 5519.3207735247224 2212.5966591679207 3711.3385497317381 3215.3837218109834 3215.475583577208 3712.2534073462652 5501.4705882352946 6431.1333832335331 3215.4511817868829 4037.6756090324866 3215.4924162936827 3215.5116739111727 3494.6121621621628 3711.9565852249284 4923.8485226184448 1938.9832733224227 3865.1244077473225 4738.1329750346749 3762.3484824830816 4818.1153744493404 2662.3686768609568 41.500000000000007 -82.106387999999995
decision_type=2 2 2 2 2 2 2 2 2 2 2 2 2 2 2 2 2 2 2 2 2 2 2 2 2 2 2 2 2 2
left_child=3 11 5 4 10 17 8 12 9 -4 -1 -2 -8 23 16 -6 21 -3 -7 -10 -11 -9 -5 24 27 -26 -27 -14 -15 -29
right_child=1 2 6 22 15 18 7 14 19 20 -12 -13 13 28 -16 -17 -18 -19 -20 -21 -22 -23 -24 -25 25 26 -28 29 -30 -31
leaf_value=250.96126470241754 25.159836544482314 -13.386702349745079 259.43967479300449 47.910696106514827 88.187242283468208 -47.122602624537421 26.537972069405978 54.010233808400073 46.917941009565553 132.71956667895952 158.51184151478535 4.06240153513723 183.80114933894231 47.144776207096015 -48.058686496715737 49.63608357055405 176.88792927459082 -27.547076483431965 -75.244699022944204 -46.837567182650787 63.761811389567846 168.59839962371547 -47.844830789336356 -30.042535902148025 -3.7012007038148598 206.07007989197228 47.604582612031962 -19.235252641336132 199.94199171139456 0.75956221360938114
leaf_weight=615 7457 16328 142 123 1828 6318 2094 801 212 346 420 12765 22 291 111 2166 129 9076 1643 229 467 76 494 1673 261 68 117 3247 39 3633
leaf_count=615 7457 16328 142 123 1828 6318 2094 801 212 346 420 12765 22 291 111 2166 129 9076 1643 229 467 76 494 1673 261 68 117 3247 39 3633
internal_value=-0.0448418 -7.03572 -15.1027 83.5881 97.3711 -26.6734 12.5557 5.05088 80.0835 117.876 213.464 11.8423 -0.886417 -7.02787 65.8803 67.2822 78.4556 -18.4458 -52.9273 -1.76646 93.1219 63.9584 -28.7511 -9.67287 -5.03473 41.7877 105.931 -8.06091 65.2577 -8.67709
internal_weight=73191 67545 47323 5646 5029 33365 13958 12562 1396 955 1035 20222 11445 9351 1117 3994 1006 25404 7961 441 813 877 617 9021 7348 446 185 6902 330 6880
internal_count=73191 67545 47323 5646 5029 33365 13958 12562 1396 955 1035 20222 11445 9351 1117 3994 1006 25404 7961 441 813 877 617 9021 7348 446 185 6902 330 6880
is_linear=0
shrinkage=0.05


Tree=20
num_leaves=31
num_cat=0
split_feature=54 54 54 56 54 54 54 68 54 0 56 54 54 54 54 54 54 54 45 54 60 4 54 54 0 54 54 54 6 45
split_gain=1.53334e+10 3.10466e+09 5.46366e+09 2.76808e+09 7.46895e+09 2.57755e+09 2.38892e+09 1.85765e+09 9.58929e+08 8.70624e+08 7.76254e+08 2.24304e+09 6.64697e+08 6.02097e+08 8.05843e+08 1.96301e+09 7.39689e+08 5.66043e+08 5.56926e+08 4.38721e+08 4.45838e+08 4.2504e+08 4.04661e+08 3.903e+08 3.75175e+08 3.58236e+08 3.56525e+08 3.48848e+08 3.46962e+08 5.73738e+08
threshold=3215.4655183766577 3215.4837121277333 3346.9401329833022 0.50705896023411956 3215.4247680323642 3215.4982531416767 3712.2123631861336 0.022501593844702756 3215.3837218109834 24.500000000000004 0.863620199146515 3711.8740429219979 3215.4532798244104 3815.8060591133012 3762.3484824830816 3814.0493219356717 3712.3858052001656 3215.4767617059738 2915.2753895250612 6431.1333832335331 1.0000000180025095e-35 -85.669733999999991 3215.5096040626618 3711.3385497317381 14.500000000000002 3492.5851351351357 3215.4918514374249 3815.1721848739503 99.000000000000014 2915.0728052061827
decision_type=2 2 2 2 2 2 2 2 2 2 2 2 2 2 2 2 2 2 2 2 2 2 2 2 2 2 2 2 2 2
left_child=3 17 5 4 8 26 10 9 -1 18 11 23 -6 14 16 -16 -9 -2 28 20 -11 -20 -7 -4 -5 -12 -3 -17 -8 -30
right_child=1 2 6 24 12 22 7 13 -10 19 25 -13 -14 -15 15 27 -18 -19 21 -21 -22 -23 -24 -25 -26 -27 -28 -29 29 -31
leaf_value=238.36512512688552 19.9887085466342 -11.965228213999119 249.67400052611333 -62.603420080259639 79.836638425802732 -42.690095725305298 -5.2187511913654054 -3.2243688039001088 146.26310781674349 115.98611664790143 74.402967368312233 45.411740128210887 42.134440995244127 -62.479646209226331 213.92897066917109 58.735325600968615 -43.069039910210975 2.4287481820075261 -31.289722339493807 -33.383002794903163 38.647958810279711 30.652866716223599 -68.164969914115673 141.17125031057586 16.430295926063774 -28.297192713343321 -24.216051482099729 -7.485322946405204 327.86670945419888 83.288346229514275
leaf_weight=621 7874 14506 138 365 1782 6668 72 6093 520 566 112 1777 3400 479 134 272 1440 11001 512 78 278 603 2035 209 255 350 10056 739 29 137
leaf_count=621 7874 14506 138 365 1782 6668 72 6093 520 566 112 1777 3400 479 134 272 1440 11001 512 78 278 603 2035 209 255 350 10056 739 29 137
internal_value=0.0293733 -7.38906 -14.2325 70.7167 80.6026 -25.2659 11.9499 2.13264 196.407 42.5684 55.3474 68.123 55.1009 -7.91373 -4.90116 34.1781 -10.8415 9.75423 17.0326 80.0353 90.5198 2.20901 -48.6475 184.382 -30.1002 -3.38946 -16.981 10.3348 86.4489 126.188
internal_weight=73101 66158 47283 6943 6323 33265 14018 11432 1141 2275 2586 2124 5182 9157 8678 1145 7533 18875 1353 922 844 1115 8703 347 620 462 24562 1011 238 166
internal_count=73101 66158 47283 6943 6323 33265 14018 11432 1141 2275 2586 2124 5182 9157 8678 1145 7533 18875 1353 922 844 1115 8703 347 620 462 24562 1011 238 166
is_linear=0
shrinkage=0.05


Tree=21
num_leaves=31
num_cat=0
split_feature=54 54 56 54 54 54 54 55 33 54 54 54 54 54 52 51 51 61 57 58 54 54 54 54 51 54 54 51 58 51
split_gain=1.38615e+10 3.20546e+09 5.22581e+09 2.85124e+09 2.83163e+09 4.78809e+09 2.17446e+09 1.53107e+09 1.47456e+09 1.258e+09 1.07845e+09 7.72206e+08 6.56352e+08 5.58155e+08 5.69388e+08 5.56604e+08 5.4496e+08 5.18651e+08 4.37356e+08 3.38017e+08 3.31715e+08 3.14151e+08 3.10527e+08 3.10212e+08 3.0339e+08 2.8743e+08 2.54721e+08 2.46591e+08 2.39253e+08 2.34695e+08
threshold=3215.4703868996389 3215.4479002410058 0.50705896023411956 3215.4001833362026 3346.9401329833022 3215.4933846186955 3712.1014882377226 2212.5966591679207 4952.6306429548576 3215.4848041831642 3711.3385497317381 3215.5041437855057 3712.2619917457705 6432.4432634730538 1707.0096914766405 3864.9745105742968 2662.3686768609568 6.5000000000000009 5501.4705882352946 3535.1708210156889 3494.6121621621628 3215.4590628765714 3712.0236508460589 3215.4269198657262 4220.7589285714303 3215.3569852814603 3215.4778914184885 3263.2825018029248 4546.7261806206143 2662.3686768609568
decision_type=2 2 2 2 2 2 2 2 2 2 2 2 2 2 2 2 2 2 2 2 2 2 2 2 2 2 2 2 2 2
left_child=1 2 3 25 5 9 7 10 12 26 -6 -7 -8 14 29 17 -14 -16 28 -4 -9 -3 -12 -5 -17 -1 -2 -19 -18 -10
right_child=4 21 19 23 6 11 8 20 13 -11 22 -13 16 -15 15 24 18 27 -20 -21 -22 -23 -24 -25 -26 -27 -28 -29 -30 -31
leaf_value=240.19359030274077 13.361807272608548 52.088134465739245 -37.494966288641891 126.5538113667222 237.19934103245501 -29.211259639598605 22.354299597584376 42.77765461239597 125.96155318790795 -13.109735593246013 113.5245787258625 -52.882411752579905 183.76116199750462 -70.182164779226767 159.63916746239977 4.5198925303043058 -10.798074050248788 166.54611918458602 52.212240361771507 124.44825407682625 -42.226592588178022 29.36969356557799 49.859590285411883 79.133382868584334 138.7617003916796 176.30212837437523 0.81635610373494139 6.2472073114905102 135.34024586524828 17.128961366186982
leaf_weight=455 6905 2297 586 533 138 9570 2329 212 54 17767 436 5384 37 87 317 203 8519 31 289 34 250 4510 342 980 53 290 9772 105 28 588
leaf_count=455 6905 2297 586 533 138 9570 2329 212 54 17767 436 5384 37 87 317 203 8519 31 289 34 250 4510 342 980 53 290 9772 105 28 588
internal_value=0.0280073 55.7415 99.9791 135.283 -8.48072 -14.109 11.3528 70.9923 4.85043 -3.85203 108.419 -37.7341 -1.26845 52.5132 60.419 91.3045 -7.46917 124.603 -8.272 -28.5956 -3.21949 37.0366 85.5482 95.8459 32.3555 215.35 6.01077 42.8815 -10.3177 26.3013
internal_weight=73101 9685 2878 2258 63416 49398 14018 1378 12640 34444 916 14954 11202 1438 1351 709 8873 453 8836 620 462 6807 778 1513 256 745 16677 136 8547 642
internal_count=73101 9685 2878 2258 63416 49398 14018 1378 12640 34444 916 14954 11202 1438 1351 709 8873 453 8836 620 462 6807 778 1513 256 745 16677 136 8547 642
is_linear=0
shrinkage=0.05


Tree=22
num_leaves=31
num_cat=0
split_feature=57 0 51 51 51 51 51 58 51 57 51 66 51 51 51 51 51 73 51 51 51 5 58 66 51 51 51 51 31 57
split_gain=2.97767e+09 2.03534e+09 1.0524e+09 1.24095e+09 1.02964e+09 1.50471e+09 4.01632e+09 7.29964e+08 6.92495e+08 6.22392e+08 6.15466e+08 5.848e+08 7.05641e+08 5.29672e+08 1.31081e+09 2.59376e+09 4.94016e+08 6.344e+08 9.75492e+08 6.33043e+08 4.87936e+08 4.27395e+08 3.88835e+08 3.77429e+08 5.2819e+08 3.64602e+08 3.5923e+08 3.43625e+08 3.36317e+08 3.06026e+08
threshold=4890.1195652173928 21.500000000000004 2662.5023367106592 3087.9816849816857 3865.1134113999819 3860.5529830810333 3864.9745105742968 4390.5556887671564 3864.8360011050067 10008.333333333334 2662.5658952405879 0.25906744801446252 3865.1518487369162 3865.0911501273836 3791.8509036144583 3864.9438159550637 3263.4640234707931 49.500000000000007 3263.1726873401958 3105.9353365384618 3865.0692418429053 32.644026500000002 5203.3642346828901 0.25906744801446252 3865.1518487369162 2662.3686768609568 2662.406064231503 3865.0201688204061 4046.6290243389217 2644.8684210526321
decision_type=2 2 2 2 2 2 2 2 2 2 2 2 2 2 2 2 2 2 2 2 2 2 2 2 2 2 2 2 2 2
left_child=1 2 25 10 5 16 8 13 -7 28 -4 -6 -13 14 26 -16 17 18 -5 -19 -8 -18 -11 -15 -25 -1 -3 -17 -2 -28
right_child=9 7 3 4 11 6 20 -9 -10 22 -12 12 -14 23 15 27 21 19 -20 -21 -22 -23 -24 24 -26 -27 29 -29 -30 -31
leaf_value=119.93044645392823 34.368862325482496 86.840186252634851 -9.0070668441427664 178.16248853075638 8.440667060424909 200.75392238158 33.53223787826002 192.4486789859765 93.302334707326906 170.95457892975327 -28.90820909860129 -16.051502103312561 -54.73151659921546 20.894787149888099 145.16850064823257 61.939939910244789 -22.99811043826227 19.214445823399778 18.763642146750637 -21.908963249933407 2.8147916745433097 -3.9159076570190963 29.568410445846805 -6.0419671813531517 -73.873604136777573 26.406007506245995 -12.008795907915932 17.742153665555339 79.087354041030892 10.282465520265422
leaf_weight=112 1951 140 7072 100 1637 285 1677 56 317 165 8621 5152 1529 1098 522 526 5078 1469 2335 2578 5642 6951 69 2633 322 1483 1881 2681 536 8483
leaf_count=112 1951 140 7072 100 1637 285 1677 56 317 165 8621 5152 1529 1098 522 526 5078 1469 2335 2578 5642 6951 69 2633 322 1483 1881 2681 536 8483
internal_value=0.0267467 -1.95749 -7.00558 -8.26999 -2.99983 1.82832 20.0653 12.3644 144.197 51.3482 -19.9399 -18.342 -24.9044 11.8118 16.3528 41.8191 -5.9755 5.15165 25.3168 -6.98168 9.85343 -11.9715 129.294 -4.13492 -13.4357 32.9804 7.31179 24.993 44.0094 6.23667
internal_weight=73101 70380 52038 50443 34750 26432 7921 18342 602 2721 15693 8318 6681 18286 14233 3729 18511 6482 2435 4047 7319 12029 234 4053 2955 1595 10504 3207 2487 10364
internal_count=73101 70380 52038 50443 34750 26432 7921 18342 602 2721 15693 8318 6681 18286 14233 3729 18511 6482 2435 4047 7319 12029 234 4053 2955 1595 10504 3207 2487 10364
is_linear=0
shrinkage=0.05


Tree=23
num_leaves=31
num_cat=0
split_feature=54 33 54 54 56 54 54 54 54 57 54 54 55 54 51 56 45 0 46 51 45 51 51 0 54 54 54 57 54 62
split_gain=1.17899e+10 2.15936e+09 3.28234e+09 2.14652e+09 5.03765e+09 1.90245e+09 1.44985e+09 1.69048e+09 1.33034e+09 1.0622e+09 8.61589e+08 4.96054e+08 4.39796e+08 1.01479e+09 4.33911e+08 4.24543e+08 3.76722e+08 3.61373e+08 3.49435e+08 6.26063e+08 4.41668e+08 3.33459e+08 3.29448e+08 3.26212e+08 3.1219e+08 2.91644e+08 2.90866e+08 2.51143e+08 2.5071e+08 2.29622e+08
threshold=3215.4686977104498 3777.036174810451 3215.4863669521433 3215.4376790325364 0.50705896023411956 3215.3837218109834 3346.9401329833022 3215.4987911000176 3712.2328955839871 4890.1195652173928 3712.0484135369384 3215.4773534601486 2212.5966591679207 3711.8740429219979 2662.3686768609568 0.3757923342619402 2915.2003003566738 39.500000000000007 2359.6522139741146 3263.2825018029248 3505.6224241158457 3106.1617187500005 3864.9039129500602 14.500000000000002 3712.2328955839871 3215.5116739111727 3215.454893699432 4425.4629629629644 3215.4247680323642 380264.24767931656
decision_type=2 2 2 2 2 2 2 2 2 2 2 2 2 2 2 2 2 2 2 2 2 2 2 2 2 2 2 2 2 2
left_child=3 2 11 4 5 -1 7 -4 12 10 15 -2 13 -8 -12 -3 -11 -18 24 21 -21 -20 -19 -6 -16 -9 -5 -25 -7 -22
right_child=1 9 6 26 23 28 8 25 -10 16 14 -13 -14 -15 18 -17 17 22 19 20 29 -23 -24 27 -26 -27 -28 -29 -30 -31
leaf_value=209.14533578985998 15.083233690020126 117.91966749730915 -16.932742928735962 57.931211583728249 -57.181695886443201 127.98040317094592 162.98193776880396 -39.094059457651504 -10.767671043794779 157.68336421774188 154.68457202794838 -0.56964584621658787 -7.8481698042792276 36.337578993623332 31.085436446022882 2.1963229227874237 42.11519431056378 182.84081259448624 8.2975029326487917 219.93310742433042 -6.5565882904300672 198.93061198694349 24.536408913492444 -4.2714712179733949 -4.6880265412956392 -62.885426642029813 32.642069160882507 134.91204774711386 82.140667653759564 61.24608059388769
leaf_weight=621 8024 271 21518 1618 365 520 186 6279 5305 105 49 13709 354 1055 712 112 691 96 32 26 503 81 50 217 4248 1621 3827 38 702 166
leaf_count=621 8024 271 21518 1618 365 520 186 6279 5305 105 49 13709 354 1055 712 112 691 96 32 26 503 81 50 217 4248 1621 3827 38 702 166
internal_value=0.0254984 -6.96805 -10.1599 57.6791 96.4108 137.884 -19.3571 -24.1953 1.27072 18.9752 11.4586 5.20957 41.3088 55.3305 6.67515 84.0883 68.4414 57.2286 5.41512 35.9043 18.1479 145.001 128.681 -26.8734 0.447719 -43.9765 40.1577 16.5143 101.656 10.274
internal_weight=73101 65193 58051 7908 2463 1843 36318 29418 6900 7142 6200 21733 1595 1241 5817 383 942 837 5768 808 695 113 146 620 4960 7900 5445 255 1222 669
internal_count=73101 65193 58051 7908 2463 1843 36318 29418 6900 7142 6200 21733 1595 1241 5817 383 942 837 5768 808 695 113 146 620 4960 7900 5445 255 1222 669
is_linear=0
shrinkage=0.05


Tree=24
num_leaves=31
num_cat=0
split_feature=54 54 54 56 54 54 54 55 55 54 19 54 79 54 54 54 54 45 54 54 6 45 6 54 54 54 54 54 83 6
split_gain=1.06532e+10 2.21875e+09 3.72699e+09 2.02423e+09 5.02157e+09 1.81422e+09 1.69316e+09 1.23726e+09 7.18083e+08 1.33349e+09 7.03127e+08 5.5575e+08 5.89646e+08 1.58819e+09 7.44527e+08 5.52018e+08 5.16693e+08 4.32958e+08 4.2055e+08 3.61443e+08 3.50922e+08 6.62497e+08 3.39309e+08 3.04357e+08 2.96471e+08 2.95128e+08 2.87851e+08 2.87832e+08 2.81015e+08 2.71023e+08
threshold=3215.4651149079023 3215.4837121277333 3346.9401329833022 0.50705896023411956 3215.4164296780859 3215.4976882854194 3712.1835765579867 3335.2423283822714 2212.5966591679207 3711.8740429219979 24.500000000000004 3815.8060591133012 1672.5000000000002 3814.0493219356717 3712.340076764342 3215.3569852814603 3215.4511817868829 2915.2753895250612 3215.4761699517994 4856.3835616438364 4.5000000000000009 3734.1900556036085 99.000000000000014 3215.5090553451541 3711.3385497317381 3712.4683475030956 3492.5851351351357 3815.0852535496965 0.63882292454459877 99.000000000000014
decision_type=2 2 2 2 2 2 2 2 2 2 2 2 2 2 2 2 2 2 2 2 2 2 2 2 2 2 2 2 2 2
left_child=3 18 5 4 15 -3 8 11 9 24 17 12 14 -14 -8 -1 -6 29 -2 -12 21 -21 -19 -7 -4 -16 -10 -15 -5 -9
right_child=1 2 6 28 16 23 7 10 26 -11 19 -13 13 27 25 -17 -18 22 -20 20 -22 -23 -24 -25 -26 -27 -28 -29 -30 -31
leaf_value=211.44822535354521 17.056691881092512 -13.902415639312489 211.23108921368691 -52.732498437225019 69.745209419246748 -35.033922054551617 4.5253353594084134 -6.9730703340654729 66.594128978943644 43.499880247672934 264.78736746651788 -57.691937132922774 192.2009232132105 64.371827703482879 -21.544042830297826 137.38030142661765 36.379353544503878 25.829940905927742 2.0541825432708314 252.44111793989615 53.116584649950795 -5.7003164249615068 -29.41789472553128 -56.574622690102458 116.67840120962283 -72.896382537861356 -25.465652619163944 -3.5928077936823173 16.113051400171013 109.16292083023689
leaf_weight=455 8036 24412 138 375 1838 6679 5059 72 112 1245 23 479 135 193 2705 565 3148 589 11156 63 795 41 526 2174 209 312 350 806 245 166
leaf_count=455 8036 24412 138 375 1838 6679 5059 72 112 1245 23 479 135 193 2705 565 3148 589 11156 63 795 41 526 2174 209 312 350 806 245 166
internal_value=0.02435 -6.00191 -11.8216 60.4817 69.3609 -20.9343 9.80287 2.6026 51.7404 67.6655 35.7845 -5.18887 -2.45765 31.3027 -7.19848 170.438 48.6802 12.8363 8.33603 69.4549 64.4286 150.766 -0.23346 -40.3242 154.332 -26.8568 -3.13854 9.54262 -25.5292 74.0411
internal_weight=73101 66475 47283 6626 6006 33265 14018 11964 2054 1592 2275 9689 9210 1134 8076 1020 4986 1353 19192 922 899 104 1115 8853 347 3017 462 999 620 238
internal_count=73101 66475 47283 6626 6006 33265 14018 11964 2054 1592 2275 9689 9210 1134 8076 1020 4986 1353 19192 922 899 104 1115 8853 347 3017 462 999 620 238
is_linear=0
shrinkage=0.05


Tree=25
num_leaves=31
num_cat=0
split_feature=54 54 56 54 54 54 54 55 55 54 4 54 54 54 54 55 54 45 54 54 54 54 54 55 54 54 0 54 54 54
split_gain=9.7294e+09 2.27241e+09 3.48485e+09 2.01225e+09 3.41997e+09 1.98839e+09 1.64976e+09 1.4768e+09 1.08025e+09 8.18444e+08 7.73963e+08 7.1878e+08 6.15309e+08 5.39789e+08 4.30291e+08 8.76898e+08 5.94663e+08 4.04886e+08 3.93265e+08 5.3392e+08 1.46932e+09 4.13475e+08 4.02663e+08 3.36341e+08 6.30619e+08 3.88528e+08 3.3545e+08 3.27091e+08 2.8271e+08 2.74226e+08
threshold=3215.4703868996389 3215.4479002410058 0.50705896023411956 3346.9401329833022 3215.4933846186955 3215.3837218109834 3712.0484135369384 2212.5966591679207 3335.2423283822714 3215.4848041831642 -80.672744999999978 3712.2981865456049 3711.3385497317381 3215.5064032105356 5219.4332352941183 3990.9133138745988 4869.9452054794538 2915.3066766785564 3816.0414981164886 3762.3484824830816 3814.5998869892792 3712.4683475030956 3812.7236192408009 3668.7690709547346 6107.1895317725757 5223.3597058823534 28.500000000000004 3215.4247680323642 1938.9832733224227 3494.6121621621628
decision_type=2 2 2 2 2 2 2 2 2 2 2 2 2 2 2 2 2 2 2 2 2 2 2 2 2 2 2 2 2 2
left_child=1 2 5 4 9 -1 7 12 11 -2 17 -8 -5 -6 15 -12 -17 -10 19 21 22 -13 -21 25 -25 -16 -19 -7 -4 -9
right_child=3 -3 28 6 13 27 8 29 10 -11 14 18 -14 -15 23 16 -18 26 -20 20 -22 -23 -24 24 -26 -27 -28 -29 -30 -31
leaf_value=189.08915162264012 4.857416057122288 30.947136815259007 49.049350195978271 200.33291181409155 -25.904297441971188 116.02338760082264 14.528703587865856 38.510362227208127 57.21490178343295 -10.557934704591666 259.31619896270718 -14.019396088262347 87.533718065213293 -47.160090208250324 43.911933395983048 157.02522273031914 -41.972858958110997 -17.102648153840367 -77.919103029441771 244.89657558083724 -3.8053651430980082 -73.912091881302658 93.368308060403933 264.6300421276232 58.391977922456057 -95.5513341260543 61.263380731972063 68.516322303095905 -39.276004465736605 -39.459703405136814
leaf_weight=615 16585 6774 111 156 11032 535 3990 211 364 17907 84 4676 538 4096 180 75 75 839 221 65 1181 307 135 41 379 69 163 1125 491 242
leaf_count=615 16585 6774 111 156 11032 535 3990 211 364 17907 84 4676 538 4096 180 75 75 839 221 65 1181 307 135 41 379 69 163 1125 491 242
internal_value=-0.0195211 46.7595 83.9879 -7.11685 -11.839 112.294 9.63054 67.0824 4.49947 -3.14568 35.8031 -2.21739 112.914 -31.6597 71.7169 130.068 57.5645 12.0585 -12.3643 -10.0866 17.4226 -17.7108 142.713 51.2907 78.583 5.24262 -4.34964 83.8334 -22.9847 -3.14203
internal_weight=73262 9651 2877 63611 49620 2275 13991 1147 12844 34492 2269 10575 694 15128 903 234 150 1366 6585 6364 1381 4983 200 669 420 249 1002 1660 602 453
internal_count=73262 9651 2877 63611 49620 2275 13991 1147 12844 34492 2269 10575 694 15128 903 234 150 1366 6585 6364 1381 4983 200 669 420 249 1002 1660 602 453
is_linear=0
shrinkage=0.05


Tree=26
num_leaves=31
num_cat=0
split_feature=54 54 54 54 56 54 54 55 55 54 52 51 73 51 54 51 54 54 54 74 54 54 54 54 54 54 54 45 0 51
split_gain=8.84383e+09 2.23761e+09 2.47316e+09 2.19677e+09 1.92614e+09 3.41682e+09 1.4968e+09 1.01649e+09 1.01545e+09 7.8029e+08 7.13519e+08 7.58099e+08 5.81271e+08 1.52825e+09 5.6679e+08 4.52713e+08 3.97704e+08 3.85753e+08 3.79046e+08 3.75035e+08 3.49566e+08 3.45608e+08 5.22196e+08 1.34472e+09 4.65709e+08 3.52021e+08 3.27941e+08 3.11182e+08 2.76431e+08 2.48756e+08
threshold=3215.4602732828375 3215.4788866414187 3346.9401329833022 3215.4944874332937 0.50705896023411956 3215.4105175159239 3712.1014882377226 2212.5966591679207 3335.2423283822714 3711.3385497317381 1707.0096914766405 3263.1726873401958 25.500000000000004 3864.9039129500602 3712.3065645893525 2662.3686768609568 3215.5082073614221 3215.4371410741956 5219.4332352941183 3758.5000000000005 3215.487493974867 3816.0414981164886 3762.3484824830816 3814.8824137931038 3812.7236192408009 3712.4931101939751 3215.3569852814603 2915.2542706964527 20.500000000000004 3865.0355161300226
decision_type=2 2 2 2 2 2 2 2 2 2 2 2 2 2 2 2 2 2 2 2 2 2 2 2 2 2 2 2 2 2
left_child=4 -2 3 20 5 26 7 9 14 -4 15 18 -13 19 -8 -10 -5 -7 -12 -14 -3 22 25 24 -24 -16 -1 -15 -6 -29
right_child=1 2 6 16 28 17 8 -9 10 -11 11 12 13 27 21 -17 -18 -19 -20 -21 -22 -23 23 -25 -26 -27 -28 29 -30 -31
leaf_value=190.96884640341599 14.736046688338835 -1.9741385563633447 190.32268277546447 -27.837101058936739 -43.697846136315242 88.42021258975052 11.166760363572987 -2.9849340627878029 120.36645884235546 67.795565434358792 285.34468353928418 -1.3955926462805994 63.565683902258435 108.70101075974188 -15.45909961360978 -5.509992602183047 -49.5148842876172 45.279709040394259 97.544761101878038 202.49777910766903 -12.927343704451358 -74.024910309238166 232.67055499051946 -7.9409276108364812 79.352976161639674 -81.005538530407378 130.37926832137677 61.217512863921456 30.654394513371972 -27.230828804349063
leaf_weight=452 11999 14365 156 10182 425 620 4222 453 77 777 51 391 64 79 4297 971 2671 3158 57 203 14778 221 65 1108 208 215 444 114 177 262
leaf_count=452 11999 14365 156 10182 425 620 4222 453 77 777 51 391 64 79 4297 971 2671 3158 57 203 14778 221 65 1108 208 215 444 114 177 262
internal_value=-0.018439 -4.8579 -9.05724 -15.1228 62.3412 73.1832 9.14945 58.4668 3.72627 88.3006 34.0146 59.9893 47.7064 74.2942 -2.923 3.74916 -32.3423 52.3616 186.41 169.232 -7.52838 -12.6527 -10.3499 16.5527 115.929 -18.5842 160.962 18.5585 -21.8353 -0.404884
internal_weight=73262 67986 55987 41996 5276 4674 13991 1386 12605 933 2269 1221 1113 722 10336 1048 12853 3778 108 267 29143 6114 5893 1381 273 4512 896 455 602 376
internal_count=73262 67986 55987 41996 5276 4674 13991 1386 12605 933 2269 1221 1113 722 10336 1048 12853 3778 108 267 29143 6114 5893 1381 273 4512 896 455 602 376
is_linear=0
shrinkage=0.05


Tree=27
num_leaves=31
num_cat=0
split_feature=54 33 54 54 56 54 54 54 54 57 54 54 57 46 51 55 54 51 53 51 45 33 54 57 51 51 66 57 54 51
split_gain=7.9977e+09 1.52271e+09 2.23783e+09 1.49072e+09 3.64819e+09 9.83968e+08 1.08319e+09 9.06836e+08 8.81544e+08 7.22328e+08 6.10273e+08 3.8183e+08 3.53987e+08 3.12832e+08 3.5117e+08 3.10812e+08 6.9269e+08 2.99884e+08 2.94877e+08 3.61299e+08 2.83051e+08 2.90711e+08 2.60607e+08 2.50407e+08 2.23033e+08 5.70652e+08 2.67855e+08 2.17439e+08 1.89507e+08 1.86493e+08
threshold=3215.4686977104498 3751.0241157885725 3215.487413281116 3215.4371410741956 0.50705896023411956 3346.9401329833022 3215.4998670166983 3712.2328955839871 3215.3837218109834 4890.1195652173928 3712.2123631861336 3215.4778914184885 10008.333333333334 2359.6522139741146 3263.2825018029248 2212.5966591679207 3711.8740429219979 2662.3686768609568 0.67050040355125107 3262.6940929653188 3505.6224241158457 5974.5967741935492 3215.454893699432 5501.4705882352946 3326.2768729641698 3864.9039129500602 0.046972568404321256 3745.5483805811482 3215.5116739111727 3263.3870713957917
decision_type=2 2 2 2 2 2 2 2 2 2 2 2 2 2 2 2 2 2 2 2 2 2 2 2 2 2 2 2 2 2
left_child=3 2 11 4 8 6 -4 15 -1 10 -3 -2 24 17 18 16 -7 -12 19 -15 -16 -22 -5 -6 29 26 -26 -23 -8 -11
right_child=1 9 5 22 23 7 28 -9 -10 12 13 -13 -14 14 20 -17 -18 -19 -20 -21 21 27 -24 -25 25 -27 -28 -29 -30 -31
leaf_value=170.89214554837685 11.83764514400708 41.908813389385898 -14.813146558745508 49.264591995640522 -29.466710013740737 134.94574370310309 -32.880458508298425 -9.4291354159650425 93.220204413044314 32.954520225573177 124.23018310944067 -1.4213087087343987 150.53092432731268 349.5291780841884 178.99088235723559 -7.0852981757549189 30.102907008267682 -3.9441159251111246 -6.2631099288813621 103.7540219095556 -7.909992078926031 123.61399923572696 26.794997422600257 98.394108837712409 68.218949708462347 18.91486454187163 188.18106758336467 0.80671826606787345 -52.180034582412908 -71.324340534953706
leaf_weight=615 8571 1191 20554 1945 561 187 5710 5068 901 395 46 14816 90 20 26 348 998 4518 36 59 481 86 3836 41 82 226 108 62 1637 48
leaf_count=615 8571 1191 20554 1945 561 187 5710 5068 901 395 46 14816 90 20 26 348 998 4518 36 59 481 86 3836 41 82 226 108 62 1637 48
internal_value=-0.0174031 -5.76035 -8.5025 47.5041 83.3892 -16.5963 -20.7033 0.763488 124.739 15.4785 9.55011 3.43794 56.2346 2.32426 31.802 34.4581 46.6577 -2.64957 112.348 166.339 17.6453 10.9486 34.3555 -20.7437 46.3385 72.6263 136.471 72.203 -37.1813 21.6421
internal_weight=73262 65363 57889 7899 2118 34502 27901 6601 1516 7474 6525 23387 949 5334 770 1533 1185 4564 115 79 655 629 5781 602 859 416 190 148 7347 443
internal_count=73262 65363 57889 7899 2118 34502 27901 6601 1516 7474 6525 23387 949 5334 770 1533 1185 4564 115 79 655 629 5781 602 859 416 190 148 7347 443
is_linear=0
shrinkage=0.05


Tree=28
num_leaves=31
num_cat=0
split_feature=54 54 56 54 54 54 54 55 33 54 54 54 54 54 52 51 2 57 51 54 0 37 54 54 0 55 54 54 57 54
split_gain=7.24457e+09 1.71357e+09 2.57472e+09 1.51223e+09 2.51513e+09 1.46917e+09 1.27441e+09 1.14527e+09 8.12443e+08 5.9433e+08 4.70008e+08 4.25188e+08 4.10701e+08 3.80754e+08 3.69238e+08 4.93389e+08 4.1623e+08 3.22589e+08 2.5068e+08 2.45949e+08 2.43761e+08 2.12358e+08 2.71377e+08 7.69412e+08 3.04249e+08 2.43511e+08 2.41047e+08 2.23703e+08 1.88937e+08 1.87154e+08
threshold=3215.4708818213121 3215.4479002410058 0.50705896023411956 3346.9401329833022 3215.4939494749528 3215.4001833362026 3712.0484135369384 2212.5966591679207 5519.3207735247224 3215.4848041831642 3711.3385497317381 3712.2502294676028 6432.4432634730538 3215.5041437855057 1663.0858693714681 3864.9039129500602 7349.9009981626414 10008.333333333334 2662.3686768609568 3494.6121621621628 20.500000000000004 2702.0000000000005 3762.3484824830816 3814.5998869892792 26.500000000000004 3335.2423283822714 3712.3858052001656 3812.7236192408009 5501.4705882352946 4869.9452054794538
decision_type=2 2 2 2 2 2 2 2 2 2 2 2 2 2 2 2 2 2 2 2 2 2 2 2 2 2 2 2 2 2
left_child=1 2 5 4 9 -1 7 10 11 -2 -5 -8 14 -6 -10 16 -16 18 -13 -9 -4 -20 26 27 -25 -26 -23 -24 -22 -27
right_child=3 -3 20 6 13 -7 8 19 12 -11 -12 17 -14 -15 15 -17 -18 -19 21 -21 28 22 23 24 25 29 -28 -29 -30 -31
leaf_value=153.92458075993275 3.9088590964355405 26.438027862475423 -40.235984741097525 175.53351884997099 -21.501284807662593 68.416031387666052 19.667313902729553 36.374627028162138 20.207150284137853 -9.1878991940996926 76.947868979028158 122.54674941335762 -67.593536039672784 -38.178849280462764 69.486069363263141 31.435966663941958 188.33760745954552 118.13710238650692 -17.497722731500804 -37.466222385718083 7.1519318600455692 -3.0808202530536373 217.98362116845379 -8.2304272795375422 -1.9670077407516122 154.3122181470082 -35.802458598609739 83.467065138677299 148.50602159194673 47.802820900288367
leaf_weight=749 16325 7034 425 156 9091 1526 2193 211 495 18455 538 38 77 5489 161 280 136 53 2803 242 149 3959 45 1258 252 48 656 99 28 291
leaf_count=749 16325 7034 425 156 9091 1526 2193 211 495 18455 538 38 77 5489 161 280 136 53 2803 242 149 3959 45 1258 252 48 656 99 28 291
internal_value=-0.0164128 39.735 72.2428 -6.23541 -10.3482 96.5736 8.27448 58.7695 3.76473 -3.04056 99.1304 -0.17706 43.8824 -27.7802 51.8951 79.0715 123.955 -4.75717 -5.44774 -3.07191 -19.7059 -5.96585 -1.07404 14.3444 5.67153 35.2596 -7.73272 125.626 29.5843 62.9249
internal_weight=73262 9911 2877 63351 49360 2275 13991 1147 12844 34780 694 11695 1149 14580 1072 577 297 9502 9449 453 602 9411 6608 1993 1849 591 4615 144 177 339
internal_count=73262 9911 2877 63351 49360 2275 13991 1147 12844 34780 694 11695 1149 14580 1072 577 297 9502 9449 453 602 9411 6608 1993 1849 591 4615 144 177 339
is_linear=0
shrinkage=0.05


Tree=29
num_leaves=31
num_cat=0
split_feature=0 55 31 51 51 51 51 51 51 66 51 66 51 51 57 51 5 45 51 51 51 51 51 51 52 51 51 5 51 51
split_gain=1.39655e+09 7.4581e+08 6.56995e+08 6.31243e+08 5.32048e+08 4.37533e+08 4.34097e+08 4.22336e+08 1.54829e+09 4.19012e+08 4.01375e+08 7.23692e+08 1.23988e+09 3.93137e+08 3.36382e+08 3.06699e+08 4.65683e+08 2.98569e+08 2.79949e+08 2.58722e+08 7.107e+08 1.01761e+09 2.46165e+08 2.31568e+08 4.93388e+08 8.66314e+08 3.18217e+08 2.74555e+08 2.31035e+08 2.28403e+08
threshold=27.500000000000004 3335.2423283822714 3998.2765567765568 2662.4808389725954 3087.9816849816857 2662.5546790294243 3865.1244077473225 3860.5529830810333 3864.9944620767978 0.25906744801446252 3865.0742680868048 0.25906744801446252 3864.8360011050067 3105.8436899038466 5773.2870370370374 3865.0052051935299 26.495961500000003 2915.0728052061827 3865.167886675466 3865.081020903036 3860.5529830810333 3864.8360011050067 3864.8360011050067 3263.4648593719271 1819.4089951874796 3263.2825018029248 3262.6940929653188 32.644026500000002 3106.054026442308 3865.0843205746037
decision_type=2 2 2 2 2 2 2 2 2 2 2 2 2 2 2 2 2 2 2 2 2 2 2 2 2 2 2 2 2 2
left_child=2 14 3 17 5 -5 7 13 22 -8 11 -4 -13 -6 19 16 -3 -1 -11 20 -2 -22 -9 24 28 26 -26 -25 -15 -10
right_child=1 15 10 4 6 -7 9 8 29 18 -12 12 -14 23 -16 -17 -18 -19 -20 -21 21 -23 -24 27 25 -27 -28 -29 -30 -31
leaf_value=197.50092899561807 6.3985717505375419 123.64120097630294 8.3209269914928043 -1.1331792723827772 38.119869416013408 -18.456214269902457 6.7893953669804992 130.84313728470258 16.987460711206008 -15.444983330265913 -3.0308048292988263 167.80718113022567 30.803807897107149 -3.077810800860993 51.328757644320561 5.4487667561837663 39.600222022367845 29.268270439446464 -44.772571988574107 -1.9200300517981033 130.48549858457514 26.211517078347182 62.465703269912346 -18.157919091501633 288.70882608856635 8.8023450004720267 86.470805223239651 -2.8623120009074765 -32.893632981707441 -1.3170734330618803
leaf_weight=27 7074 284 2794 5233 539 12012 1685 227 2384 3397 2807 203 884 2746 501 208 393 989 1070 3540 268 1839 314 5077 21 2716 253 6950 851 5976
leaf_count=27 7074 284 2794 5233 539 12012 1685 227 2384 3397 2807 203 884 2746 501 208 393 989 1070 3540 268 1839 314 5077 21 2716 253 6950 851 5976
internal_value=-0.0154905 14.1208 -3.38667 -5.26798 -6.03869 -13.1996 -2.4285 0.209207 9.20828 -14.4566 11.372 21.7889 56.4026 -3.97297 11.1462 58.5552 74.8683 33.758 -22.4708 9.56331 13.991 39.4802 91.1753 -5.19204 2.34364 17.3525 102.07 -9.3192 -10.1325 3.90292
internal_weight=73262 14107 59155 52467 51451 17245 34206 28054 8901 6152 6688 3881 1087 19153 13222 885 677 1016 4467 12721 9181 2107 541 18614 6587 2990 274 12027 3597 8360
internal_count=73262 14107 59155 52467 51451 17245 34206 28054 8901 6152 6688 3881 1087 19153 13222 885 677 1016 4467 12721 9181 2107 541 18614 6587 2990 274 12027 3597 8360
is_linear=0
shrinkage=0.05


Tree=30
num_leaves=31
num_cat=0
split_feature=54 54 54 54 56 54 54 33 54 52 55 54 54 54 51 14 54 54 54 54 51 0 54 54 76 54 55 54 46 54
split_gain=6.09395e+09 1.57299e+09 1.66668e+09 1.51332e+09 1.47846e+09 2.3581e+09 1.01538e+09 8.26089e+08 3.34742e+08 3.52233e+08 3.2114e+08 9.43956e+08 2.86451e+08 2.58452e+08 2.52809e+08 2.96145e+08 2.47284e+08 2.4292e+08 2.41796e+08 2.41591e+08 2.24428e+08 2.94002e+08 3.50882e+08 1.97413e+08 5.4136e+08 5.51287e+08 2.59256e+08 1.9422e+08 1.86352e+08 1.85251e+08
threshold=3215.4602732828375 3215.4795590893441 3346.9401329833022 3215.4955149337238 0.50705896023411956 3215.4105175159239 3712.2123631861336 5519.3207735247224 6431.1333832335331 1543.2621273679003 2212.5966591679207 3711.9565852249284 3215.4320573678779 3215.5096040626618 3864.9039129500602 33.649999618530309 3492.5851351351357 3215.487493974867 3215.3569852814603 3711.3385497317381 3865.1182995180952 30.500000000000004 3762.3484824830816 5223.3597058823534 1.5000000000000002 5219.4332352941183 3668.7690709547346 4873.3698630136996 2904.8446918356535 3812.7236192408009
decision_type=2 2 2 2 2 2 2 2 2 2 2 2 2 2 2 2 2 2 2 2 2 2 2 2 2 2 2 2 2 2
left_child=4 -2 3 17 5 18 10 20 9 -9 11 19 -7 -5 15 -11 -12 -3 -1 -4 21 23 -23 24 25 -8 -25 -26 -22 -24
right_child=1 2 6 13 -6 12 7 8 -10 14 16 -13 -14 -15 -16 -17 -18 -19 -20 -21 28 22 29 26 27 -27 -28 -29 -30 -31
leaf_value=160.43514408886998 11.825908692594959 -1.8789489876460224 162.45546631041438 -24.518774769179608 -21.612111223634486 77.667695746959041 265.48662187876806 18.231509214467451 -39.864236568151931 153.41000718034476 60.610798200854553 25.797963671486361 38.462281275436709 -44.057411165313326 37.656679910036587 57.466423742642398 -23.565213612805945 -10.963657218916552 107.95582701185873 83.070671470854208 -13.620491650549813 -1.5972392269984379 210.33767047568313 -60.465358430649907 -2.8614496213286995 42.281441191742026 42.775336443929518 -82.156373891207693 -64.165187450259822 62.382722713376261
leaf_weight=452 12646 13774 134 9755 609 544 31 481 116 161 116 1716 3248 2048 240 161 351 15798 429 338 1868 329 23 288 6875 251 77 78 202 255
leaf_count=452 12646 13774 134 9755 609 544 31 481 116 161 116 1716 3248 2048 240 161 351 15798 429 338 1868 329 23 288 6875 251 77 78 202 255
internal_value=-0.0750771 -4.08725 -7.71539 -12.7735 51.6615 61.211 7.13642 0.669241 40.6837 49.6451 34.9917 43.0252 44.0886 -27.9094 76.523 105.471 -2.64789 -6.73222 134.896 105.638 -3.84379 -0.132905 33.3503 -2.80756 -0.997313 66.9036 -38.6801 -3.75216 -18.5557 74.6948
internal_weight=73394 68112 55466 41375 5282 4673 14091 11436 1159 1043 2655 2188 3792 11803 562 322 467 29572 881 472 10277 8207 607 7600 7235 282 365 6953 2070 278
internal_count=73394 68112 55466 41375 5282 4673 14091 11436 1159 1043 2655 2188 3792 11803 562 322 467 29572 881 472 10277 8207 607 7600 7235 282 365 6953 2070 278
is_linear=0
shrinkage=0.05


Tree=31
num_leaves=31
num_cat=0
split_feature=54 54 56 54 54 54 54 33 54 54 52 55 54 54 51 2 54 54 51 0 54 54 51 50 54 46 54 48 55 54
split_gain=5.54011e+09 1.28263e+09 1.88082e+09 1.38941e+09 1.09534e+09 1.92008e+09 9.16395e+08 7.45573e+08 5.10344e+08 3.02126e+08 3.17913e+08 2.89831e+08 8.51977e+08 2.61833e+08 2.31351e+08 3.38904e+08 2.2319e+08 2.18064e+08 2.02558e+08 2.65369e+08 3.16714e+08 1.90575e+08 1.8963e+08 1.88664e+08 1.79733e+08 1.68193e+08 1.67295e+08 1.71304e+08 1.62377e+08 1.6133e+08
threshold=3215.4708818213121 3215.4511817868829 0.50705896023411956 3215.4001833362026 3346.9401329833022 3215.4944874332937 3712.2123631861336 5519.3207735247224 3215.4848041831642 6431.1333832335331 1543.2621273679003 2212.5966591679207 3711.9565852249284 3215.5082073614221 3864.8360011050067 7349.9009981626414 3492.5851351351357 3711.3385497317381 3865.1182995180952 30.500000000000004 3762.3484824830816 3215.4320573678779 3263.1726873401958 0.57677987547271881 1938.9832733224227 2904.8446918356535 3812.7236192408009 3061.629179643935 2387.3862705491356 6119.4526309921966
decision_type=2 2 2 2 2 2 2 2 2 2 2 2 2 2 2 2 2 2 2 2 2 2 2 2 2 2 2 2 2 2
left_child=1 2 3 -1 5 8 11 18 -2 10 29 12 17 -7 15 22 -13 -6 19 23 -21 -5 -12 -8 -4 -20 -22 -28 -26 -9
right_child=4 -3 24 21 6 13 7 9 -10 -11 14 16 -14 -15 -16 -17 -18 -19 25 20 26 -23 -24 -25 28 -27 27 -29 -30 -31
leaf_value=134.99895654818556 3.3731080316097799 21.519307531946467 35.148245723058174 77.240935235757888 154.33874961403572 -22.0114000202672 -1.4327419004972826 31.779464898856077 -8.5116797883599098 -37.872741322759715 127.89449658937093 57.582868759391843 24.508140705448859 -39.622831567019915 38.103026649283699 173.42265057559374 -22.387288386127068 78.91836636398574 -12.939503547354022 -1.5174015083091303 199.86631419524485 45.062671918616019 25.2903085702251 -52.946770863347105 -8.1492296185949264 -60.958515433000493 165.39932095161737 43.420667675667545 -65.969755479339511 -40.640536521848112
