tree
version=v4
num_class=1
num_tree_per_iteration=1
label_index=0
max_feature_idx=10
objective=regression
feature_names=segment_avg_fee state_avg_fee propertytype_avg_fee rolling_avg_fee_segment segment_std_fee client_avg_fee TargetTime state_std_fee propertytype_std_fee office_avg_fee segment_win_rate
feature_infos=[1916.5921112929625:6676.3157894736842] [2662.0864022133323:12030] [2466.8624522292994:4862.9598958750494] [1323.3870967741937:15000] [1675.5224086583171:5424.8632820512048] [35.799999999999997:15000] [0:2800] [0:5533.308232874796] [1499.6015996040919:3548.7804427140186] [2752.9411764705883:7250] [0.41010716130142882:0.95206243032329985]
tree_sizes=2461 2495 2489 2512 2510 2522 2515 2527 2497 2513 2494 2502 2502 2510 2544 2496 2492 2504 2497 2498 2501 2496 2521 2514 2499 2502 2505 2510 2505 2509 2507 2494 2514 2510 2510 2506 2507 2491 2509 2507 2504 2502 2502 2507 2510 2501 2519 2502 2502 2501 2509 2504 2503 2506 2503 2508 2498 2509 2519 2514 2491 2508 2508 2495 2505 2499 2507 2495 2496 2500 2501 2497 2497 2489 2501 2494 2507 2503 2495 2502 2519 2511 2490 2492 2496 2505 2503 2495 2505 2504 2483 2496 2494 2509 2496 2492 2499 2495 2489 2493 2509 2501 2498 2492 2490 2498 2502 2493 2526 2491 2501 2497 2494 2504 2500 2494 2501 2500 2519 2506 2500 2493 2493 2503 2503 2494 2491 2490 2504 2496 2507 2508 2493 2506 2492 2497 2512 2505 2489 2493 2509 2496 2511 2496 2498 2501 2502 2493 2504 2501 2498 2502 2520 2506 2523 2502 2497 2503 2493 2493 2520 2493 2496 2510 2499 2510 2502 2506 2496 2498 2505 2484 2492 2500 2493 2502 2499 2484 2502 2493 2500 2504 2495 2499 2515 2505 2515 2497 2493 2492 2505 2494 2490 2500 2501 2515 2483 2501 2488 2495 2496 2504 2487 2491 2493 2498 2481 2481 2504 2497 2499 2501 2475 2497 2493 2496 2500 2513 2505 2480 2515 2503 2502 2498 2486 2502 2501 2538 2498 2474 2492 2519 2496 2489 2477 2494 2521 2513 2511 2497 2504 2514 2503 2504 2495 2504 2523 2493 2529 2542 2515 2527 2514 2500 2516 2511 2510 2482 2509 2500 2505 2527 2515 2493 2525 2501 2500 2502 2506 2510 2499 2507 2508 2505 2521 2489 2492 2514 2512 2493 2532 2488 2508 2524 2526 2505 2529 2530 2524 2505 2512 2515 2512 2502 2490 2522 2509 2502 2525 2500 2530 2516 2515 2509 2529 2499 2504 2500 2500 2511 2529 2499 2513 2522 2522 2486 2481 2504 2514 2520 2528 2512 2525 2553 2526 2490 2522 2490 2531 2540 2503 2503 2531 2544 2507 2533 2505 2536 2493 2519 2535 2515 2528 2523 2491 2511 2534 2532 2491 2507 2500 2531 2492 2524 2515 2527 2540 2509 2550 2541 2522 2521 2518 2534 2490 2501 2498 2531 2510 2514 2513 2525 2494 2503 2504 2512 2542 2511 2519 2520 2514 2509 2545 2519 2516 2525 2543 2527 2536 2526 2536 2498 2518 2515 2525 2529 2515 2536 2467 2503 2543 2544 2535 2511 2504 2528 2497 2514 2513 2524 2514 2481 2505 2538 2517 2501 2459 2482 2510 2466 2510 2529 2511 2522 2529 2549 2519 2528 2519 2523 2548 2523 2517 2541 2532 2560 2533 2536 2525 2536 2489 2487 2495 2499 2513 2519 2524 2537 2516 2516 2539 2510 2516 2503 2523 2517 2526 2488 2518 2520 2546 2500 2514 2512 2481 2507 2535 2505 2515 2540 2497 2507 2504 2509 2486 2546 2504 2501 2506 2514 2521 2531 2531 2543 2521 2524 2512 2505 2533 2534 2537 2503 2506 2518 2522 2515 2520 2523 2512 2518 2527 2536 2511 2495 2533 2520 2509 2503 2515 2490 2521 2503 2515 2522 2490 2518 2531 2542 2522 2497 2519 2499 2499 2496 2505 2531 2530 2531 2519 2521 2499 2512 2521 2515 2517 2515 2524 2518 2506 2527 2526 2475 2513 2503 2479 2477 2475 2481 2495 2514 2532 2525 2511 2503 2489 2499 2499 2488 2524 2481 2522 2476 2498 2504 2511 2533 2517 2504 2503 2497 2498 2493 2517 2493 2496 2497 2519 2512 2483 2517 2462 2466 2509 2488 2509 2491 2491 2475 2498 2531 2493 2533 2492 2481 2517 2508 2505 2490 2479 2502 2503 2521 2494 2485 2534 2488 2512 2522 2512 2512 2528 2472 2480 2530 2474 2507 2498 2494 2498 2509 2506 2512 2520 2492 2494 2501 2477 2468 2489 2490 2486 2480 2500 2487 2507 2496 2502 2507 2473 2484 2522 2509 2523 2506 2476 2499 2459 2476 2496 2468 2469 2488 2520 2503 2484 2504 2482 2479 2471 2449 2505 2510 2495 2473 2482 2492 2474 2468 2486 2483 2485 2498 2481 2487 2481 2477 2478 2470 2469 2488 2484 2497 2491 2476 2488 2500 2475 2489 2495 2488 2507 2490 2505 2507 2504 2503 2479 2484 2410 2430 2525 2493 2497 2477 2473 2470 2472 2476 2480 2472 2485 2476 2487 2464 2500 2475 2451 2484 2479 2434 2503 2480 2485 2458 2453 2512 2456 2491 2483 2477 2481 2487 2479 2484 2474 2496 2498 2509 2514 2520 2476 2482 2486 2495 2469 2475 2489 2485 2457 2458 2472 2477 2495 2477 2481 2483 2504 2460 2504 2441 2458 2441 2497 2468 2513 2510 2486 2475 2472 2471 2470 2457 2475 2474 2450 2426 2487 2494 2459 2490 2430 2430 2450 2477 2472 2477 2481 2458 2422 2489 2425 2493 2485 2481 2424 2493 2474 2470 2457 2485 2449 2489 2498 2487 2480 2460 2435 2473 2460 2468 2463 2487 2430 2473 2483 2405 2451 2489 2493 2469 2480 2471 2456 2461 2444 2451 2446 2456 2437 2442 2431 2441 2466 2450 2469 2440 2469 2460 2453 2457 2504 2421 2489 2442 2466 2438 2463 2473 2452 2443 2495 2460 2458 2483 2454 2448 2437 2477 2463 2465 2481 2470 2439 2471 2488 2455 2484 2452 2442 2452 2441 2431 2447 2464 2461 2461 2482 2464 2481 2446 2453 2438 2436 2408 2426 2496 2482 2475 2440 2436 2447 2459 2478 2489 2454 2466 2436 2465 2488 2453 2494 2442 2430 2444 2474 2496 2500 2473 2470 2493 2436 2455 2418 2429 2491 2422 2416 2457 2409 2468 2458 2466 2474 2455 2474 2455 2468 2460 2452 2463 2454 2456 2420 2439 2449 2428 2472 2447 2470 2436 2427 2455 2425 2444 2455 2416 2446 2446 2504 2447 2447 2512 2435 2439 2460 2458 2475 2468 2440 2453 2430 2463 2434 2480 2443 2443 2443 2442 2497 2478 2470 2485 2433 2417 2426 2445 2470 2460 2450 2459 2453 2443 2461 2420 2468 2443 2442 2464 2452 2444 2464 2470 2470 2440 2469 2436 2485 2434 2482 2470

Tree=0
num_leaves=27
num_cat=0
split_feature=0 3 0 8 1 0 0 5 0 0 0 0 0 5 0 0 4 0 0 4 0 0 0 0 1 0
split_gain=3.9721e+10 1.70383e+10 1.44191e+10 9.45683e+09 9.81903e+09 8.80925e+09 2.33528e+10 3.49916e+09 3.04193e+09 3.17462e+09 2.84745e+09 2.74698e+09 2.24394e+09 1.80454e+09 1.49795e+09 1.84068e+09 1.4342e+09 1.38601e+09 1.21923e+09 9.69481e+08 9.32522e+08 8.85607e+08 8.69439e+08 7.95063e+08 7.68627e+08 7.6385e+08
threshold=3215.4710324496477 3401.669171559035 3215.4901353503187 2805.8071472114357 3864.9407464931401 2841.1853581511455 3215.4250370115346 4938.3928571428578 3215.4987642021006 3346.9401329833022 3215.454893699432 3215.4820713547947 3215.3924905319336 3275.5931330531444 3814.8824137931038 4875.4246575342468 2755.4167094891613 5221.580294117648 3815.5488872790502 3668.7690709547346 3215.5085550438976 3814.302871631412 6117.4180713489413 3814.0710547667345 3865.0742680868048 1936.8376104746319
decision_type=2 2 2 2 2 2 2 2 2 2 2 2 2 2 2 2 2 2 2 2 2 2 2 2 2 2
left_child=5 2 11 7 -5 25 12 13 -4 20 -8 -2 -7 -3 16 -16 -15 -17 -11 -19 -10 -9 -21 -18 -6 -1
right_child=1 3 8 4 24 6 10 21 9 18 -12 -13 -14 14 15 17 23 19 -20 22 -22 -23 -24 -25 -26 -27
leaf_value=3261.8848263680788 3233.3615110998257 3210.7843551095611 3206.6341429620124 3396.9293651502217 3271.9124499420955 3413.8738761352965 3287.0458277203252 3327.2650719300073 3190.9353143382509 3243.5853902695271 3253.2075445136825 3218.7120072384032 3338.8154644623341 3235.6700313110914 3220.3450823694848 3314.4916738468428 3370.976990780257 3221.7098466786888 3199.5557038755755 3324.3260097485713 3174.3081389643676 3264.8862986504537 3252.0211490774532 3272.5483768743929 3213.6478847610342 3200.8597557086991
leaf_weight=66 6593 919 9948 253 144 323 1088 75 2885 416 2712 9969 276 110 1132 99 54 306 356 55 1727 824 395 61 128 541
leaf_count=66 6593 919 9948 253 144 323 1088 75 2885 416 2712 9969 276 110 1132 99 54 306 356 55 1727 824 395 61 128 541
internal_value=3224.09 3217.7 3213.15 3249.55 3319.4 3270.59 3279.26 3240.3 3200.84 3190.17 3262.99 3224.55 3380.92 3231.47 3240.07 3235.09 3282.51 3254.49 3223.25 3245.92 3184.65 3270.81 3262.18 3324.24 3244.9 3207.83
internal_weight=41455 36449 31894 4555 525 5006 4399 4030 15332 5384 3800 16562 599 3131 2212 1987 225 855 772 756 4612 899 450 115 272 607
internal_count=41455 36449 31894 4555 525 5006 4399 4030 15332 5384 3800 16562 599 3131 2212 1987 225 855 772 756 4612 899 450 115 272 607
is_linear=0
shrinkage=1


Tree=1
num_leaves=27
num_cat=0
split_feature=0 3 0 8 1 0 0 5 0 0 0 0 0 5 0 0 4 0 0 4 5 0 0 0 1 0
split_gain=3.83449e+10 1.64615e+10 1.39166e+10 9.13367e+09 9.48397e+09 8.50349e+09 2.2559e+10 3.37756e+09 2.93657e+09 3.15725e+09 2.75128e+09 2.65114e+09 2.16663e+09 1.74439e+09 1.45134e+09 1.77953e+09 1.38973e+09 1.34082e+09 1.17738e+09 9.37206e+08 8.80854e+08 8.43466e+08 8.01884e+08 7.70516e+08 7.43119e+08 7.38804e+08
threshold=3215.4710324496477 3401.669171559035 3215.4901353503187 2805.8071472114357 3864.9407464931401 2841.1853581511455 3215.4250370115346 4938.3928571428578 3215.4993290583579 3346.9401329833022 3215.4558351265282 3215.4820713547947 3215.3924905319336 3275.5931330531444 3814.8824137931038 4875.4246575342468 2755.4167094891613 5221.580294117648 3815.5488872790502 3668.7690709547346 7116.0714285714294 6117.4180713489413 3215.5090930022384 3814.0710547667345 3865.0715669603123 1936.8376104746319
decision_type=2 2 2 2 2 2 2 2 2 2 2 2 2 2 2 2 2 2 2 2 2 2 2 2 2 2
left_child=5 2 11 7 -5 25 12 13 -4 22 -8 -2 -7 -3 16 -16 -15 -17 -11 -19 -9 -21 -10 -18 -6 -1
right_child=1 3 8 4 24 6 10 20 9 18 -12 -13 -14 14 15 17 23 19 -20 21 -22 -23 -24 -25 -26 -27
leaf_value=37.201306449213781 9.1199739363062253 -13.061311889496713 -17.327175577635533 169.8838705540162 47.22193148537027 186.51941775359964 60.631120073457033 33.854715727377915 -33.400560888164129 19.168965424517879 28.08479446233989 -5.2716988440818291 112.76342101944638 11.399240273246651 -3.6677103733516323 88.920521528107443 144.5933647023555 -2.3274881167808927 -24.098367856912954 98.671402254810189 72.416488253259644 27.458851424178903 -49.239717551147798 47.699863585093311 -10.046404143243119 -22.814350811561809
leaf_weight=66 6593 919 10184 253 143 323 1174 628 2720 416 2626 9969 276 110 1132 99 54 306 356 55 271 395 1656 61 129 541
leaf_count=66 6593 919 10184 253 143 323 1174 628 2720 416 2626 9969 276 110 1132 99 54 306 356 55 271 395 1656 61 129 541
internal_value=0.0178887 -6.26327 -10.738 25.0389 93.6892 45.6994 54.2184 15.9568 -22.8279 -33.6736 38.2278 0.458684 154.137 7.27398 15.7363 10.8317 57.5033 29.9096 -0.8184 21.478 45.9229 37.4653 -39.4598 98.5852 20.4673 -15.9581
internal_weight=41455 36449 31894 4555 525 5006 4399 4030 15332 5148 3800 16562 599 3131 2212 1987 225 855 772 756 899 450 4376 115 272 607
internal_count=41455 36449 31894 4555 525 5006 4399 4030 15332 5148 3800 16562 599 3131 2212 1987 225 855 772 756 899 450 4376 115 272 607
is_linear=0
shrinkage=0.0176155


Tree=2
num_leaves=27
num_cat=0
split_feature=0 3 0 8 1 0 0 5 0 0 0 0 5 0 0 0 0 0 0 4 0 4 0 0 7 1
split_gain=3.70177e+10 1.57199e+10 1.38555e+10 8.82181e+09 9.16032e+09 8.60165e+09 2.11797e+10 3.2594e+09 3.04092e+09 2.97472e+09 2.78324e+09 2.53943e+09 1.68624e+09 1.44326e+09 1.40681e+09 1.80419e+09 1.2971e+09 1.13715e+09 1.0956e+09 1.0758e+09 1.05239e+09 9.06007e+08 8.59262e+08 8.18268e+08 7.39178e+08 7.18367e+08
threshold=3215.4706289808923 3401.669171559035 3215.4897265019799 2805.8071472114357 3864.9407464931401 2841.1853581511455 3215.4196574281291 4938.3928571428578 3215.4982531416767 3215.4515045618868 3346.9401329833022 3215.4815280168705 3275.5931330531444 3215.3793105525915 3815.0236771950163 4875.4246575342468 5221.580294117648 3815.6068414952192 3215.5064301084526 2755.4167094891613 3814.0710547667345 3668.7690709547346 3814.302871631412 6117.4180713489413 2682.0980218868467 3865.0742680868048
decision_type=2 2 2 2 2 2 2 2 2 2 2 2 2 2 2 2 2 2 2 2 2 2 2 2 2 2
left_child=5 2 11 7 -5 -1 13 12 -4 -8 18 -2 -3 -7 19 -16 -17 -12 -10 -14 -21 -18 -9 -23 -25 -6
right_child=1 3 8 4 25 6 9 22 10 -11 17 -13 14 -15 15 16 21 -19 -20 20 -22 23 -24 24 -26 -27
leaf_value=-15.674274588855404 9.403023994211658 -12.832874387283077 -16.056299786459114 166.96749022204608 46.240014583246904 190.63457030331205 67.610137144376708 100.6937171529537 -28.856225647814764 30.537619726279924 17.804519802424995 -4.7476352403404318 11.209820687120015 123.63538411830569 -4.5916015079882646 87.452191441627193 -2.2873547761571782 -24.955128908904452 -45.346290295554603 142.32408542795986 42.62960537667194 97.119760160941979 39.308735968904479 10.396602086526741 62.057591998237989 -10.087294262914812
leaf_weight=607 6755 919 10057 253 144 260 896 75 2713 2738 437 9408 110 272 1102 99 306 335 2422 54 91 55 824 274 121 128
leaf_count=607 6755 919 10057 253 144 260 896 75 2713 2738 437 9408 110 272 1102 99 306 335 2422 54 91 55 824 274 121 128
internal_value=0.0204228 -5.98677 -10.3298 24.616 92.0842 46.132 55.148 15.6903 -21.9664 39.7844 -31.9996 1.16777 7.16068 158.317 15.4808 10.3131 29.4115 -0.804718 -36.6823 53.8772 84.3447 21.1186 45.1276 36.8375 26.9831 20.1223
internal_weight=41455 36682 32127 4555 525 4773 4166 4030 15964 3634 5907 16163 3131 532 2212 1957 855 772 5135 255 145 756 899 450 395 272
internal_count=41455 36682 32127 4555 525 4773 4166 4030 15964 3634 5907 16163 3131 532 2212 1957 855 772 5135 255 145 756 899 450 395 272
is_linear=0
shrinkage=0.0176155


Tree=3
num_leaves=27
num_cat=0
split_feature=0 0 0 0 0 7 1 0 0 0 4 0 0 0 1 0 0 0 0 6 9 1 0 0 0 5
split_gain=3.57616e+10 1.47354e+10 1.18671e+10 9.9147e+09 1.81272e+10 6.5047e+09 8.90864e+09 5.5012e+09 7.65347e+09 6.67736e+09 3.65802e+09 5.79527e+09 2.11498e+09 1.65692e+09 1.45645e+09 1.39424e+09 1.27447e+09 1.23593e+09 1.18364e+09 8.89053e+08 8.78616e+08 7.66725e+08 7.14226e+08 6.01282e+08 5.95102e+08 5.91231e+08
threshold=3215.4688806162853 4336.3406196139304 3215.4864180581858 2841.1853581511455 3215.4196574281291 2599.1145832785091 3864.9407464931401 3346.9401329833022 3815.2721558968428 3215.5004856687901 2755.4167094891613 3813.5748217907862 3215.4515045618868 3215.4784293768294 2662.4247579167763 3215.3793105525915 3492.5851351351357 3815.8386583598963 3215.4928735582721 27.500000000000004 2915.2699142731999 3865.0715669603123 1936.8376104746319 3215.5096040626618 3814.5998869892792 3771.9350765721742
decision_type=2 2 2 2 2 2 2 2 2 2 2 2 2 2 2 2 2 2 2 2 2 2 2 2 2 2
left_child=3 2 13 22 15 14 -7 9 10 18 16 -12 -6 -2 -3 -5 -9 -10 -4 25 -8 -22 -1 -11 -13 -16
right_child=1 5 7 4 12 6 20 8 17 23 11 24 -14 -15 19 -17 -18 -19 -20 -21 21 -23 -24 -25 -26 -27
leaf_value=36.856621211740503 13.793412985482234 81.517090796663609 -9.9126380523795365 187.35971690378616 66.427875922601757 156.39577223046004 87.423616066032693 55.771145486408088 -3.1757098321030623 -33.567620786751888 170.99785157674884 72.616290996485816 33.56090134996505 0.49622539208031835 -4.5326053263940125 121.50916952221617 -12.882708645572983 -32.889538962040135 -19.648049811959861 33.919573777092616 42.618442065119886 -8.1590952006148338 -22.144539755572154 -47.898318915394597 29.267976235195341 21.020104853477854
leaf_weight=66 4896 99 9548 260 896 284 61 106 1107 2395 135 140 1967 7148 711 272 323 710 6551 479 180 179 541 1588 357 456
leaf_count=66 4896 99 9548 260 896 284 61 106 1107 2395 135 140 1967 7148 711 272 323 710 6551 479 180 179 541 1588 357 456
internal_value=0.0230982 -5.32821 -8.25307 50.0299 61.7357 36.387 81.3382 -15.6801 7.08318 -18.9436 44.5274 71.2543 43.9763 5.90627 18.0133 155.597 4.66941 -14.8637 -13.8806 13.883 28.9477 17.6104 -15.4011 -39.3511 42.2719 5.51408
internal_weight=41455 37453 35004 4002 3395 2449 704 22960 2878 20082 1061 632 2863 12044 1745 532 429 1817 16099 1646 420 359 607 3983 497 1167
internal_count=41455 37453 35004 4002 3395 2449 704 22960 2878 20082 1061 632 2863 12044 1745 532 429 1817 16099 1646 420 359 607 3983 497 1167
is_linear=0
shrinkage=0.0176155


Tree=4
num_leaves=27
num_cat=0
split_feature=0 0 0 0 0 7 1 0 0 0 4 0 0 0 1 0 0 0 0 9 5 1 0 0 0 1
split_gain=3.48613e+10 1.41714e+10 1.14597e+10 9.49032e+09 1.76842e+10 6.39806e+09 8.59949e+09 5.29355e+09 7.3865e+09 6.44688e+09 3.49289e+09 5.55975e+09 2.0513e+09 1.60125e+09 1.36904e+09 1.34308e+09 1.23984e+09 1.20065e+09 1.13882e+09 8.9944e+08 8.55545e+08 7.50171e+08 6.86687e+08 5.80548e+08 5.64725e+08 3.81041e+08
threshold=3215.4688806162853 4336.3406196139304 3215.4864180581858 2841.1853581511455 3215.4196574281291 2599.1145832785091 3864.9407464931401 3346.9401329833022 3815.2721558968428 3215.5004856687901 2755.4167094891613 3813.5748217907862 3215.4515045618868 3215.4788866414187 2662.4247579167763 3215.3793105525915 3492.5851351351357 3815.8060591133012 3215.4928735582721 2915.2699142731999 3311.4877049180332 3865.0715669603123 1936.8376104746319 3215.5101420210021 3814.5998869892792 3263.3677309381769
decision_type=2 2 2 2 2 2 2 2 2 2 2 2 2 2 2 2 2 2 2 2 2 2 2 2 2 2
left_child=3 2 13 22 15 14 -7 9 10 18 16 -12 -6 -2 -3 -5 -9 -10 -4 -8 -16 -21 -1 -11 -13 -22
right_child=1 5 7 4 12 6 19 8 17 23 11 24 -14 -15 20 -17 -18 -19 -20 21 25 -23 -24 -25 -26 -27
leaf_value=36.266483519826522 13.469648932865102 78.833576919850429 -9.7412863381659598 184.18717181488012 65.345154878198628 154.73666018949314 88.503341416401483 54.857610303017893 -2.3622397532217319 -33.266669111408461 167.51954959344008 71.147799956434483 32.98207269337653 0.42497534056436082 -10.865600202213786 119.67881496093874 -12.661866601943766 -31.316261971009418 -19.298267586267475 42.299368879197921 27.442966294921003 -8.1298741891884863 -21.619146924235352 -47.516048527627198 28.817979175344657 7.6159089193732576
leaf_weight=66 4964 100 9551 263 897 281 60 107 1049 2502 135 139 1964 7079 347 272 322 766 6532 178 812 178 535 1486 358 486
leaf_count=66 4964 100 9551 263 897 281 60 107 1049 2502 135 139 1964 7079 347 272 322 766 6532 178 812 178 535 1486 358 486
internal_value=0.0416978 -5.24166 -8.10728 49.4475 60.8487 35.7291 80.5947 -15.409 6.9286 -18.611 43.7065 69.8234 43.256 5.8063 17.5719 153.252 4.75535 -14.6513 -13.6291 28.876 13.5471 17.3959 -14.9367 -38.6461 41.4354 20.0956
internal_weight=41429 37432 34990 3997 3396 2442 697 22947 2876 20071 1061 632 2861 12043 1745 535 429 1815 16083 416 1645 356 601 3988 497 1298
internal_count=41429 37432 34990 3997 3396 2442 697 22947 2876 20071 1061 632 2861 12043 1745 535 429 1815 16083 416 1645 356 601 3988 497 1298
is_linear=0
shrinkage=0.0176155


Tree=5
num_leaves=27
num_cat=0
split_feature=6 2 5 1 5 2 1 1 1 1 1 5 2 1 1 1 1 1 1 4 1 1 1 1 1 5
split_gain=1.60564e+10 6.50516e+09 4.17897e+09 4.12686e+09 2.87691e+09 2.86815e+09 2.75536e+09 7.30909e+09 7.96106e+09 2.24267e+09 4.79376e+09 1.5585e+09 1.52792e+09 1.19873e+09 1.18896e+09 1.55884e+09 3.40927e+09 1.53915e+09 1.0129e+09 1.01164e+09 9.30182e+08 1.26272e+09 2.30752e+09 7.79375e+08 7.45686e+08 7.28565e+08
threshold=27.500000000000004 3732.0269784172665 5660.7692307692314 2662.4808389725954 3162.1340184563765 3732.0269784172665 3865.0846275207959 3856.7239536954589 3864.9407464931401 3865.0113441173767 3856.7239536954589 4938.3928571428578 4147.576168652613 3864.8376125725158 3865.1211541176835 3856.7239536954589 3865.0113441173767 3865.2159568361499 3871.7042621225614 3335.2423283822714 3865.1429472973391 3800.0765550239234 3865.0355161300226 3865.1582946069561 2662.3892399147576 3745.7000903614457
decision_type=2 2 2 2 2 2 2 2 2 2 2 2 2 2 2 2 2 2 2 2 2 2 2 2 2 2
left_child=1 3 5 24 20 19 7 12 -9 10 -7 14 -3 -12 15 -6 -17 23 -8 -2 21 -5 -23 -16 -1 -21
right_child=2 6 -4 4 11 9 18 8 -10 -11 13 -13 -14 -15 17 16 -18 -19 -20 25 -22 22 -24 -25 -26 -27
leaf_value=92.394709892114477 11.4955803407974 62.412176517192023 82.498803631689398 -13.844979382256822 -4.4601335884286115 34.544759109165803 -9.9156597494457674 145.19889168710804 31.790626666239433 20.494032490361562 172.30086709158562 22.542448021882546 5.0574073430626427 79.87106502339887 -16.276514676242829 92.20009634118631 5.800869541417895 5.7179985235565969 22.107572950125697 61.776520625756177 -29.142653652242942 73.87690099693522 -3.6299980940905097 -44.990670839660602 34.242906082039902 19.772719824751519
leaf_weight=85 2284 146 451 12503 10658 398 1520 267 663 459 128 743 2631 94 733 145 2193 630 377 229 1026 121 1801 497 345 302
leaf_count=85 2284 146 451 12503 10658 398 1520 267 663 459 128 743 2631 94 733 145 2193 630 377 229 1026 121 1801 497 345 302
internal_value=0.0437102 -3.71198 32.055 -6.82522 -7.57996 26.0827 13.7638 22.5871 65.1449 50.4316 72.1449 -2.24183 8.21391 136.606 -3.49086 -1.60177 11.4041 -16.6376 -3.4968 16.6534 -12.9659 -11.8025 1.48592 -28.0575 46.9631 38.4244
internal_weight=41429 37084 4345 31480 31050 3894 5604 3707 930 1079 620 15599 2777 222 14856 12996 2338 1860 1897 2815 15451 14425 1922 1230 430 531
internal_count=41429 37084 4345 31480 31050 3894 5604 3707 930 1079 620 15599 2777 222 14856 12996 2338 1860 1897 2815 15451 14425 1922 1230 430 531
is_linear=0
shrinkage=0.0176155


Tree=6
num_leaves=27
num_cat=0
split_feature=0 0 0 0 0 7 1 0 0 0 4 0 0 0 1 0 0 0 0 9 5 1 0 0 0 6
split_gain=3.30566e+10 1.3788e+10 9.17816e+09 7.23171e+09 1.95408e+10 6.02725e+09 8.12739e+09 5.35144e+09 7.02752e+09 5.63977e+09 2.80167e+09 5.85491e+09 2.34575e+09 1.89904e+09 1.29616e+09 1.27318e+09 1.17773e+09 1.00427e+09 8.88728e+08 8.68375e+08 8.58461e+08 7.12855e+08 6.61265e+08 6.48936e+08 5.1908e+08 5.1093e+08
threshold=3215.4710324496477 4336.3406196139304 3215.487493974867 2841.1853581511455 3215.4250370115346 2599.1145832785091 3864.9407464931401 3346.9401329833022 3815.3134482758628 3215.5009429333795 2755.4167094891613 3813.5748217907862 3215.4570455327944 3215.3924905319336 2662.3892399147576 3215.4793761835085 3492.5851351351357 3815.8386583598963 3215.4938096057845 2915.2699142731999 3311.4877049180332 3865.0758028177665 3814.7954824688504 1936.8376104746319 3215.5096040626618 22.500000000000004
decision_type=2 2 2 2 2 2 2 2 2 2 2 2 2 2 2 2 2 2 2 2 2 2 2 2 2 2
left_child=3 2 15 23 13 14 -7 9 10 18 16 -12 -6 -5 -3 -2 -9 -10 -4 -8 -16 -21 -13 -1 -11 -22
right_child=1 5 7 4 12 6 19 8 17 24 11 22 -14 -15 20 -17 -18 -19 -20 21 25 -23 -24 -25 -26 -27
leaf_value=35.086619099572765 11.084102159147442 93.902310449994133 -10.699935462356075 172.87724202240474 55.247430230095006 150.20997097069863 86.434426926250282 53.357085684950363 -4.4635698659414205 -32.434864814184486 163.24922940076948 63.757546151794941 25.607727560789414 104.21150692908408 -10.62101589181993 -0.75580253275152443 -12.448882045463872 -31.708447575675734 -19.625082710759628 39.825224075877159 11.863354619566746 -9.371147510540796 23.068211146339856 -21.190008178303632 -45.879488718082456 34.507445894208246
leaf_weight=66 4269 59 9033 327 1238 281 60 107 1014 2306 135 182 2558 277 347 8266 322 713 5648 186 848 170 403 535 1588 491
leaf_count=66 4269 59 9033 327 1238 281 60 107 1014 2306 135 182 2558 277 347 8266 322 713 5648 186 848 170 403 535 1588 491
internal_value=0.0456214 -5.78695 -8.69412 42.4825 50.3028 34.5872 78.1331 -15.6902 6.65714 -19.1515 40.2934 61.3704 35.3535 142.856 16.9645 3.28018 4.52467 -15.7898 -14.1409 27.8582 13.9159 16.5897 36.2983 -14.6952 -37.9862 20.2956
internal_weight=41429 36428 33986 5001 4400 2442 697 21451 2876 18575 1149 720 3796 604 1745 12535 429 1727 14681 416 1686 356 585 601 3894 1339
internal_count=41429 36428 33986 5001 4400 2442 697 21451 2876 18575 1149 720 3796 604 1745 12535 429 1727 14681 416 1686 356 585 601 3894 1339
is_linear=0
shrinkage=0.0176155


Tree=7
num_leaves=27
num_cat=0
split_feature=6 2 5 1 2 5 1 1 1 1 1 5 2 1 1 1 1 1 1 4 1 1 1 1 1 1
split_gain=1.50048e+10 6.07283e+09 3.92336e+09 3.86068e+09 2.68656e+09 2.67914e+09 2.57817e+09 6.28681e+09 7.9233e+09 2.10344e+09 4.50286e+09 1.46053e+09 1.43351e+09 1.12775e+09 1.11019e+09 1.45574e+09 3.19966e+09 1.43648e+09 9.9195e+08 9.39397e+08 8.69387e+08 1.18072e+09 2.15485e+09 7.65761e+08 7.375e+08 7.2901e+08
threshold=27.500000000000004 3732.0269784172665 5660.7692307692314 2662.4808389725954 3732.0269784172665 3162.1340184563765 3865.0876969827191 3856.7239536954589 3864.9407464931401 3865.0113441173767 3856.7239536954589 4938.3928571428578 4147.576168652613 3864.8376125725158 3865.1211541176835 3856.7239536954589 3864.9998336351641 3865.2159568361499 3865.2159568361499 3335.2423283822714 3865.1429472973391 3800.0765550239234 3865.0355161300226 3865.1429472973391 3865.0758028177665 3865.1582946069561
decision_type=2 2 2 2 2 2 2 2 2 2 2 2 2 2 2 2 2 2 2 2 2 2 2 2 2 2
left_child=1 3 4 -1 19 20 7 12 -9 10 -6 14 -3 -12 15 -7 -17 25 23 -2 21 -5 -23 -8 -18 -16
right_child=2 6 -4 5 9 11 18 8 -10 -11 13 -13 -14 -15 17 16 24 -19 -20 -21 -22 22 -24 -25 -26 -27
leaf_value=45.433568748693524 11.109852694130765 60.439293137471736 79.868904919302523 -13.369039102359947 33.3608339810174 -4.3157322694958955 -4.2786224327004367 140.3497067651208 28.794586478105025 19.779407002965435 166.88534517006624 21.822828320642323 4.8848165136075119 77.27133219868773 -15.721493577589552 99.392275992180458 26.476367893973027 5.5144266367976797 20.053932579671638 37.05968369610337 -28.157821188813607 71.410923918142927 -3.4881837698100013 -36.397136085781447 1.1384132703163372 -43.491934192841974
leaf_weight=430 2284 146 451 12503 398 10658 1137 267 729 459 128 743 2631 94 733 114 439 630 411 531 1026 121 1801 283 1785 497
leaf_count=430 2284 146 451 12503 398 10658 1137 267 729 459 128 743 2631 94 733 114 439 630 411 531 1026 121 1801 283 1785 497
internal_value=0.0474178 -3.5832 30.9927 -6.59121 25.2061 -7.3212 13.3019 21.6136 59.4277 48.7715 69.7997 -2.16982 7.94221 132.273 -3.37896 -1.55352 11.0149 -16.0828 -3.84159 16.0802 -12.5188 -11.394 1.45567 -10.8188 6.20361 -27.1152
internal_weight=41429 37084 4345 31480 3894 31050 5604 3773 996 1079 620 15599 2777 222 14856 12996 2338 1860 1831 2815 15451 14425 1922 1420 2224 1230
internal_count=41429 37084 4345 31480 3894 31050 5604 3773 996 1079 620 15599 2777 222 14856 12996 2338 1860 1831 2815 15451 14425 1922 1420 2224 1230
is_linear=0
shrinkage=0.0176155


Tree=8
num_leaves=27
num_cat=0
split_feature=0 3 0 8 1 0 0 5 0 0 0 0 0 5 0 0 0 0 0 4 0 1 5 4 0 0
split_gain=3.11051e+10 1.29134e+10 1.12204e+10 7.15039e+09 7.59438e+09 6.71049e+09 1.87592e+10 2.73249e+09 2.41315e+09 2.31954e+09 2.31185e+09 2.08308e+09 1.80592e+09 1.39685e+09 1.19792e+09 1.54344e+09 1.21607e+09 9.89107e+08 9.34458e+08 9.2352e+08 8.69806e+08 8.48102e+08 7.98359e+08 6.75147e+08 7.9579e+08 7.06009e+08
threshold=3215.4721083663285 3401.669171559035 3215.4908024186611 2805.8071472114357 3864.8971601338289 2841.1853581511455 3215.4250370115346 4938.3928571428578 3215.4982531416767 3215.4570455327944 3346.9401329833022 3215.4826200723019 3215.3924905319336 3275.5931330531444 3815.0236771950163 4875.4246575342468 5220.99205882353 3815.5488872790502 3215.5064301084526 2755.4167094891613 3814.0710547667345 3865.0512471223801 7116.0714285714294 3668.7690709547346 6117.4180713489413 5223.2273529411768
decision_type=2 2 2 2 2 2 2 2 2 2 2 2 2 2 2 2 2 2 2 2 2 2 2 2 2 2
left_child=5 2 11 7 -5 -1 12 13 -4 -8 18 -2 -7 -3 19 -16 -17 -12 -10 -15 -21 -6 -9 25 -25 -18
right_child=1 3 8 4 21 6 9 22 10 -11 17 -13 -14 14 15 16 23 -19 -20 20 -22 -23 -24 24 -26 -27
leaf_value=-14.501699487857644 7.6831526891217239 -12.043922035534377 -15.033261716809447 159.85067834382974 53.611271011123712 168.40907576475212 53.742472246276535 29.505369686219236 -26.481231902291317 24.510035765622536 17.518879396639299 -5.0012109749204754 101.34193880469438 10.082484136639588 -4.7402380678476721 92.098815401594436 28.02321653678769 -22.138558243047001 -41.712697101228969 130.47947707016181 39.093547868807072 -5.3572357299446178 66.062807735339661 93.060729168718481 24.01940866999384 -22.675170944787506
leaf_weight=606 6946 915 9374 221 142 324 1230 628 2716 2723 412 9510 277 110 1102 74 151 359 2417 54 88 152 272 55 392 179
leaf_count=606 6946 915 9374 221 142 324 1230 628 2716 2723 412 9510 277 110 1102 74 151 359 2417 54 88 152 272 55 392 179
internal_value=-0.00614269 -5.76563 -9.73995 22.0186 83.3978 40.4321 47.7526 14.0313 -20.6073 33.6804 -29.4308 0.353728 138.937 6.19467 13.7765 9.0248 26.749 -0.97787 -33.6978 49.4296 78.1048 23.6764 40.9551 19.8007 33.747 0.617637
internal_weight=41429 36269 31734 4535 515 5160 4554 4020 15278 3953 5904 16456 601 3120 2205 1953 851 771 5133 252 142 294 900 777 447 330
internal_count=41429 36269 31734 4535 515 5160 4554 4020 15278 3953 5904 16456 601 3120 2205 1953 851 771 5133 252 142 294 900 777 447 330
is_linear=0
shrinkage=0.0176155


Tree=9
num_leaves=27
num_cat=0
split_feature=0 0 0 0 0 7 1 0 0 0 10 0 0 1 0 0 0 0 0 9 5 1 0 0 0 6
split_gain=3.00303e+10 1.19242e+10 1.02535e+10 8.50087e+09 1.51073e+10 5.30228e+09 7.28719e+09 4.30928e+09 6.46527e+09 5.85578e+09 2.33285e+09 5.69249e+09 1.72138e+09 1.28288e+09 1.26855e+09 1.19065e+09 1.10448e+09 1.10028e+09 8.63362e+08 7.94242e+08 7.65681e+08 6.68301e+08 6.66338e+08 6.13365e+08 5.06616e+08 4.67089e+08
threshold=3215.4678046996046 4336.3406196139304 3215.4861652177656 2841.1853581511455 3215.4196574281291 2599.1145832785091 3864.9407464931401 3346.9401329833022 3815.3714024920323 3215.5004856687901 0.863620199146515 3813.5748217907862 3215.4482337751765 2662.3892399147576 3215.4778914184885 3215.3793105525915 3215.4926314770187 3490.186486486487 3815.9219675456397 2915.2699142731999 3311.4877049180332 3865.0635249700731 3814.7954824688504 1936.8376104746319 3215.5096040626618 22.500000000000004
decision_type=2 2 2 2 2 2 2 2 2 2 2 2 2 2 2 2 2 2 2 2 2 2 2 2 2 2
left_child=3 2 14 23 15 13 -7 9 10 16 11 -9 -6 -3 -2 -5 -4 -12 -10 -8 -15 -21 -13 -1 -11 -22
right_child=1 5 7 4 12 6 19 8 18 24 17 22 -14 20 -16 -17 -18 -19 -20 21 25 -23 -24 -25 -26 -27
leaf_value=34.172807842970187 13.406284401345916 93.404733744543435 -8.5387150388551358 172.16783231729065 62.338085068441096 142.68165941407059 81.864360828076698 157.08694212333577 -7.6224048626299075 -30.810694759593567 76.524055136132645 61.069423240562813 31.680596886253426 -10.088843127946886 1.4346109935553952 111.41980355515533 -17.738401042717289 -6.6960201376749406 -34.863328082736537 43.206118199356069 11.15327473054583 -5.0579716821823926 20.834926827778816 -20.509113365408599 -43.969114835326906 32.746271376878553
leaf_weight=66 4528 58 9788 260 813 277 61 134 1151 2387 50 178 1977 343 6970 272 6932 376 523 148 848 207 457 540 1590 495
leaf_count=66 4528 58 9788 260 813 277 61 134 1151 2387 50 178 1977 343 6970 272 6932 376 523 148 848 207 457 540 1590 495
internal_value=-0.00342216 -4.86015 -7.48087 46.2944 57.3452 32.7656 73.7563 -14.1334 6.08698 -16.9373 37.2764 55.4681 40.7404 16.2603 6.15415 142.858 -12.3584 4.09145 -16.2369 26.3472 13.252 15.4851 32.6264 -14.249 -36.1357 19.2335
internal_weight=41429 37501 35064 3928 3322 2437 693 23566 2869 20697 1195 769 2790 1744 11498 532 16720 426 1674 416 1686 355 635 606 3977 1343
internal_count=41429 37501 35064 3928 3322 2437 693 23566 2869 20697 1195 769 2790 1744 11498 532 16720 426 1674 416 1686 355 635 606 3977 1343
is_linear=0
shrinkage=0.0176155


Tree=10
num_leaves=27
num_cat=0
split_feature=0 3 0 8 2 0 0 5 0 0 0 0 0 5 0 0 0 0 0 4 0 5 4 0 0 7
split_gain=2.90202e+10 1.20585e+10 1.04703e+10 6.68711e+09 7.0086e+09 6.25913e+09 1.75328e+10 2.57429e+09 2.26717e+09 2.15793e+09 2.15518e+09 1.92599e+09 1.84331e+09 1.3018e+09 1.13086e+09 1.44095e+09 1.16855e+09 9.25747e+08 8.72098e+08 8.62492e+08 8.16262e+08 7.54064e+08 6.43915e+08 7.73868e+08 6.79182e+08 6.18669e+08
threshold=3215.4721083663285 3401.669171559035 3215.4901353503187 2805.8071472114357 4818.2629515418512 2841.1853581511455 3215.4296096574285 4938.3928571428578 3215.4982531416767 3215.3924905319336 3346.9401329833022 3215.4826200723019 3215.4570455327944 3269.6985005930278 3815.0236771950163 4875.4246575342468 5220.99205882353 3815.6321964647932 3215.5064301084526 2755.4167094891613 3814.0710547667345 7116.0714285714294 3668.7690709547346 6117.4180713489413 5223.2273529411768 2682.0980218868467
decision_type=2 2 2 2 2 2 2 2 2 2 2 2 2 2 2 2 2 2 2 2 2 2 2 2 2 2
left_child=5 2 11 7 -5 -1 9 13 -4 -7 18 -2 -8 -3 19 -16 -17 -12 -10 -15 -21 -9 24 -24 -18 -25
right_child=1 3 8 4 -6 6 12 21 10 -11 17 -13 -14 14 15 16 22 -19 -20 20 -22 -23 23 25 -26 -27
leaf_value=-13.995399384525609 7.4227177000511233 -11.666025810138896 -14.486920694663613 146.0366239760811 16.419476183368118 162.73677277044803 50.235806316908111 28.567974846117295 -25.572232120421805 94.983313517922326 15.26780350876899 -4.7911348370590883 23.667902693795863 9.8753549518705519 -4.6363248705252458 89.833693512608718 27.136431951461869 -23.539338701848767 -40.286584065391324 126.357036706659 37.834466603469629 64.092667076060067 91.062503527497483 7.839266446261516 -22.58918297223877 55.2201709802669
leaf_weight=606 6946 914 9437 251 264 324 1165 628 2716 342 450 9447 2723 110 1103 74 151 321 2417 54 88 272 55 272 179 120
leaf_count=606 6946 914 9437 251 264 324 1165 628 2716 342 450 9447 2723 110 1103 74 151 321 2417 54 88 272 55 272 179 120
internal_value=-0.000659966 -5.56378 -9.40429 21.285 80.6425 39.0589 46.1289 13.5608 -19.8605 129.22 -28.4239 0.384987 31.7005 5.95451 13.2682 8.65415 25.7833 -0.951884 -32.5438 47.9094 75.6219 39.6935 18.9767 32.5966 0.249834 23.0191
internal_weight=41429 36269 31734 4535 515 5160 4554 4020 15341 666 5904 16393 3888 3120 2206 1954 851 771 5133 252 142 900 777 447 330 392
internal_count=41429 36269 31734 4535 515 5160 4554 4020 15341 666 5904 16393 3888 3120 2206 1954 851 771 5133 252 142 900 777 447 330 392
is_linear=0
shrinkage=0.0176155


Tree=11
num_leaves=27
num_cat=0
split_feature=0 0 0 0 0 8 2 0 0 0 4 0 0 6 0 0 0 1 0 0 0 4 5 0 0 0
split_gain=2.80247e+10 1.11545e+10 9.57558e+09 7.93086e+09 1.41063e+10 4.63169e+09 4.47669e+09 3.76443e+09 6.11068e+09 5.848e+09 2.45104e+09 5.11667e+09 1.61082e+09 1.58836e+09 1.20754e+09 1.11789e+09 1.0706e+09 1.04744e+09 9.08539e+08 8.90909e+08 8.70201e+08 8.66914e+08 6.54878e+08 6.39627e+08 5.92972e+08 5.65668e+08
threshold=3215.4678046996046 4336.3406196139304 3215.4857725081774 2841.1853581511455 3215.4196574281291 2805.8071472114357 4817.9582525697506 3346.9401329833022 3815.3134482758628 3215.4998401187813 2755.4167094891613 3813.5748217907862 3215.445662334309 27.500000000000004 3215.4917976415909 3215.3793105525915 3492.5851351351357 2662.4247579167763 3815.8386583598963 3215.4773534601486 6430.9462574850304 4241.6116574974831 3771.9350765721742 6423.9477544910178 1936.8376104746319 3814.5998869892792
decision_type=2 2 2 2 2 2 2 2 2 2 2 2 2 2 2 2 2 2 2 2 2 2 2 2 2 2
left_child=3 2 19 24 15 13 -7 9 10 14 16 -12 -6 17 -4 -5 -9 -3 -10 -2 21 -15 -19 -23 -1 -13
right_child=1 5 7 4 12 6 -8 8 18 -11 11 25 -14 20 -16 -17 -18 22 -20 -21 -22 23 -24 -25 -26 -27
leaf_value=33.849734009981582 13.369675103378812 72.583817590362216 -7.0141922191878221 166.41461172641888 66.423876884012657 157.48989131300144 26.933318684343742 51.197502889778292 -4.2470955865258375 -34.580492863005531 152.76799065154012 64.497735450455252 32.563528815292642 39.037197215627948 -16.192822971412529 107.59602550695915 -12.170733270678697 -3.4500501822635528 -30.150353097901977 2.78615180882379 0.55070219751498506 137.46395449527728 22.150235353220914 53.468579020360586 -19.908651882947481 23.402890573553041
leaf_weight=66 4209 73 9687 260 548 160 166 104 1016 4088 134 136 2242 487 8246 272 322 781 713 5965 128 51 506 85 540 444
leaf_count=66 4209 73 9687 260 548 160 166 104 1016 4088 134 136 2242 487 8246 272 322 781 713 5965 128 51 506 85 540 444
internal_value=0.00185698 -4.68988 -7.22462 44.727 55.4008 31.7013 92.867 -13.1091 5.85906 -15.5813 37.4043 57.2079 39.3556 21.9951 -11.2392 138.032 3.84515 10.5484 -15.0032 7.17042 42.4509 50.9633 6.6767 89.8795 -13.7515 33.6573
internal_weight=41429 37501 35064 3928 3322 2437 326 24890 2869 22021 1140 714 2790 2111 17933 532 426 1360 1729 10174 751 623 1287 136 606 580
internal_count=41429 37501 35064 3928 3322 2437 326 24890 2869 22021 1140 714 2790 2111 17933 532 426 1360 1729 10174 751 623 1287 136 606 580
is_linear=0
shrinkage=0.0176155


Tree=12
num_leaves=27
num_cat=0
split_feature=0 3 0 8 2 0 0 5 0 0 0 0 0 5 0 0 0 0 0 4 0 5 4 0 7 0
split_gain=2.71188e+10 1.13705e+10 9.97301e+09 6.34184e+09 6.67227e+09 6.00678e+09 1.60813e+10 2.45599e+09 2.27085e+09 2.02655e+09 2.00213e+09 1.73316e+09 1.64014e+09 1.20586e+09 1.07161e+09 1.3523e+09 1.13379e+09 8.82017e+08 8.48263e+08 7.98645e+08 7.71357e+08 7.34854e+08 7.33734e+08 7.58282e+08 5.73704e+08 5.70934e+08
threshold=3215.4710324496477 3401.669171559035 3215.4897265019799 2805.8071472114357 4818.2629515418512 2841.1853581511455 3215.4296096574285 4938.3928571428578 3215.4976882854194 3215.3924905319336 3346.9401329833022 3215.4815280168705 3215.4570455327944 3269.6985005930278 3815.0236771950163 4875.4246575342468 5221.580294117648 3215.5064301084526 3815.5488872790502 2755.4167094891613 3814.0710547667345 7116.0714285714294 3668.7690709547346 6117.4180713489413 2682.0980218868467 1936.8376104746319
decision_type=2 2 2 2 2 2 2 2 2 2 2 2 2 2 2 2 2 2 2 2 2 2 2 2 2 2
left_child=5 2 11 7 -5 25 9 13 -4 -7 17 -2 -8 -3 19 -16 -17 -10 -12 -15 -21 -9 -18 -24 -25 -1
right_child=1 3 8 4 -6 6 12 21 10 -11 18 -13 -14 14 15 16 22 -19 -20 20 -22 -23 23 24 -26 -27
leaf_value=33.397857340120289 7.8902092446271688 -11.151209110061291 -13.572777528851624 140.96437291354778 15.479324783056002 157.25271602474879 48.515951954608447 27.935593511636824 -24.412108830753485 91.768006821111584 16.070213131131148 -3.9325091964397969 23.231373166310828 10.019358931612876 -4.5684183134245657 78.546915826923779 -3.9353160130536922 -38.974834672912955 -20.622852533741284 122.35587609749911 36.749546131953359 63.213976097682334 90.301571562894637 7.3852173562901395 53.156197254238791 -19.703226525887519
leaf_weight=65 6510 913 9894 257 266 324 1167 628 2876 345 419 9388 2568 112 1100 101 305 2431 355 54 90 267 53 271 119 536
leaf_count=65 6510 913 9894 257 266 324 1167 628 2876 345 419 9388 2568 112 1100 101 305 2431 355 54 90 267 53 271 119 536
internal_value=0.0336298 -5.25363 -8.96811 20.8218 78.1322 38.4522 45.5735 13.2365 -18.7949 124.711 -27.2675 0.909983 31.2033 5.81873 12.8577 8.32526 24.9372 -31.1231 -0.791289 46.2855 72.814 38.8464 17.0736 31.3834 22.0047 -13.6591
internal_weight=41414 36409 31873 4536 523 5005 4404 4013 15975 669 6081 15898 3735 3118 2205 1949 849 5307 774 256 144 895 748 443 390 601
internal_count=41414 36409 31873 4536 523 5005 4404 4013 15975 669 6081 15898 3735 3118 2205 1949 849 5307 774 256 144 895 748 443 390 601
is_linear=0
shrinkage=0.0176155


Tree=13
num_leaves=27
num_cat=0
split_feature=0 0 0 0 0 7 1 0 0 0 4 0 0 0 1 0 0 0 9 1 0 5 0 0 0 1
split_gain=2.62077e+10 1.05825e+10 8.92972e+09 7.38213e+09 1.31807e+10 4.77929e+09 6.71881e+09 4.17483e+09 5.78388e+09 4.60383e+09 2.16114e+09 5.13547e+09 1.51751e+09 1.49779e+09 1.18743e+09 1.05742e+09 1.04555e+09 7.9432e+08 7.85388e+08 8.5953e+08 7.78701e+08 6.76215e+08 6.11346e+08 5.52244e+08 4.30317e+08 4.25605e+08
threshold=3215.4678046996046 4336.3406196139304 3215.4873863831986 2841.1853581511455 3215.4196574281291 2599.1145832785091 3864.8971601338289 3346.9401329833022 3815.3714024920323 3215.5017229729729 2755.4167094891613 3813.5748217907862 3215.4482337751765 3215.4788866414187 2662.3892399147576 3215.3793105525915 3492.5851351351357 3815.9545667922353 2915.2441023715669 3865.0355161300226 3215.4939494749528 3311.4877049180332 3814.7954824688504 1936.8376104746319 3215.5107014976761 3263.3873992001577
decision_type=2 2 2 2 2 2 2 2 2 2 2 2 2 2 2 2 2 2 2 2 2 2 2 2 2 2
left_child=3 2 13 23 15 14 -7 9 10 20 16 -12 -6 -2 -3 -5 -9 -10 -8 -20 -4 -16 -13 -1 -11 -23
right_child=1 5 7 4 12 6 18 8 17 24 11 22 -14 -15 21 -17 -18 -19 19 -21 -22 25 -24 -25 -26 -27
leaf_value=32.863847674632893 11.951241943218843 88.760348170397776 -9.5895419946340201 160.85144594850854 58.311334820966081 140.51195774189247 89.812974526373978 49.797208894617533 -7.79121619576126 -29.374760224908893 149.19994869859266 57.943651725128973 29.528186334143676 -0.2247238759154957 -9.7378327869304506 103.85853351423496 -12.310864073413507 -34.881398561415217 53.644543881521464 -0.30097544076076599 -18.032770259715772 25.330709494994686 19.71760130871451 -19.360373045026847 -41.858510679999497 4.591730196963927
leaf_weight=65 5032 59 9784 260 812 255 49 106 1206 2405 134 182 1982 8297 342 274 326 462 134 263 5212 850 458 536 1445 484
leaf_count=65 5032 59 9784 260 812 255 49 106 1206 2405 134 182 1982 8297 342 274 326 462 134 263 5212 850 458 536 1445 484
internal_value=0.0355212 -4.50394 -6.97339 43.2795 53.5244 30.949 69.5523 -13.9372 5.82805 -16.9524 35.116 52.6115 38.0112 4.37562 15.1471 133.236 3.44923 -15.4027 27.5212 18.4875 -12.5307 12.2171 31.0695 -13.4159 -34.124 17.866
internal_weight=41414 37485 35049 3929 3328 2436 701 21720 2874 18846 1206 774 2794 13329 1735 534 432 1668 446 397 14996 1676 640 601 3850 1334
internal_count=41414 37485 35049 3929 3328 2436 701 21720 2874 18846 1206 774 2794 13329 1735 534 432 1668 446 397 14996 1676 640 601 3850 1334
is_linear=0
shrinkage=0.0176155


Tree=14
num_leaves=27
num_cat=0
split_feature=6 2 5 1 2 5 1 1 1 1 1 1 2 5 1 1 1 1 4 1 1 1 1 1 5 1
split_gain=1.19571e+10 4.4652e+09 3.47994e+09 3.11201e+09 2.25134e+09 2.05207e+09 1.98563e+09 4.50679e+09 6.26532e+09 1.70809e+09 3.72977e+09 1.29005e+09 1.13762e+09 1.09362e+09 9.16604e+08 1.13613e+09 1.11548e+09 2.47457e+09 7.57303e+08 7.37709e+08 7.15794e+08 9.74391e+08 1.54567e+09 6.35964e+08 6.34186e+08 5.95651e+08
threshold=25.500000000000004 3732.0269784172665 5660.7692307692314 2662.4612106030586 3732.0269784172665 3162.1340184563765 3865.0892317136809 3856.7239536954589 3864.9407464931401 3865.0205525031465 3856.7239536954589 3864.8376125725158 4147.576168652613 4938.3928571428578 3865.1211541176835 3865.2159568361499 3856.7239536954589 3864.9998336351641 3335.2423283822714 3871.7042621225614 3865.1401080450601 3800.0765550239234 3865.0512471223801 2662.5389763337948 2758.752577319588 3865.167886675466
decision_type=2 2 2 2 2 2 2 2 2 2 2 2 2 2 2 2 2 2 2 2 2 2 2 2 2 2
left_child=1 3 4 -1 18 20 7 12 -9 10 -6 -12 -3 14 16 25 -7 -18 -2 -8 21 23 -23 -5 -25 -16
right_child=2 6 -4 5 9 13 19 8 -10 -11 11 -13 -14 -15 15 -17 17 -19 -20 -21 -22 22 -24 24 -26 -27
leaf_value=49.885576170444587 9.0770823013167536 53.656010354870908 71.616193116038232 2.9498967918929981 27.862096515984025 -3.7865524625300111 -9.9279969284169027 125.24257375743764 24.307896802727115 16.174212759358348 149.02617974579638 64.943535493612742 3.9819097082950288 18.848668822964157 -14.462564474507067 4.8463056955239638 88.116545297401899 5.4669272550111501 31.71742699013404 18.390576777307555 -24.698169056115923 58.141903773516255 -2.6469624308450292 -16.768075930329655 -8.4954791171347761 -39.765039089158691
leaf_weight=300 2557 145 466 846 459 10628 1396 252 746 502 135 124 2570 737 756 617 112 2178 555 352 1108 134 1682 6087 5496 474
leaf_count=300 2557 145 466 846 459 10628 1396 252 746 502 135 124 2570 737 756 617 112 2178 555 352 1108 134 1682 6087 5496 474
internal_value=0.0374068 -3.39042 26.1656 -5.96613 21.1747 -6.51975 11.2935 18.5714 50.4509 41.4032 58.7337 111.389 6.75877 -1.99735 -3.04587 -14.6301 -1.38292 9.75122 13.1735 -4.17754 -11.0832 -10.0132 2.03312 -11.7735 -12.8499 -24.3738
internal_weight=41414 36616 4798 31155 4332 30855 5461 3713 998 1220 718 259 2715 15502 14765 1847 12918 2290 3112 1748 15353 14245 1816 12429 11583 1230
internal_count=41414 36616 4798 31155 4332 30855 5461 3713 998 1220 718 259 2715 15502 14765 1847 12918 2290 3112 1748 15353 14245 1816 12429 11583 1230
is_linear=0
shrinkage=0.0176155


Tree=15
num_leaves=27
num_cat=0
split_feature=0 3 0 8 1 0 0 5 0 0 0 0 0 5 0 0 0 0 0 4 0 1 5 4 0 0
split_gain=2.48693e+10 1.0473e+10 8.80073e+09 5.75232e+09 6.237e+09 5.21937e+09 1.53216e+10 2.23279e+09 1.94531e+09 1.87226e+09 1.86166e+09 1.65378e+09 1.58474e+09 1.10109e+09 1.00066e+09 1.24161e+09 1.08689e+09 7.82815e+08 7.64407e+08 7.40124e+08 7.16596e+08 7.16562e+08 6.87609e+08 5.67366e+08 7.36603e+08 6.34868e+08
threshold=3215.4724311413324 3401.669171559035 3215.4908024186611 2805.8071472114357 3864.8971601338289 2841.1853581511455 3215.4296096574285 4938.3928571428578 3215.4982531416767 3215.3924905319336 3346.9401329833022 3215.4590628765714 3215.4832710018941 3269.6985005930278 3815.0236771950163 4875.4246575342468 5220.99205882353 3815.6321964647932 3215.5064301084526 2755.4167094891613 3814.0710547667345 3865.0573860462264 7116.0714285714294 3668.7690709547346 6117.4180713489413 5223.2273529411768
decision_type=2 2 2 2 2 2 2 2 2 2 2 2 2 2 2 2 2 2 2 2 2 2 2 2 2 2
left_child=5 2 12 7 -5 -1 9 13 -4 -7 18 -8 -2 -3 19 -16 -17 -12 -10 -15 -21 -6 -9 25 -25 -18
right_child=1 3 8 4 21 6 11 22 10 -11 17 -13 -14 14 15 16 23 -19 -20 20 -22 -23 -24 24 -26 -27
leaf_value=-13.184322147819481 6.3866077288445746 -10.704974146393957 -13.387999057767146 142.74613349056727 46.637695026921996 150.77513417381718 43.643345545700591 26.458313902651181 -23.594517897375198 87.859036948344212 13.89046148035067 20.169216655072546 -4.6752696897607917 9.6273782501845506 -4.4960757704428955 85.096575030188149 25.40189795192461 -21.794611435503629 -37.352966777155949 117.82231344526039 35.325820261495501 -7.2320082362969416 60.562237522247024 88.087846458223908 20.824622506639287 -22.570986315312403
leaf_weight=601 7192 913 9363 226 150 324 1476 628 2710 345 456 2571 9091 112 1100 75 153 318 2431 54 90 147 267 53 390 178
leaf_count=601 7192 913 9363 226 150 324 1476 628 2710 345 456 2571 9091 112 1100 75 153 318 2431 54 90 147 267 53 390 178
internal_value=0.0387266 -5.20224 -8.80008 19.8075 74.3892 35.5818 41.8063 12.5834 -18.4001 119.507 -26.3101 28.7878 0.211228 5.5108 12.2371 7.85805 23.7758 -0.831127 -30.14 44.5383 70.0763 20.3977 37.0019 17.1634 30.049 -0.332722
internal_weight=41414 36097 31561 4536 523 5317 4716 4013 15278 669 5915 4047 16283 3118 2205 1949 849 774 5141 256 144 297 895 774 443 331
internal_count=41414 36097 31561 4536 523 5317 4716 4013 15278 669 5915 4047 16283 3118 2205 1949 849 774 5141 256 144 297 895 774 443 331
is_linear=0
shrinkage=0.0176155


Tree=16
num_leaves=27
num_cat=0
split_feature=0 3 0 8 1 0 0 5 0 0 0 1 5 0 0 0 0 4 0 0 1 6 5 5 1 0
split_gain=2.40034e+10 1.02909e+10 8.1072e+09 5.55481e+09 5.9274e+09 4.7025e+09 1.53981e+10 2.1725e+09 1.7972e+09 1.79571e+09 1.73655e+09 1.55481e+09 1.41619e+09 1.22817e+09 1.34935e+09 9.98389e+08 1.48568e+09 9.88571e+08 7.8717e+08 7.1913e+08 6.90822e+08 6.4958e+08 9.07541e+08 5.91664e+08 5.85286e+08 5.78518e+08
threshold=3215.4731304871752 3401.669171559035 3215.4914910053367 2805.8071472114357 3864.8971601338289 2841.1853581511455 3215.4296096574285 6508.0000000000009 3215.3924905319336 3215.4602732828375 3215.4842662248238 3865.167886675466 3275.5931330531444 3814.8824137931038 4336.3406196139304 3346.9401329833022 3215.5017229729729 2755.4167094891613 3814.0710547667345 3815.6321964647932 3865.0512471223801 27.500000000000004 3745.7000903614457 3736.5089285714289 2662.4247579167763 3815.4619559547964
decision_type=2 2 2 2 2 2 2 2 2 2 2 2 2 2 2 2 2 2 2 2 2 2 2 2 2 2
left_child=5 2 10 7 -5 -1 8 12 -7 -8 -2 15 -3 17 19 16 -4 -14 -19 -15 -6 24 23 -23 -16 -17
right_child=1 3 11 4 20 6 9 -9 -10 -11 -12 -13 13 14 21 25 -18 18 -20 -21 -22 22 -24 -25 -26 -27
leaf_value=-12.938395156564191 4.9279977595189486 -10.618920890681384 -14.965136622650752 140.53564997205075 47.558488016861347 148.14758199245591 42.28568251826573 54.357559142998767 86.386581889866818 18.759371928437638 -6.1464554785199148 -37.604855783770844 12.189809083636645 9.7346712112596681 66.026124371644329 18.819359178442255 -29.925895263796725 124.23770309921991 39.904309671228887 -20.552253478274224 -5.6344213109489525 41.030719508890577 17.984160006285428 105.39896373704973 7.9412776207219569 -13.833205814769268
leaf_weight=601 8047 911 8791 223 142 324 1560 343 343 2880 9662 1293 127 473 51 356 2700 63 87 488 152 154 376 67 879 308
leaf_count=601 8047 911 8791 223 142 324 1560 343 343 2880 9662 1293 127 473 51 356 2700 63 87 488 152 154 376 67 879 308
internal_value=0.0291345 -5.33645 -8.94616 19.4349 73.4181 33.5483 39.0287 12.3814 117.547 27.076 -1.11424 -19.254 8.3741 14.6423 10.6509 -17.2825 -18.4956 49.4079 79.074 -5.68039 20.5379 20.9091 35.171 63.0399 11.5702 3.68608
internal_weight=41401 35693 31157 4536 517 5708 5107 4019 667 4440 17709 13448 3676 2765 2488 12155 11491 277 150 961 294 1527 597 221 930 664
internal_count=41401 35693 31157 4536 517 5708 5107 4019 667 4440 17709 13448 3676 2765 2488 12155 11491 277 150 961 294 1527 597 221 930 664
is_linear=0
shrinkage=0.0176155


Tree=17
num_leaves=27
num_cat=0
split_feature=0 0 0 0 0 7 1 0 0 0 4 0 0 0 1 0 0 0 5 0 0 0 1 1 1 7
split_gain=2.31861e+10 9.32873e+09 7.95744e+09 6.56371e+09 1.17126e+10 4.31317e+09 6.03105e+09 3.59283e+09 5.24192e+09 4.10151e+09 1.96843e+09 4.66542e+09 1.72271e+09 1.33564e+09 1.09867e+09 9.92205e+08 7.54263e+08 7.0906e+08 5.71113e+08 5.62953e+08 5.54937e+08 5.1667e+08 4.83397e+08 8.45155e+08 4.03152e+08 1.33853e+09
threshold=3215.4678046996046 4336.3406196139304 3215.4869291186092 2841.1853581511455 3215.4129329488728 2599.1145832785091 3864.8971601338289 3346.9401329833022 3815.3714024920323 3215.5017229729729 2755.4167094891613 3813.5748217907862 3215.445662334309 3215.4788866414187 2662.3892399147576 3490.186486486487 3815.9980324543617 3215.4939494749528 3311.4877049180332 3215.3793105525915 3814.5998869892792 1936.8376104746319 3865.0205525031465 4132.6131996204285 3263.3873992001577 1819.4089951874796
decision_type=2 2 2 2 2 2 2 2 2 2 2 2 2 2 2 2 2 2 2 2 2 2 2 2 2 2
left_child=3 2 13 21 19 14 -7 9 10 17 15 -12 -6 -2 -3 -9 -10 -4 -16 -5 -13 -1 -8 -24 25 -20
right_child=1 5 7 4 12 6 22 8 16 -11 11 20 -14 -15 18 -17 -18 -19 24 -21 -22 -23 23 -25 -26 -27
leaf_value=32.042378305005435 11.335731903690521 84.352650252105889 -8.9451043190743054 151.6702191073696 62.976637755921551 132.96667747028255 54.868629836933103 71.07875820963983 -7.8161280412731449 -32.107627441935804 142.49724022794979 59.788488960371765 29.524832627872073 -0.17600153926726775 -8.9496629488595953 -7.3436401115133965 -34.812300969383465 -16.999736654484735 11.820436617458487 102.49425131819783 20.173312279704753 -18.464813508284596 -0.7993577725072103 68.346477428188521 3.4866764769350329 64.758790616655972
leaf_weight=65 5026 60 9827 260 613 255 121 51 1245 3854 133 140 2241 8261 341 376 429 5203 674 208 493 536 258 63 483 185
leaf_count=65 5026 60 9827 260 613 255 121 51 1245 3854 133 140 2241 8261 341 376 429 5203 674 208 493 536 258 63 483 185
internal_value=0.030967 -4.23662 -6.55765 40.7395 50.4159 29.0207 65.8511 -13.1174 5.24648 -15.9063 33.3641 50.1401 36.8388 4.18194 14.0995 2.96357 -14.8443 -11.7397 11.2747 131.546 29.4625 -12.713 25.7416 13.8763 16.4324 23.6292
internal_weight=41401 37478 35038 3923 3322 2440 697 21751 2867 18884 1193 766 2854 13287 1743 427 1674 15030 1683 468 633 601 442 321 1342 859
internal_count=41401 37478 35038 3923 3322 2440 697 21751 2867 18884 1193 766 2854 13287 1743 427 1674 15030 1683 468 633 601 442 321 1342 859
is_linear=0
shrinkage=0.0176155


Tree=18
num_leaves=27
num_cat=0
split_feature=0 3 0 8 1 0 0 5 0 0 0 1 5 0 0 0 0 4 0 0 1 6 5 1 0 5
split_gain=2.24016e+10 9.61164e+09 7.56275e+09 5.19953e+09 5.69977e+09 4.38714e+09 1.43854e+10 2.02124e+09 1.68089e+09 1.6742e+09 1.62072e+09 1.46518e+09 1.30985e+09 1.15327e+09 1.27804e+09 9.3212e+08 1.37981e+09 9.23609e+08 7.37922e+08 6.77697e+08 6.48649e+08 6.38034e+08 8.8653e+08 5.57307e+08 5.4058e+08 5.37861e+08
threshold=3215.4731304871752 3401.669171559035 3215.4914910053367 3425.7870397487627 3864.8971601338289 2841.1853581511455 3215.4296096574285 6508.0000000000009 3215.4602732828375 3215.3924905319336 3215.4842662248238 3865.167886675466 3275.5931330531444 3814.8824137931038 4336.3406196139304 3346.9401329833022 3215.5020726458947 2755.4167094891613 3814.0710547667345 3815.6647957113887 3865.0512471223801 27.500000000000004 3745.7000903614457 2662.4247579167763 3815.4619559547964 3736.5089285714289
decision_type=2 2 2 2 2 2 2 2 2 2 2 2 2 2 2 2 2 2 2 2 2 2 2 2 2 2
left_child=5 2 10 7 -5 -1 9 12 -8 -7 -2 15 -3 17 19 16 -4 -14 -19 -15 -6 23 25 -16 -17 -23
right_child=1 3 11 4 20 6 8 -9 -10 -11 -12 -13 13 14 21 24 -18 18 -20 -21 -22 22 -24 -25 -26 -27
leaf_value=-12.486409647149292 4.7627517131199006 -10.056857536110334 -14.745280013158126 139.00098498105874 46.073605001556864 143.13944959148267 40.870322843319663 52.469296396468927 18.108903676802122 83.518507617174194 -5.9359918474608131 -36.408215992009808 11.912217604523679 8.3797017641280309 64.191189647271869 18.208278420737148 -29.917541490642169 120.29920633479597 38.644925649458152 -21.035007654074693 -5.6314232947031186 40.919302354427572 17.353785652690821 7.5192465550343535 -13.355559133394109 102.31485097683949
leaf_weight=601 8047 914 9149 215 142 324 1560 344 2880 343 9662 1293 127 509 51 356 2342 63 87 454 150 157 376 880 308 67
leaf_count=601 8047 914 9149 215 142 324 1560 344 2880 343 9662 1293 127 509 51 356 2342 63 87 454 150 157 376 880 308 67
internal_value=0.0331434 -5.15032 -8.63886 18.7895 71.5896 32.4146 37.708 12.0389 26.1551 113.6 -1.0745 -18.5946 8.17744 14.2016 10.3426 -16.6809 -17.853 47.8948 76.5707 -5.53643 19.9758 20.3115 34.3981 11.0545 3.57974 61.6901
internal_weight=41401 35693 31157 4536 507 5708 5107 4029 4440 667 17709 13448 3685 2771 2494 12155 11491 277 150 963 292 1531 600 931 664 224
internal_count=41401 35693 31157 4536 507 5708 5107 4029 4440 667 17709 13448 3685 2771 2494 12155 11491 277 150 963 292 1531 600 931 664 224
is_linear=0
shrinkage=0.0176155


Tree=19
num_leaves=27
num_cat=0
split_feature=0 0 0 0 0 7 1 0 0 0 4 0 0 1 0 0 0 0 0 9 1 6 0 5 1 7
split_gain=2.16324e+10 8.98756e+09 6.44049e+09 5.04676e+09 1.25024e+10 4.04248e+09 5.6707e+09 3.40481e+09 4.93703e+09 3.7572e+09 2.45808e+09 3.7567e+09 1.78614e+09 1.04657e+09 9.56267e+08 9.56159e+08 9.00369e+08 8.85022e+08 7.69512e+08 6.4378e+08 7.48583e+08 5.36673e+08 4.9952e+08 3.9556e+08 3.94785e+08 1.25848e+09
threshold=3215.4706289808923 4336.3406196139304 3215.487493974867 2841.1853581511455 3215.4196574281291 2599.1145832785091 3864.8971601338289 3346.9401329833022 3815.2721558968428 3215.5025568084006 2755.4167094891613 3813.5748217907862 3215.4515045618868 2662.3892399147576 3215.4793761835085 3490.186486486487 3815.8060591133012 3215.3793105525915 3215.4944874332937 2915.2699142731999 3865.0512471223801 22.500000000000004 1936.8376104746319 3843.6698717948725 3263.3021700649056 1819.4089951874796
decision_type=2 2 2 2 2 2 2 2 2 2 2 2 2 2 2 2 2 2 2 2 2 2 2 2 2 2
left_child=3 2 14 22 17 13 -7 9 10 18 15 -12 -6 -3 -2 -9 -10 -5 -4 -8 -21 23 -1 -15 25 -23
right_child=1 5 7 4 12 6 19 8 16 -11 11 -13 -14 21 -16 -17 -18 -19 -20 20 -22 24 -24 -25 -26 -27
leaf_value=31.72969213251848 9.5488212278761129 82.180109636723159 -9.2040964808162364 146.60577933196708 51.998815426917396 128.79519072546444 74.263567173941667 69.627363114590949 -1.8943126206985352 -32.328843849432324 138.43419470723867 34.002323133481653 23.224658062327261 -4.6632074598019493 -0.54016411765729988 -7.3566335568950443 -26.95925242301524 94.475921506966898 -17.883473012980854 45.647043742578134 -4.3761402561442404 13.230787841240661 -17.926236358698336 16.37645192701045 12.293957057397416 101.78642159563327
leaf_weight=65 4499 60 10672 260 892 255 63 51 1056 3379 133 488 2735 676 8257 376 763 273 4526 147 232 153 536 461 324 69
leaf_count=65 4499 60 10672 260 892 255 63 51 1056 3379 133 488 2735 676 8257 376 763 273 4526 147 232 153 536 461 324 69
internal_value=0.0348326 -4.5572 -6.88928 35.3318 42.2173 28.0605 63.7163 -12.7837 5.07382 -15.5405 35.4078 57.5913 30.3829 13.6153 3.02128 2.75927 -12.4677 121.39 -11.7955 24.826 15.4757 10.8589 -12.2688 3.91265 25.1038 42.9027
internal_weight=41401 36640 34200 4761 4160 2440 697 21444 2867 18577 1048 621 3627 1743 12756 427 1819 533 15198 442 379 1683 601 1137 546 222
internal_count=41401 36640 34200 4761 4160 2440 697 21444 2867 18577 1048 621 3627 1743 12756 427 1819 533 15198 442 379 1683 601 1137 546 222
is_linear=0
shrinkage=0.0176155


Tree=20
num_leaves=27
num_cat=0
split_feature=0 0 0 0 0 7 1 0 0 0 10 0 0 1 0 0 0 9 1 0 5 0 0 0 6 1
split_gain=2.0762e+10 8.46072e+09 7.14774e+09 5.94634e+09 1.05428e+10 3.94744e+09 5.46585e+09 2.83955e+09 4.80173e+09 4.38074e+09 2.38229e+09 3.66949e+09 1.58152e+09 1.01482e+09 9.24823e+08 8.6033e+08 8.40227e+08 7.00354e+08 7.30542e+08 6.85307e+08 5.23374e+08 5.05358e+08 5.04887e+08 4.94535e+08 3.85898e+08 5.35366e+08
threshold=3215.4678046996046 4336.3406196139304 3215.4857725081774 2841.1853581511455 3215.4129329488728 2599.1145832785091 3864.8971601338289 3346.9401329833022 3815.2721558968428 3215.4993290583579 0.863620199146515 3813.5748217907862 3215.442924126356 2662.3892399147576 3492.5851351351357 3815.8060591133012 3215.4917976415909 2915.2441023715669 3865.0355161300226 3215.4769499913932 2905.1231657005592 3215.5090930022384 3215.3793105525915 1936.8376104746319 22.500000000000004 3263.2353635350423
decision_type=2 2 2 2 2 2 2 2 2 2 2 2 2 2 2 2 2 2 2 2 2 2 2 2 2 2
left_child=3 2 19 23 22 13 -7 9 10 16 11 -9 -6 -3 -12 -10 -4 -8 -19 -2 -15 -11 -5 -1 -22 -26
right_child=1 5 7 4 12 6 17 8 15 21 14 -13 -14 20 -16 -17 -18 18 -20 -21 24 -23 -24 -25 25 -27
leaf_value=31.33662129634936 12.393330103186175 80.876137619380501 -6.0140957334894267 144.13860496483366 62.157883320569006 126.79049365931176 83.069485952140738 135.40446834496211 -1.878820534499825 -24.400932637836963 46.230571373777053 33.24130795893182 28.511177581155415 -11.327651081793995 -12.246807250379128 -26.427665431809611 -13.747723979003068 48.326177192812096 -1.255796464976511 2.8453419000722278 8.0124337039598288 -36.948685018753814 97.337139609588661 -17.751197992205515 51.116730733482171 13.191977265708163
leaf_weight=66 3622 60 9689 259 537 255 50 136 1052 2718 106 496 2319 276 323 760 7947 136 260 6547 902 1654 206 539 180 321
leaf_count=66 3622 60 9689 259 537 255 50 136 1052 2718 106 496 2319 276 323 760 7947 136 260 6547 902 1654 206 539 180 321
internal_value=0.0599542 -3.97855 -6.18824 38.5662 47.8047 27.6941 62.788 -11.273 5.18756 -13.4227 34.832 56.4 34.9666 13.3633 2.68422 -12.2339 -9.50282 24.8771 16.286 6.252 10.6429 -29.1966 125.06 -12.1152 14.9979 27.3061
internal_weight=41416 37490 35050 3926 3321 2440 701 24881 2873 22008 1061 632 2856 1739 429 1812 17636 446 396 10169 1679 4372 465 605 1403 501
internal_count=41416 37490 35050 3926 3321 2440 701 24881 2873 22008 1061 632 2856 1739 429 1812 17636 446 396 10169 1679 4372 465 605 1403 501
is_linear=0
shrinkage=0.0176155


Tree=21
num_leaves=27
num_cat=0
split_feature=0 3 0 8 1 0 0 5 0 0 0 0 0 6 9 1 1 0 0 0 0 5 9 0 9 6
split_gain=2.00598e+10 8.79088e+09 6.80292e+09 4.71811e+09 4.99076e+09 3.97505e+09 1.29594e+10 1.85028e+09 1.59504e+09 1.52562e+09 1.51276e+09 1.46639e+09 1.14212e+09 9.24881e+08 8.97364e+08 8.49269e+08 7.01239e+08 6.8866e+08 6.87457e+08 6.60748e+08 6.18582e+08 5.6081e+08 4.86128e+08 4.78344e+08 4.68648e+08 4.31786e+08
threshold=3215.4731304871752 3401.669171559035 3215.4908024186611 2805.8071472114357 3864.8376125725158 2841.1853581511455 3215.4296096574285 4938.3928571428578 3215.4976882854194 3215.4602732828375 3215.3924905319336 3346.9401329833022 3215.4832710018941 27.500000000000004 3691.4392392136847 3865.0355161300226 2662.4612106030586 3815.4619559547964 3215.5076943105528 3815.6937728194735 3814.302871631412 3745.7000903614457 2915.2441023715669 1936.8376104746319 2901.5076452599392 39.500000000000007
decision_type=2 2 2 2 2 2 2 2 2 2 2 2 2 2 2 2 2 2 2 2 2 2 2 2 2 2
left_child=5 2 12 7 -5 23 10 13 -4 -8 -7 18 -2 16 -15 -6 -3 -18 -10 -13 -9 -16 24 -1 -22 -24
right_child=1 3 8 4 15 6 9 20 11 -11 -12 19 -14 14 21 -17 17 -19 -20 -21 22 -23 25 -25 -26 -27
leaf_value=30.83486917963338 5.3399567790465143 53.893193537611253 -11.936862642269984 137.70116250901032 53.437593132086405 136.05857790683788 38.828333873604393 80.549270878714481 -21.761408962207131 17.139024677243921 79.346859240696503 11.495392815223031 -4.1991471543950913 7.0843268447211392 60.571546474089537 -2.5173267489185727 18.073778350588476 -8.1533658149268629 -34.917462738293587 -21.936134339307497 17.248533301057705 12.94000747481633 17.040748732832611 -17.442290988417536 87.693516740419369 57.754465134512024
leaf_weight=66 6806 62 9199 191 159 322 1557 75 3247 2886 344 488 9087 664 200 170 374 1687 2050 285 53 129 615 539 72 89
leaf_count=66 6806 62 9199 191 159 322 1557 75 3247 2886 344 488 9087 664 200 170 374 1687 2050 285 53 129 615 539 72 89
internal_value=0.0612963 -4.84484 -8.1819 18.0389 67.6334 30.6858 35.7375 11.5232 -16.5762 24.7862 107.834 -23.5865 -0.113604 5.05626 19.028 25.0443 -1.51751 -3.35143 -26.8901 -0.911949 33.6154 42.5184 28.7655 -11.8992 60.1922 22.6773
internal_weight=41416 35702 31162 4540 520 5714 5109 4020 15269 4443 666 6070 15893 3116 993 329 2123 2061 5297 773 904 329 829 605 125 704
internal_count=41416 35702 31162 4540 520 5714 5109 4020 15269 4443 666 6070 15893 3116 993 329 2123 2061 5297 773 904 329 829 605 125 704
is_linear=0
shrinkage=0.0176155


Tree=22
num_leaves=27
num_cat=0
split_feature=6 2 5 1 2 5 1 1 1 1 1 2 5 1 1 1 1 1 4 5 5 1 1 1 1 1
split_gain=9.23624e+09 3.62173e+09 2.65725e+09 2.44756e+09 1.61382e+09 1.57318e+09 1.56266e+09 4.10562e+09 4.50448e+09 1.30797e+09 2.85655e+09 9.21728e+08 8.25493e+08 7.42787e+08 7.05831e+08 9.20454e+08 1.90403e+09 8.38736e+08 6.0618e+08 5.87028e+08 6.10838e+08 5.65446e+08 5.59099e+08 5.58883e+08 7.74725e+08 1.2628e+09
threshold=27.500000000000004 3732.0269784172665 5660.7692307692314 2662.4612106030586 3732.0269784172665 3162.1340184563765 3865.0846275207959 3856.7239536954589 3864.8971601338289 3865.0113441173767 3856.7239536954589 4147.576168652613 4938.3928571428578 3864.8376125725158 3865.1198495963663 3856.7239536954589 3864.9745105742968 3865.2159568361499 3335.2423283822714 3745.7000903614457 3736.5089285714289 3865.0113441173767 3871.7042621225614 3865.1401080450601 3800.0765550239234 3865.0355161300226
decision_type=2 2 2 2 2 2 2 2 2 2 2 2 2 2 2 2 2 2 2 2 2 2 2 2 2 2
left_child=1 3 4 -1 18 23 7 11 -9 10 -6 -3 14 -12 15 -7 -17 -16 -2 20 -20 -10 -8 24 -5 -26
right_child=2 6 -4 5 9 12 22 8 21 -11 13 -13 -14 -15 17 16 -18 -19 19 -21 -22 -23 -24 -25 25 -27
leaf_value=44.26784463336832 8.5543511566418555 48.052500529797371 64.526317355673015 -10.197505902009356 25.691789320248098 -3.2320379518174449 -7.5827214866547568 117.46593636442752 54.008590946756975 14.997505395457877 132.7731406498452 3.6409727108142116 16.220392550641446 59.696783424456832 -20.400845957518253 86.085583597704186 5.7222614122587263 4.3059197543845684 30.913538640147461 12.961360803327011 96.377172084182106 17.511359292186878 16.254755311189417 -21.586948512805439 55.278018915260169 -1.9431126818366344
leaf_weight=302 2286 147 452 12548 397 10742 1507 219 173 455 127 2624 756 91 1317 89 2160 626 166 304 60 541 376 1111 122 1718
leaf_count=302 2286 147 452 12548 397 10742 1507 219 173 455 127 2624 756 91 1317 89 2160 626 166 304 60 541 376 1111 122 1718
internal_value=0.0624664 -2.7844 24.3626 -5.10362 19.5893 -5.59096 10.2784 16.9113 48.7347 37.9522 54.5947 6.10577 -1.65768 104.924 -2.5695 -1.08567 9.14551 -12.4531 12.5394 29.4103 50.5387 26.769 -2.78255 -9.5703 -8.63292 2.03515
internal_weight=41416 37078 4338 31491 3886 31189 5587 3704 933 1070 615 2771 15690 218 14934 12991 2249 1943 2816 530 226 714 1883 15499 14388 1840
internal_count=41416 37078 4338 31491 3886 31189 5587 3704 933 1070 615 2771 15690 218 14934 12991 2249 1943 2816 530 226 714 1883 15499 14388 1840
is_linear=0
shrinkage=0.0176155


Tree=23
num_leaves=27
num_cat=0
split_feature=6 2 5 1 2 5 1 1 1 1 1 5 1 1 1 1 2 9 1 1 1 1 1 1 1 1
split_gain=8.92086e+09 3.4974e+09 2.56503e+09 2.36366e+09 1.55985e+09 1.52926e+09 1.50918e+09 3.96628e+09 4.35198e+09 1.26472e+09 2.7634e+09 9.47726e+08 9.60772e+08 1.05871e+09 2.36625e+09 1.00283e+09 8.91021e+08 8.89909e+08 7.17583e+08 6.01818e+08 1.47563e+09 2.66663e+09 5.55756e+08 5.46665e+08 5.40662e+08 5.325e+08
threshold=27.500000000000004 3732.0269784172665 5660.7692307692314 2662.4612106030586 3732.0269784172665 2758.752577319588 3865.0846275207959 3856.7239536954589 3864.8971601338289 3865.0113441173767 3856.7239536954589 4415.8703703703713 3865.1272930415303 3856.7239536954589 3865.0205525031465 3865.2159568361499 4147.576168652613 2915.3833302046182 3864.8376125725158 3865.0876969827191 3856.7239536954589 3864.9407464931401 3865.167886675466 3865.0113441173767 3865.2159568361499 3865.1401080450601
decision_type=2 2 2 2 2 2 2 2 2 2 2 2 2 2 2 2 2 2 2 2 2 2 2 2 2 2
left_child=1 3 4 -1 19 17 7 16 -9 10 -6 12 13 -7 -15 22 -3 -5 -12 20 -2 -22 -14 -10 25 -8
right_child=2 6 -4 5 9 11 24 8 23 -11 18 -13 15 14 -16 -17 -18 -19 -20 -21 21 -23 -24 -25 -26 -27
leaf_value=43.504750289727561 8.41493231016692 47.242461089814242 63.406041193381 -3.9222613634348233 25.246629443689184 -4.6507571871340012 -2.3321376226573354 115.45734793275301 53.092221335296564 14.737100911179663 130.55000505505166 12.025989305352402 -13.959691608985731 63.716997330906231 2.3942854159543123 3.9956950182842581 3.5769965352743371 -16.389899584029642 58.716415454402316 -3.9289359023968333 122.35886110972538 22.308747891540804 -34.757998120007812 17.206612555309309 15.005459652176508 -28.515919518429211
leaf_weight=302 1724 147 452 2693 397 16148 1176 219 173 455 127 1195 1134 201 3293 659 2624 5243 91 563 97 432 623 541 410 297
leaf_count=302 1724 147 452 2693 397 16148 1176 219 173 455 127 1195 1134 201 3293 659 2624 5243 91 563 97 432 623 541 410 297
internal_value=0.0637572 -2.73409 23.9454 -5.01315 19.2557 -5.49206 10.1025 16.621 47.8997 37.3089 53.6738 -3.21153 -4.04039 -2.74841 6.0357 -14.5079 6.00038 -12.1659 103.175 12.3246 16.3859 41.9384 -21.4371 26.309 -2.733 -7.71544
internal_weight=41416 37078 4338 31491 3886 31189 5587 3704 933 1070 615 23253 22058 19642 3494 2416 2771 7936 218 2816 2253 529 1757 714 1883 1473
internal_count=41416 37078 4338 31491 3886 31189 5587 3704 933 1070 615 23253 22058 19642 3494 2416 2771 7936 218 2816 2253 529 1757 714 1883 1473
is_linear=0
shrinkage=0.0176155


Tree=24
num_leaves=27
num_cat=0
split_feature=0 0 0 0 0 7 1 0 0 0 4 0 0 0 1 0 0 9 1 0 0 5 0 1 7 1
split_gain=1.87372e+10 7.94362e+09 4.84084e+09 3.71755e+09 1.20355e+10 3.4661e+09 4.98013e+09 3.09335e+09 4.39956e+09 3.11467e+09 1.5636e+09 4.04923e+09 1.41322e+09 1.40142e+09 9.06475e+08 8.58475e+08 6.96394e+08 6.70371e+08 6.76431e+08 6.32007e+08 5.95441e+08 4.67345e+08 4.40381e+08 3.65223e+08 1.29559e+09 1.02517e+09
threshold=3215.4731304871752 4336.3406196139304 3215.4880050352904 2841.1853581511455 3215.4296096574285 2599.1145832785091 3864.8971601338289 3346.9401329833022 3815.4003796001166 3215.5025568084006 2755.4167094891613 3814.0710547667345 3215.3924905319336 3215.4570455327944 2662.3892399147576 3493.598648648649 3215.4812160010329 2915.2441023715669 3865.0573860462264 3815.9980324543617 3215.495025391634 2905.1231657005592 1936.8376104746319 3263.3873992001577 1819.4089951874796 3263.2353635350423
decision_type=2 2 2 2 2 2 2 2 2 2 2 2 2 2 2 2 2 2 2 2 2 2 2 2 2 2
left_child=3 2 16 22 12 14 -7 9 10 20 15 -12 -5 -6 -3 -9 -2 -8 -19 -10 -4 -16 -1 24 -23 -26
right_child=1 5 7 4 13 6 17 8 19 -11 11 -13 -14 -15 21 -17 -18 18 -20 -21 -22 23 -24 -25 25 -27
leaf_value=29.4135693436656 6.5240134767936597 77.320011259382085 -8.9738502946326619 131.42612356838387 40.514448916766732 120.07843306478973 79.69629968465766 35.209443316965128 -7.7644911750213668 -30.252456603754752 116.63429119335412 22.482636941989721 76.459052188370492 18.026455611578523 -10.842361716536056 -16.11243677675624 -1.834289457815161 40.085195680807004 -5.6418030901346805 -32.579605805870344 -16.779744164609827 9.7548067896255404 -16.917645026108762 1.8964756099540554 105.09684614570951 21.793018800395735
leaf_weight=66 5134 58 9698 322 1172 254 50 150 1194 3380 177 643 340 3279 275 279 7761 172 226 431 4434 723 538 498 83 103
leaf_count=66 5134 58 9698 322 1172 254 50 150 1194 3380 177 643 340 3279 275 279 7761 172 226 431 4434 723 538 498 83 103
internal_value=0.0399565 -4.70015 -6.95186 29.63 34.5082 25.9234 58.7809 -12.2937 4.63552 -15.0727 29.4141 43.576 104.231 23.9991 12.4947 2.09405 1.49511 22.7864 14.4514 -14.4516 -11.4297 9.96536 -11.5912 14.064 20.6681 61.298
internal_weight=41440 35723 33281 5717 5113 2442 702 20386 2874 17512 1249 820 662 4451 1740 429 12895 448 398 1625 14132 1682 604 1407 909 186
internal_count=41440 35723 33281 5717 5113 2442 702 20386 2874 17512 1249 820 662 4451 1740 429 12895 448 398 1625 14132 1682 604 1407 909 186
is_linear=0
shrinkage=0.0176155


Tree=25
num_leaves=27
num_cat=0
split_feature=0 0 0 0 0 7 1 0 0 0 4 0 0 0 1 0 0 9 0 0 0 1 6 0 1 7
split_gain=1.80872e+10 7.67604e+09 4.67158e+09 3.58831e+09 1.16255e+10 3.3487e+09 4.81359e+09 2.98692e+09 4.24938e+09 3.00617e+09 1.51007e+09 3.92532e+09 1.36493e+09 1.36087e+09 8.78281e+08 8.37685e+08 6.72105e+08 6.52533e+08 6.10334e+08 5.74698e+08 5.11117e+08 5.06042e+08 4.43106e+08 4.25959e+08 3.4208e+08 1.16101e+09
threshold=3215.4731304871752 4336.3406196139304 3215.4880050352904 2841.1853581511455 3215.4296096574285 2599.1145832785091 3864.9407464931401 3346.9401329833022 3815.4003796001166 3215.5025568084006 2755.4167094891613 3813.5748217907862 3215.3924905319336 3215.4602732828375 2662.3892399147576 3490.186486486487 3215.4812160010329 2915.2699142731999 3815.9980324543617 3215.495025391634 3814.7954824688504 3865.0876969827191 22.500000000000004 1936.8376104746319 3263.3021700649056 1819.4089951874796
decision_type=2 2 2 2 2 2 2 2 2 2 2 2 2 2 2 2 2 2 2 2 2 2 2 2 2 2
left_child=3 2 16 23 12 14 -7 9 10 19 15 -12 -5 -6 -3 -9 -2 -8 -10 -4 -13 -19 -16 -1 25 -24
right_child=1 5 7 4 13 6 17 8 18 -11 11 20 -14 -15 22 -17 -18 21 -20 -21 -22 -23 24 -25 -26 -27
leaf_value=28.942608253956063 6.4092378492208635 76.097338613654046 -8.8158795512958381 129.15756595855328 36.7820034573312 113.37875238982066 69.353120434801781 65.311138983511839 -7.6284692331185875 -29.72058585058064 127.76315026524176 49.859670149148201 75.137878784879092 16.335808454600119 3.4827428345796432 -7.2582555358925411 -1.8020051154220149 26.770734753305064 -32.014370496588263 -16.484601640445202 15.597792261509099 -15.072459892759417 10.979936042336085 -16.623250508067581 10.790494069809453 95.835485146479655
leaf_weight=66 5134 58 9698 322 1567 281 62 50 1194 3380 134 184 340 2884 1136 379 7761 213 431 4434 502 146 154 538 323 69
leaf_count=66 5134 58 9698 322 1567 281 62 50 1194 3380 134 184 340 2884 1136 379 7761 213 431 4434 502 146 154 538 323 69
internal_value=0.0414576 -4.61571 -6.82917 29.1138 33.9064 25.4876 57.7839 -12.0768 4.55863 -14.8076 28.9106 42.828 102.431 23.5779 12.2883 2.06226 1.46881 19.4974 -14.1999 -11.2286 25.1759 9.78861 9.79862 -11.3846 22.7403 39.2394
internal_weight=41440 35723 33281 5717 5113 2442 702 20386 2874 17512 1249 820 662 4451 1740 429 12895 421 1625 14132 686 359 1682 604 546 223
internal_count=41440 35723 33281 5717 5113 2442 702 20386 2874 17512 1249 820 662 4451 1740 429 12895 421 1625 14132 686 359 1682 604 546 223
is_linear=0
shrinkage=0.0176155


Tree=26
num_leaves=27
num_cat=0
split_feature=0 0 0 0 0 7 1 0 0 0 4 0 0 0 1 0 0 9 1 0 0 0 5 0 1 7
split_gain=1.74666e+10 7.27904e+09 4.94465e+09 3.81814e+09 1.06129e+10 3.23448e+09 4.65653e+09 2.88532e+09 4.10606e+09 2.90348e+09 1.45817e+09 3.7954e+09 1.34563e+09 1.02732e+09 8.50972e+08 8.16126e+08 7.95016e+08 6.34061e+08 6.34881e+08 5.89404e+08 5.87473e+08 4.94066e+08 4.48204e+08 4.1201e+08 3.50198e+08 1.22532e+09
threshold=3215.4721083663285 4336.3406196139304 3215.4880050352904 2841.1853581511455 3215.4250370115346 2599.1145832785091 3864.8971601338289 3346.9401329833022 3815.4003796001166 3215.5030947667415 2755.4167094891613 3813.5748217907862 3215.454893699432 3215.3793105525915 2662.3892399147576 3493.598648648649 3215.4812160010329 2915.2441023715669 3865.0512471223801 3815.9980324543617 3215.495025391634 3814.7954824688504 2905.1231657005592 1936.8376104746319 3263.3873992001577 1819.4089951874796
decision_type=2 2 2 2 2 2 2 2 2 2 2 2 2 2 2 2 2 2 2 2 2 2 2 2 2 2
left_child=3 2 16 23 13 14 -7 9 10 20 15 -12 -6 -5 -3 -9 -2 -8 -19 -10 -4 -13 -16 -1 25 -24
right_child=1 5 7 4 12 6 17 8 19 -11 11 21 -14 -15 22 -17 -18 18 -20 -21 -22 -23 24 -25 -26 -27
leaf_value=28.479187754654333 6.8954754871180404 74.894002161125528 -8.6606895553919916 132.42108631949114 42.011274315173516 116.07029541764317 77.336226622302803 34.329725918336713 -7.4948301749989072 -29.624128808284095 125.61835248766937 49.011829989455983 18.940464500899147 81.361386866150454 -10.741128914648186 -15.71028020683077 -1.7702889743716088 40.138817174385231 -4.5454757617647275 -31.458942114679633 -16.324940361528611 15.326601293989137 9.5018319648638059 -16.333978871373667 1.7356116001328061 59.627895309122351
leaf_weight=66 5687 58 9698 259 1086 254 50 150 1194 3228 134 184 2878 337 275 279 7761 161 237 431 4586 502 723 538 498 186
leaf_count=66 5687 58 9698 259 1086 254 50 150 1194 3228 134 184 2878 337 275 279 7761 161 237 431 4586 502 723 538 498 186
internal_value=0.0430388 -4.27355 -6.39501 30.3329 35.84 25.0573 56.798 -11.8631 4.48688 -14.5471 28.4247 42.1007 25.3205 104.759 12.085 2.04145 1.89594 21.9934 13.8906 -13.9526 -11.1278 24.7434 9.63437 -11.1817 13.6485 20.1152
internal_weight=41440 36276 33834 5164 4560 2442 702 20386 2874 17512 1249 820 3964 596 1740 429 13448 448 398 1625 14284 686 1682 604 1407 909
internal_count=41440 36276 33834 5164 4560 2442 702 20386 2874 17512 1249 820 3964 596 1740 429 13448 448 398 1625 14284 686 1682 604 1407 909
is_linear=0
shrinkage=0.0176155


Tree=27
num_leaves=27
num_cat=0
split_feature=0 0 0 0 0 7 1 0 0 0 10 0 0 1 0 0 0 9 1 0 0 5 0 0 1 7
split_gain=1.68823e+10 6.72742e+09 5.89301e+09 4.82998e+09 8.59628e+09 3.1256e+09 4.49609e+09 2.23251e+09 3.97328e+09 3.61298e+09 1.98193e+09 3.03553e+09 1.30796e+09 8.24618e+08 7.98463e+08 7.49543e+08 6.9192e+08 6.14865e+08 6.1355e+08 5.56041e+08 4.44186e+08 4.32924e+08 4.10095e+08 3.98518e+08 3.38283e+08 1.18419e+09
threshold=3215.4678046996046 4336.3406196139304 3215.4857725081774 2841.1853581511455 3215.4129329488728 2599.1145832785091 3864.8971601338289 3346.9401329833022 3815.2721558968428 3215.4993290583579 0.863620199146515 3813.5748217907862 3215.442924126356 2662.3892399147576 3490.186486486487 3815.8060591133012 3215.4924162936827 2915.2441023715669 3865.0512471223801 3215.4773534601486 3215.5096040626618 2905.1231657005592 3215.3793105525915 1936.8376104746319 3263.3873992001577 1819.4089951874796
decision_type=2 2 2 2 2 2 2 2 2 2 2 2 2 2 2 2 2 2 2 2 2 2 2 2 2 2
left_child=3 2 19 23 22 13 -7 9 10 16 11 -9 -6 -3 -12 -10 -4 -8 -19 -2 -11 -15 -5 -1 25 -23
right_child=1 5 7 4 12 6 17 8 15 20 14 -13 -14 21 -16 -17 -18 18 -20 -21 -22 24 -24 -25 -26 -27
leaf_value=28.023187169493362 10.631214549138527 73.709692452415226 -5.8218997475142409 130.14648544092259 56.214339234494581 114.07752827559577 76.132995411344297 123.50956211998488 -1.7430632164085842 -22.027629348582877 63.760882472179716 30.16754661740373 25.651643264184276 -10.556360481400045 -7.0891832235719505 -24.649410444847554 -13.041640183303345 39.459640295624979 -4.4675779412574563 2.2658502900285136 -33.844397910812987 9.3359693832142732 87.813969580618689 -16.049740931433593 1.7054385563037391 58.613572739485342
leaf_weight=66 4209 58 11063 259 538 254 50 134 1048 2796 50 500 2326 275 379 763 6577 161 237 5951 1597 723 204 538 498 186
leaf_count=66 4209 58 11063 259 538 254 50 134 1048 2796 50 500 2326 275 379 763 6577 161 237 5951 1597 723 204 538 498 186
internal_value=0.0444471 -3.59757 -5.56778 34.7437 43.0504 24.6332 55.8351 -10.1791 4.4147 -12.0835 31.3441 50.9671 31.5091 11.8811 2.01046 -11.4484 -8.51763 21.6349 13.6561 5.73605 -26.3678 9.4688 112.993 -10.9824 13.4139 19.7697
internal_weight=41440 37509 35067 3931 3327 2442 702 24907 2874 22033 1063 634 2864 1740 429 1811 17640 448 398 10160 4393 1682 463 604 1407 909
internal_count=41440 37509 35067 3931 3327 2442 702 24907 2874 22033 1063 634 2864 1740 429 1811 17640 448 398 10160 4393 1682 463 604 1407 909
is_linear=0
shrinkage=0.0176155


Tree=28
num_leaves=27
num_cat=0
split_feature=0 3 0 8 1 0 0 0 0 0 0 0 4 1 0 4 0 0 0 0 0 1 0 10 0 0
split_gain=1.62713e+10 6.90916e+09 5.6078e+09 3.69023e+09 4.16769e+09 3.21817e+09 1.0517e+10 1.46556e+09 1.25646e+09 1.2518e+09 1.85263e+09 1.57717e+09 1.28969e+09 1.08626e+09 1.07942e+09 1.07123e+09 2.23887e+09 9.90353e+08 9.85686e+08 7.05381e+08 9.78641e+08 6.82501e+08 6.46464e+08 9.25789e+08 1.28429e+09 5.20466e+08
threshold=3215.4731304871752 3401.669171559035 3215.4917976415909 2805.8071472114357 3864.8376125725158 2841.1853581511455 3215.433375365812 3215.3924905319336 3215.4842662248238 3814.8824137931038 4875.4246575342468 5220.99205882353 2755.4167094891613 3865.167886675466 3215.4618871578587 3668.7690709547346 6115.0490635451506 5223.2273529411768 3813.5748217907862 3346.9401329833022 3215.5030947667415 3865.0355161300226 6432.4432634730538 0.78340340877024672 6425.7067365269468 3815.5488872790502
decision_type=2 2 2 2 2 2 2 2 2 2 2 2 2 2 2 2 2 2 2 2 2 2 2 2 2 2
left_child=5 2 8 9 -5 -1 7 -7 -2 12 25 -12 -3 19 -8 17 -17 -13 -14 20 -4 -6 23 24 -18 -11
right_child=1 3 13 4 21 6 14 -9 -10 10 11 15 18 -15 -16 16 22 -19 -20 -21 -22 -23 -24 -25 -26 -27
leaf_value=-10.754582617743571 4.2097446865532788 6.8525365797970341 -12.943051860278011 124.06205163916391 46.805691643759488 122.65558250278937 33.554481100810584 69.643353901605309 -5.1282472110914563 10.060034826441795 79.619702975619873 22.078912859468712 122.2559972650414 -31.415305944309026 15.241175391946674 111.57797940103436 112.52983344267173 -22.708208603732157 40.009547842586834 3.1987158910694968 -26.360541547658343 -3.187598456329237 -16.047270444852984 11.39649608246282 23.430669237224613 -10.926025847481224
leaf_weight=603 8050 209 9061 190 158 321 1560 405 10041 493 121 265 66 1294 2821 81 71 345 150 664 2079 173 141 530 156 1378
leaf_count=603 8050 209 9061 190 158 321 1560 405 10041 493 121 265 66 1294 2821 81 71 345 150 664 2079 173 141 530 156 1378
internal_value=0.0379644 -4.37771 -7.33003 15.9435 59.7488 27.6311 32.1715 93.978 -0.973071 10.1573 6.72776 19.9456 38.5085 -16.1054 21.803 15.0904 26.4465 -3.22323 68.0251 -14.4104 -15.4612 21.1252 18.0082 24.4356 53.6948 -5.38029
internal_weight=41426 35716 31189 4527 521 5710 5107 726 18091 4006 3581 1710 425 13098 4381 1589 979 610 216 11804 11140 331 898 757 227 1871
internal_count=41426 35716 31189 4527 521 5710 5107 726 18091 4006 3581 1710 425 13098 4381 1589 979 610 216 11804 11140 331 898 757 227 1871
is_linear=0
shrinkage=0.0176155


Tree=29
num_leaves=27
num_cat=0
split_feature=0 0 0 0 0 7 1 0 0 0 4 0 0 1 0 0 0 0 9 1 0 6 6 0 1 7
split_gain=1.57219e+10 6.24111e+09 5.5806e+09 4.5916e+09 7.88906e+09 2.93537e+09 4.17437e+09 2.22267e+09 3.80719e+09 3.14923e+09 2.01295e+09 2.71687e+09 1.18114e+09 7.98058e+08 7.79675e+08 7.52275e+08 7.15094e+08 5.92619e+08 5.65081e+08 4.53027e+08 3.90375e+08 3.88688e+08 3.87603e+08 3.66547e+08 3.04597e+08 1.18099e+09
threshold=3215.4670623170946 4336.3406196139304 3215.4861652177656 2841.1853581511455 3215.4129329488728 2599.1145832785091 3864.9407464931401 3346.9401329833022 3815.1721848739503 3215.4998401187813 2755.4167094891613 3813.5748217907862 3215.442924126356 2662.3892399147576 3493.598648648649 3815.7807041437272 3215.4778914184885 3215.4933846186955 2915.2699142731999 3865.0876969827191 3215.3793105525915 15.500000000000002 22.500000000000004 3215.5107014976761 3263.2353635350423 1819.4089951874796
decision_type=2 2 2 2 2 2 2 2 2 2 2 2 2 2 2 2 2 2 2 2 2 2 2 2 2 2
left_child=3 2 16 21 20 13 -7 9 10 17 14 -12 -6 -3 -9 -10 -2 -4 -8 -20 -5 -1 -15 -11 25 -24
right_child=1 5 7 4 12 6 18 8 15 23 11 -13 -14 22 -16 -17 -18 -19 19 -21 -22 -23 24 -25 -26 -27
leaf_value=-24.373026043655763 10.065042455505242 71.811655766494553 -6.4870283212125557 125.83292831824244 54.316005251120366 105.68771275868987 65.193348712952655 33.387861425688392 -0.81434091543917053 -22.080991305300067 119.69440924448355 30.84490831630594 25.083533247896707 3.1625699597578718 -15.47760570182221 -23.399271923579306 1.1268773842434787 -13.564973779137953 25.194318955676913 -14.658794344099517 84.865483425569664 3.6927666945456945 10.417902716255933 -33.312843437562726 10.327206789763098 100.68820282882498
leaf_weight=304 4614 59 11113 257 535 282 60 152 1039 2655 136 457 2236 1132 274 812 6968 5496 210 144 208 299 154 1440 332 58
leaf_count=304 4614 59 11113 257 535 282 60 152 1039 2655 136 457 2236 1132 274 812 6968 5496 210 144 208 299 154 1440 332 58
internal_value=0.0395998 -3.43069 -5.31974 33.9642 42.2669 23.8281 54.219 -10.2382 4.28133 -12.2516 31.5152 52.317 30.8434 11.4771 2.20149 -10.77 4.69135 -8.83363 18.0503 9.01107 108.954 -10.5672 9.07928 -26.078 21.2053 37.4129
internal_weight=41426 37587 35156 3839 3236 2431 696 23574 2870 20704 1019 593 2771 1735 426 1851 11582 16609 414 354 465 603 1676 4095 544 212
internal_count=41426 37587 35156 3839 3236 2431 696 23574 2870 20704 1019 593 2771 1735 426 1851 11582 16609 414 354 465 603 1676 4095 544 212
is_linear=0
shrinkage=0.0176155


Tree=30
num_leaves=27
num_cat=0
split_feature=0 3 0 8 2 0 0 5 0 0 0 0 5 0 0 0 0 4 0 1 0 0 0 0 0 4
split_gain=1.51815e+10 6.45636e+09 5.24135e+09 3.44911e+09 4.09059e+09 3.00281e+09 9.82227e+09 1.47253e+09 1.36697e+09 1.24625e+09 1.04442e+09 1.0116e+09 1.00595e+09 9.78764e+08 9.36535e+08 8.74199e+08 6.46285e+08 6.40552e+08 6.45218e+08 5.2498e+08 5.18543e+08 5.16882e+08 4.60985e+08 4.64628e+08 1.1164e+09 4.10937e+08
threshold=3215.4731304871752 3401.669171559035 3215.4908024186611 3425.7870397487627 4817.9582525697506 2841.1853581511455 3215.433375365812 7116.0714285714294 3215.3924905319336 3215.497177224996 3346.9401329833022 3215.4618871578587 3269.6985005930278 3814.8824137931038 4336.3406196139304 3215.4826200723019 3215.5074091926322 2755.4167094891613 3813.5748217907862 3865.0355161300226 3815.6792842654313 3815.6792842654313 4870.0821917808235 4875.4246575342468 5220.99205882353 3668.7690709547346
decision_type=2 2 2 2 2 2 2 2 2 2 2 2 2 2 2 2 2 2 2 2 2 2 2 2 2 2
left_child=5 2 15 7 -5 -1 8 12 -7 -4 16 -8 -3 17 21 -2 -11 -14 -19 -6 -12 -15 -16 -24 -25 -26
right_child=1 3 9 4 19 6 11 -9 -10 10 20 -13 13 14 22 -17 -18 18 -20 -21 -22 -23 23 24 25 -27
leaf_value=-10.384991532892174 5.0372598742217445 -9.061756860171533 -9.983004795457445 119.28228378989695 41.96593047017295 118.50765000229244 32.435841046125127 49.044907444912894 67.306556330737621 -18.227174661299454 10.334230838207917 14.707552932533007 11.886330468175499 6.3482146019335888 61.484473622130785 -3.3823257655864216 -30.431547865197388 113.79393743846046 37.528119733594423 -3.2635343664293175 -19.111745684207619 -19.416013027671447 -8.1581550930703628 73.905851659415021 0.25498034653313806 21.792827177359747
leaf_weight=603 6389 913 8575 199 141 321 1560 271 405 3799 481 2821 129 542 63 9520 2132 51 114 171 293 426 228 99 433 747
leaf_count=603 6389 913 8575 199 141 321 1560 271 405 3799 481 2821 129 542 63 9520 2132 51 114 171 293 426 228 99 433 747
internal_value=0.0409465 -4.22429 -7.07824 15.4197 58.2304 26.694 31.0799 9.88569 90.8103 -14.4443 -20.1343 21.0597 6.97055 12.1483 8.56318 -0.000354813 -22.6433 42.2279 64.5772 17.623 -0.879953 -5.04486 16.9394 14.8167 18.9333 13.9351
internal_weight=41426 35716 31189 4527 511 5710 5107 4016 726 15280 6705 4381 3745 2832 2538 15909 5931 294 165 312 774 968 1570 1507 1279 1180
internal_count=41426 35716 31189 4527 511 5710 5107 4016 726 15280 6705 4381 3745 2832 2538 15909 5931 294 165 312 774 968 1570 1507 1279 1180
is_linear=0
shrinkage=0.0176155


Tree=31
num_leaves=27
num_cat=0
split_feature=0 0 0 0 0 7 0 0 0 4 0 0 2 2 0 0 0 5 2 0 9 4 0 2 2 2
split_gain=1.4667e+10 5.85002e+09 5.13531e+09 4.19462e+09 7.48956e+09 2.75706e+09 2.2736e+09 3.58231e+09 2.64418e+09 1.90716e+09 2.56067e+09 1.14633e+09 1.1389e+09 1.67166e+09 8.749e+08 7.60446e+08 7.09655e+08 4.95163e+08 4.7897e+08 4.58507e+08 4.58198e+08 6.18268e+08 3.81861e+08 3.7907e+08 8.69909e+08 3.90081e+08
threshold=3215.4678046996046 4336.3406196139304 3215.4873863831986 2841.1853581511455 3215.4129329488728 2599.1145832785091 3346.9401329833022 3815.1721848739503 3215.5009429333795 2755.4167094891613 3813.5748217907862 3215.445662334309 4818.5603083700453 4463.3306962025317 3215.4788866414187 3490.186486486487 3815.8060591133012 2905.1231657005592 4817.9582525697506 3215.4939494749528 4818.1707184018451 3749.8689192693428 1936.8376104746319 3061.7938911148754 3055.4485892021462 3061.7128262216534
decision_type=2 2 2 2 2 2 2 2 2 2 2 2 2 2 2 2 2 2 2 2 2 2 2 2 2 2
left_child=3 2 14 22 -5 17 8 9 19 15 -11 -6 13 20 -2 -8 -9 -3 -15 -4 21 -7 -1 24 -19 -26
right_child=1 5 6 4 11 12 7 16 -10 10 -12 -13 -14 18 -16 -17 -18 23 -20 -21 -22 -23 -24 -25 25 -27
leaf_value=27.955973350361475 9.1973109464018474 -10.285989423285663 -7.0651635515819882 105.30418907785224 50.738243291110209 8.4881517578096304 61.648563396274312 -1.2699406259861665 -25.606265603638828 116.21141802129715 29.953519972911643 23.408656491011257 3.3785372115388883 117.86132843676297 -0.099397402717815941 -7.0159382639328793 -23.368514855487309 5.958426825893266 47.583792984310911 -13.561164813651615 6.1963814241281474 67.798332350221429 -15.177208334343337 9.9457363445795242 93.205690554028735 34.037097435045943
leaf_weight=66 5044 278 9794 465 610 79 51 1085 3895 136 457 2241 122 156 8308 375 766 200 53 5165 100 186 537 1100 64 93
leaf_count=66 5044 278 9794 465 610 79 51 1085 3895 136 457 2241 122 156 8308 375 766 200 53 5165 100 186 537 1100 64 93
internal_value=0.0420641 -3.34808 -5.18101 32.4386 40.1979 23.0409 -10.464 4.13433 -12.6869 30.5517 50.7994 29.36 52.4942 62.7759 3.41544 2.02065 -10.4657 11.0711 102.046 -9.31309 38.8744 50.7545 -10.204 15.1743 30.8105 60.9488
internal_weight=41426 37507 35076 3919 3316 2431 21724 2870 18854 1019 593 2851 696 574 13352 426 1851 1735 209 14959 365 265 603 1457 357 157
internal_count=41426 37507 35076 3919 3316 2431 21724 2870 18854 1019 593 2851 696 574 13352 426 1851 1735 209 14959 365 265 603 1457 357 157
is_linear=0
shrinkage=0.0176155


Tree=32
num_leaves=27
num_cat=0
split_feature=0 0 0 0 0 7 1 0 0 0 4 0 0 1 0 0 0 0 9 1 1 1 7 1 1 0
split_gain=1.42576e+10 5.72319e+09 5.14838e+09 4.24241e+09 7.01942e+09 2.68566e+09 3.8945e+09 1.83577e+09 3.38288e+09 3.05278e+09 1.25073e+09 3.19098e+09 1.03436e+09 7.40819e+08 6.94094e+08 6.16127e+08 5.16866e+08 5.15843e+08 4.54398e+08 5.33324e+08 3.93246e+08 4.34465e+08 1.18719e+09 1.36275e+09 4.40677e+08 3.87431e+08
threshold=3215.4667287829234 4336.3406196139304 3215.4857725081774 2841.1853581511455 3215.4129329488728 2599.1145832785091 3864.8971601338289 3346.9401329833022 3815.4003796001166 3215.497177224996 2755.4167094891613 3814.0710547667345 3215.442924126356 2662.4247579167763 3493.598648648649 3215.5082860647276 3815.9980324543617 3215.4769499913932 2915.2699142731999 3865.0635249700731 2958.6505811138018 3263.3873992001577 1819.4089951874796 3263.0448436373176 3105.9353365384618 3215.4897265019799
decision_type=2 2 2 2 2 2 2 2 2 2 2 2 2 2 2 2 2 2 2 2 2 2 2 2 2 2
left_child=3 2 17 -1 -5 13 -7 9 10 25 14 -12 -6 -3 -9 -11 -10 -2 -8 -20 -15 22 24 -24 -22 -4
right_child=1 5 7 4 12 6 18 8 16 15 11 -13 -14 20 -16 -17 -18 -19 19 -21 21 -23 23 -25 -26 -27
leaf_value=-10.029491859963748 10.578869604351732 56.120341161019589 -3.8957239723396753 103.62237355041263 51.597607338331102 105.68632031589051 61.110107315609511 31.107129347201205 -6.7944343603192747 -18.015482074544163 103.37987024266901 19.643618225426021 24.216820671060766 -10.665759270598073 -15.288432578271118 -30.374903799626008 -29.247730407017617 2.4261590715686818 34.301801327429025 -7.140218423352044 16.556009373832374 -0.028851434473260149 130.19808313273572 26.88118789364507 -17.324926923710429 -9.4351756918583618
leaf_weight=601 3803 100 6818 466 540 256 63 148 1203 4099 176 644 2147 281 277 1837 429 6562 170 208 460 552 51 143 154 9252
leaf_count=601 3803 100 6818 466 540 256 63 148 1203 4099 176 644 2147 281 277 1837 429 6562 170 208 460 552 51 143 154 9252
internal_value=0.0636561 -3.19952 -5.00635 32.7703 40.9325 22.8661 51.9237 -9.35068 3.87459 -11.0804 25.6727 38.2994 29.8326 11.0805 1.09689 -21.8699 -12.7909 5.4223 19.6144 11.7667 8.12166 12.0364 20.2124 57.4377 7.964 -7.08753
internal_weight=41440 37686 35248 3754 3153 2438 697 24883 2877 22006 1245 820 2687 1741 425 5936 1632 10365 441 378 1641 1360 808 194 614 16070
internal_count=41440 37686 35248 3754 3153 2438 697 24883 2877 22006 1245 820 2687 1741 425 5936 1632 10365 441 378 1641 1360 808 194 614 16070
is_linear=0
shrinkage=0.0176155


Tree=33
num_leaves=27
num_cat=0
split_feature=0 0 0 0 0 7 1 0 0 0 0 4 0 1 0 0 0 0 0 1 1 7 1 1 6 1
split_gain=1.37686e+10 5.78861e+09 4.01843e+09 3.07618e+09 8.24356e+09 2.59427e+09 3.76058e+09 2.22417e+09 3.26742e+09 2.29053e+09 1.27019e+09 1.20792e+09 3.08424e+09 7.16496e+08 6.70729e+08 6.60434e+08 6.07089e+08 4.99142e+08 4.83706e+08 3.80113e+08 4.20291e+08 1.1774e+09 1.29654e+09 4.25717e+08 3.71748e+08 3.60191e+08
threshold=3215.4710324496477 4336.3406196139304 3215.4880050352904 2841.1853581511455 3215.4196574281291 2599.1145832785091 3864.8971601338289 3346.9401329833022 3815.4003796001166 3215.5036327250823 3215.4515045618868 2755.4167094891613 3814.0710547667345 2662.4247579167763 3493.598648648649 3215.4805005164403 3215.3793105525915 3815.9980324543617 3215.495025391634 2958.6505811138018 3263.3677309381769 1819.4089951874796 3263.0448436373176 3105.9353365384618 15.500000000000002 4132.6131996204285
decision_type=2 2 2 2 2 2 2 2 2 2 2 2 2 2 2 2 2 2 2 2 2 2 2 2 2 2
left_child=3 2 15 24 16 13 -7 9 11 18 -6 14 -13 -3 -9 -2 -5 -10 -4 -15 21 23 -23 -21 -1 -8
right_child=1 5 7 4 10 6 25 8 17 -11 -12 12 -14 19 -16 -17 -18 -19 -20 20 -22 22 -24 -25 -26 -27
leaf_value=-23.379254479998885 6.4103512464915298 55.193055427854176 -7.6520732542373597 118.04373963104439 41.867674408633512 103.87147116624223 12.265237865363103 30.582592599066622 -6.6754014168393336 -26.546970114080636 17.9193584430352 101.6247109231912 19.301102744656177 -10.482195350950388 -15.025397078665838 -1.4532309400798922 75.110068727522929 -28.740336442683365 -14.555483179847615 16.268499814342828 0.041510137291442456 128.16775406130898 26.884065593617912 -17.032301715480365 4.1053065872601113 56.28147894439914
leaf_weight=303 5672 100 9673 259 897 256 378 148 1203 3127 2978 176 644 281 277 7955 271 429 4692 460 556 51 139 154 298 63
leaf_count=303 5672 100 9673 259 897 256 378 148 1203 3127 2978 176 644 281 277 7955 271 429 4692 460 556 51 139 154 298 63
internal_value=0.0642745 -3.70103 -5.58274 27.4372 32.5323 22.4821 51.0411 -10.5351 3.81048 -12.8952 23.5249 25.2334 37.6421 10.8988 1.08183 1.82136 97.2868 -12.5682 -9.91258 7.98889 11.8377 19.9282 57.4665 7.82356 -9.85474 19.2918
internal_weight=41440 36434 33996 5006 4405 2438 697 20369 2877 17492 3875 1245 820 1741 425 13627 530 1632 14365 1641 1360 804 190 614 601 441
internal_count=41440 36434 33996 5006 4405 2438 697 20369 2877 17492 3875 1245 820 1741 425 13627 530 1632 14365 1641 1360 804 190 614 601 441
is_linear=0
shrinkage=0.0176155


Tree=34
num_leaves=27
num_cat=0
split_feature=6 2 1 5 2 8 2 5 2 1 1 1 1 1 1 1 9 9 1 1 5 9 1 4 5 5
split_gain=6.18524e+09 2.41703e+09 1.77601e+09 1.77023e+09 1.63817e+09 2.48146e+09 2.19434e+09 1.15238e+09 1.0922e+09 9.1043e+08 2.00648e+09 7.07939e+08 1.05868e+09 2.48956e+09 1.05555e+09 6.11106e+08 6.09957e+08 5.95914e+08 5.48523e+08 5.17091e+08 4.89336e+08 4.42719e+08 4.37649e+08 4.26939e+08 4.45399e+08 4.54193e+08
threshold=27.500000000000004 4458.5650712025326 2662.4612106030586 5660.7692307692314 4818.8481204111604 3425.7870397487627 4817.9582525697506 2758.752577319588 3732.0269784172665 3865.0113441173767 3856.7239536954589 3865.1198495963663 3856.7239536954589 3864.9745105742968 3865.2159568361499 3865.167886675466 2915.381374757525 2915.2699142731999 3864.8376125725158 3865.0815580588728 3896.2215320910977 2915.1963894624873 3865.1089530065387 3335.2423283822714 3745.7000903614457 3736.5089285714289
decision_type=2 2 2 2 2 2 2 2 2 2 2 2 2 2 2 2 2 2 2 2 2 2 2 2 2 2
left_child=1 2 21 8 5 -3 -7 16 23 10 -10 12 20 -14 15 -13 -4 -16 -12 -15 -9 -1 -6 -2 25 -25
right_child=3 4 7 -5 22 6 -8 11 9 -11 18 14 13 19 17 -17 -18 -19 -20 -21 -22 -23 -24 24 -26 -27
leaf_value=82.601538303986999 6.8974992229641323 8.5529952015420392 -3.0863298709414306 52.815809844230614 7.3275486305265254 107.8386550243666 30.902571354080862 -3.7759109267856301 20.749034116246371 12.024133787363086 111.12342614816961 -10.064525619535894 75.126835641341401 16.55327147927218 54.882787297219082 -29.60698287354046 -13.257242054525348 2.3861363632313668 49.28736015095852 0.42185343574681333 5.9512952152754526 26.666391921807875 -8.9890303974957355 26.109345439166457 10.025977497864835 82.640197421068663
leaf_weight=49 2281 1035 2746 450 1339 163 385 16387 398 457 126 1658 156 818 67 710 5506 767 94 2446 1773 283 815 169 303 59
leaf_count=49 2281 1035 2746 450 1339 163 385 16387 398 457 126 1658 156 818 67 710 5506 767 94 2446 1773 283 815 169 303 59
internal_value=0.0650036 -2.26296 -3.76817 19.9539 11.1593 24.7239 54.7996 -4.17881 16.0662 31.1249 44.9728 -2.27898 -1.13072 7.85069 -9.99941 -15.9901 -9.87788 7.00205 86.9115 4.48991 -2.8244 36.3736 1.14525 10.2499 24.3885 42.6547
internal_weight=41440 37103 33366 4337 3737 1583 548 33034 3887 1075 618 24782 21580 3420 3202 2368 8252 834 220 3264 18160 332 2154 2812 531 228
internal_count=41440 37103 33366 4337 3737 1583 548 33034 3887 1075 618 24782 21580 3420 3202 2368 8252 834 220 3264 18160 332 2154 2812 531 228
is_linear=0
shrinkage=0.0176155


Tree=35
num_leaves=27
num_cat=0
split_feature=0 0 0 0 0 1 1 0 0 0 0 4 0 1 0 0 1 1 0 0 5 0 0 4 0 0
split_gain=1.308e+10 5.19658e+09 4.72879e+09 3.90978e+09 6.45442e+09 2.40909e+09 4.98657e+09 1.66532e+09 3.10679e+09 2.81185e+09 1.18036e+09 1.1506e+09 2.93202e+09 6.96519e+08 6.39475e+08 5.70845e+08 5.39651e+08 4.92423e+08 4.7882e+08 4.71154e+08 3.74527e+08 3.59096e+08 3.55226e+08 3.18125e+08 3.99155e+08 2.60148e+08
threshold=3215.4667287829234 4336.3406196139304 3215.4857725081774 2841.1853581511455 3215.4056705112757 3800.0765550239234 3864.8376125725158 3346.9401329833022 3815.4003796001166 3215.497177224996 3215.442924126356 2755.4167094891613 3814.0710547667345 2662.3892399147576 3492.5851351351357 3215.5082860647276 3864.9998336351641 4624.4035087719303 3815.9980324543617 3215.4769499913932 4488.1048387096789 1936.8376104746319 3215.4908024186611 2387.3862705491356 2461.0640000000008 3812.1259663865553
decision_type=2 2 2 2 2 2 2 2 2 2 2 2 2 2 2 2 2 2 2 2 2 2 2 2 2 2
left_child=3 2 19 21 -5 13 -7 9 11 22 -6 14 25 -3 -9 -11 -8 -18 -10 -2 -15 -1 -4 24 -23 -13
right_child=1 5 7 4 10 6 16 8 18 15 -12 12 -14 20 -16 -17 17 -19 -20 -21 -22 23 -24 -25 -26 -27
leaf_value=27.296643460995195 10.141488062655654 66.326297724790308 -3.9584871364153802 104.74181284980274 51.148347044009974 121.49800658423247 52.247901941913426 37.801735631007098 -6.5476545971209807 -17.237607727708987 23.202682698834121 125.53017386014764 18.770011218485269 1.4032207886744756 -11.333346511388468 -29.133249698133888 2.2701364413440452 53.385964926255475 -28.158872528417863 2.3498646258245208 19.014826675147745 26.428760419234674 -9.2128164999284294 -29.469724227860596 -16.119448472088969 70.290562817611217
leaf_weight=66 3803 59 7509 401 605 201 118 103 1203 4099 2147 80 644 1050 322 1837 370 63 429 6562 577 95 8561 237 203 96
leaf_count=66 3803 59 7509 401 605 201 118 103 1203 4099 2147 80 644 1050 322 1837 370 63 429 6562 577 95 8561 237 203 96
internal_value=0.0658879 -3.05962 -4.78132 31.3928 39.2284 21.7778 47.8591 -8.94486 3.65152 -10.5923 29.4541 24.5413 36.652 10.0034 0.971043 -20.9473 19.8741 10.3985 -12.3193 5.21332 7.70074 -9.69433 -6.76028 -14.5354 -2.2759 99.0353
internal_weight=41440 37686 35248 3754 3153 2438 752 24883 2877 22006 2752 1245 820 1686 425 5936 551 433 1632 10365 1627 601 16070 535 298 176
internal_count=41440 37686 35248 3754 3153 2438 752 24883 2877 22006 2752 1245 820 1686 425 5936 551 433 1632 10365 1627 601 16070 535 298 176
is_linear=0
shrinkage=0.0176155


Tree=36
num_leaves=27
num_cat=0
split_feature=0 0 0 0 0 7 1 0 0 0 4 0 0 0 1 0 0 0 1 1 0 0 5 4 0 0
split_gain=1.26117e+10 4.98988e+09 4.54357e+09 3.81049e+09 6.2939e+09 2.3206e+09 3.41906e+09 1.65717e+09 3.08115e+09 2.71585e+09 1.66919e+09 2.21854e+09 1.13896e+09 6.91681e+08 6.53165e+08 6.2999e+08 4.88009e+08 4.55834e+08 4.27404e+08 5.32874e+08 3.81483e+08 3.48474e+08 3.44176e+08 2.95364e+08 3.87596e+08 2.91149e+08
threshold=3215.4667287829234 4336.3406196139304 3215.4857725081774 2841.1853581511455 3215.4056705112757 2599.1145832785091 3864.9407464931401 3346.9401329833022 3815.1721848739503 3215.4987642021006 2755.4167094891613 3813.5748217907862 3215.442924126356 3490.186486486487 2662.3892399147576 3815.7807041437272 3215.4917976415909 3215.4769499913932 4132.6131996204285 3865.0907664446427 3215.5107014976761 1936.8376104746319 2905.1231657005592 2387.3862705491356 2461.0640000000008 3494.8824324324328
decision_type=2 2 2 2 2 2 2 2 2 2 2 2 2 2 2 2 2 2 2 2 2 2 2 2 2 2
left_child=3 2 17 21 -5 14 -7 9 10 16 13 -12 -6 -9 -3 -10 -4 -2 19 -8 -11 -1 -16 24 -23 -15
right_child=1 5 7 4 12 6 18 8 15 20 11 -13 -14 25 22 -17 -18 -19 -20 -21 -22 23 -24 -25 -26 -27
leaf_value=26.859577910211677 9.9683939412945382 64.927642019299398 -4.573787897133899 103.14844342701144 50.319437186457243 94.813195614849249 22.591311310176732 58.585653766726487 -0.69609113244202436 -18.912428071829499 108.10765484373388 27.84173541362803 22.78234956224027 8.163238421651636 -9.707300762874711 -21.340039016321036 -10.516473099467435 2.3031873719817177 55.049340576424896 -22.486238728788276 -29.969001307269728 26.215514826905906 11.701647192464787 -28.646944318715121 -15.931657764030485 -22.287155633761888
leaf_weight=66 3806 59 9692 403 601 283 237 51 1051 3171 136 458 2136 193 274 808 7711 6547 65 116 1443 93 1401 239 205 185
leaf_count=66 3806 59 9692 403 601 283 237 51 1051 3171 136 458 2136 193 274 808 7711 6547 65 116 1443 93 1401 239 205 185
internal_value=0.0712948 -2.99359 -4.67955 30.8815 38.6572 21.3609 48.2576 -8.75684 3.79664 -10.4007 28.2507 47.2069 28.9357 1.68538 10.3454 -9.7127 -7.2099 5.12567 15.7522 7.63696 -22.4083 -9.58902 8.17507 -14.3411 -2.49454 -6.86639
internal_weight=41430 37687 35252 3743 3140 2435 701 24899 2882 22017 1023 594 2737 429 1734 1859 17403 10353 418 353 4614 603 1675 537 298 378
internal_count=41430 37687 35252 3743 3140 2435 701 24899 2882 22017 1023 594 2737 429 1734 1859 17403 10353 418 353 4614 603 1675 537 298 378
is_linear=0
shrinkage=0.0176155


Tree=37
num_leaves=27
num_cat=0
split_feature=0 0 0 0 0 7 0 0 0 4 0 0 2 2 0 0 0 0 2 2 2 2 0 9 4 2
split_gain=1.2184e+10 5.18674e+09 3.10439e+09 2.39424e+09 8.06406e+09 2.242e+09 2.08141e+09 2.97702e+09 1.95471e+09 1.61193e+09 2.14552e+09 1.15285e+09 9.35311e+08 1.42631e+09 8.4981e+08 6.70077e+08 6.08646e+08 4.88161e+08 4.09746e+08 7.26484e+08 5.23159e+08 4.08213e+08 3.92253e+08 3.8432e+08 5.83384e+08 3.64601e+08
threshold=3215.4740934326051 4336.3406196139304 3215.4885698915477 2841.1853581511455 3215.433375365812 2599.1145832785091 3346.9401329833022 3815.1721848739503 3215.5036327250823 2755.4167094891613 3813.5748217907862 3215.3924905319336 4818.5603083700453 4463.3306962025317 3215.4618871578587 3490.186486486487 3815.8386583598963 3215.4820713547947 3061.8246028336575 3055.4485892021462 3061.7128262216534 4817.3121439060205 3215.4955149337238 4818.1707184018451 3749.8689192693428 3115.1139076989871
decision_type=2 2 2 2 2 2 2 2 2 2 2 2 2 2 2 2 2 2 2 2 2 2 2 2 2 2
left_child=3 2 17 -1 11 18 8 9 22 15 -11 -5 13 23 -6 -8 -9 -2 19 -3 -21 -15 -4 24 -7 -20
right_child=1 5 6 4 14 12 7 16 -10 10 -12 -13 -14 21 -16 -17 -18 -19 25 20 -22 -23 -24 -25 -26 -27
